#include <eml_net.h>
static const float seqdense_layer0_weights[81] = { 0.324478f, 0.080779f, -0.092828f, -0.393960f, 0.133213f, -0.071711f, 0.227529f, 0.397812f, -0.193211f, -0.256052f, 0.000711f, 0.392271f, 0.310605f, -0.590077f, 0.546297f, 0.265326f, -0.199951f, 0.579818f, 0.374244f, -0.315523f, 0.135547f, 0.262976f, -0.498103f, 0.229455f, 0.385081f, -0.072584f, 0.499034f, 0.477827f, -0.291789f, 0.180258f, -0.270955f, 0.718503f, -0.704444f, -0.565917f, -0.034115f, -0.683210f, -0.321190f, -0.086813f, 0.120229f, 0.421054f, -0.162398f, 0.098528f, -0.212856f, -0.418044f, 0.248923f, 0.325668f, -0.130703f, 0.191290f, 0.266130f, -0.032310f, 0.029455f, 0.048946f, -0.229328f, 0.607342f, 0.451028f, -0.151040f, 0.316827f, 0.261162f, -0.552542f, 0.422805f, 0.575862f, -0.391382f, -0.437047f, 0.520625f, -0.095775f, -0.382476f, 0.295641f, 0.120221f, 0.347369f, -0.333971f, 0.014619f, 0.232838f, -0.111749f, -0.080633f, 0.368089f, 0.493308f, -0.410192f, 0.015746f, 0.263640f, 0.037219f, -0.495775f };
static const float seqdense_layer0_biases[9] = { 0.143222f, -0.085584f, 0.159216f, -0.023539f, 0.369796f, -0.098771f, -0.164174f, -0.182426f, -0.049994f };
static const float seqdense_layer1_weights[576] = { 0.001675f, 0.002680f, 0.003956f, -0.001344f, -0.004644f, -0.000167f, -0.003086f, -0.003259f, -0.001331f, -0.006762f, 0.000426f, -0.002361f, -0.006045f, 0.004884f, 0.003958f, -0.003156f, 0.007793f, 0.001433f, 0.006285f, 0.000673f, -0.002709f, 0.000995f, -0.000256f, 0.004457f, -0.001686f, 0.004642f, 0.001666f, 0.001107f, -0.000255f, -0.001165f, 0.003731f, 0.002222f, 0.006750f, 0.000029f, 0.005391f, 0.002145f, -0.000434f, -0.003687f, 0.001191f, -0.000231f, 0.004977f, 0.001411f, -0.000415f, 0.004077f, -0.006864f, 0.002890f, -0.001390f, -0.001565f, -0.003687f, -0.000581f, -0.000087f, -0.000265f, -0.003936f, -0.001117f, -0.003014f, -0.004080f, -0.001155f, -0.001921f, 0.003360f, -0.000952f, 0.003229f, -0.000128f, -0.000877f, -0.001228f, 0.003751f, -0.001030f, -0.001168f, 0.003512f, -0.000438f, 0.001694f, -0.002004f, -0.004756f, -0.001350f, -0.003898f, 0.004288f, -0.006122f, -0.005226f, 0.003027f, 0.004118f, -0.002994f, -0.001528f, -0.005742f, 0.001570f, 0.002238f, -0.001980f, 0.001446f, 0.000620f, -0.002458f, -0.000646f, -0.001601f, 0.000594f, -0.002668f, 0.000549f, -0.000932f, 0.002669f, 0.001553f, 0.004838f, 0.002585f, -0.001513f, 0.000232f, 0.001175f, 0.000699f, -0.000139f, 0.000846f, -0.001915f, 0.004089f, 0.001025f, -0.003787f, 0.001706f, -0.002905f, -0.003374f, -0.000198f, -0.004244f, -0.000525f, 0.001640f, 0.002027f, -0.001621f, -0.001066f, -0.001251f, -0.000302f, -0.000195f, -0.001907f, 0.000724f, 0.000433f, -0.001662f, -0.002078f, 0.001832f, -0.000601f, 0.004507f, -0.001141f, 0.002239f, -0.003995f, 0.001235f, -0.000270f, 0.002357f, -0.001495f, 0.005207f, 0.000333f, -0.003071f, -0.002108f, 0.000300f, 0.004600f, -0.003309f, 0.000368f, 0.002635f, 0.004570f, -0.002011f, -0.001044f, 0.006061f, -0.001989f, -0.004203f, -0.005047f, -0.001074f, 0.001653f, -0.000971f, 0.005496f, 0.004821f, 0.003253f, 0.000033f, -0.003186f, -0.000329f, -0.000309f, -0.005535f, 0.002250f, 0.002429f, 0.003529f, 0.003410f, -0.000907f, 0.002062f, -0.008831f, -0.000982f, 0.004929f, -0.006035f, 0.001429f, 0.001863f, 0.002828f, 0.001896f, 0.000091f, 0.003454f, -0.001719f, 0.002290f, -0.005040f, 0.002257f, -0.004316f, -0.001190f, 0.003654f, -0.001884f, 0.002320f, -0.000146f, -0.002774f, -0.000375f, 0.005377f, 0.003128f, -0.004242f, -0.001208f, -0.003094f, 0.000117f, 0.000768f, -0.000128f, 0.001239f, -0.000562f, 0.001299f, -0.002720f, -0.004326f, 0.002173f, -0.005347f, 0.000734f, 0.005858f, 0.000209f, 0.002099f, -0.005133f, -0.002651f, 0.003386f, -0.000752f, -0.001213f, -0.003090f, -0.003056f, 0.000338f, -0.000199f, 0.001275f, 0.003507f, 0.000309f, -0.005153f, -0.002239f, 0.001331f, 0.002921f, 0.000218f, 0.000500f, 0.002949f, -0.001063f, -0.000584f, -0.000289f, 0.003103f, 0.003165f, 0.001658f, -0.002144f, 0.004142f, 0.003297f, 0.002106f, 0.002448f, -0.002134f, -0.000946f, -0.002974f, -0.001008f, 0.005641f, -0.002942f, 0.003588f, -0.000147f, -0.004653f, 0.000999f, -0.002899f, 0.003483f, -0.000859f, -0.003356f, -0.000504f, 0.003347f, 0.000398f, -0.004741f, 0.004259f, -0.007793f, 0.000175f, 0.002523f, 0.000218f, -0.006838f, 0.002283f, 0.003762f, -0.000853f, 0.000624f, 0.001949f, 0.000590f, 0.000156f, 0.001792f, -0.000066f, -0.001387f, 0.002082f, 0.007550f, 0.002765f, -0.005719f, -0.003396f, -0.005866f, -0.000535f, 0.001745f, 0.000030f, 0.001991f, 0.004567f, 0.002793f, 0.005315f, -0.002494f, 0.006963f, 0.001354f, 0.000011f, -0.001508f, 0.000858f, -0.002442f, 0.001020f, -0.003206f, -0.001824f, -0.003488f, 0.002776f, 0.002133f, -0.005447f, 0.005683f, -0.000589f, 0.001173f, 0.005020f, -0.002043f, 0.000743f, -0.004230f, 0.007379f, 0.000537f, 0.001911f, 0.000585f, 0.003134f, 0.002300f, -0.002459f, 0.003168f, 0.000438f, -0.003986f, 0.004175f, -0.001158f, -0.001628f, -0.000733f, 0.000951f, -0.003385f, -0.000556f, 0.000489f, 0.001775f, -0.003201f, 0.000329f, -0.002062f, -0.003502f, 0.004486f, -0.000953f, -0.001516f, -0.003888f, 0.000380f, -0.000039f, 0.003621f, -0.001368f, 0.004362f, -0.002761f, -0.002411f, 0.002531f, 0.001306f, 0.003444f, 0.002512f, 0.005047f, 0.004611f, 0.003155f, -0.001864f, 0.003081f, 0.000899f, 0.003311f, 0.004116f, -0.005961f, 0.004490f, -0.000808f, -0.001879f, 0.003471f, -0.004554f, 0.004154f, 0.001675f, 0.001819f, -0.000272f, 0.003395f, -0.003096f, -0.002340f, -0.003876f, -0.003197f, 0.002271f, -0.001914f, -0.001090f, -0.001334f, -0.004049f, 0.001201f, 0.004500f, -0.000644f, 0.000385f, -0.002504f, 0.000476f, -0.002374f, 0.001266f, -0.000028f, 0.000175f, 0.001219f, -0.000403f, 0.004350f, 0.002348f, -0.000511f, -0.004178f, -0.001931f, 0.001991f, 0.001729f, -0.002095f, 0.001216f, -0.001609f, -0.000837f, -0.001316f, 0.002158f, -0.003639f, 0.005878f, 0.002284f, 0.002743f, 0.006918f, 0.002774f, 0.003395f, -0.002388f, 0.000339f, -0.003978f, 0.003908f, 0.002788f, -0.000647f, 0.001265f, -0.000171f, -0.002797f, -0.002450f, -0.001282f, -0.001481f, -0.005348f, -0.001186f, 0.003787f, -0.000727f, 0.005228f, 0.000488f, 0.003806f, 0.006671f, 0.004827f, 0.006435f, -0.002265f, -0.001487f, -0.000032f, -0.000657f, 0.001575f, 0.003684f, 0.000807f, -0.001121f, 0.000318f, 0.000678f, 0.000833f, -0.000957f, -0.003594f, -0.003227f, -0.003446f, -0.004643f, 0.003279f, -0.000090f, -0.004376f, 0.001182f, -0.004043f, -0.004159f, 0.000481f, -0.001091f, -0.001797f, 0.000831f, 0.004584f, 0.000151f, 0.002715f, 0.002869f, -0.002257f, -0.000103f, -0.002811f, -0.000785f, -0.001522f, 0.000344f, -0.004463f, -0.005934f, -0.001633f, 0.005841f, 0.002225f, -0.001392f, -0.008281f, -0.001556f, -0.006687f, 0.001434f, -0.004916f, 0.003605f, -0.001148f, 0.003559f, -0.000925f, -0.006464f, -0.003184f, 0.004116f, -0.002594f, 0.000563f, 0.004825f, 0.003499f, 0.004458f, -0.001882f, -0.000180f, -0.002305f, 0.003790f, -0.003367f, 0.001474f, 0.000267f, 0.001278f, 0.001436f, 0.002119f, -0.001151f, -0.001499f, 0.003543f, 0.003097f, 0.000815f, 0.000667f, 0.001000f, 0.002827f, 0.002267f, -0.003841f, 0.003134f, 0.001224f, 0.001414f, -0.000657f, 0.001335f, -0.004484f, 0.003533f, -0.001131f, -0.000830f, -0.001224f, -0.001277f, -0.002543f, 0.001341f, -0.000721f, -0.000550f, -0.005449f, 0.007963f, -0.001998f, 0.002631f, 0.003569f, -0.000682f, 0.003878f, 0.003543f, -0.001420f, -0.001706f, -0.005958f, 0.000039f, -0.002782f, 0.002822f, -0.005863f, 0.002761f, -0.002648f, 0.000268f, -0.009598f, -0.001361f, -0.000494f, 0.001512f, -0.002876f, -0.000662f, 0.002102f, -0.000206f, -0.001109f, 0.000356f, -0.001219f, 0.000858f, 0.005144f, -0.002627f, 0.000654f, -0.000434f, -0.003958f, -0.003465f, 0.003083f, 0.002376f, -0.003599f, -0.004413f, 0.003624f, 0.007442f, -0.001405f, 0.003805f, -0.000614f, -0.000833f, -0.004336f, -0.004681f, 0.001525f, -0.005201f, -0.001873f, 0.002136f, -0.000740f, -0.003950f };
static const float seqdense_layer1_biases[64] = { 0.000893f, -0.019217f, -0.094438f, 0.150462f, 0.140240f, -0.185800f, 0.060986f, -0.296165f, 0.391209f, -0.154027f, 0.018028f, 0.059607f, 0.129461f, 0.159499f, 0.208086f, 0.016117f, -0.024747f, -0.130939f, -0.055108f, -0.072673f, 0.111364f, 0.223378f, -0.173162f, 0.000587f, -0.162695f, -0.037444f, 0.054641f, 0.018242f, 0.061063f, -0.135075f, 0.004291f, -0.016043f, 0.242658f, 0.087593f, -0.041738f, -0.211500f, -0.313405f, -0.152026f, 0.237845f, -0.006420f, -0.243159f, -0.144316f, -0.154393f, 0.229973f, 0.143939f, -0.278374f, 0.172508f, 0.200874f, -0.075703f, -0.103320f, 0.058253f, 0.088204f, -0.148957f, -0.133993f, 0.166508f, -0.114641f, -0.065558f, 0.163311f, -0.171998f, -0.062249f, 0.269573f, -0.265342f, 0.101575f, 0.137327f };
static const float seqdense_layer2_weights[4096] = { 0.001659f, 0.000684f, -0.001743f, -0.005957f, 0.002741f, 0.002353f, -0.007045f, -0.005986f, -0.009059f, 0.002639f, 0.008022f, 0.005446f, 0.003748f, -0.005966f, -0.002296f, 0.003049f, -0.009516f, 0.010928f, 0.008004f, -0.006712f, 0.008137f, 0.015370f, -0.005436f, 0.005530f, 0.002247f, -0.001981f, 0.006192f, -0.005612f, 0.005297f, 0.002427f, 0.007159f, 0.000015f, 0.000420f, 0.002554f, -0.003517f, 0.001436f, -0.003660f, -0.007804f, 0.005539f, -0.010347f, -0.000471f, -0.004239f, -0.000429f, 0.011048f, 0.001162f, 0.006905f, 0.002086f, -0.007347f, -0.008019f, 0.004394f, -0.004601f, -0.004810f, -0.008534f, 0.003032f, -0.005711f, 0.002038f, 0.004212f, -0.000320f, -0.013259f, 0.001516f, -0.000304f, -0.000410f, 0.003478f, -0.005500f, -0.000228f, -0.001496f, 0.009493f, 0.004429f, -0.001978f, -0.001682f, -0.002683f, -0.007665f, -0.003515f, -0.002775f, 0.001538f, 0.004811f, -0.002570f, 0.002253f, -0.011112f, 0.000038f, -0.003671f, 0.010396f, 0.012571f, -0.002705f, 0.003248f, 0.004255f, 0.007264f, -0.000960f, -0.004134f, 0.009715f, 0.009936f, -0.000629f, -0.002304f, -0.008670f, 0.000158f, 0.009813f, 0.004446f, -0.000076f, -0.017745f, 0.001795f, 0.001869f, 0.009189f, 0.004172f, 0.009960f, 0.006976f, 0.007013f, -0.001276f, -0.001772f, 0.002961f, -0.000759f, 0.005214f, 0.000466f, -0.013166f, -0.006080f, 0.002222f, -0.001634f, -0.004971f, 0.015956f, -0.000114f, 0.012758f, 0.007546f, 0.000168f, -0.004300f, -0.011434f, 0.005994f, -0.003520f, -0.003851f, 0.008585f, -0.003761f, -0.004166f, 0.004290f, 0.000977f, -0.001721f, 0.007587f, -0.001777f, 0.001066f, 0.010072f, 0.008728f, 0.001347f, 0.006105f, -0.001875f, 0.004003f, 0.003137f, -0.002162f, -0.007439f, -0.004884f, -0.003296f, 0.009705f, -0.005092f, 0.005451f, 0.006877f, -0.002714f, -0.002224f, -0.001338f, 0.002424f, -0.012298f, -0.006099f, 0.003524f, -0.008043f, 0.008114f, 0.011026f, 0.000580f, 0.006893f, 0.009104f, -0.004013f, 0.011446f, 0.000191f, 0.006668f, 0.015052f, -0.000349f, 0.000255f, -0.007159f, 0.001380f, -0.005773f, 0.002880f, -0.002903f, -0.003919f, -0.004967f, 0.002824f, 0.006019f, 0.001008f, 0.006793f, -0.001193f, 0.006590f, -0.000742f, -0.001169f, 0.000891f, -0.002652f, 0.004244f, -0.004659f, -0.005381f, -0.002775f, 0.009471f, -0.003162f, -0.001620f, -0.001035f, 0.001515f, -0.000159f, -0.002808f, -0.014377f, 0.005196f, 0.003746f, -0.001091f, 0.003941f, -0.007835f, -0.001890f, -0.013274f, -0.010491f, 0.006544f, -0.008311f, 0.008028f, 0.009357f, 0.004268f, -0.007781f, 0.005573f, -0.005048f, 0.002274f, -0.012133f, 0.005441f, -0.003311f, -0.010119f, 0.005167f, 0.003390f, -0.001496f, -0.000067f, -0.002648f, -0.002411f, -0.002694f, 0.021689f, -0.003702f, 0.001750f, -0.007747f, 0.003471f, -0.010599f, 0.000385f, 0.002733f, -0.008482f, 0.002807f, 0.004724f, 0.008542f, -0.000952f, 0.000894f, -0.006348f, -0.004308f, -0.003117f, 0.004926f, 0.007190f, -0.004242f, -0.005417f, 0.005308f, -0.002367f, -0.006096f, 0.005360f, -0.007668f, 0.004678f, 0.004185f, 0.007367f, -0.014967f, -0.011134f, 0.010391f, -0.006168f, 0.005105f, 0.000419f, 0.002479f, 0.001788f, -0.002198f, -0.008590f, 0.002095f, 0.010046f, 0.006688f, -0.001052f, -0.000759f, -0.000598f, 0.000094f, -0.004877f, -0.000836f, 0.003864f, 0.001976f, -0.007345f, -0.001607f, 0.002883f, 0.005520f, 0.009052f, 0.003897f, 0.000351f, 0.001227f, 0.010711f, -0.001330f, -0.004924f, -0.001188f, 0.007512f, 0.010007f, -0.006274f, 0.002036f, -0.006937f, 0.005863f, -0.013624f, -0.006011f, 0.002080f, -0.006226f, 0.002590f, -0.001693f, 0.007456f, 0.004156f, 0.003246f, -0.002394f, 0.004330f, -0.005012f, 0.000485f, 0.003775f, 0.001475f, 0.000776f, 0.004102f, 0.001464f, -0.001192f, 0.000735f, -0.014781f, -0.009795f, 0.003857f, 0.004601f, 0.006731f, -0.000797f, 0.005877f, 0.009875f, -0.003746f, 0.002214f, -0.002870f, -0.005265f, -0.007512f, -0.002008f, -0.001292f, 0.001085f, -0.005357f, -0.008759f, -0.004579f, -0.004594f, -0.000785f, -0.001233f, -0.001205f, -0.006643f, -0.011879f, -0.004153f, -0.011284f, 0.004122f, 0.004912f, -0.000118f, 0.000515f, 0.006098f, -0.001994f, 0.003284f, -0.003192f, 0.001246f, 0.000899f, 0.002441f, 0.001658f, -0.002718f, -0.003369f, -0.004723f, 0.013778f, -0.003828f, 0.004882f, 0.001457f, 0.000579f, 0.002028f, -0.003208f, 0.001154f, 0.006396f, 0.007648f, -0.000085f, 0.002969f, -0.004606f, 0.001864f, 0.005397f, -0.010953f, -0.001199f, -0.001161f, -0.002701f, -0.007036f, -0.004329f, -0.006378f, -0.001464f, -0.000615f, 0.007863f, 0.003959f, -0.008518f, -0.008042f, -0.009656f, -0.005556f, -0.002018f, 0.004641f, 0.005973f, 0.007228f, 0.003826f, -0.001316f, -0.009882f, -0.002658f, -0.000791f, -0.008522f, 0.006727f, 0.003132f, 0.004167f, -0.000834f, -0.002746f, -0.004191f, 0.001926f, 0.005524f, 0.001162f, 0.006265f, -0.000990f, -0.006947f, -0.001309f, 0.001262f, 0.005773f, -0.001839f, 0.006049f, 0.007470f, 0.006484f, 0.017707f, 0.005197f, 0.005859f, -0.003795f, -0.001378f, -0.001028f, 0.005625f, 0.010086f, -0.002666f, -0.008357f, 0.003629f, -0.000339f, 0.005748f, -0.004177f, 0.002871f, 0.017144f, -0.005971f, -0.000274f, -0.014858f, 0.002032f, -0.006947f, 0.007100f, 0.004091f, -0.002643f, 0.002978f, -0.002862f, 0.002725f, -0.010029f, -0.002703f, 0.003361f, -0.006181f, -0.001613f, -0.005771f, -0.002894f, 0.004846f, -0.011610f, -0.000039f, -0.008126f, 0.006927f, 0.016361f, 0.012627f, 0.008558f, 0.000644f, -0.005934f, -0.002435f, 0.009444f, 0.008337f, -0.004437f, 0.003290f, -0.011950f, 0.010970f, 0.002666f, -0.003804f, 0.006861f, 0.002383f, 0.000716f, -0.010710f, -0.006714f, 0.006368f, -0.004594f, 0.006268f, 0.004419f, -0.000955f, 0.008486f, 0.000364f, 0.003279f, 0.003224f, -0.001654f, -0.005406f, -0.001087f, -0.009357f, -0.003075f, -0.003345f, 0.002135f, 0.001839f, -0.005622f, 0.013416f, -0.007422f, -0.011903f, -0.003186f, -0.008912f, 0.009310f, 0.005145f, 0.008272f, -0.006407f, 0.011624f, -0.008618f, -0.000426f, 0.000308f, 0.008115f, 0.004703f, 0.006734f, 0.001782f, -0.005903f, -0.003039f, 0.001581f, 0.003914f, -0.008114f, 0.011552f, -0.011991f, -0.003303f, -0.011939f, -0.000403f, 0.008420f, 0.000119f, 0.006456f, -0.005562f, 0.001570f, -0.004871f, 0.001075f, -0.002964f, 0.002560f, 0.000946f, 0.006303f, 0.000908f, -0.000191f, 0.006774f, 0.001473f, -0.002155f, 0.009366f, -0.004030f, -0.006450f, 0.013207f, -0.001332f, 0.004537f, 0.006659f, -0.002720f, -0.001059f, 0.005519f, 0.004951f, 0.007713f, 0.002444f, 0.004755f, 0.006703f, -0.015873f, -0.010163f, -0.005668f, -0.003903f, -0.001310f, -0.011987f, 0.005401f, 0.002630f, 0.001357f, 0.001900f, 0.000986f, -0.002778f, -0.015688f, 0.000139f, 0.003363f, 0.001482f, 0.001402f, -0.003726f, 0.004349f, 0.018898f, -0.006428f, 0.006984f, -0.000423f, 0.007925f, -0.009094f, -0.003679f, -0.000477f, 0.005084f, 0.000917f, 0.015462f, -0.003523f, 0.003879f, 0.003171f, -0.002747f, 0.001069f, -0.000059f, -0.005533f, -0.004272f, 0.001031f, -0.007296f, 0.000771f, 0.002889f, -0.002536f, 0.003757f, 0.006585f, -0.005332f, -0.009159f, -0.001277f, 0.002459f, -0.000402f, 0.005012f, 0.001364f, 0.008439f, 0.010195f, 0.007170f, -0.000332f, -0.009445f, -0.001614f, 0.010954f, -0.008883f, -0.009257f, 0.005283f, 0.005433f, 0.000104f, -0.001646f, 0.005485f, 0.001705f, -0.001337f, -0.005589f, 0.001781f, -0.000310f, 0.000134f, 0.016389f, 0.002154f, 0.006360f, -0.004540f, 0.003645f, 0.007048f, -0.014994f, -0.011272f, -0.010794f, -0.004256f, 0.006144f, 0.010574f, 0.002386f, -0.005726f, 0.002214f, -0.003700f, -0.008681f, 0.004755f, -0.003006f, -0.010738f, 0.000259f, -0.002131f, 0.006899f, 0.000313f, -0.003451f, 0.000787f, 0.001666f, 0.000330f, -0.003684f, 0.001737f, -0.002500f, 0.018281f, 0.005247f, -0.012125f, -0.001413f, 0.008844f, -0.003159f, -0.001331f, 0.004954f, -0.000258f, 0.003403f, 0.005145f, -0.002987f, -0.003274f, 0.008018f, -0.003269f, 0.004896f, 0.006144f, -0.000900f, -0.005031f, -0.001684f, -0.004911f, -0.008433f, 0.003813f, -0.008720f, -0.004133f, -0.006245f, -0.003651f, -0.005465f, -0.001538f, 0.018472f, -0.001590f, -0.013149f, -0.004518f, -0.008268f, -0.005905f, -0.004403f, 0.006455f, 0.002097f, 0.003367f, -0.010205f, -0.001715f, -0.008484f, -0.002001f, 0.000557f, 0.002150f, 0.007329f, 0.006048f, 0.009295f, 0.003895f, 0.001294f, 0.003788f, -0.003474f, -0.001542f, -0.013505f, 0.000732f, -0.000772f, -0.002478f, -0.010703f, -0.004072f, 0.001643f, -0.000281f, -0.007230f, 0.004160f, 0.007042f, 0.000980f, -0.005005f, -0.008187f, -0.006147f, 0.006273f, -0.010868f, -0.006009f, -0.000929f, 0.017068f, 0.001014f, -0.002452f, -0.004160f, -0.002998f, -0.011160f, 0.003545f, 0.001018f, -0.002326f, -0.003900f, 0.001157f, 0.002668f, 0.005954f, 0.001452f, -0.009170f, -0.001499f, 0.002460f, -0.001495f, -0.000998f, 0.006829f, 0.005000f, 0.004236f, 0.000028f, -0.006815f, 0.003803f, -0.000796f, -0.010539f, -0.004218f, -0.003975f, -0.007307f, -0.005855f, 0.004745f, -0.008660f, -0.000967f, -0.004475f, -0.003842f, 0.003102f, -0.008001f, -0.001164f, 0.002859f, -0.004058f, -0.002000f, 0.007248f, -0.004746f, -0.010930f, 0.000457f, -0.000074f, 0.004558f, 0.005945f, 0.002250f, -0.003746f, 0.000423f, 0.009322f, 0.009939f, -0.001592f, -0.004725f, 0.007292f, 0.002909f, 0.002113f, -0.005779f, -0.001190f, -0.002691f, -0.005157f, 0.000685f, 0.001114f, -0.006081f, 0.005393f, 0.002148f, 0.011658f, -0.001668f, -0.004352f, 0.009210f, 0.004225f, -0.004655f, -0.003241f, 0.004607f, 0.006897f, -0.004592f, -0.003322f, 0.003820f, 0.013111f, -0.003452f, -0.004503f, -0.004652f, 0.002470f, 0.008897f, -0.004882f, -0.001747f, 0.002130f, 0.006222f, -0.000269f, 0.003456f, 0.001528f, 0.003877f, 0.005779f, -0.001354f, 0.003276f, 0.002607f, -0.007686f, -0.000215f, -0.003075f, -0.002504f, 0.003347f, -0.004511f, -0.000504f, -0.005551f, 0.003566f, -0.000767f, -0.001347f, -0.001293f, 0.003442f, 0.004498f, -0.011603f, 0.005049f, -0.011928f, 0.001796f, 0.007320f, 0.002461f, 0.006817f, -0.014282f, 0.006021f, -0.001525f, 0.007337f, 0.003354f, -0.003589f, 0.005556f, -0.008864f, 0.014532f, 0.005387f, -0.000121f, 0.006341f, -0.008843f, 0.000058f, 0.002070f, -0.009007f, -0.012540f, 0.001905f, 0.009121f, -0.001395f, -0.007385f, 0.003690f, 0.000769f, -0.008312f, 0.002820f, 0.002515f, 0.008082f, -0.006472f, 0.004181f, 0.009525f, -0.001692f, -0.005635f, -0.009169f, -0.002978f, 0.009533f, 0.000144f, 0.015128f, -0.003357f, -0.000450f, 0.009339f, 0.000119f, -0.003576f, -0.006436f, 0.006832f, -0.001225f, 0.005826f, 0.000584f, 0.007354f, -0.006273f, -0.007445f, -0.005172f, 0.001487f, 0.007820f, 0.002874f, 0.006446f, 0.005867f, -0.001317f, -0.004240f, -0.001052f, -0.004433f, 0.007638f, 0.003101f, 0.009369f, 0.003352f, 0.000566f, -0.001572f, -0.009366f, 0.010396f, -0.000650f, -0.008579f, -0.000090f, -0.006023f, 0.003276f, 0.000672f, -0.000281f, -0.003755f, -0.000683f, 0.001509f, -0.003899f, -0.000371f, 0.000761f, -0.009820f, 0.001449f, 0.010064f, -0.005998f, -0.009037f, -0.006412f, 0.007816f, 0.012698f, 0.007002f, -0.006482f, -0.007718f, 0.006954f, 0.012356f, -0.005962f, 0.001394f, -0.006896f, -0.004132f, -0.005860f, -0.005283f, 0.007541f, 0.004594f, -0.003527f, -0.002785f, 0.004551f, 0.002937f, 0.006525f, -0.000344f, 0.005590f, 0.007227f, -0.001793f, 0.000825f, 0.000073f, -0.003024f, -0.006774f, 0.006471f, 0.000542f, 0.001480f, -0.006659f, 0.000960f, 0.001134f, 0.002527f, -0.006353f, -0.003403f, 0.005238f, -0.002127f, -0.000459f, -0.003035f, -0.004664f, -0.008454f, 0.003586f, -0.000474f, -0.008663f, -0.009003f, 0.002156f, -0.006860f, 0.004183f, -0.009894f, -0.000887f, -0.003942f, 0.007809f, 0.004192f, 0.000832f, -0.009929f, 0.012307f, -0.007058f, 0.002268f, 0.007866f, -0.000851f, -0.008297f, 0.013425f, 0.004590f, -0.000037f, -0.004806f, -0.006134f, -0.011554f, -0.004807f, -0.002493f, -0.005773f, 0.002568f, -0.000682f, -0.004880f, 0.004313f, -0.000098f, 0.001456f, 0.001317f, -0.001988f, 0.000650f, -0.000764f, 0.002196f, -0.005681f, 0.003898f, 0.010836f, 0.002683f, -0.000580f, 0.000361f, -0.004724f, 0.003558f, -0.012463f, -0.008949f, -0.001997f, 0.008325f, -0.005560f, -0.000956f, -0.007935f, -0.006176f, -0.004163f, -0.012037f, -0.003536f, -0.009973f, -0.005123f, -0.001902f, 0.006830f, -0.012232f, -0.005156f, 0.013762f, -0.003591f, -0.001030f, -0.008156f, -0.002023f, 0.008497f, 0.007602f, -0.009546f, -0.004659f, -0.000641f, -0.002751f, 0.003089f, 0.009943f, -0.008190f, -0.005477f, 0.008977f, 0.010262f, 0.006985f, 0.003471f, 0.002028f, 0.001529f, -0.004581f, -0.000478f, -0.000033f, 0.013599f, 0.011895f, 0.001916f, -0.007285f, -0.002943f, -0.003378f, -0.006349f, -0.001360f, 0.002692f, 0.009472f, 0.004879f, -0.003855f, 0.000240f, -0.000476f, 0.002130f, 0.000700f, -0.001947f, 0.004114f, 0.013916f, -0.010012f, 0.006857f, -0.001468f, -0.007835f, 0.005543f, 0.001378f, -0.000732f, 0.005336f, 0.004640f, 0.004721f, 0.007706f, -0.005207f, -0.005025f, -0.004240f, -0.009343f, 0.004599f, 0.009998f, -0.007175f, -0.004659f, 0.004472f, -0.002204f, -0.007261f, 0.004349f, -0.011644f, 0.013694f, -0.009422f, 0.001572f, -0.008014f, -0.000149f, 0.006800f, 0.001949f, 0.007361f, 0.006745f, 0.000096f, -0.000003f, 0.001009f, -0.005430f, 0.016542f, 0.002185f, 0.000526f, -0.009490f, 0.002758f, 0.005463f, -0.006759f, -0.003604f, -0.002269f, -0.003555f, -0.010322f, 0.000105f, -0.004831f, -0.000535f, 0.005487f, 0.004699f, -0.003563f, 0.002831f, 0.008833f, -0.000191f, 0.010009f, -0.001888f, 0.013028f, -0.001383f, -0.001587f, -0.003359f, -0.006242f, 0.003343f, 0.004972f, -0.004819f, -0.003843f, -0.002388f, 0.007405f, 0.007758f, 0.004440f, -0.000406f, 0.006283f, -0.004763f, 0.007962f, 0.002672f, -0.000246f, 0.001125f, 0.001030f, 0.014621f, -0.003057f, 0.007983f, 0.010448f, -0.010885f, -0.007117f, -0.005375f, 0.008727f, -0.003120f, -0.001295f, 0.004667f, -0.014886f, 0.001429f, -0.003177f, 0.002969f, 0.000350f, -0.005683f, -0.007591f, -0.007917f, -0.003778f, 0.011945f, 0.000607f, 0.000969f, 0.001873f, -0.002507f, -0.011608f, 0.000454f, 0.004310f, -0.002722f, -0.003000f, 0.005070f, 0.001264f, -0.011523f, 0.006841f, -0.008374f, 0.002298f, -0.006107f, 0.006875f, 0.014224f, -0.007698f, -0.000669f, -0.009674f, 0.002234f, -0.002302f, -0.003466f, -0.004121f, -0.001166f, 0.010013f, -0.006217f, -0.011731f, -0.007745f, 0.005723f, -0.002888f, 0.005115f, 0.013670f, 0.001114f, 0.011958f, -0.004196f, -0.002370f, -0.003187f, -0.000390f, 0.000517f, 0.007201f, -0.000059f, -0.003202f, -0.004250f, -0.005708f, 0.010072f, -0.006837f, -0.001183f, 0.002510f, 0.003349f, 0.000609f, 0.002229f, -0.002776f, 0.002631f, 0.003361f, 0.002764f, 0.000162f, 0.003010f, -0.001383f, 0.005100f, -0.001322f, -0.008314f, -0.000402f, 0.001432f, -0.008120f, -0.001850f, -0.004032f, 0.003169f, -0.003438f, 0.000347f, 0.000226f, 0.000068f, 0.002469f, -0.000530f, 0.004035f, 0.003908f, 0.002074f, -0.002804f, -0.000640f, -0.008923f, -0.001297f, 0.001530f, -0.003738f, 0.005360f, -0.003405f, -0.002435f, 0.002832f, 0.003507f, -0.002373f, 0.001035f, 0.005002f, 0.002122f, -0.000913f, -0.003863f, -0.003455f, 0.008060f, -0.001386f, -0.006906f, 0.001768f, 0.000820f, 0.007371f, -0.007409f, 0.002376f, 0.003712f, -0.000610f, 0.002906f, -0.003191f, 0.004822f, -0.015877f, 0.001132f, -0.005391f, 0.005361f, -0.003326f, -0.000635f, 0.007427f, -0.010567f, -0.004541f, 0.005498f, 0.005965f, -0.000419f, -0.007903f, -0.007649f, 0.003229f, 0.001626f, 0.010788f, 0.006527f, -0.004653f, 0.003484f, -0.004405f, -0.007053f, -0.002606f, -0.001078f, -0.001606f, 0.001857f, -0.000349f, 0.005095f, -0.001833f, -0.000996f, -0.000299f, -0.005527f, -0.003986f, -0.000201f, -0.000356f, 0.001392f, 0.007500f, 0.005479f, -0.007489f, 0.007245f, -0.001763f, -0.006532f, -0.008715f, -0.008070f, 0.001892f, 0.007161f, 0.010983f, -0.002047f, -0.003964f, -0.020204f, -0.015000f, -0.002714f, -0.002618f, -0.005523f, -0.001436f, 0.011724f, 0.001543f, 0.006018f, 0.011508f, 0.007440f, 0.008402f, 0.004341f, -0.001578f, 0.009288f, 0.007441f, 0.009355f, -0.001994f, -0.004918f, -0.004891f, -0.001722f, 0.009820f, -0.005629f, -0.000860f, 0.006088f, 0.008046f, -0.003524f, 0.002704f, 0.007732f, 0.008357f, -0.006009f, -0.004829f, 0.000088f, 0.001642f, 0.000752f, 0.001278f, -0.001141f, 0.001660f, -0.006140f, -0.001141f, 0.005346f, -0.000238f, 0.000455f, -0.000135f, -0.000559f, -0.006524f, -0.007495f, 0.007270f, -0.002556f, -0.007685f, 0.000347f, -0.006484f, 0.012192f, 0.003134f, -0.001559f, -0.001841f, -0.000832f, -0.003518f, -0.009266f, 0.008231f, 0.000531f, 0.005930f, -0.006132f, 0.003741f, -0.005181f, -0.007490f, 0.005974f, 0.002569f, 0.007595f, 0.000668f, 0.003097f, 0.001360f, -0.009191f, 0.011450f, 0.001814f, 0.001337f, -0.007656f, 0.017183f, -0.000186f, -0.003616f, 0.000485f, 0.011802f, 0.003579f, 0.003150f, -0.007689f, 0.018341f, -0.003903f, 0.002213f, 0.004717f, -0.007653f, 0.006630f, 0.001422f, -0.003612f, 0.004454f, 0.000142f, 0.009941f, 0.002517f, 0.004661f, -0.003796f, -0.001011f, 0.003267f, -0.001046f, -0.000608f, 0.000701f, -0.002398f, 0.000791f, 0.012752f, -0.006727f, 0.002899f, -0.011343f, -0.002715f, -0.002221f, -0.004040f, -0.000128f, -0.003791f, -0.002828f, -0.000696f, -0.000286f, -0.006461f, -0.005210f, 0.003800f, -0.004772f, 0.002882f, 0.000766f, -0.003499f, 0.001805f, -0.009447f, 0.007139f, -0.008546f, 0.007156f, -0.003838f, -0.013511f, 0.005342f, -0.007924f, 0.002194f, -0.010013f, 0.004445f, -0.002489f, -0.012540f, -0.001453f, -0.013831f, 0.000223f, 0.010065f, 0.004490f, -0.003386f, 0.010535f, -0.003552f, 0.010108f, -0.004204f, -0.009879f, 0.007590f, -0.001585f, 0.001319f, -0.002877f, 0.005089f, -0.009234f, -0.001629f, 0.001440f, -0.000160f, -0.010527f, 0.003867f, -0.001181f, 0.003002f, -0.003237f, 0.005783f, -0.001011f, -0.000428f, -0.014692f, 0.003359f, 0.003396f, 0.009723f, 0.002524f, 0.003007f, 0.002835f, 0.000171f, 0.000411f, 0.004101f, 0.001541f, -0.010554f, 0.002908f, -0.012266f, 0.003278f, -0.004996f, 0.008315f, 0.000274f, 0.009940f, 0.017268f, -0.005005f, -0.006980f, 0.001757f, -0.007549f, 0.006902f, -0.008151f, 0.004611f, 0.013029f, 0.003529f, 0.002868f, -0.001845f, 0.012571f, 0.003505f, -0.000381f, -0.001178f, 0.002210f, 0.006626f, 0.003070f, 0.007658f, -0.004731f, 0.003018f, -0.001570f, 0.002116f, -0.005681f, -0.002804f, 0.008464f, -0.001918f, -0.004237f, 0.002740f, -0.005401f, -0.001809f, -0.002516f, 0.009478f, -0.001480f, -0.000562f, 0.005569f, -0.006676f, 0.006372f, 0.000772f, 0.000546f, -0.006798f, 0.000684f, -0.000557f, -0.006586f, -0.000847f, 0.001259f, -0.000133f, 0.007336f, 0.006132f, 0.000320f, 0.001190f, 0.002224f, -0.006591f, -0.000135f, -0.004424f, -0.006216f, 0.004388f, 0.006916f, -0.002513f, 0.009875f, 0.009363f, 0.015362f, 0.018380f, 0.004771f, 0.005694f, -0.008937f, 0.009484f, -0.004895f, -0.000732f, -0.007707f, 0.000908f, -0.013146f, -0.008165f, 0.000485f, -0.005245f, 0.003076f, -0.004477f, -0.010445f, 0.001764f, -0.000243f, 0.000259f, 0.005239f, 0.003238f, -0.009939f, 0.014466f, 0.004051f, 0.010428f, -0.001666f, 0.004210f, 0.009114f, -0.004590f, 0.004797f, 0.002416f, 0.008207f, 0.002725f, -0.002761f, 0.003206f, 0.001226f, -0.000962f, 0.007026f, -0.004594f, 0.009508f, -0.000740f, -0.010028f, -0.000654f, 0.015255f, -0.005921f, 0.003245f, 0.005123f, 0.003121f, -0.000297f, 0.001199f, 0.005826f, 0.007686f, -0.009930f, -0.002872f, -0.004864f, 0.002940f, 0.007445f, 0.002166f, 0.006782f, -0.000816f, -0.012763f, -0.000290f, -0.004315f, 0.008289f, -0.002685f, 0.009125f, 0.008171f, -0.006736f, 0.002087f, -0.009891f, -0.001575f, 0.002411f, -0.004033f, 0.003554f, 0.006174f, 0.004687f, -0.005093f, 0.005213f, -0.000180f, 0.008938f, 0.001808f, 0.001849f, -0.006225f, -0.005386f, 0.006699f, 0.004203f, 0.001661f, -0.002638f, 0.002654f, -0.004964f, -0.005685f, -0.006877f, 0.009987f, -0.002043f, -0.016285f, 0.006602f, -0.003860f, 0.014483f, -0.005385f, 0.004352f, -0.003187f, 0.007450f, -0.008911f, -0.005833f, 0.005478f, -0.010327f, -0.004619f, -0.006754f, -0.000190f, -0.004481f, -0.001399f, 0.000621f, 0.001853f, 0.002265f, 0.011988f, -0.001404f, -0.003181f, 0.003807f, -0.003129f, 0.008058f, -0.000794f, 0.000616f, 0.000725f, 0.002557f, 0.005204f, 0.001945f, -0.006967f, 0.002358f, -0.003092f, 0.001630f, 0.003202f, -0.006754f, 0.003627f, 0.012615f, -0.003515f, -0.003602f, 0.003644f, -0.003142f, 0.009836f, 0.005637f, -0.003799f, -0.010491f, -0.004457f, 0.007105f, -0.003234f, -0.012589f, 0.002350f, 0.004168f, 0.013061f, -0.007096f, 0.006563f, 0.001026f, 0.003001f, 0.000191f, 0.000966f, 0.006811f, -0.001970f, 0.005406f, -0.009174f, -0.003744f, 0.005699f, 0.008071f, 0.005329f, 0.001168f, 0.014391f, -0.002604f, 0.005497f, 0.002146f, 0.006541f, 0.005827f, -0.002492f, -0.004866f, -0.009375f, -0.007937f, 0.006330f, -0.009416f, -0.001075f, -0.001004f, 0.004552f, 0.000781f, -0.008131f, 0.007837f, 0.000825f, -0.015995f, -0.001235f, 0.007289f, -0.000111f, -0.007511f, 0.012363f, -0.003320f, 0.007395f, -0.006618f, 0.002576f, 0.004859f, 0.006890f, 0.006575f, -0.002583f, -0.009250f, -0.005540f, -0.002035f, 0.001223f, -0.011687f, -0.007815f, 0.002737f, -0.002236f, 0.014034f, -0.002353f, -0.003575f, 0.000117f, -0.007298f, 0.003910f, 0.002176f, -0.000038f, -0.006567f, 0.004149f, -0.009467f, -0.003327f, -0.006291f, 0.004954f, -0.009720f, -0.002352f, -0.002944f, -0.002378f, 0.005446f, 0.008005f, 0.004100f, 0.005586f, -0.003920f, -0.010536f, 0.001125f, -0.012620f, -0.013674f, -0.010091f, 0.010870f, -0.002828f, -0.003475f, -0.007275f, 0.001783f, -0.004700f, -0.011357f, 0.006011f, 0.013136f, 0.011777f, 0.006681f, -0.002101f, 0.011090f, -0.005831f, -0.013365f, -0.000547f, 0.011466f, 0.016153f, -0.000622f, 0.001913f, -0.009223f, 0.008706f, -0.000561f, -0.003503f, 0.002164f, -0.005492f, -0.002466f, -0.008136f, 0.006159f, -0.017029f, -0.006667f, -0.004957f, -0.003239f, 0.001669f, -0.003927f, -0.003187f, -0.013171f, 0.003390f, -0.001683f, 0.013187f, 0.006053f, -0.001905f, 0.005037f, -0.000653f, -0.004161f, -0.008436f, -0.001421f, 0.008867f, -0.001845f, 0.009273f, -0.001978f, 0.012256f, -0.003554f, -0.004262f, -0.005991f, 0.001624f, -0.005636f, -0.012822f, -0.001295f, 0.002383f, 0.001123f, -0.002274f, -0.006412f, -0.001731f, 0.005543f, 0.000383f, -0.000581f, 0.003401f, -0.004537f, 0.009382f, -0.004733f, -0.001974f, 0.007143f, 0.005863f, 0.003181f, 0.001161f, -0.007970f, 0.009298f, 0.005395f, -0.005554f, -0.008064f, 0.001055f, 0.007038f, -0.002760f, 0.001502f, -0.002138f, 0.001165f, 0.011170f, 0.009971f, -0.013741f, -0.002885f, 0.004245f, -0.001424f, 0.000954f, -0.007176f, -0.003933f, -0.001195f, -0.001138f, -0.001747f, -0.003976f, -0.009616f, 0.003868f, -0.003238f, 0.005102f, -0.006921f, 0.003759f, 0.007262f, -0.003194f, 0.001188f, 0.000025f, 0.007012f, -0.009689f, 0.010848f, -0.017710f, -0.000036f, -0.002253f, 0.003021f, -0.010668f, 0.008398f, -0.005268f, -0.004645f, 0.002228f, -0.006276f, 0.007423f, -0.008797f, 0.000440f, -0.001456f, -0.006526f, 0.002567f, 0.006631f, -0.001532f, 0.005229f, 0.004004f, 0.000193f, -0.007732f, -0.009220f, 0.003195f, 0.001795f, 0.007453f, -0.000655f, -0.014144f, 0.009944f, -0.002303f, 0.003792f, -0.012188f, -0.009275f, -0.007238f, -0.004500f, -0.008674f, 0.008917f, 0.005414f, -0.006861f, -0.000712f, -0.005004f, 0.000670f, 0.000158f, -0.003608f, 0.002413f, -0.004142f, -0.003216f, 0.004109f, 0.008204f, -0.001236f, -0.003217f, 0.000359f, 0.001293f, -0.002899f, 0.012427f, -0.007572f, 0.008260f, -0.002037f, 0.002977f, 0.002209f, -0.001896f, 0.002388f, -0.004288f, -0.004683f, 0.003290f, 0.001184f, 0.006060f, 0.013674f, -0.000455f, 0.001986f, -0.004731f, 0.015490f, 0.003053f, -0.000394f, -0.002051f, 0.007355f, -0.008869f, -0.005408f, -0.003341f, 0.006898f, -0.014664f, 0.004119f, 0.008467f, -0.004120f, 0.002162f, 0.001736f, 0.007621f, 0.006733f, 0.008361f, -0.004703f, -0.005915f, 0.002817f, -0.000687f, 0.004579f, -0.003411f, 0.003856f, -0.002970f, 0.001555f, 0.009331f, -0.000108f, 0.016556f, -0.005681f, 0.014578f, 0.004121f, 0.000492f, -0.006601f, 0.005138f, 0.010399f, 0.003658f, 0.001466f, -0.000022f, 0.002599f, -0.004814f, 0.014264f, 0.000190f, 0.001464f, -0.001768f, -0.009974f, -0.003256f, -0.000379f, 0.005787f, 0.000196f, 0.004300f, 0.005969f, 0.007908f, 0.000042f, -0.004564f, -0.004767f, -0.005539f, -0.008025f, 0.014938f, 0.009268f, -0.011169f, 0.001672f, -0.002470f, 0.005618f, -0.000506f, 0.002217f, 0.007908f, 0.004101f, -0.005285f, 0.007818f, -0.003061f, -0.003050f, 0.002464f, -0.009732f, -0.001350f, 0.000398f, -0.008559f, 0.004612f, 0.002275f, -0.001883f, 0.007577f, -0.014296f, 0.007657f, -0.000873f, -0.001039f, -0.003469f, 0.004443f, 0.002524f, 0.002613f, -0.011228f, 0.007814f, -0.000341f, -0.001151f, 0.005038f, -0.003934f, -0.009356f, 0.011029f, -0.004053f, 0.007301f, -0.001445f, -0.004632f, 0.006688f, 0.000994f, -0.007139f, 0.004943f, -0.005201f, 0.004378f, 0.008448f, 0.009929f, -0.009686f, -0.002818f, 0.002053f, 0.017337f, 0.000890f, -0.004910f, -0.001298f, 0.007413f, 0.000415f, -0.000821f, -0.002610f, 0.003574f, -0.000660f, 0.001281f, -0.004065f, 0.002606f, -0.003328f, 0.007202f, 0.009415f, 0.013157f, 0.008321f, -0.000391f, 0.012188f, -0.005712f, -0.005636f, 0.020589f, 0.002413f, 0.000008f, -0.000360f, 0.001508f, -0.011133f, 0.003603f, 0.004089f, 0.006318f, 0.000763f, 0.001191f, -0.002132f, -0.000895f, 0.010441f, -0.000858f, -0.004702f, -0.003617f, -0.011215f, -0.010761f, -0.005669f, -0.005052f, -0.012845f, 0.004846f, 0.004885f, 0.010792f, 0.000801f, -0.000457f, -0.000536f, -0.000801f, -0.016279f, 0.000964f, 0.008662f, 0.005047f, -0.003407f, 0.002940f, 0.005439f, -0.003227f, 0.011069f, -0.002154f, -0.002435f, 0.001066f, -0.005891f, -0.000630f, -0.001683f, -0.016074f, -0.012942f, -0.004857f, -0.000675f, -0.003460f, 0.002870f, -0.004515f, 0.006634f, -0.005671f, -0.001658f, 0.000999f, 0.004191f, -0.002328f, 0.005634f, -0.001218f, -0.012191f, 0.003075f, 0.003100f, -0.000697f, -0.006106f, 0.002785f, 0.010554f, 0.009623f, 0.002917f, -0.004332f, 0.005240f, -0.005391f, 0.009529f, -0.005344f, 0.005717f, 0.005331f, 0.002480f, 0.001492f, 0.000558f, 0.003995f, 0.004076f, 0.007965f, -0.005996f, 0.000180f, -0.003846f, 0.008172f, 0.013406f, -0.002974f, 0.003156f, -0.005831f, -0.000756f, 0.000867f, -0.005091f, 0.001472f, -0.000744f, -0.005580f, 0.002059f, 0.009444f, -0.004911f, 0.010515f, -0.000996f, 0.000806f, 0.002224f, 0.002110f, -0.005110f, 0.007524f, -0.004245f, -0.001181f, 0.007654f, 0.000945f, 0.004960f, 0.004051f, -0.007035f, -0.000527f, 0.001945f, 0.006164f, 0.002499f, 0.001239f, -0.006806f, 0.012702f, 0.008866f, 0.003058f, 0.004825f, -0.011162f, 0.008490f, 0.000293f, 0.002273f, -0.000251f, 0.005275f, 0.003273f, 0.002016f, -0.003225f, 0.020678f, 0.000541f, 0.000847f, 0.004931f, 0.011463f, 0.006610f, -0.006835f, -0.007955f, -0.001228f, 0.003479f, 0.001739f, 0.016406f, 0.000123f, 0.002961f, -0.000542f, 0.009977f, 0.000175f, 0.006461f, -0.006593f, 0.014646f, 0.003467f, 0.004499f, -0.000377f, 0.003257f, 0.003917f, -0.004422f, -0.000044f, 0.004950f, -0.002656f, -0.001048f, 0.007856f, -0.012916f, 0.006356f, 0.012062f, -0.011483f, 0.009373f, -0.001788f, 0.006802f, 0.000330f, -0.007793f, 0.001979f, -0.000823f, -0.000413f, -0.006674f, 0.015699f, -0.000559f, 0.003909f, -0.000161f, -0.006240f, 0.010814f, -0.003561f, 0.006904f, -0.001543f, 0.003964f, -0.000814f, 0.003077f, -0.008485f, 0.003285f, -0.000641f, -0.002454f, -0.000622f, -0.012618f, 0.010878f, 0.003802f, -0.006098f, -0.002836f, 0.006578f, 0.000356f, -0.001117f, -0.004930f, -0.005003f, 0.006034f, -0.004553f, -0.007303f, 0.005743f, 0.005833f, 0.004218f, 0.004622f, -0.014750f, -0.003098f, -0.005382f, -0.004996f, 0.017263f, 0.009418f, -0.008704f, -0.007837f, 0.007898f, -0.002329f, 0.004362f, 0.003304f, 0.002055f, -0.000670f, -0.002418f, -0.001254f, 0.007603f, -0.001279f, 0.000223f, 0.011073f, -0.005022f, -0.005655f, -0.006372f, -0.001504f, 0.000927f, -0.008734f, 0.004721f, 0.003227f, 0.001030f, -0.001744f, -0.005789f, -0.011180f, -0.006865f, 0.001081f, -0.003735f, 0.007902f, -0.006398f, 0.002659f, 0.001422f, -0.002698f, -0.007620f, -0.002435f, -0.006556f, 0.007585f, 0.004708f, 0.006196f, -0.000861f, -0.009662f, 0.006346f, -0.006924f, 0.000228f, 0.006397f, -0.009477f, -0.000547f, 0.009049f, -0.001111f, -0.007117f, -0.001663f, 0.002928f, 0.005484f, 0.000052f, -0.000978f, 0.006821f, -0.001878f, 0.007372f, -0.004854f, 0.000912f, 0.002636f, -0.005090f, -0.007598f, 0.001405f, 0.003291f, 0.007637f, -0.004536f, -0.003052f, 0.010378f, 0.008359f, 0.015514f, -0.008209f, -0.004468f, -0.007991f, -0.003847f, 0.005082f, -0.001917f, -0.003873f, -0.002024f, 0.002036f, -0.001766f, -0.005226f, -0.005004f, -0.009639f, 0.004160f, 0.002763f, 0.001758f, -0.003653f, -0.002361f, 0.001770f, 0.000276f, 0.004904f, -0.004630f, 0.000907f, -0.007638f, -0.004319f, 0.002748f, -0.005645f, 0.006362f, 0.002248f, 0.008537f, -0.006690f, -0.000820f, 0.003074f, -0.013071f, -0.006454f, -0.001572f, 0.004413f, -0.000547f, -0.000098f, -0.007863f, 0.005604f, -0.009281f, -0.000759f, 0.008519f, -0.013008f, 0.007695f, -0.014931f, 0.002828f, -0.000957f, 0.008188f, -0.009913f, -0.003313f, -0.010705f, 0.005994f, 0.002436f, -0.004302f, -0.005421f, 0.003214f, 0.006325f, 0.001779f, -0.002706f, 0.001974f, -0.005167f, 0.006827f, -0.004167f, -0.000470f, 0.000144f, 0.012353f, -0.006594f, 0.004008f, -0.005439f, 0.018639f, -0.011992f, 0.001236f, 0.004627f, -0.009866f, 0.006282f, 0.004672f, 0.003689f, 0.004959f, 0.001496f, 0.004127f, 0.009397f, -0.007840f, -0.009096f, 0.012453f, -0.006282f, -0.001134f, -0.001869f, 0.001332f, -0.005638f, -0.002320f, -0.001362f, 0.001048f, -0.009080f, -0.002090f, -0.000782f, 0.001295f, -0.007377f, 0.002711f, -0.004962f, -0.002157f, -0.009172f, -0.003700f, 0.005108f, 0.002403f, -0.010308f, -0.002716f, 0.007447f, -0.003068f, 0.002472f, -0.014459f, -0.001447f, 0.003511f, 0.004775f, 0.004755f, -0.000997f, -0.012838f, 0.001371f, -0.005191f, 0.009359f, 0.000238f, -0.001870f, -0.010056f, 0.013164f, 0.003387f, 0.005059f, 0.001455f, -0.008479f, -0.005653f, 0.010383f, 0.000418f, -0.006827f, 0.008385f, -0.006797f, 0.007511f, 0.001588f, 0.002614f, 0.002285f, -0.001955f, 0.006615f, 0.005883f, -0.000388f, -0.004628f, -0.002413f, 0.009322f, 0.002636f, 0.005057f, -0.003730f, 0.008813f, -0.006283f, 0.002728f, 0.003345f, -0.003608f, -0.003443f, 0.002156f, -0.008107f, 0.002719f, 0.004748f, 0.001754f, 0.003084f, -0.010323f, 0.000100f, -0.007464f, -0.009467f, -0.002565f, -0.013505f, 0.004976f, 0.005019f, 0.001344f, -0.003180f, 0.002653f, 0.008249f, 0.002242f, -0.004171f, -0.002081f, 0.001607f, -0.004887f, -0.005001f, -0.003043f, -0.003710f, -0.004732f, -0.005386f, -0.011543f, -0.002234f, -0.005263f, -0.003546f, -0.003340f, 0.007115f, 0.010944f, 0.002631f, -0.000503f, 0.001069f, 0.010355f, 0.012427f, -0.019126f, -0.012762f, 0.006895f, -0.012213f, -0.005106f, 0.002411f, 0.007327f, 0.003908f, -0.002901f, -0.012340f, -0.006920f, 0.002753f, -0.009740f, -0.001495f, 0.000637f, 0.001645f, -0.010407f, 0.002911f, 0.003175f, 0.012022f, 0.002713f, -0.010172f, -0.006014f, -0.001211f, 0.005498f, 0.000880f, -0.009811f, 0.005212f, -0.003687f, 0.004010f, 0.004142f, -0.002466f, 0.003629f, 0.003585f, 0.009633f, -0.003768f, -0.007887f, 0.003098f, 0.007133f, 0.001150f, -0.000803f, 0.007869f, -0.005015f, -0.009444f, 0.003745f, 0.010061f, -0.005188f, -0.008564f, 0.011261f, -0.002350f, 0.010053f, 0.001688f, 0.001101f, -0.006967f, 0.002067f, -0.003555f, 0.000769f, -0.012040f, 0.003279f, 0.003428f, 0.004593f, 0.008294f, 0.015217f, 0.006903f, -0.000533f, 0.005365f, 0.003604f, -0.008636f, -0.000354f, -0.004734f, 0.007840f, -0.002510f, -0.003872f, -0.001279f, 0.000255f, 0.009985f, -0.001936f, -0.006488f, 0.005175f, -0.007420f, 0.000264f, 0.005742f, 0.003310f, -0.006859f, 0.006663f, 0.004518f, 0.001035f, -0.002285f, -0.006563f, -0.002899f, -0.000406f, 0.003069f, 0.004356f, 0.001798f, -0.007944f, 0.005452f, 0.001335f, -0.004640f, -0.006274f, 0.000466f, -0.002823f, 0.002433f, -0.009473f, -0.005209f, -0.005497f, -0.004894f, 0.011107f, 0.002935f, 0.000412f, 0.001025f, 0.002329f, 0.001935f, 0.004324f, -0.006554f, -0.001677f, -0.004661f, -0.003964f, 0.001963f, -0.007472f, 0.002542f, -0.003467f, -0.013111f, -0.009076f, 0.003243f, -0.004224f, -0.002265f, -0.010599f, 0.011138f, -0.005594f, 0.001351f, -0.008523f, 0.010586f, 0.002597f, 0.002577f, 0.010098f, -0.007117f, 0.001821f, -0.001288f, -0.001576f, 0.007648f, 0.007309f, 0.002255f, -0.001005f, -0.004393f, -0.003997f, -0.002231f, -0.011879f, 0.000384f, 0.009297f, -0.006680f, 0.000223f, 0.001248f, 0.002486f, 0.006425f, -0.004378f, -0.006875f, -0.009033f, -0.011861f, 0.009547f, 0.005460f, 0.004113f, 0.003390f, 0.003603f, -0.006185f, 0.003475f, 0.001248f, -0.010513f, 0.000615f, 0.000662f, 0.014131f, -0.004533f, -0.005549f, -0.006694f, 0.003301f, -0.006222f, 0.004958f, 0.007241f, 0.010866f, -0.003547f, 0.005799f, -0.002783f, -0.001028f, -0.000101f, 0.010251f, -0.000993f, 0.002178f, 0.000731f, -0.002086f, -0.004350f, -0.010215f, 0.001322f, 0.001410f, -0.001730f, -0.000151f, -0.003275f, 0.010803f, -0.001472f, -0.001169f, 0.000254f, 0.000764f, 0.011123f, 0.007948f, -0.000310f, -0.002157f, -0.001080f, 0.009976f, 0.006355f, -0.005819f, -0.000594f, 0.005051f, -0.013769f, -0.002464f, -0.002016f, 0.006112f, 0.001887f, -0.008881f, -0.004986f, -0.004101f, -0.001412f, -0.001388f, -0.006572f, -0.006706f, -0.010580f, -0.009093f, -0.001006f, 0.002033f, 0.000218f, 0.004469f, 0.000616f, -0.003635f, -0.002410f, 0.001693f, 0.002759f, 0.001033f, 0.000141f, 0.007060f, -0.012280f, -0.005744f, -0.003662f, 0.005766f, -0.010054f, 0.001220f, -0.002852f, 0.001931f, 0.000535f, 0.011959f, -0.005722f, -0.006758f, 0.001983f, 0.006726f, -0.000943f, -0.003325f, 0.000574f, 0.003160f, -0.002475f, -0.003373f, 0.004805f, -0.012013f, -0.004867f, 0.001516f, -0.009313f, -0.007190f, -0.013161f, -0.005653f, -0.008083f, 0.002509f, 0.009227f, -0.006777f, -0.002826f, 0.006102f, -0.009195f, 0.013037f, -0.007553f, 0.004025f, 0.003479f, 0.010822f, 0.005800f, 0.011009f, -0.004294f, -0.006191f, -0.003437f, 0.005203f, 0.004676f, 0.001709f, -0.004433f, -0.004044f, 0.000268f, -0.006390f, 0.002511f, 0.003509f, -0.001137f, 0.004341f, -0.013771f, -0.006588f, 0.005960f, -0.007584f, 0.007506f, 0.000385f, 0.005622f, 0.005843f, -0.003471f, -0.000820f, 0.013020f, 0.002463f, -0.006857f, -0.000135f, -0.009825f, -0.004415f, 0.004814f, -0.005170f, -0.005491f, -0.009558f, 0.000752f, 0.004332f, -0.010729f, 0.005415f, -0.005983f, -0.007435f, -0.010612f, 0.008820f, 0.004500f, -0.004477f, 0.000210f, 0.009002f, -0.001330f, 0.006963f, 0.007076f, 0.004585f, 0.008407f, -0.004249f, -0.004126f, 0.006238f, -0.002656f, -0.003952f, -0.007128f, -0.002301f, -0.013320f, 0.004687f, 0.005433f, 0.003927f, 0.007712f, -0.001728f, -0.005815f, -0.009888f, 0.006797f, 0.001513f, 0.011575f, -0.000223f, -0.009519f, -0.000922f, 0.002175f, -0.002866f, -0.014920f, -0.011239f, 0.008442f, 0.004178f, 0.002058f, 0.007621f, 0.001849f, 0.002234f, 0.011627f, 0.000276f, -0.008798f, -0.003516f, 0.002735f, 0.002941f, -0.008374f, -0.004147f, 0.004672f, 0.000064f, 0.004048f, -0.004089f, -0.002992f, -0.003203f, -0.004482f, -0.000936f, -0.000988f, -0.002625f, 0.001179f, 0.005811f, -0.008886f, -0.009826f, -0.004517f, -0.000955f, -0.004419f, -0.003564f, 0.001229f, 0.000122f, -0.000338f, -0.001873f, -0.003441f, -0.000888f, 0.005103f, -0.000928f, -0.009748f, -0.003163f, 0.002547f, 0.009750f, 0.002511f, -0.001814f, -0.007217f, -0.004665f, 0.003583f, -0.009890f, 0.005420f, 0.006592f, -0.001956f, -0.010273f, 0.002420f, -0.001536f, 0.009959f, -0.001723f, 0.000526f, -0.003843f, -0.002666f, -0.000804f, -0.003429f, 0.004622f, 0.002928f, -0.008791f, 0.004477f, 0.000120f, -0.003405f, -0.002277f, -0.001119f, 0.003004f, -0.001925f, -0.001089f, 0.005848f, -0.002102f, 0.004422f, -0.005620f, -0.003458f, -0.012166f, 0.002179f, -0.010404f, 0.008824f, -0.002482f, 0.004451f, -0.008678f, -0.003295f, -0.000619f, -0.006575f, -0.004234f, -0.003985f, 0.009664f, -0.001249f, -0.010323f, 0.005743f, 0.000518f, -0.002160f, 0.002585f, 0.000414f, -0.003132f, -0.005576f, 0.000004f, 0.006695f, 0.000436f, 0.001596f, 0.008925f, 0.002314f, 0.004244f, -0.007852f, -0.003222f, 0.008962f, 0.000279f, 0.007697f, -0.002743f, 0.006352f, 0.000632f, 0.008401f, 0.011238f, 0.001148f, -0.002558f, 0.001207f, 0.002366f, -0.001498f, 0.006320f, 0.008140f, 0.006568f, -0.008583f, -0.012419f, -0.003177f, 0.007248f, -0.003527f, 0.006381f, -0.002201f, 0.008596f, 0.002289f, -0.008840f, 0.004225f, 0.004085f, 0.000964f, -0.008257f, 0.001687f, -0.011708f, 0.007527f, 0.008691f, 0.002234f, 0.011601f, -0.001333f, -0.005465f, 0.003501f, -0.008644f, 0.010777f, 0.008344f, -0.003311f, 0.009358f, -0.014774f, 0.002307f, -0.014878f, 0.003863f, 0.002514f, 0.005087f, 0.000673f, -0.000230f, 0.007657f, -0.011490f, 0.003045f, -0.003675f, -0.007432f, -0.002950f, 0.007833f, 0.003272f, 0.007105f, -0.001174f, -0.000791f, -0.008501f, 0.003651f, -0.001843f, -0.006193f, 0.007619f, 0.005785f, -0.006108f, -0.000413f, 0.006426f, -0.011463f, -0.002039f, 0.000344f, 0.005099f, -0.011441f, -0.000348f, -0.008870f, 0.001129f, 0.000232f, 0.014526f, 0.005501f, -0.000704f, 0.003715f, 0.005562f, 0.013412f, 0.000117f, 0.003190f, 0.003485f, 0.001269f, 0.003024f, 0.001107f, -0.002783f, 0.000597f, 0.002448f, 0.007730f, -0.004820f, -0.000270f, -0.001659f, 0.013113f, 0.008197f, -0.002436f, -0.004139f, -0.007268f, -0.000930f, -0.003915f, 0.007264f, -0.008535f, -0.005507f, -0.001975f, -0.004749f, 0.004561f, 0.000965f, -0.000692f, -0.012831f, -0.003646f, -0.002592f, -0.007912f, -0.003840f, -0.011606f, 0.000038f, -0.004804f, -0.005129f, -0.001613f, 0.002849f, -0.002005f, -0.001625f, -0.006094f, 0.000072f, 0.008805f, 0.007387f, -0.001282f, -0.002213f, -0.010877f, 0.000211f, -0.002527f, 0.000464f, 0.006286f, 0.005261f, -0.009932f, -0.002701f, -0.013873f, -0.002990f, 0.010317f, 0.003713f, 0.000539f, 0.004425f, -0.002337f, -0.001108f, 0.005192f, 0.000493f, 0.002322f, -0.008744f, -0.001404f, -0.012762f, 0.003398f, -0.001172f, -0.005403f, -0.009116f, -0.002054f, -0.014313f, -0.004999f, -0.007200f, -0.003347f, 0.000976f, -0.007565f, -0.012371f, -0.006181f, 0.008602f, -0.003095f, 0.000122f, 0.006289f, -0.014327f, -0.008214f, 0.008679f, -0.000138f, 0.005301f, 0.001930f, -0.000753f, -0.002516f, -0.005178f, -0.010686f, -0.000039f, 0.004023f, -0.001874f, 0.004580f, -0.006953f, -0.008678f, 0.009223f, -0.005166f, 0.004731f, -0.003041f, 0.007482f, 0.003148f, -0.002653f, 0.005712f, 0.000770f, -0.002792f, 0.011420f, 0.000605f, 0.012468f, -0.007541f, -0.010099f, 0.006708f, 0.002414f, -0.000035f, 0.001844f, 0.002192f, -0.005966f, -0.003007f, 0.004815f, 0.004026f, 0.004863f, 0.001170f, 0.004111f, -0.004035f, -0.002243f, -0.011229f, 0.004782f, -0.009247f, 0.000698f, 0.002642f, 0.006979f, 0.000836f, 0.000125f, 0.003837f, -0.001776f, 0.009307f, 0.004424f, 0.003378f, -0.003400f, -0.002467f, -0.003489f, -0.004986f, -0.007862f, -0.000421f, -0.008203f, 0.009945f, 0.002987f, -0.003875f, 0.003878f, 0.000443f, -0.003281f, 0.010924f, -0.000541f, 0.003708f, -0.000742f, -0.005074f, 0.000004f, -0.002843f, 0.004550f, 0.006256f, 0.008104f, 0.006576f, 0.021059f, -0.012714f, -0.006415f, -0.001788f, -0.007192f, -0.006131f, -0.002035f, 0.005514f, -0.003126f, -0.005558f, 0.001307f, 0.007811f, 0.000541f, 0.005118f, -0.004615f, -0.005403f, -0.006487f, 0.006157f, -0.004864f, -0.004101f, -0.001555f, 0.002132f, 0.000122f, -0.006009f, -0.001009f, -0.001138f, 0.001542f, -0.002628f, 0.015777f, 0.005072f, -0.000593f, -0.000400f, 0.010506f, 0.008183f, -0.007219f, -0.001893f, 0.001217f, -0.000396f, -0.002850f, -0.005788f, -0.001985f, -0.009596f, -0.004093f, -0.005337f, 0.006761f, -0.007407f, -0.013861f, -0.007928f, 0.002027f, -0.007265f, -0.011149f, -0.002596f, -0.006972f, -0.003674f, 0.001542f, 0.000678f, 0.003680f, -0.013051f, 0.001491f, -0.003338f, -0.000098f, -0.003779f, 0.001451f, 0.004420f, -0.001981f, -0.002421f, 0.000936f, 0.001394f, 0.008867f, 0.004029f, -0.005672f, -0.001523f, -0.007681f, -0.004987f, 0.002259f, -0.002505f, -0.007722f, 0.002024f, 0.004988f, 0.000530f, 0.004218f, 0.000844f, 0.002189f, 0.001468f, 0.004648f, 0.004363f, 0.001944f, -0.001826f, -0.011142f, 0.000472f, -0.007336f, -0.005561f, 0.006917f, 0.003930f, -0.005757f, -0.009898f, 0.011357f, 0.001333f, -0.000483f, 0.012991f, -0.000470f, 0.004681f, -0.006157f, 0.000222f, 0.004596f, 0.000763f, -0.000751f, -0.003055f, 0.008173f, 0.005316f, 0.007177f, 0.003520f, -0.001830f, -0.011087f, -0.000710f, 0.003650f, 0.002207f, 0.001708f, 0.004362f, 0.002164f, 0.003113f, 0.009504f, 0.000030f, -0.003260f, -0.005674f, -0.001492f, -0.000444f, 0.001269f, 0.002029f, 0.001295f, -0.001484f, 0.009128f, 0.007396f, -0.002577f, 0.000792f, 0.004972f, -0.009128f, -0.008200f, -0.002445f, 0.003640f, 0.006473f, 0.000201f, 0.003500f, -0.007741f, -0.006183f, 0.005057f, -0.000717f, 0.000936f, 0.011345f, 0.003269f, -0.006764f, -0.008044f, 0.007455f, 0.000276f, -0.001008f, -0.002353f, 0.013493f, 0.000365f, -0.000210f, 0.005845f, -0.001971f, 0.001144f, -0.000857f, -0.008488f, -0.004105f, -0.014857f, -0.007600f, -0.000531f, -0.007416f, 0.006534f, 0.009115f, -0.003892f, 0.002174f, -0.008826f, 0.008128f, -0.000660f, -0.008513f, 0.000849f, -0.001758f, 0.003676f, -0.006618f, -0.002896f, 0.004471f, -0.008312f, 0.007999f, -0.010244f, -0.005670f, -0.000247f, 0.003021f, 0.001549f, -0.002244f, -0.000580f, -0.002704f, 0.002464f, 0.001059f, -0.002074f, 0.014062f, 0.010807f, 0.007553f, -0.004899f, -0.003237f, -0.014033f, -0.004170f, -0.008417f, -0.001993f, -0.012855f, -0.004493f, -0.003346f, 0.007511f, 0.004046f, -0.000081f, 0.003519f, 0.010103f, -0.007263f, 0.008346f, 0.004012f, 0.013644f, 0.000801f, -0.003896f, 0.002357f, -0.011167f, -0.003426f, 0.015728f, -0.000727f, 0.001563f, -0.004663f, 0.005395f, 0.011043f, 0.005741f, -0.000946f, -0.002442f, 0.007468f, -0.004554f, -0.006002f, -0.008680f, -0.002984f, 0.002202f, -0.001885f, 0.004654f, 0.005657f, -0.005062f, 0.002038f, 0.002255f, 0.000495f, -0.006759f, 0.005542f, -0.007526f, -0.001726f, 0.000060f, 0.011629f, 0.010082f, -0.004658f, 0.007531f, -0.000865f, -0.006692f, -0.003650f, -0.001753f, 0.000750f, -0.004852f, 0.003955f, 0.007257f, 0.007608f, -0.002581f, -0.000354f, 0.000245f, -0.009653f, 0.003950f, 0.001858f, 0.001130f, 0.009393f, -0.000421f, 0.002741f, 0.006459f, 0.000905f, 0.007761f, 0.000379f, 0.017111f, 0.012976f, -0.009872f, -0.008592f, -0.003087f, -0.004519f, -0.005056f, -0.007160f, 0.000778f, -0.007082f, 0.003872f, -0.005662f, 0.009251f, 0.001067f, 0.001546f, -0.004069f, -0.000144f, 0.007410f, 0.012239f, -0.003845f, -0.004863f, -0.008109f, 0.003839f, -0.006725f, -0.011289f, -0.000271f, -0.006251f, -0.008653f, -0.000137f, 0.000190f, 0.008510f, -0.004305f, 0.006376f, 0.002425f, 0.006822f, -0.007806f, 0.002384f, -0.006119f, 0.003602f, -0.002493f, 0.001935f, 0.005370f, 0.001198f, 0.001068f, 0.007751f, 0.001607f, 0.003674f, -0.004696f, -0.004408f, -0.002709f, 0.000938f, -0.001905f, -0.005717f, -0.002972f, -0.008523f, -0.005722f, 0.002620f, 0.012993f, 0.004784f, 0.003934f, 0.003833f, 0.005456f, 0.000545f, -0.007506f, -0.008580f, -0.005371f, -0.003649f, -0.010190f, 0.004162f, -0.000536f, -0.002481f, 0.000174f, -0.002038f, 0.002948f, -0.001594f, 0.001535f, 0.001661f, -0.008721f, 0.005860f, -0.001738f, 0.007411f, -0.003011f, 0.000748f, -0.002626f, 0.000069f, 0.000216f, -0.006484f, -0.003213f, 0.001004f, -0.003577f, 0.009226f, -0.016213f, -0.010228f, 0.002456f, 0.007027f, 0.001517f, -0.002601f, 0.001195f, -0.009810f, 0.015144f, -0.000227f, 0.003630f, 0.003013f, -0.007187f, 0.004461f, -0.004845f, 0.000198f, -0.004381f, -0.006830f, -0.001289f, 0.003467f, -0.005532f, 0.003316f, -0.000590f, -0.007555f, 0.005068f, -0.004475f, -0.004451f, 0.003552f, 0.008584f, 0.005501f, 0.000930f, -0.010154f, -0.003591f, 0.004494f, -0.004727f, 0.010293f, 0.004407f, 0.001422f, 0.003459f, -0.007375f, 0.000001f, -0.003561f, -0.004630f, -0.009598f, -0.012384f, 0.002141f, -0.004255f, -0.006965f, -0.003128f, -0.000520f, -0.003208f, 0.009119f, -0.003225f, 0.003552f, 0.006559f, 0.001929f, -0.005805f, -0.000357f, 0.007520f, 0.003651f, -0.003181f, -0.004071f, 0.005429f, -0.002352f, -0.005852f, -0.000467f, 0.011220f, -0.005964f, 0.002184f, 0.001803f, 0.010126f, 0.003063f, -0.011387f, 0.000093f, 0.001547f, -0.001414f, -0.012151f, -0.009803f, 0.001853f, 0.000995f, 0.010149f, 0.011254f, -0.009025f, 0.004119f, -0.000720f, 0.001012f, -0.001872f, 0.000770f, -0.005623f, -0.000957f, -0.006166f, 0.001375f, -0.000311f, -0.001069f, 0.000688f, 0.000054f, 0.006943f, 0.000355f, 0.004727f, 0.001106f, 0.002330f, 0.006908f, 0.002634f, -0.000194f, -0.003193f, -0.007057f, -0.008660f, 0.004558f, 0.006274f, 0.004191f, -0.005421f, 0.003859f, 0.005898f, 0.001516f, -0.004398f, 0.006779f, -0.006277f, 0.002615f, -0.002157f, 0.008074f, -0.013645f, 0.002223f, -0.003212f, 0.002214f, -0.012275f, -0.008482f, -0.015779f, -0.000977f, -0.012514f, 0.004943f, 0.003624f, -0.010279f, 0.000623f, -0.002101f, 0.004263f, -0.001209f, 0.003568f, 0.002424f, 0.005854f, -0.003583f, 0.004658f, 0.000246f, 0.010331f, -0.002700f, -0.001057f, -0.000240f, -0.003326f, -0.002467f, -0.001497f, 0.002608f, 0.000049f, 0.004134f, -0.006190f, 0.006406f, -0.008455f, 0.009050f, -0.005244f, -0.000983f, -0.007874f, 0.000651f, 0.005554f, -0.007946f, -0.004607f, 0.003570f, 0.005076f, 0.007674f, 0.013674f, 0.004829f, 0.009832f, 0.002057f, -0.000722f, 0.009005f, -0.001790f, 0.007770f, -0.000913f, 0.001023f, -0.001570f, -0.000629f, -0.005986f, 0.004137f, -0.000296f, 0.000356f, 0.005821f, -0.000188f, 0.001331f, -0.000900f, -0.000107f, 0.004862f, 0.004993f, 0.009685f, -0.003527f, -0.001486f, 0.000005f, 0.003497f, -0.004348f, -0.004446f, -0.000611f, -0.001643f, 0.002910f, 0.010558f, 0.000609f, 0.003066f, -0.000006f, 0.000323f, -0.005603f, -0.013316f, -0.000826f, -0.001500f, -0.008267f, 0.002215f, 0.000324f, 0.000139f, -0.006575f, 0.002827f, 0.001637f, -0.003852f, 0.006078f, -0.010393f, 0.003505f, -0.000827f, -0.004498f, 0.002350f, -0.004282f, -0.001647f, -0.003498f, -0.000810f, -0.000171f, -0.007320f, 0.005395f, 0.003040f, 0.007506f, -0.001192f, -0.003123f, 0.011151f, 0.009141f, -0.001703f, -0.003713f, 0.006325f, -0.003948f, -0.000427f, 0.001959f, -0.002227f, 0.000723f, 0.004716f, 0.000338f, 0.006158f, -0.006802f, 0.009212f, -0.005921f, 0.003853f, 0.003047f, -0.001086f, 0.002245f, 0.004834f, 0.002409f, -0.010037f, 0.003787f, -0.005302f, -0.002529f, 0.008548f, 0.003134f, -0.005983f, -0.007039f, -0.007342f, -0.001680f, 0.001852f, 0.001890f, 0.002783f, -0.003056f, -0.004199f, -0.004060f, -0.000892f, 0.003549f, 0.009623f, -0.005141f, -0.008229f, 0.003492f, 0.001888f, -0.004134f, -0.001440f, 0.003626f, 0.009035f, 0.007174f, 0.000791f, 0.004868f, -0.008415f, -0.002423f, 0.004124f, 0.010654f, 0.001839f, -0.001079f, 0.010368f, 0.001838f, 0.000189f, 0.007042f, -0.002175f, -0.000536f, -0.000077f, 0.002829f, 0.002304f, -0.007965f, 0.002050f, 0.003619f, 0.005143f, -0.001543f, 0.006653f, -0.002374f, 0.002463f, -0.001204f, -0.000708f, 0.005924f, 0.007630f, -0.002565f, -0.003569f, 0.006337f, 0.000043f, -0.001273f, 0.006113f, 0.007165f, 0.005871f, -0.009965f, 0.001810f, -0.001696f, 0.000316f, 0.006599f, -0.007224f, 0.002373f, -0.006686f, -0.009046f, -0.007689f, -0.005324f, 0.007029f, 0.002991f, -0.003137f, -0.007901f, -0.002835f, 0.007678f, 0.014397f, -0.004827f, 0.004571f, -0.000417f, 0.000803f, -0.006418f, -0.002617f, -0.007188f, -0.007411f, -0.002352f, 0.001129f, 0.011229f, 0.008152f, 0.007480f, -0.004268f, -0.000955f, 0.003793f, 0.015666f, -0.002483f, -0.009193f, 0.005442f, -0.004251f, -0.000536f, -0.010570f, -0.014736f, -0.001833f, -0.005486f, -0.005402f, -0.003943f, 0.007643f, 0.005958f, 0.003670f, -0.004088f, -0.007382f, -0.007008f, -0.010006f, 0.001233f, -0.004422f, -0.006299f, -0.004490f, -0.010471f, -0.002260f, -0.001040f, 0.004632f, -0.000164f, 0.000709f, -0.002971f, -0.004254f };
static const float seqdense_layer2_biases[64] = { 0.095734f, 0.071342f, -0.031848f, -0.042310f, 0.106854f, -0.018645f, 0.018897f, -0.015306f, -0.001114f, -0.033537f, 0.045471f, 0.078538f, 0.007196f, -0.009175f, -0.065747f, 0.058242f, -0.021090f, -0.008347f, -0.075065f, -0.077697f, 0.047297f, 0.048011f, -0.192598f, -0.010088f, 0.037891f, -0.089935f, -0.009721f, 0.009236f, 0.101403f, 0.094953f, -0.004168f, -0.017048f, -0.001238f, -0.055832f, 0.040952f, 0.051012f, -0.071062f, -0.041981f, 0.036258f, 0.079018f, -0.021314f, -0.054616f, 0.093012f, 0.023369f, 0.010820f, -0.141477f, 0.047130f, -0.023524f, 0.044293f, 0.001811f, 0.001333f, -0.123259f, 0.084335f, 0.101695f, -0.007464f, -0.023038f, -0.025504f, 0.156286f, 0.005065f, 0.075686f, -0.012213f, -0.020463f, -0.014222f, 0.020444f };
static const float seqdense_layer3_weights[192] = { -0.001450f, -0.000806f, 0.000286f, 0.001056f, 0.000969f, -0.000463f, 0.001270f, 0.000103f, -0.000657f, -0.002047f, 0.000801f, 0.000076f, 0.003980f, 0.000008f, 0.000230f, -0.000024f, 0.000231f, 0.000716f, 0.000161f, -0.000524f, -0.000712f, -0.002697f, 0.000460f, 0.000289f, -0.001435f, 0.000803f, -0.001663f, 0.001257f, 0.001887f, 0.000989f, 0.000077f, -0.000220f, 0.000968f, -0.000474f, 0.000124f, -0.001211f, 0.002854f, -0.001038f, 0.000290f, -0.002533f, 0.001712f, 0.000606f, 0.001273f, 0.000874f, 0.000026f, -0.000959f, 0.000529f, -0.000534f, -0.000702f, 0.000045f, 0.000638f, -0.000667f, -0.001381f, 0.000172f, -0.001397f, 0.000983f, 0.000115f, -0.000677f, -0.000771f, 0.000384f, 0.000223f, 0.000080f, 0.000037f, 0.000155f, -0.000091f, 0.000015f, -0.002040f, 0.000350f, 0.000217f, 0.001312f, -0.000566f, 0.000544f, 0.000924f, 0.001047f, 0.000020f, -0.000811f, -0.000839f, -0.000287f, 0.000138f, 0.001006f, -0.000953f, -0.001745f, -0.000626f, -0.001246f, -0.001194f, 0.000136f, 0.000063f, 0.001629f, -0.000238f, -0.000276f, -0.001280f, 0.002620f, 0.000418f, 0.000519f, -0.000776f, -0.000668f, -0.001259f, 0.000336f, -0.000281f, -0.000919f, -0.000041f, 0.002031f, 0.000115f, 0.001575f, -0.000709f, -0.002020f, 0.000510f, -0.000464f, 0.001857f, 0.000217f, -0.000309f, -0.001463f, 0.000792f, -0.002076f, -0.001404f, -0.000884f, -0.000257f, -0.000934f, -0.000666f, 0.000377f, -0.000582f, -0.001054f, 0.000752f, 0.003226f, -0.000489f, 0.000178f, 0.001375f, -0.001365f, -0.001017f, -0.001529f, -0.001054f, -0.001624f, 0.002605f, -0.000035f, -0.001345f, -0.001303f, 0.000937f, 0.000829f, -0.003455f, -0.000023f, 0.001239f, 0.000823f, 0.000638f, -0.000065f, 0.001221f, -0.000470f, -0.000389f, 0.003173f, 0.000182f, -0.001185f, -0.000996f, -0.000051f, -0.000498f, 0.000672f, -0.001119f, -0.000371f, -0.000462f, -0.000004f, 0.001129f, 0.001192f, -0.000231f, -0.000468f, -0.001780f, -0.001616f, 0.000515f, -0.000154f, -0.000188f, -0.000545f, -0.000666f, 0.000059f, -0.000820f, -0.000448f, 0.002632f, 0.001185f, -0.001235f, -0.000146f, 0.000626f, -0.001635f, 0.000549f, -0.000335f, 0.000403f, -0.000488f, 0.000217f, 0.002409f, -0.000962f, -0.000560f, 0.000245f, -0.000014f, -0.000988f, 0.004853f, 0.001556f, 0.001627f };
static const float seqdense_layer3_biases[3] = { 8.401159f, 0.005532f, 0.022216f };
static float seqdense_buf1[64];
static float seqdense_buf2[64];
static const EmlNetLayer seqdense_layers[4] = { 
{ 9, 9, seqdense_layer0_weights, seqdense_layer0_biases, EmlNetActivationIdentity }, 
{ 64, 9, seqdense_layer1_weights, seqdense_layer1_biases, EmlNetActivationIdentity }, 
{ 64, 64, seqdense_layer2_weights, seqdense_layer2_biases, EmlNetActivationIdentity }, 
{ 3, 64, seqdense_layer3_weights, seqdense_layer3_biases, EmlNetActivationIdentity } };
static EmlNet seqdense = { 4, seqdense_layers, seqdense_buf1, seqdense_buf2, 64 };

    int32_t
    seqdense_predict(const float *features, int32_t n_features)
    {
        return eml_net_predict(&seqdense, features, n_features);
    }
    

    int32_t
    seqdense_regress(const float *features, int32_t n_features, float *out, int32_t out_length)
    {
        return eml_net_regress(&seqdense, features, n_features, out, out_length);
    }
    

    float
    seqdense_regress1(const float *features, int32_t n_features)
    {
        return eml_net_regress1(&seqdense, features, n_features);
    }
    