#include "eml_net.h"
static const float seqdense_layer0_weights[81] = { 0.120295f, 0.085589f, 0.101039f, 0.069536f, -0.271905f, -0.091762f, -0.136182f, 0.054811f, 0.041245f, 0.453307f, -0.316556f, 0.896481f, -0.409550f, 0.679126f, -0.264376f, -0.480948f, 0.239945f, -0.472261f, -0.727987f, -0.584659f, -0.259330f, 0.005320f, 0.345178f, -0.280081f, -0.579909f, -0.619183f, 0.606655f, -0.063664f, 0.274286f, -0.725096f, -0.669013f, 0.098026f, -0.642200f, -0.194010f, -0.625971f, 0.351265f, -0.092809f, -0.093546f, -0.052633f, -0.062291f, 0.301462f, 0.090835f, 0.124285f, -0.032523f, -0.105016f, 0.137433f, 0.149930f, 0.121874f, 0.572160f, -0.047609f, 0.257773f, 0.223805f, 0.245804f, -0.897363f, 0.020987f, 0.199818f, -0.603844f, -0.551549f, 0.091231f, 0.307130f, -0.487637f, -0.286922f, 0.275430f, -0.637402f, 0.165516f, 0.155480f, -0.131866f, -0.729524f, 0.217554f, -0.495602f, -0.688505f, 0.027777f, 0.590186f, -0.447525f, -0.456062f, -0.287632f, 0.390519f, 0.363377f, -0.144538f, -0.104856f, -0.607175f };
static const float seqdense_layer0_biases[9] = { -0.236844f, -0.073966f, -0.371267f, -0.074230f, -0.159005f, -0.206893f, 0.010750f, -0.461010f, 0.356671f };
static const float seqdense_layer1_weights[576] = { -0.003193f, -0.001955f, 0.001748f, 0.004846f, 0.000301f, -0.000111f, -0.003332f, 0.004792f, -0.002881f, 0.001333f, 0.002820f, -0.003680f, 0.000402f, 0.006313f, -0.001870f, 0.001287f, -0.004994f, 0.001085f, 0.006829f, 0.002618f, 0.000565f, 0.001379f, -0.005340f, -0.001741f, 0.000470f, -0.002587f, 0.003387f, -0.002633f, -0.000337f, 0.006379f, -0.003770f, -0.004961f, 0.000012f, 0.000963f, 0.002362f, 0.001729f, -0.005233f, -0.001119f, 0.000690f, 0.002717f, -0.004657f, -0.001749f, -0.009166f, -0.003232f, 0.005245f, -0.001109f, 0.004172f, -0.003955f, 0.002662f, 0.002337f, -0.002558f, -0.000784f, 0.000356f, 0.003094f, -0.004953f, -0.003312f, -0.001756f, 0.001732f, -0.001655f, -0.002352f, -0.001936f, -0.001986f, -0.002342f, 0.000636f, 0.001344f, -0.001671f, -0.004474f, 0.000390f, 0.003772f, -0.002163f, 0.001402f, -0.001495f, -0.001471f, 0.000215f, -0.001444f, 0.002639f, -0.003662f, -0.001233f, 0.000888f, 0.002732f, 0.005813f, -0.000950f, -0.005319f, -0.000199f, -0.000793f, -0.001289f, 0.005028f, 0.001070f, 0.001294f, -0.002564f, -0.001379f, 0.000362f, -0.000369f, -0.003382f, 0.005485f, 0.002776f, -0.001446f, -0.004476f, 0.000513f, -0.001909f, -0.000319f, -0.000604f, 0.001918f, -0.004205f, 0.006157f, 0.001280f, 0.008995f, -0.001503f, -0.005847f, 0.000817f, -0.003656f, 0.003733f, -0.004232f, -0.004637f, 0.004210f, 0.001929f, -0.003723f, -0.010404f, 0.002302f, 0.003428f, 0.002976f, -0.002310f, 0.002025f, 0.006140f, -0.001161f, 0.002310f, 0.002098f, -0.004536f, -0.006303f, -0.000122f, -0.000582f, -0.001022f, 0.000095f, -0.002607f, -0.000155f, 0.001854f, 0.002205f, -0.000904f, -0.006073f, 0.004504f, 0.001061f, -0.001659f, 0.001874f, -0.003820f, -0.000769f, 0.004225f, 0.001770f, -0.000597f, -0.001063f, -0.002639f, -0.001511f, -0.002803f, -0.002786f, 0.003066f, 0.000387f, 0.003434f, 0.001535f, 0.000626f, 0.002363f, -0.000537f, -0.002557f, 0.000991f, -0.001144f, 0.000956f, -0.001236f, 0.001094f, -0.002767f, -0.002352f, 0.001616f, 0.007013f, -0.004707f, 0.000625f, -0.003354f, -0.001015f, 0.000097f, -0.000403f, 0.000506f, -0.000926f, -0.001205f, -0.004896f, -0.000440f, 0.003550f, -0.006889f, 0.000765f, -0.000458f, 0.003367f, 0.001084f, 0.005036f, 0.004474f, -0.000476f, 0.000293f, -0.002370f, 0.003112f, -0.001642f, -0.003601f, 0.001794f, -0.004094f, -0.002180f, -0.000873f, 0.002364f, -0.001247f, -0.002402f, 0.001330f, -0.000860f, -0.003270f, -0.002902f, -0.003378f, 0.005347f, 0.003218f, 0.000729f, -0.003112f, -0.000517f, 0.001233f, -0.003182f, 0.002659f, -0.001234f, 0.003912f, -0.000035f, 0.001219f, -0.001291f, -0.000318f, 0.004505f, 0.006483f, 0.002000f, 0.000254f, -0.002763f, 0.001427f, -0.000543f, 0.002329f, -0.002025f, 0.002733f, 0.001770f, 0.004660f, 0.000522f, -0.000529f, -0.002340f, -0.006115f, -0.003769f, -0.000067f, 0.002846f, -0.003862f, -0.001623f, 0.002826f, 0.000540f, -0.003738f, -0.004299f, 0.004110f, -0.001880f, -0.000044f, -0.005255f, 0.002173f, 0.000627f, -0.000887f, -0.000623f, 0.003841f, -0.000391f, -0.001247f, -0.002043f, -0.002226f, -0.000425f, 0.001623f, -0.001140f, -0.005708f, 0.003313f, -0.000681f, 0.000134f, 0.003512f, -0.000631f, -0.002278f, 0.005980f, -0.004096f, 0.004394f, -0.002984f, -0.002034f, 0.006978f, 0.000910f, 0.003725f, 0.003047f, -0.001464f, -0.000467f, 0.002137f, 0.000959f, 0.005478f, 0.001609f, -0.005473f, 0.005033f, -0.002492f, -0.001435f, -0.001694f, 0.002341f, -0.001119f, -0.000064f, 0.003402f, -0.000860f, 0.000993f, 0.003180f, -0.008226f, -0.000721f, -0.004017f, -0.002523f, 0.009313f, 0.000353f, 0.006188f, -0.005298f, 0.004730f, 0.004462f, -0.002551f, 0.007842f, 0.006257f, 0.001396f, -0.004867f, -0.002387f, -0.006490f, 0.011412f, 0.002241f, -0.005491f, -0.003323f, 0.002949f, -0.002005f, 0.001976f, 0.002488f, -0.006447f, -0.007678f, -0.001552f, -0.005479f, 0.005503f, -0.001952f, 0.004461f, -0.004787f, -0.010326f, 0.003472f, -0.001751f, -0.002803f, 0.002264f, 0.001865f, 0.011470f, 0.002500f, -0.002647f, -0.002057f, 0.000891f, 0.001926f, -0.002613f, 0.001218f, 0.002863f, 0.003343f, -0.000412f, -0.003047f, 0.005028f, -0.000680f, -0.000559f, 0.006195f, 0.001750f, 0.001761f, 0.001334f, 0.004503f, -0.002966f, 0.009839f, -0.002211f, 0.004588f, 0.003542f, 0.000483f, -0.003528f, 0.003230f, 0.000072f, -0.002338f, -0.006357f, -0.003813f, 0.005475f, -0.008081f, -0.008546f, 0.003168f, 0.001804f, -0.007287f, -0.005603f, 0.000810f, 0.000544f, 0.007162f, -0.000993f, 0.004562f, 0.006203f, 0.003232f, 0.003727f, 0.007131f, -0.006086f, 0.001922f, 0.003082f, 0.001020f, -0.005500f, 0.001117f, 0.001740f, -0.003528f, 0.004460f, -0.001577f, 0.000752f, -0.001694f, -0.003920f, 0.000126f, 0.006444f, -0.000323f, 0.001946f, -0.002955f, -0.002765f, 0.007056f, 0.004172f, 0.005141f, -0.001738f, -0.000945f, -0.001691f, 0.003111f, 0.004213f, -0.000721f, 0.004389f, -0.002553f, 0.007254f, -0.000132f, -0.003912f, 0.002876f, 0.000094f, 0.004863f, -0.005824f, -0.002125f, -0.000253f, -0.001701f, -0.004392f, -0.003743f, -0.004634f, -0.004211f, -0.002736f, -0.001987f, -0.006122f, -0.001407f, 0.002353f, -0.001886f, 0.002641f, 0.000551f, 0.001194f, 0.003925f, -0.004972f, -0.000095f, -0.004288f, -0.000135f, 0.001191f, 0.005347f, -0.001423f, -0.001524f, 0.005001f, -0.001691f, -0.001483f, 0.001837f, 0.005348f, -0.001994f, 0.002814f, -0.002605f, -0.001301f, 0.006491f, -0.004840f, 0.000256f, -0.003323f, 0.002383f, 0.002456f, -0.002710f, -0.004452f, -0.002270f, -0.002606f, 0.004064f, 0.002395f, -0.002855f, -0.002920f, -0.000897f, 0.000584f, 0.005561f, 0.000949f, 0.002733f, -0.004549f, 0.000335f, -0.008510f, 0.000342f, -0.003643f, 0.001261f, 0.006026f, -0.004050f, -0.003827f, -0.005331f, 0.003643f, 0.000763f, 0.003642f, 0.002703f, 0.009185f, 0.001730f, 0.003913f, -0.002257f, 0.003624f, -0.002162f, 0.001009f, 0.000768f, 0.000634f, 0.006319f, -0.004300f, 0.000168f, -0.002292f, 0.001081f, 0.000045f, -0.002311f, 0.003345f, 0.000006f, 0.002606f, -0.000977f, -0.001711f, 0.002763f, -0.003995f, 0.002125f, -0.001823f, -0.001151f, 0.009260f, 0.001891f, 0.001470f, 0.006956f, -0.002711f, -0.002492f, -0.006740f, 0.002799f, 0.006426f, -0.005451f, 0.003400f, 0.002172f, -0.001742f, -0.000638f, -0.002149f, -0.000035f, 0.002006f, 0.003184f, -0.001040f, -0.002866f, 0.004775f, -0.001404f, -0.001853f, -0.000040f, -0.005945f, -0.000290f, -0.003700f, 0.003235f, 0.006858f, -0.006270f, 0.001541f, -0.011982f, -0.003810f, -0.000767f, 0.002869f, -0.011358f, 0.003777f, 0.002559f, -0.007474f, -0.001746f, 0.002599f, 0.005101f, 0.002294f, -0.003389f, 0.006223f, 0.005253f, -0.001267f, 0.005513f, 0.005343f, 0.000051f, 0.003842f, 0.006350f, -0.001856f, -0.003785f, 0.002155f, -0.005748f, 0.003358f, 0.000178f, -0.004075f, -0.002327f, 0.001119f, -0.008905f, -0.002073f };
static const float seqdense_layer1_biases[64] = { -0.083042f, -0.066407f, -0.115978f, -0.052369f, 0.144845f, -0.127562f, -0.000113f, -0.050632f, -0.102835f, -0.002987f, -0.094030f, -0.081270f, -0.044823f, 0.076182f, 0.173027f, -0.047539f, 0.046193f, 0.117183f, 0.064924f, 0.110725f, -0.069741f, 0.026913f, 0.109100f, -0.119670f, -0.025069f, 0.157933f, 0.095272f, 0.091874f, -0.005045f, 0.049549f, 0.059772f, -0.071277f, 0.060645f, -0.117074f, -0.132973f, -0.038553f, 0.005331f, -0.067726f, -0.076173f, -0.035256f, 0.035450f, 0.156376f, 0.060535f, -0.210836f, -0.073141f, 0.042560f, 0.193781f, 0.092703f, 0.094542f, 0.050105f, 0.130168f, -0.013165f, -0.160848f, 0.130358f, -0.082963f, -0.068349f, 0.038516f, -0.334185f, 0.233726f, 0.076018f, -0.050331f, -0.001787f, 0.015575f, -0.015393f };
static const float seqdense_layer2_weights[4096] = { 0.005758f, 0.000817f, -0.004310f, -0.001388f, -0.008917f, -0.006355f, 0.002065f, 0.008277f, 0.000120f, 0.007281f, 0.002038f, 0.003008f, -0.004866f, 0.004037f, -0.003384f, -0.001489f, 0.001305f, 0.007914f, -0.013243f, -0.005700f, 0.003670f, -0.000143f, 0.010703f, 0.002812f, -0.000896f, 0.000720f, 0.001710f, -0.001631f, 0.019747f, -0.004341f, 0.001048f, -0.001153f, 0.012367f, -0.008124f, -0.001092f, -0.001455f, 0.012778f, 0.009670f, -0.000557f, 0.008108f, 0.007557f, -0.002211f, 0.004103f, -0.013379f, -0.003690f, -0.003173f, -0.003949f, -0.008878f, 0.008546f, 0.006039f, 0.000305f, -0.003486f, 0.010810f, 0.011614f, 0.002707f, 0.018344f, 0.002200f, -0.009725f, -0.000116f, 0.002076f, 0.004434f, -0.000181f, 0.010848f, 0.000783f, 0.008151f, -0.006845f, -0.009989f, -0.000959f, 0.007596f, 0.001567f, -0.001727f, 0.003195f, 0.010117f, -0.023480f, 0.010719f, 0.008327f, -0.003854f, 0.013007f, -0.005180f, -0.007439f, -0.010668f, -0.013650f, -0.001137f, -0.002006f, -0.005091f, -0.002153f, -0.004790f, 0.005692f, 0.006488f, 0.009192f, 0.014582f, 0.001012f, -0.019397f, -0.004234f, 0.009263f, 0.002777f, -0.004473f, 0.007867f, -0.002891f, 0.004920f, -0.007328f, 0.005215f, 0.001618f, -0.004558f, 0.005109f, -0.005144f, -0.007241f, 0.006486f, 0.001895f, -0.003694f, 0.000359f, 0.003207f, 0.009588f, 0.023124f, -0.009208f, 0.006548f, -0.001446f, 0.001164f, -0.000014f, 0.010805f, 0.014641f, 0.001464f, 0.001509f, 0.003169f, -0.000630f, -0.001605f, -0.007175f, -0.004207f, -0.006969f, -0.011665f, 0.007632f, -0.010914f, -0.002579f, -0.001206f, 0.005669f, -0.004812f, -0.002577f, -0.005739f, 0.004828f, 0.003017f, 0.008110f, 0.011774f, 0.008810f, -0.002134f, -0.009267f, -0.003274f, -0.006677f, 0.012626f, -0.011231f, -0.006770f, 0.011373f, 0.008226f, 0.002575f, 0.012900f, 0.000815f, -0.002875f, -0.006345f, -0.006626f, 0.010430f, -0.002694f, -0.006853f, 0.001038f, 0.005956f, -0.012664f, -0.007378f, 0.004338f, -0.000347f, -0.002101f, 0.016304f, 0.001971f, -0.009179f, 0.002866f, 0.007386f, 0.008078f, 0.007236f, -0.004538f, 0.007848f, -0.007329f, -0.007009f, -0.001554f, -0.018887f, 0.000118f, 0.010364f, -0.001502f, -0.004951f, 0.000094f, 0.012531f, -0.015886f, -0.005266f, 0.006025f, -0.004265f, -0.000610f, -0.011092f, 0.011730f, 0.003276f, 0.000829f, 0.001300f, 0.000569f, 0.016068f, -0.005985f, -0.003079f, 0.002725f, 0.001117f, -0.011969f, -0.002235f, 0.010728f, -0.003973f, -0.007996f, 0.003772f, -0.004201f, 0.003838f, -0.003490f, -0.009297f, 0.000726f, 0.002281f, -0.001046f, -0.008930f, -0.006636f, 0.005689f, 0.011393f, -0.009042f, -0.007757f, 0.005907f, -0.000629f, -0.018340f, -0.002909f, -0.001735f, 0.007457f, 0.011367f, 0.003979f, -0.006913f, -0.004386f, -0.004393f, -0.001430f, 0.002756f, 0.001115f, -0.002853f, -0.008120f, 0.004065f, -0.003617f, -0.003527f, -0.004186f, -0.007188f, -0.019347f, -0.002213f, 0.002440f, -0.000951f, 0.005042f, -0.000920f, -0.004675f, 0.002845f, 0.000831f, -0.002034f, -0.002480f, -0.007719f, -0.004324f, 0.005912f, -0.002021f, -0.007238f, 0.001502f, -0.004035f, -0.004468f, 0.006817f, 0.008357f, -0.002013f, 0.002124f, -0.000483f, 0.001081f, -0.002665f, 0.000864f, -0.001439f, -0.004187f, -0.013107f, -0.006749f, 0.010606f, 0.002406f, -0.004550f, 0.006526f, 0.000273f, 0.004650f, -0.003615f, 0.004990f, -0.004095f, 0.009731f, -0.003524f, -0.004279f, 0.002830f, 0.008374f, -0.010294f, 0.002255f, 0.003996f, 0.002474f, 0.000191f, 0.008377f, -0.003416f, -0.017067f, 0.004341f, 0.000664f, -0.001952f, -0.010105f, -0.006012f, 0.001404f, 0.000639f, 0.004401f, 0.003013f, 0.006808f, -0.011063f, 0.011731f, -0.002995f, 0.006212f, 0.004079f, 0.008864f, -0.004109f, -0.001017f, 0.002988f, -0.001137f, -0.004401f, -0.011632f, -0.004503f, 0.003981f, -0.006680f, 0.007758f, -0.002815f, 0.005743f, -0.002325f, 0.006474f, -0.011087f, 0.007348f, -0.010409f, 0.000912f, 0.009666f, -0.003493f, 0.002600f, -0.014726f, -0.000321f, 0.007074f, 0.001883f, 0.012800f, -0.014766f, -0.005277f, 0.004885f, 0.013322f, 0.003293f, 0.007354f, -0.014916f, -0.004277f, -0.017077f, -0.002516f, 0.004898f, 0.003441f, -0.009284f, -0.000176f, -0.000774f, 0.001099f, -0.003885f, -0.005330f, 0.004338f, 0.007169f, 0.003922f, -0.003215f, -0.003281f, 0.000076f, -0.004006f, -0.000818f, 0.009808f, -0.009135f, -0.005150f, 0.002978f, -0.008501f, -0.009185f, 0.004740f, -0.001886f, 0.001910f, 0.007214f, 0.004662f, -0.007443f, -0.002899f, -0.002055f, 0.000751f, 0.007799f, -0.004012f, 0.013598f, 0.007688f, 0.012190f, -0.007380f, -0.003446f, 0.012780f, 0.001877f, 0.000374f, -0.001307f, -0.002591f, -0.000505f, -0.008477f, 0.000302f, -0.005013f, 0.004276f, -0.006109f, 0.003704f, -0.002752f, 0.002918f, 0.013911f, 0.005574f, 0.014326f, 0.001331f, 0.006919f, 0.008307f, -0.001674f, -0.001472f, -0.001887f, 0.013190f, 0.008346f, 0.009892f, -0.000309f, -0.006180f, -0.007217f, -0.000241f, -0.001039f, 0.006140f, 0.009375f, -0.000293f, -0.000182f, 0.004442f, -0.007775f, -0.007457f, -0.009297f, 0.002212f, 0.006253f, -0.006571f, -0.014853f, -0.009950f, -0.006971f, -0.018608f, 0.001498f, -0.001631f, -0.004432f, 0.010176f, 0.002090f, 0.007007f, -0.008844f, -0.019726f, 0.015289f, 0.012779f, -0.009160f, -0.007020f, 0.001619f, 0.008154f, 0.007300f, 0.003594f, 0.007091f, 0.000413f, -0.003293f, -0.000956f, -0.012190f, 0.008529f, 0.014147f, 0.017063f, 0.003269f, 0.003921f, 0.000194f, -0.001963f, 0.001349f, -0.009971f, 0.006989f, -0.003969f, -0.000283f, 0.000190f, -0.004367f, -0.007764f, 0.002092f, -0.013025f, 0.001565f, 0.002376f, -0.007412f, -0.018842f, -0.003306f, 0.004005f, 0.007200f, -0.013831f, 0.009271f, 0.000218f, -0.006172f, -0.007753f, -0.000237f, -0.004933f, 0.007876f, 0.009304f, 0.000356f, -0.019069f, -0.000896f, -0.006784f, 0.005666f, 0.001443f, -0.007342f, -0.005530f, 0.011875f, 0.002749f, -0.000083f, 0.003425f, 0.010180f, 0.001541f, 0.008669f, 0.001577f, 0.000870f, -0.004607f, 0.008744f, -0.008123f, -0.003748f, 0.000543f, -0.000588f, -0.003133f, 0.008664f, 0.015741f, -0.000652f, 0.006122f, -0.007397f, -0.003533f, 0.012257f, -0.005836f, -0.002117f, -0.003796f, 0.004727f, 0.006124f, 0.001236f, 0.010019f, -0.006288f, -0.008190f, -0.000186f, 0.001201f, -0.006758f, 0.004142f, 0.001516f, 0.010453f, -0.010159f, -0.007514f, -0.007623f, 0.000677f, 0.005291f, -0.007266f, -0.005214f, -0.001506f, -0.003168f, -0.006005f, -0.000813f, -0.001055f, 0.002685f, -0.005882f, 0.005988f, 0.007440f, -0.009949f, 0.001779f, -0.005512f, -0.009410f, 0.002249f, 0.006344f, -0.007668f, -0.015568f, -0.010009f, 0.011960f, -0.008506f, 0.003545f, 0.002666f, 0.004908f, -0.002391f, 0.000200f, -0.000103f, 0.002945f, 0.005339f, -0.002614f, 0.006536f, -0.001445f, -0.003717f, 0.003757f, -0.001453f, -0.001909f, -0.000899f, 0.004304f, 0.000650f, -0.002185f, 0.000791f, -0.000080f, 0.005258f, 0.002796f, 0.001922f, -0.005535f, 0.013149f, -0.005555f, -0.013404f, 0.002328f, 0.011175f, -0.001753f, -0.002327f, 0.010041f, -0.001508f, 0.008441f, -0.002538f, 0.005800f, -0.014962f, -0.006996f, 0.005329f, 0.002026f, -0.007316f, -0.002353f, 0.005971f, 0.009859f, -0.010068f, -0.001780f, -0.010007f, 0.002757f, -0.001554f, -0.000569f, -0.010999f, 0.005605f, -0.003902f, 0.005511f, 0.008457f, 0.005057f, 0.006646f, 0.002555f, -0.013359f, -0.000383f, -0.000632f, 0.009046f, 0.003830f, 0.001307f, -0.001321f, -0.001191f, 0.003954f, 0.000315f, -0.018192f, -0.000847f, -0.014449f, 0.000635f, 0.009668f, -0.007372f, -0.011103f, -0.002192f, -0.005903f, -0.000090f, 0.001014f, 0.016299f, -0.011921f, 0.010503f, -0.006339f, 0.016196f, -0.011428f, 0.027660f, -0.001035f, 0.011228f, 0.001968f, 0.019757f, -0.004289f, -0.006005f, -0.000155f, 0.001494f, 0.007497f, 0.003588f, 0.001765f, -0.006843f, 0.002410f, -0.007364f, -0.004717f, 0.007836f, -0.001743f, 0.008876f, 0.001192f, -0.004047f, 0.009129f, 0.011233f, -0.014423f, 0.004464f, 0.002384f, -0.000616f, 0.006099f, -0.000997f, -0.001034f, -0.005100f, 0.010960f, -0.011386f, -0.014153f, -0.000245f, -0.008507f, 0.005416f, -0.004390f, -0.002577f, 0.004803f, -0.009840f, 0.005069f, -0.001067f, 0.007803f, -0.010784f, 0.006181f, -0.002162f, 0.001215f, -0.003657f, -0.004698f, -0.004425f, -0.009139f, 0.012832f, 0.002726f, -0.005132f, -0.002141f, 0.002063f, -0.003231f, -0.004441f, 0.000197f, -0.015584f, -0.003480f, -0.010925f, -0.000201f, -0.014756f, -0.008326f, -0.007025f, 0.002976f, -0.000114f, -0.004170f, -0.003840f, -0.004183f, -0.003212f, -0.001500f, 0.003237f, -0.002136f, 0.000983f, 0.005802f, 0.004098f, -0.009930f, 0.000175f, 0.002350f, 0.001500f, 0.001983f, 0.008203f, 0.006933f, -0.003278f, 0.004817f, -0.011114f, -0.004235f, -0.001849f, 0.009383f, -0.004945f, -0.006520f, -0.008646f, 0.002757f, 0.009296f, 0.001253f, -0.003910f, -0.004290f, 0.002904f, -0.010316f, -0.005509f, 0.000751f, 0.008430f, -0.003376f, -0.002849f, 0.008271f, 0.008853f, -0.000426f, -0.000378f, -0.002792f, -0.000540f, -0.003642f, 0.002798f, 0.000658f, -0.010157f, 0.003251f, 0.007517f, 0.004826f, -0.015842f, 0.000417f, -0.003185f, 0.000083f, -0.011004f, 0.000635f, 0.004740f, 0.002741f, -0.005995f, -0.001505f, -0.011121f, -0.013710f, -0.003270f, -0.002691f, -0.008631f, 0.000891f, -0.000811f, -0.001339f, -0.017762f, -0.006303f, -0.003123f, 0.002954f, -0.001365f, -0.012021f, 0.016067f, -0.007706f, -0.000297f, -0.004321f, 0.005880f, 0.010857f, -0.001810f, -0.006927f, -0.000381f, -0.000859f, 0.012839f, -0.001421f, -0.001015f, 0.002226f, -0.001144f, -0.011623f, 0.011059f, -0.005074f, -0.001013f, -0.006098f, 0.012371f, 0.000939f, 0.000914f, -0.007081f, -0.002248f, -0.002270f, 0.010362f, -0.012516f, 0.000121f, -0.007517f, 0.002394f, -0.010123f, -0.002252f, -0.002715f, 0.000534f, 0.005092f, -0.002039f, -0.006029f, 0.000357f, -0.009453f, 0.001867f, 0.000779f, 0.004897f, -0.001004f, -0.005198f, 0.003462f, 0.000290f, -0.013195f, -0.002713f, 0.014143f, 0.000055f, -0.005024f, -0.000682f, -0.005818f, -0.005770f, 0.009570f, 0.003797f, 0.006608f, 0.000914f, 0.006238f, -0.002261f, -0.010550f, 0.001587f, -0.012968f, -0.001980f, 0.008210f, -0.005704f, -0.017167f, -0.004529f, -0.003448f, 0.005953f, -0.000535f, -0.001557f, 0.003186f, -0.009300f, 0.008805f, -0.009679f, -0.007462f, -0.005489f, -0.001767f, -0.001055f, 0.004896f, 0.004423f, 0.004342f, 0.008130f, 0.004898f, -0.002240f, -0.000166f, -0.004399f, -0.005642f, 0.001328f, -0.010606f, 0.003703f, 0.003294f, 0.006739f, -0.009717f, 0.002624f, -0.007327f, -0.007188f, 0.009699f, 0.007426f, -0.000269f, 0.014242f, -0.006697f, 0.003883f, 0.012182f, 0.002512f, -0.001387f, -0.000428f, -0.007069f, -0.008663f, 0.004475f, -0.015326f, -0.000390f, -0.005796f, -0.000157f, -0.004248f, 0.003681f, -0.001294f, -0.007041f, 0.004191f, -0.007347f, -0.000087f, 0.011028f, 0.002738f, -0.003314f, 0.000403f, -0.000997f, -0.000481f, 0.004154f, -0.001655f, 0.006811f, -0.005252f, 0.002380f, -0.002041f, -0.008093f, -0.011499f, 0.001646f, -0.000068f, 0.006225f, 0.001470f, 0.005212f, -0.004090f, -0.013094f, -0.005198f, -0.006439f, -0.001719f, -0.007257f, -0.002359f, 0.001974f, -0.002621f, -0.005093f, -0.003720f, -0.008304f, -0.007031f, -0.002167f, -0.004160f, -0.005078f, -0.002608f, 0.003794f, 0.006260f, -0.007274f, -0.011048f, 0.010838f, 0.006621f, 0.005192f, -0.007495f, -0.011093f, 0.000656f, -0.002408f, -0.002136f, -0.011576f, 0.011010f, -0.000335f, 0.000423f, -0.002243f, 0.008093f, 0.001920f, -0.009451f, -0.001531f, 0.008914f, 0.005303f, -0.012639f, -0.009528f, 0.000934f, 0.012337f, 0.010167f, 0.014721f, 0.006456f, 0.001322f, 0.000714f, 0.003461f, -0.003583f, -0.006892f, -0.003079f, 0.001400f, -0.007985f, -0.013290f, -0.004712f, 0.008709f, 0.003168f, 0.001411f, -0.006167f, 0.005581f, -0.000598f, 0.004234f, -0.001275f, -0.006932f, -0.007448f, 0.002349f, 0.011756f, -0.016156f, 0.015399f, 0.010075f, 0.001107f, -0.000448f, -0.013030f, -0.001518f, -0.001546f, -0.014927f, 0.002644f, 0.000984f, 0.002061f, -0.005151f, -0.003052f, -0.005864f, 0.004209f, 0.009484f, 0.010545f, -0.003370f, 0.007802f, -0.005028f, 0.010611f, 0.016222f, -0.003162f, 0.002922f, 0.000160f, 0.002974f, 0.004339f, -0.013248f, -0.009917f, -0.004582f, -0.004303f, 0.012691f, -0.010540f, -0.006822f, -0.000719f, -0.001947f, -0.003595f, 0.009566f, -0.007575f, -0.004397f, 0.006965f, -0.000452f, 0.007679f, -0.008929f, -0.003685f, 0.001534f, -0.001249f, -0.009933f, -0.004724f, 0.003649f, 0.000800f, -0.004921f, 0.015040f, 0.020013f, 0.008786f, -0.001242f, 0.007270f, -0.005445f, -0.009625f, -0.013095f, 0.005334f, 0.000397f, 0.004445f, 0.000404f, -0.004236f, 0.000073f, 0.003309f, -0.011746f, 0.009854f, 0.006279f, 0.003903f, -0.002754f, -0.003601f, -0.003821f, -0.001127f, -0.002947f, 0.001260f, -0.004406f, 0.011184f, -0.003606f, -0.006460f, 0.001576f, -0.007469f, -0.000265f, 0.007244f, -0.001583f, 0.004298f, 0.000322f, 0.006709f, 0.014672f, 0.000698f, 0.005569f, 0.004957f, 0.015588f, -0.009469f, 0.002232f, -0.000329f, 0.010628f, -0.005610f, 0.004884f, -0.000934f, -0.003877f, -0.006249f, 0.007248f, -0.014644f, 0.003184f, -0.009599f, -0.007222f, -0.004358f, -0.000849f, 0.000279f, 0.007534f, 0.003365f, 0.000906f, -0.011237f, -0.014740f, -0.009673f, 0.002578f, -0.001385f, -0.009486f, 0.002069f, -0.001114f, 0.000320f, -0.014639f, 0.004429f, 0.004997f, -0.000110f, 0.001091f, 0.006324f, -0.004767f, -0.005517f, -0.005054f, 0.007406f, 0.005176f, 0.002630f, 0.006960f, -0.003282f, 0.004983f, -0.002500f, 0.004310f, 0.004026f, -0.001893f, -0.000480f, 0.009760f, 0.003989f, 0.011693f, -0.012556f, -0.007616f, 0.002449f, 0.003090f, -0.000505f, 0.012979f, -0.002703f, -0.009394f, 0.002303f, 0.002897f, -0.004601f, -0.002426f, 0.011524f, -0.000169f, -0.009980f, 0.002126f, -0.001247f, 0.016667f, -0.005618f, 0.010204f, 0.002449f, 0.017156f, 0.004837f, -0.008470f, -0.000260f, 0.002491f, 0.004447f, -0.007420f, 0.008171f, 0.001356f, -0.003789f, 0.004852f, 0.004524f, -0.002183f, -0.000150f, 0.006349f, 0.002318f, 0.004322f, -0.017490f, -0.005498f, -0.001463f, 0.006300f, -0.004999f, 0.007490f, -0.006243f, -0.005329f, -0.000681f, 0.011641f, 0.000754f, -0.002497f, 0.002413f, 0.012395f, 0.000512f, 0.001800f, -0.001869f, 0.009950f, 0.005276f, -0.003537f, -0.000376f, -0.002385f, 0.010613f, 0.010083f, -0.013996f, -0.009788f, -0.000559f, 0.004144f, 0.002817f, -0.008049f, 0.011047f, 0.009840f, 0.016140f, 0.004101f, 0.003167f, -0.008817f, 0.009727f, 0.001101f, 0.007044f, 0.004698f, 0.002337f, 0.000807f, 0.009941f, 0.004809f, -0.009864f, -0.002490f, -0.000526f, 0.004631f, -0.002035f, -0.002960f, -0.008358f, 0.006727f, 0.002074f, 0.000092f, -0.000550f, -0.007160f, -0.005399f, -0.000349f, 0.003949f, 0.002856f, 0.002113f, 0.005210f, -0.001498f, 0.004181f, -0.003805f, -0.007536f, -0.001236f, 0.003685f, 0.003405f, -0.004153f, 0.007225f, 0.001831f, 0.002498f, 0.005353f, 0.001250f, -0.004195f, 0.008385f, -0.001498f, -0.005768f, -0.008286f, -0.004997f, 0.006285f, -0.001083f, -0.001245f, -0.007731f, 0.001670f, -0.004903f, -0.002162f, 0.001084f, 0.016500f, -0.008764f, 0.007360f, 0.004407f, -0.007360f, -0.012430f, -0.000461f, -0.009055f, -0.006423f, -0.004558f, 0.007227f, -0.004102f, 0.003396f, 0.004333f, 0.007005f, 0.005149f, 0.012622f, -0.002317f, -0.000108f, -0.008326f, -0.003081f, -0.000433f, 0.000513f, 0.007722f, -0.000865f, -0.009006f, 0.006506f, -0.020490f, 0.006385f, 0.000019f, -0.008094f, -0.010083f, -0.000508f, 0.000126f, -0.004623f, 0.003061f, -0.001312f, 0.002165f, 0.008884f, -0.002658f, -0.004110f, 0.007590f, 0.001328f, 0.002442f, 0.005764f, -0.009123f, -0.010656f, -0.018109f, 0.002540f, -0.004704f, -0.001654f, -0.003531f, 0.000799f, -0.002681f, 0.008971f, -0.001058f, -0.005725f, -0.002643f, 0.001101f, -0.007796f, 0.003749f, 0.011757f, 0.002689f, -0.018779f, 0.012860f, 0.000255f, 0.005285f, 0.004039f, -0.003216f, -0.013583f, 0.012940f, -0.020062f, -0.012952f, -0.010598f, -0.000169f, -0.007602f, 0.005275f, 0.015774f, 0.003680f, -0.005435f, -0.002664f, 0.002606f, -0.000264f, -0.007127f, -0.000811f, 0.004556f, 0.001230f, 0.000103f, 0.001351f, -0.003607f, 0.002609f, -0.009114f, -0.002137f, -0.009989f, -0.002984f, 0.009723f, 0.002855f, -0.005695f, -0.000939f, -0.002771f, 0.009254f, 0.017479f, 0.000359f, -0.009338f, -0.013539f, -0.005762f, 0.007927f, 0.000528f, 0.003148f, -0.000061f, -0.011224f, -0.001924f, -0.001893f, -0.002067f, -0.001613f, -0.013808f, 0.003834f, 0.002410f, 0.009851f, 0.001689f, 0.003267f, 0.006872f, -0.007843f, -0.015967f, -0.000818f, 0.011136f, -0.012645f, -0.018230f, 0.004358f, 0.009079f, -0.004343f, -0.003677f, -0.004968f, -0.000297f, -0.005219f, 0.000596f, -0.007905f, 0.001158f, -0.004790f, -0.005842f, -0.002383f, 0.000951f, -0.002733f, 0.012560f, -0.000493f, -0.007210f, -0.015244f, -0.000767f, 0.000329f, -0.007058f, 0.006693f, 0.007019f, -0.016347f, 0.003087f, 0.002007f, 0.004563f, 0.000664f, -0.010909f, 0.000694f, -0.004059f, 0.000474f, -0.001033f, -0.001056f, 0.006513f, 0.004137f, 0.004362f, 0.001576f, -0.005082f, 0.007318f, -0.001752f, -0.003819f, 0.004414f, 0.002844f, -0.002055f, -0.006250f, -0.001708f, -0.003390f, 0.008540f, 0.011002f, -0.003660f, 0.000224f, 0.016769f, -0.008862f, 0.004869f, -0.001820f, -0.002117f, 0.001862f, 0.008129f, 0.011880f, -0.005336f, -0.006789f, 0.004852f, -0.012879f, 0.013436f, -0.007378f, 0.007804f, -0.000896f, -0.001219f, 0.002405f, 0.007142f, -0.003081f, 0.011727f, -0.002669f, -0.011695f, -0.002409f, 0.000493f, -0.000406f, 0.007338f, -0.000309f, -0.000760f, -0.003311f, -0.011792f, -0.002408f, -0.001249f, 0.005565f, 0.009857f, 0.000510f, -0.009215f, 0.013205f, 0.019535f, 0.008774f, 0.006719f, -0.000423f, -0.007483f, -0.004698f, 0.004390f, 0.001041f, 0.002922f, -0.006890f, 0.001304f, 0.014483f, -0.001908f, -0.017476f, -0.007873f, -0.001157f, -0.018538f, -0.004654f, -0.004972f, -0.006407f, 0.000655f, -0.003864f, -0.003453f, 0.004003f, -0.013641f, 0.003745f, -0.000367f, -0.006364f, -0.000864f, 0.008784f, 0.010356f, 0.007708f, 0.005832f, 0.000288f, -0.000423f, -0.005555f, -0.003531f, 0.001647f, 0.000371f, 0.002059f, 0.002873f, 0.001164f, 0.007285f, 0.003194f, -0.000428f, -0.005566f, -0.010404f, 0.002321f, 0.000699f, -0.005024f, 0.000427f, 0.000867f, -0.002311f, -0.002869f, -0.002527f, 0.001118f, -0.006210f, 0.011816f, 0.009777f, 0.008326f, 0.008597f, 0.004761f, 0.000082f, 0.004739f, -0.001587f, -0.005901f, -0.002736f, 0.008559f, 0.009846f, -0.012219f, -0.001350f, -0.000380f, 0.006492f, 0.002829f, 0.003374f, -0.001183f, -0.000006f, 0.006395f, 0.003910f, -0.008862f, -0.002858f, -0.002420f, 0.005728f, -0.001456f, 0.019024f, 0.001498f, -0.006427f, 0.007261f, -0.005985f, 0.005473f, -0.003854f, 0.000855f, -0.000723f, 0.002185f, 0.001124f, 0.009129f, -0.001007f, 0.004158f, 0.007319f, -0.002366f, -0.011355f, -0.008636f, 0.001278f, 0.006287f, 0.002070f, 0.012424f, -0.000341f, 0.004365f, -0.008527f, -0.013755f, -0.003600f, 0.009094f, -0.000203f, 0.012410f, -0.005806f, 0.005790f, -0.006744f, 0.000073f, 0.003487f, 0.009705f, -0.009224f, 0.005295f, 0.001633f, -0.005900f, -0.014394f, 0.001460f, 0.001557f, 0.002713f, 0.000757f, 0.004336f, 0.005987f, 0.000010f, -0.004304f, -0.001334f, -0.002808f, -0.006333f, -0.007383f, -0.002528f, 0.020655f, -0.004478f, -0.003902f, -0.001635f, -0.000401f, 0.004772f, 0.004469f, 0.004978f, -0.003606f, -0.013983f, -0.002554f, 0.000769f, -0.004279f, -0.009203f, -0.000298f, 0.003000f, -0.002371f, 0.007308f, 0.004978f, -0.012982f, 0.003762f, -0.000548f, -0.005152f, 0.011468f, 0.013882f, -0.006236f, -0.011967f, -0.005872f, 0.011302f, 0.000491f, 0.002818f, -0.003977f, 0.001023f, -0.003105f, 0.009283f, -0.001210f, -0.004866f, -0.005553f, 0.001473f, 0.012106f, 0.009122f, 0.010055f, 0.005899f, 0.011405f, -0.000364f, -0.000604f, -0.002147f, 0.013971f, 0.000345f, 0.001483f, 0.006150f, -0.008312f, 0.004535f, -0.002707f, -0.026169f, -0.003302f, -0.006803f, -0.002132f, -0.003970f, 0.004383f, 0.016478f, -0.006477f, -0.004289f, 0.001718f, 0.010127f, -0.002057f, -0.000516f, 0.002046f, 0.004846f, 0.007692f, -0.004322f, 0.008857f, 0.007258f, 0.003412f, -0.003238f, 0.010963f, -0.002804f, -0.002530f, -0.006881f, 0.005427f, -0.005635f, 0.010409f, 0.004150f, 0.010106f, -0.009948f, -0.011190f, -0.006420f, 0.011701f, 0.008275f, -0.004315f, -0.001503f, 0.001445f, -0.001186f, 0.003231f, -0.005751f, 0.007095f, 0.010444f, 0.005602f, -0.002826f, 0.000576f, -0.006387f, -0.006195f, 0.007943f, 0.002175f, 0.001895f, 0.002280f, -0.008112f, 0.002207f, -0.003730f, -0.005520f, -0.007131f, -0.005960f, 0.005889f, -0.003722f, -0.005024f, 0.004598f, 0.008142f, 0.000280f, -0.011222f, 0.004186f, -0.002503f, 0.000795f, 0.002726f, -0.009364f, -0.000114f, -0.007637f, -0.007944f, -0.013300f, 0.011001f, -0.004091f, -0.001468f, 0.000645f, -0.004115f, 0.003005f, 0.005042f, 0.008782f, -0.004602f, -0.004370f, -0.007698f, -0.000321f, 0.000366f, 0.008401f, 0.004719f, 0.000777f, -0.010158f, 0.002581f, 0.004225f, 0.004814f, -0.006638f, -0.004567f, 0.005210f, 0.009075f, 0.003891f, -0.017538f, -0.005464f, 0.001781f, -0.005825f, -0.000161f, 0.003791f, 0.002127f, 0.004011f, 0.007396f, -0.006699f, 0.001239f, 0.000657f, 0.015835f, 0.009102f, -0.007151f, -0.004422f, 0.002619f, 0.002814f, 0.000404f, -0.002839f, 0.005256f, -0.007364f, -0.009954f, 0.001788f, 0.001354f, 0.002540f, -0.001865f, 0.007586f, -0.010315f, 0.007639f, -0.000505f, 0.002730f, -0.001803f, -0.003004f, 0.004742f, 0.004240f, 0.008352f, -0.006686f, -0.003469f, -0.007606f, 0.008400f, -0.004774f, -0.003524f, -0.007455f, -0.003684f, -0.001416f, -0.017188f, -0.011467f, -0.001028f, 0.003685f, 0.006393f, -0.001466f, 0.018133f, -0.007845f, -0.005411f, 0.004130f, -0.002820f, -0.012891f, -0.000066f, 0.007159f, 0.002360f, 0.010230f, -0.003570f, -0.010380f, 0.002516f, 0.006735f, -0.000650f, 0.005664f, -0.012476f, -0.003568f, -0.002439f, -0.001148f, 0.000596f, 0.002769f, -0.006493f, -0.004320f, 0.001138f, -0.011414f, -0.006731f, -0.002916f, 0.006559f, -0.000228f, 0.013144f, -0.015062f, 0.003823f, -0.012132f, 0.014996f, -0.000815f, 0.004466f, 0.000036f, 0.000696f, 0.005494f, 0.005477f, -0.009144f, -0.000825f, -0.002475f, -0.004607f, -0.003688f, 0.007843f, 0.001413f, -0.000783f, 0.000169f, -0.004882f, 0.006524f, 0.001234f, 0.000283f, 0.001894f, -0.002534f, -0.007356f, -0.000290f, 0.017714f, 0.003606f, 0.000070f, -0.007922f, 0.009293f, 0.005074f, 0.010997f, -0.014788f, 0.001147f, 0.012056f, -0.010468f, 0.000020f, 0.007189f, 0.002290f, -0.000623f, -0.003569f, 0.003457f, -0.005625f, -0.019828f, 0.008433f, 0.001837f, 0.008006f, 0.006199f, 0.000200f, -0.006268f, 0.005819f, 0.007181f, 0.004819f, 0.000997f, 0.006953f, -0.002105f, 0.003814f, -0.003712f, -0.010663f, -0.011548f, 0.005236f, -0.007868f, -0.006869f, -0.009609f, 0.008822f, -0.000317f, -0.006866f, 0.008541f, -0.006742f, 0.008199f, -0.010207f, -0.008374f, 0.012689f, -0.000718f, -0.007245f, 0.007153f, -0.002685f, -0.002883f, 0.007056f, 0.002916f, -0.006228f, -0.008121f, -0.001405f, -0.004662f, 0.015636f, 0.006484f, 0.007088f, -0.004075f, -0.005867f, -0.011912f, 0.004839f, 0.001604f, 0.007860f, -0.002279f, 0.006095f, -0.004664f, 0.000786f, -0.009524f, -0.007214f, -0.000030f, -0.011724f, -0.002918f, -0.001822f, -0.011659f, 0.013057f, 0.008822f, -0.009427f, 0.001875f, 0.021297f, -0.002735f, -0.002341f, -0.004700f, 0.005750f, 0.002205f, 0.003142f, -0.008703f, -0.004518f, 0.009054f, -0.001808f, -0.000441f, 0.011785f, 0.000182f, -0.007004f, 0.002388f, 0.004995f, -0.021287f, -0.017181f, -0.006293f, -0.002375f, -0.001995f, -0.007731f, 0.000819f, 0.005345f, -0.001976f, -0.016142f, -0.002654f, 0.010051f, 0.000706f, 0.010542f, -0.002540f, 0.003308f, -0.002969f, -0.010101f, -0.002969f, -0.006379f, -0.006912f, 0.001390f, 0.000630f, 0.005616f, 0.000684f, 0.001086f, -0.012350f, 0.003093f, 0.006800f, -0.007506f, -0.017524f, 0.014186f, 0.011005f, -0.002194f, -0.002857f, -0.004453f, -0.003396f, -0.010193f, -0.003387f, 0.006340f, 0.001670f, -0.011561f, -0.006367f, -0.002149f, -0.009817f, -0.004910f, 0.011051f, -0.002600f, -0.005178f, 0.011142f, -0.012687f, -0.002641f, -0.014225f, 0.005392f, 0.000535f, 0.004351f, 0.003663f, 0.010010f, 0.008821f, -0.004904f, 0.000036f, 0.008793f, 0.003775f, 0.027932f, 0.004911f, -0.001774f, 0.002938f, -0.008681f, 0.013435f, 0.000289f, 0.004433f, 0.008165f, -0.001146f, -0.005576f, 0.002487f, 0.004358f, 0.003516f, 0.001754f, 0.005247f, -0.008881f, -0.006602f, -0.001611f, 0.010135f, 0.012665f, -0.003435f, 0.001107f, -0.003562f, 0.001600f, -0.002397f, -0.001759f, 0.000949f, 0.001191f, -0.001459f, -0.001938f, -0.013280f, -0.000380f, 0.012160f, 0.000960f, -0.002242f, -0.009005f, 0.006002f, 0.002060f, -0.002698f, -0.000487f, 0.002225f, -0.004291f, 0.012032f, 0.003459f, -0.002985f, -0.000860f, -0.001196f, 0.003604f, 0.000625f, 0.001286f, 0.009490f, -0.003917f, 0.002824f, -0.011428f, 0.008317f, 0.017411f, -0.008735f, 0.012571f, -0.001161f, 0.000006f, 0.001732f, -0.006544f, -0.011824f, -0.010319f, 0.007610f, -0.000175f, 0.000303f, 0.010197f, -0.015078f, -0.004485f, 0.005407f, -0.000185f, -0.010833f, 0.003612f, -0.005114f, -0.012212f, 0.004057f, -0.008815f, -0.004966f, 0.005960f, 0.007517f, 0.015369f, -0.006756f, 0.008421f, 0.003853f, -0.008727f, 0.003423f, -0.005051f, -0.003307f, -0.006787f, 0.010543f, -0.001307f, 0.008058f, -0.003851f, 0.013272f, -0.015391f, -0.004199f, -0.004683f, 0.011309f, 0.007481f, 0.002097f, -0.004363f, -0.003359f, -0.011874f, -0.000019f, 0.007064f, 0.000906f, -0.004681f, 0.010858f, 0.003085f, -0.006286f, 0.014037f, -0.001409f, 0.007651f, -0.001482f, 0.013984f, -0.007794f, 0.000490f, -0.000098f, -0.001706f, -0.002101f, 0.009137f, -0.013664f, 0.001349f, -0.004374f, 0.002802f, 0.006765f, 0.002778f, -0.000555f, 0.007049f, 0.005299f, 0.000807f, -0.007429f, 0.007040f, -0.000237f, -0.002242f, -0.006251f, -0.004042f, 0.001390f, 0.005232f, 0.015462f, -0.011544f, -0.004656f, 0.003188f, 0.007698f, 0.007253f, 0.001212f, 0.005651f, -0.002653f, 0.000820f, 0.008476f, 0.004462f, -0.000979f, -0.003103f, 0.011553f, -0.001161f, -0.008612f, -0.001292f, 0.001337f, -0.008766f, -0.004912f, -0.001461f, 0.004219f, 0.002838f, -0.006550f, 0.003991f, -0.010063f, -0.006761f, 0.002732f, 0.009051f, 0.006399f, -0.003690f, 0.005872f, -0.004828f, -0.003757f, -0.000767f, 0.015180f, -0.000461f, 0.003926f, 0.002743f, -0.003491f, -0.013138f, -0.000178f, -0.000019f, -0.001320f, -0.010978f, -0.007231f, -0.001294f, 0.003666f, -0.017422f, 0.009535f, -0.007898f, 0.001281f, 0.007594f, -0.000177f, -0.000905f, -0.000138f, -0.000783f, -0.004210f, -0.002330f, 0.000550f, 0.003966f, -0.011180f, 0.005707f, 0.005224f, 0.008463f, 0.003990f, 0.011276f, 0.005129f, -0.005999f, -0.004811f, 0.002012f, 0.001321f, 0.002110f, 0.001128f, -0.003591f, 0.004342f, 0.008015f, -0.001198f, 0.001089f, 0.000433f, -0.000869f, 0.003183f, 0.004064f, -0.003383f, -0.007732f, 0.002530f, 0.007091f, -0.001726f, 0.003289f, -0.003244f, -0.000188f, 0.008622f, 0.001986f, 0.002705f, -0.004485f, -0.001337f, -0.000042f, 0.001910f, -0.006291f, -0.002229f, -0.007664f, -0.000175f, -0.003246f, 0.005273f, -0.002545f, -0.004421f, 0.003475f, -0.005514f, -0.002082f, 0.010216f, 0.006797f, 0.004766f, -0.002043f, -0.002732f, 0.007511f, 0.004460f, 0.014623f, -0.002533f, -0.006735f, -0.003637f, 0.010048f, -0.004397f, 0.007260f, -0.002631f, -0.014619f, 0.001274f, -0.006101f, -0.002118f, 0.005274f, 0.005143f, -0.007735f, -0.012921f, 0.005507f, 0.000133f, -0.003522f, -0.007539f, -0.003012f, 0.001354f, 0.013764f, 0.007280f, 0.011565f, -0.002888f, -0.000084f, -0.001517f, -0.012513f, -0.008050f, 0.003258f, -0.003233f, -0.005520f, -0.005752f, -0.007002f, -0.014450f, -0.005974f, 0.000815f, -0.001887f, -0.000065f, -0.005887f, -0.001416f, 0.006565f, 0.000548f, -0.005746f, 0.018493f, 0.004760f, -0.004991f, -0.003380f, 0.008516f, 0.010428f, 0.006521f, -0.013629f, -0.000073f, -0.004435f, -0.000665f, 0.002944f, 0.003821f, -0.000813f, -0.000738f, -0.006883f, 0.010231f, -0.006706f, -0.002884f, 0.008600f, -0.000320f, 0.007103f, -0.009658f, 0.000153f, -0.013837f, -0.007632f, 0.008446f, -0.003944f, -0.005006f, -0.006945f, 0.000502f, -0.001062f, 0.007766f, -0.006102f, 0.006916f, 0.003092f, -0.011223f, -0.012102f, 0.004028f, 0.000967f, -0.007314f, 0.001376f, 0.001393f, -0.000865f, -0.003219f, -0.004478f, -0.005987f, 0.009534f, 0.012384f, -0.007970f, 0.006237f, 0.002741f, -0.006410f, 0.008078f, -0.002978f, -0.002944f, 0.010663f, 0.004906f, -0.000686f, 0.006758f, -0.007855f, -0.004520f, 0.001665f, -0.002613f, 0.004141f, -0.006560f, 0.013028f, -0.004605f, -0.005385f, -0.007804f, -0.006241f, 0.008727f, 0.001683f, 0.015673f, 0.001883f, 0.007549f, 0.010952f, -0.008317f, 0.002689f, 0.007487f, 0.005406f, -0.001365f, 0.006935f, -0.006637f, -0.010626f, 0.009823f, 0.000295f, 0.001270f, 0.003402f, -0.004882f, -0.003213f, -0.004785f, 0.002040f, -0.003921f, -0.002039f, 0.003214f, 0.003011f, 0.007295f, 0.006612f, 0.008006f, 0.006086f, 0.000681f, -0.001651f, -0.009609f, 0.008457f, -0.000884f, 0.009490f, 0.009945f, 0.008071f, -0.004447f, -0.003710f, 0.010604f, 0.000571f, -0.007989f, 0.000006f, 0.007409f, 0.005858f, -0.015915f, 0.005048f, 0.000894f, 0.006046f, -0.000910f, 0.004056f, 0.003626f, 0.009041f, -0.002717f, 0.001613f, -0.000418f, -0.009409f, -0.002967f, 0.006361f, 0.002717f, -0.003295f, 0.015149f, -0.003396f, -0.013476f, -0.000510f, 0.004503f, -0.000192f, 0.001012f, -0.004254f, -0.003182f, 0.002950f, 0.003986f, 0.011932f, -0.000357f, 0.003946f, -0.004830f, -0.010036f, 0.008844f, 0.013863f, 0.002299f, 0.002404f, 0.012120f, -0.006359f, 0.001251f, 0.005037f, -0.007858f, 0.006692f, -0.009528f, 0.004680f, -0.003999f, -0.001943f, 0.004310f, 0.005409f, 0.010633f, 0.012961f, 0.003133f, 0.000181f, 0.003395f, 0.007411f, -0.006162f, 0.001132f, -0.003573f, -0.003462f, -0.000844f, 0.002125f, 0.001140f, 0.003160f, -0.004682f, 0.003035f, -0.002552f, -0.002246f, -0.010584f, 0.009653f, 0.006783f, -0.008032f, -0.004792f, 0.004920f, 0.007125f, 0.002416f, 0.014025f, 0.000108f, -0.015444f, -0.013238f, 0.002016f, 0.005533f, -0.001555f, 0.013237f, -0.010046f, -0.009448f, 0.010928f, -0.004433f, -0.002234f, 0.002168f, 0.008720f, -0.002901f, -0.015074f, -0.001950f, -0.003281f, -0.003633f, 0.009932f, -0.008331f, 0.007310f, -0.006855f, -0.011201f, -0.005149f, 0.010887f, -0.005192f, -0.001361f, 0.000188f, 0.002969f, -0.004699f, -0.002984f, 0.010896f, -0.009785f, -0.009575f, -0.002548f, -0.006085f, -0.002947f, 0.000380f, -0.002154f, -0.015786f, 0.017724f, -0.009114f, 0.000327f, -0.002995f, 0.010747f, 0.000790f, -0.015701f, -0.006608f, -0.005208f, 0.003890f, 0.005227f, -0.000810f, 0.005002f, -0.011954f, -0.006064f, 0.004695f, 0.006583f, -0.005006f, 0.006086f, 0.004990f, 0.001199f, -0.004006f, 0.000516f, -0.001167f, -0.004384f, 0.001905f, -0.003285f, 0.002003f, -0.005353f, 0.003982f, 0.002106f, 0.001892f, 0.002313f, 0.004838f, 0.001107f, 0.009795f, 0.007798f, 0.003034f, 0.000346f, -0.004877f, -0.000501f, 0.003639f, -0.007204f, 0.002857f, 0.007294f, -0.005384f, 0.002056f, 0.005912f, -0.008635f, 0.009568f, 0.008016f, -0.007407f, -0.001487f, 0.003281f, -0.000307f, -0.000463f, 0.009493f, -0.003648f, 0.000283f, -0.005622f, -0.007632f, -0.003027f, 0.001710f, -0.004820f, 0.006953f, -0.012027f, -0.001868f, -0.008443f, 0.017030f, 0.000797f, 0.008739f, 0.001120f, 0.000816f, -0.003813f, -0.009199f, -0.006704f, 0.002334f, -0.011908f, 0.009082f, 0.000521f, -0.003764f, -0.003928f, 0.009677f, -0.002092f, -0.000679f, -0.002369f, -0.006605f, 0.006020f, 0.003330f, -0.003529f, 0.000767f, -0.002841f, -0.004729f, 0.001559f, 0.002850f, -0.007122f, -0.006854f, 0.000159f, -0.016854f, 0.000538f, 0.002010f, -0.014013f, -0.005549f, -0.000901f, -0.010773f, 0.005820f, 0.006811f, 0.000297f, 0.003251f, -0.013419f, 0.001439f, 0.009922f, -0.004685f, 0.003808f, 0.019892f, -0.002844f, 0.008088f, -0.001670f, 0.002618f, 0.002447f, 0.006525f, 0.001633f, -0.001318f, -0.002906f, -0.006910f, 0.001483f, -0.001641f, -0.002412f, 0.009804f, -0.002622f, -0.000681f, -0.002225f, -0.005253f, -0.007372f, 0.009016f, 0.002933f, 0.003673f, 0.001225f, -0.004122f, -0.008299f, -0.002806f, -0.013055f, 0.001977f, -0.004976f, -0.013426f, -0.003394f, -0.009253f, -0.001632f, 0.001789f, 0.000984f, -0.004306f, 0.013747f, 0.014770f, 0.004692f, 0.006989f, -0.001418f, 0.009180f, 0.004304f, -0.017026f, -0.005728f, 0.003438f, -0.012456f, -0.002641f, 0.013396f, 0.008915f, -0.000346f, 0.003342f, 0.000723f, 0.006871f, 0.007794f, -0.005225f, 0.001238f, -0.005317f, -0.014346f, 0.009700f, -0.001255f, -0.004281f, 0.003020f, 0.009121f, 0.003320f, 0.001029f, -0.002691f, 0.005990f, -0.014039f, 0.005615f, -0.004134f, 0.000479f, 0.002299f, -0.009301f, -0.005506f, -0.004640f, 0.002683f, -0.007276f, -0.005531f, 0.016611f, 0.003690f, -0.007881f, -0.005836f, -0.003255f, -0.016476f, 0.005439f, -0.006469f, -0.006211f, 0.003576f, -0.006931f, -0.006988f, 0.006183f, -0.006924f, -0.001513f, -0.007889f, -0.001106f, 0.002596f, 0.005951f, -0.006803f, -0.000065f, -0.009275f, -0.005897f, 0.002515f, 0.007732f, -0.007234f, 0.001977f, -0.003124f, -0.010793f, 0.021668f, -0.000567f, -0.000924f, -0.013009f, 0.001744f, -0.003600f, -0.010713f, 0.002695f, 0.011169f, -0.001410f, -0.005049f, -0.003624f, 0.009963f, -0.001044f, 0.008502f, 0.003614f, -0.003888f, 0.002119f, -0.001514f, 0.010250f, 0.002199f, -0.010149f, -0.001108f, -0.000082f, -0.007812f, -0.003846f, 0.006339f, -0.000754f, 0.002143f, -0.011633f, 0.009072f, 0.003971f, -0.000421f, 0.001913f, -0.005603f, -0.005773f, -0.013029f, 0.015875f, 0.006635f, 0.007102f, -0.007263f, 0.002700f, -0.000617f, -0.000778f, 0.012289f, -0.004616f, 0.003593f, 0.023655f, -0.011350f, 0.009634f, -0.005491f, 0.007149f, -0.002727f, -0.009917f, 0.012826f, 0.012212f, -0.009816f, -0.003297f, -0.004755f, 0.014001f, 0.000172f, -0.006732f, -0.001205f, 0.005505f, -0.001427f, -0.009897f, 0.004316f, 0.007948f, -0.007307f, -0.003299f, -0.007949f, -0.013986f, -0.007366f, -0.003564f, 0.006101f, 0.000113f, -0.002131f, 0.008030f, -0.011235f, 0.003325f, -0.014696f, -0.006147f, -0.006457f, 0.003703f, -0.003540f, 0.012365f, 0.005471f, 0.000102f, -0.000740f, -0.002450f, -0.007308f, 0.001751f, -0.005460f, 0.010326f, 0.001383f, -0.004237f, -0.007793f, -0.004894f, 0.005493f, 0.007436f, -0.006795f, 0.007501f, -0.002386f, -0.006218f, 0.013179f, -0.015227f, -0.007976f, 0.006035f, 0.006267f, 0.008484f, -0.003156f, -0.001782f, 0.011058f, 0.003630f, -0.007429f, 0.014882f, -0.008866f, -0.006603f, -0.005351f, 0.001740f, -0.002978f, 0.001943f, -0.004495f, 0.003721f, 0.002668f, 0.002453f, -0.004979f, -0.005740f, 0.009968f, -0.001925f, 0.002279f, 0.003231f, 0.004039f, -0.000912f, -0.000388f, 0.021606f, -0.001453f, 0.002511f, -0.001518f, -0.007014f, 0.002265f, -0.006128f, 0.007776f, -0.003998f, -0.011739f, 0.000309f, -0.001722f, 0.000638f, -0.009111f, -0.006362f, 0.004747f, -0.002203f, -0.010249f, -0.004708f, 0.000359f, 0.003243f, 0.000266f, 0.003480f, 0.006094f, 0.003269f, -0.007041f, 0.000659f, 0.004459f, 0.004065f, 0.005106f, 0.006032f, 0.005209f, 0.003899f, 0.004493f, 0.002560f, 0.002032f, 0.002460f, -0.004735f, -0.005220f, 0.006252f, 0.012743f, -0.015524f, 0.019986f, 0.006102f, 0.011831f, -0.001508f, -0.006418f, 0.012105f, 0.012600f, -0.004802f, -0.001609f, 0.008187f, 0.001616f, -0.002263f, -0.011063f, -0.000315f, 0.003397f, -0.011888f, -0.004878f, -0.001913f, 0.000831f, -0.001539f, -0.007638f, -0.005046f, -0.011861f, -0.002208f, 0.007510f, 0.008141f, -0.001779f, 0.008319f, -0.012530f, -0.005632f, -0.001570f, 0.006311f, 0.009782f, -0.004240f, -0.007128f, 0.014178f, -0.010023f, -0.011585f, -0.005004f, -0.002140f, -0.005352f, -0.001423f, 0.000537f, 0.016967f, -0.010808f, 0.011985f, 0.004331f, 0.006219f, 0.003653f, -0.006927f, -0.005369f, 0.003781f, -0.002278f, 0.003154f, 0.001189f, 0.003184f, -0.002379f, 0.009409f, -0.002599f, 0.005898f, 0.001105f, -0.002156f, 0.011107f, -0.016232f, 0.003218f, -0.002473f, -0.005334f, 0.002357f, 0.002103f, -0.008732f, 0.001958f, 0.002898f, 0.003450f, -0.003417f, -0.004986f, -0.001754f, 0.012481f, -0.003099f, -0.005550f, 0.005789f, 0.000597f, -0.009068f, -0.008304f, 0.002365f, 0.007734f, 0.004481f, 0.009024f, -0.008618f, -0.002437f, -0.010751f, -0.001240f, -0.009034f, -0.005519f, -0.010900f, -0.000468f, -0.010838f, -0.002888f, 0.008175f, 0.005408f, 0.003570f, 0.006506f, -0.001243f, 0.013316f, -0.003758f, 0.018065f, -0.007084f, -0.014889f, 0.001499f, -0.000130f, -0.000258f, 0.012241f, -0.000013f, -0.000426f, 0.000075f, 0.002435f, 0.000634f, -0.000940f, -0.009956f, -0.008814f, -0.005076f, -0.006254f, -0.016024f, -0.002039f, -0.010545f, -0.000151f, -0.002350f, -0.011309f, 0.016458f, 0.003046f, -0.003747f, -0.009803f, -0.012054f, 0.006241f, 0.006819f, -0.001012f, -0.004705f, 0.008308f, -0.011640f, -0.004384f, 0.002654f, -0.010371f, 0.003205f, -0.001765f, 0.005354f, 0.000614f, -0.008299f, -0.003489f, 0.007294f, -0.003335f, 0.004119f, 0.005103f, 0.009185f, -0.005295f, 0.003479f, 0.006267f, 0.009496f, 0.001716f, 0.007168f, 0.005011f, 0.000781f, -0.005039f, 0.013689f, 0.002145f, -0.005313f, -0.006674f, -0.006370f, 0.000306f, -0.016345f, 0.009978f, -0.004698f, -0.002381f, 0.001613f, -0.008868f, 0.014074f, 0.002870f, 0.002516f, -0.011646f, -0.005653f, -0.003571f, 0.008936f, -0.002249f, 0.008637f, 0.007566f, -0.000096f, -0.004482f, -0.000618f, 0.002421f, 0.004015f, -0.008198f, 0.013489f, 0.011469f, -0.001596f, 0.002712f, 0.006157f, 0.006217f, -0.002617f, -0.012037f, 0.003300f, 0.002971f, -0.008780f, 0.003834f, -0.001222f, 0.000351f, -0.005977f, 0.001958f, 0.001672f, 0.012661f, -0.007045f, 0.008092f, 0.008222f, 0.013787f, -0.003408f, 0.004641f, -0.013579f, -0.009048f, 0.000546f, -0.011519f, 0.005443f, -0.002216f, -0.007608f, 0.003894f, -0.002271f, -0.010527f, -0.006967f, -0.007906f, 0.008626f, -0.003420f, -0.004411f, 0.007338f, -0.006351f, -0.006192f, 0.002955f, -0.005926f, 0.003573f, 0.000617f, -0.004834f, -0.005051f, -0.006255f, -0.015981f, -0.004048f, 0.019826f, 0.001622f, 0.002861f, -0.012685f, -0.001329f, -0.005905f, -0.001289f, 0.008968f, 0.009306f, 0.012038f, -0.007088f, -0.000209f, 0.003392f, -0.012119f, 0.010417f, 0.003328f, -0.000545f, -0.005212f, 0.003639f, 0.001642f, -0.001205f, -0.000354f, -0.010988f, 0.027133f, 0.023839f, -0.003474f, -0.007549f, -0.005347f, 0.008015f, 0.002463f, -0.006233f, -0.004800f, 0.015627f, -0.003085f, 0.005725f, 0.003076f, 0.004962f, 0.011838f, 0.010509f, 0.003860f, 0.000447f, 0.007752f, 0.000852f, 0.006544f, -0.006028f, 0.010828f, -0.005376f, 0.001841f, 0.004339f, -0.001434f, 0.006873f, 0.002039f, -0.002356f, 0.001104f, -0.001947f, -0.007718f, -0.003458f, 0.004053f, 0.006177f, -0.007035f, 0.005051f, 0.000338f, 0.005036f, 0.001189f, -0.009207f, 0.002831f, -0.007939f, 0.007432f, -0.001687f, 0.007391f, 0.007490f, -0.000736f, -0.010720f, -0.001785f, 0.003298f, 0.006315f, -0.004674f, 0.002617f, 0.003273f, -0.008559f, 0.001172f, 0.001386f, -0.007778f, 0.008744f, 0.011861f, 0.002135f, -0.003712f, 0.003928f, -0.003930f, -0.003326f, 0.010837f, 0.002754f, -0.008322f, 0.002447f, 0.007014f, 0.005467f, -0.004403f, -0.005922f, 0.003381f, 0.002784f, 0.007799f, 0.005500f, 0.010470f, 0.008367f, 0.003628f, 0.000546f, 0.001821f, 0.019365f, 0.006844f, 0.008310f, -0.006145f, 0.003185f, 0.002889f, -0.002132f, 0.011994f, 0.010072f, -0.007856f, 0.015403f, -0.002337f, -0.001888f, -0.005006f, 0.003687f, 0.004332f, -0.001614f, 0.004684f, 0.006077f, 0.009168f, -0.012717f, -0.009162f, -0.006991f, -0.000034f, 0.011528f, 0.015393f, 0.000329f, 0.000184f, -0.006547f, -0.001026f, -0.003301f, -0.005265f, 0.004089f, 0.017159f, 0.004998f, 0.008679f, 0.002862f, 0.009279f, 0.003267f, 0.020563f, -0.005628f, -0.009819f, -0.001187f, 0.002461f, -0.009419f, -0.005184f, 0.010862f, 0.006422f, -0.001263f, -0.005874f, -0.008797f, -0.000362f, -0.006339f, -0.010672f, 0.002774f, 0.005823f, -0.009510f, -0.002471f, -0.008383f, -0.006354f, -0.012561f, -0.009099f, 0.000255f, 0.002376f, -0.016174f, -0.000143f, -0.015386f, -0.000048f, -0.015069f, 0.003718f, -0.006270f, 0.000370f, -0.007749f, 0.001604f, -0.009982f, 0.001122f, -0.004409f, -0.000885f, 0.006706f, -0.003595f, -0.005598f, -0.009738f, 0.000161f, 0.003444f, -0.008431f, -0.000956f, 0.003512f, 0.010290f, 0.007117f, 0.002845f, -0.007740f, -0.018693f, 0.002087f, 0.000770f, -0.000827f, -0.004032f, 0.003260f, 0.004387f, -0.016859f, -0.007712f, 0.008087f, -0.001138f, -0.002522f, 0.000366f, -0.007866f, 0.006256f, 0.003130f, -0.015278f, 0.004656f, -0.001259f, 0.000243f, 0.002073f, 0.003648f, -0.009264f, -0.001162f, -0.006424f, -0.000138f, 0.015748f, 0.006937f, 0.002509f, 0.002432f, -0.003317f, -0.000692f, -0.008037f, -0.014690f, 0.012719f, -0.000263f, 0.000789f, -0.006112f, 0.004833f, -0.011918f, -0.002137f, 0.010228f, -0.002331f, -0.002597f, 0.001672f, 0.007018f, 0.004604f, -0.001049f, -0.005651f, 0.016365f, -0.001253f, -0.004879f, 0.000137f, 0.010546f, -0.007603f, -0.018581f, 0.002837f, -0.001590f, -0.005370f, 0.006071f, 0.007799f, 0.001897f, 0.015228f, -0.005749f, -0.013731f, 0.004662f, 0.001570f, -0.008250f, 0.002269f, -0.020653f, 0.005804f, -0.014186f, -0.001489f, 0.001429f, -0.012590f, -0.006001f, -0.014658f, 0.005123f, 0.018352f, 0.011882f, -0.001380f, 0.013013f, 0.003363f, -0.011968f, 0.011819f, 0.001638f, 0.005668f, 0.000240f, 0.001721f, -0.000913f, -0.006693f, 0.008341f, -0.008201f, 0.013267f, 0.006773f, -0.005151f, -0.002128f, -0.005838f, -0.008317f, 0.003367f, -0.003032f, 0.007487f, 0.002820f, -0.005210f, -0.016425f, -0.003580f, -0.001997f, 0.003861f, 0.004349f, -0.009049f, -0.005868f, -0.010641f, 0.012275f, 0.008206f, 0.000122f, 0.002989f, -0.003277f, -0.009803f, -0.022087f, 0.004043f, 0.002097f, -0.009410f, 0.011664f, 0.001510f, -0.000860f, 0.003255f, 0.017159f, 0.003850f, -0.004373f, 0.003793f, -0.007076f, 0.004485f, 0.008393f, -0.000276f, 0.002149f, -0.001209f, -0.003059f, -0.001298f, 0.004524f, 0.014192f, -0.006740f, -0.000760f, -0.002688f, -0.008942f, 0.007389f, 0.000626f, 0.010809f, 0.003763f, 0.003055f, -0.003392f, -0.002743f, -0.001386f, -0.003977f, -0.014564f, 0.005947f, 0.008487f, -0.008587f, -0.005652f, 0.005457f, -0.007720f, -0.009126f, -0.010258f, 0.007105f, -0.006682f, 0.000580f, -0.010503f, 0.011757f, -0.000853f, -0.014080f, 0.003678f, -0.013067f, 0.001350f, -0.000517f, 0.002231f, 0.014280f, -0.000907f, -0.011652f, 0.005038f, 0.004641f, -0.003021f, -0.002558f, -0.006619f, -0.002199f, -0.018288f, 0.002329f, 0.000740f, 0.008316f, 0.012408f, 0.008965f, -0.004586f, 0.005274f, -0.001659f, -0.004053f, 0.005651f, 0.006656f, 0.007881f, 0.003424f, -0.002678f, -0.012243f, -0.007401f, 0.006078f, -0.000490f, -0.003432f, -0.016374f, -0.012094f, 0.003676f, -0.000951f, 0.003809f, -0.010661f, -0.000811f, 0.002438f, -0.015232f, 0.008609f, 0.009616f, 0.007010f, 0.004432f, -0.006665f, 0.012311f, -0.007036f, 0.000221f, -0.004434f, -0.003713f, -0.012355f, 0.014397f, 0.000266f, 0.003447f, 0.005643f, 0.004303f, -0.001090f, -0.004489f, -0.000889f, 0.007304f, 0.000848f, 0.000250f, -0.001986f, 0.000337f, 0.004700f, 0.004700f, 0.004570f, 0.008679f, 0.005737f, -0.010230f, 0.003904f, 0.003077f, -0.004826f, 0.003450f, 0.001475f, 0.003562f, 0.003567f, 0.000878f, -0.016030f, -0.002207f, -0.007179f, -0.002659f, 0.002014f, 0.021519f, 0.004287f, 0.000712f, 0.012333f, -0.006105f, -0.012639f, 0.005542f, 0.009431f, 0.004644f, 0.000054f, 0.000576f, 0.006058f, -0.005655f, 0.005495f, -0.000945f, -0.001147f, -0.006720f, -0.003109f, -0.005490f, 0.001752f, 0.007688f, 0.002837f, 0.007689f, 0.001487f, -0.007481f, 0.002287f, 0.008906f, 0.000598f, -0.000233f, -0.009655f, 0.005680f, -0.004653f, 0.003927f, -0.005670f, 0.001764f, -0.000715f, -0.004060f, 0.002173f, 0.001358f, -0.014033f, -0.000461f, 0.009208f, 0.003257f, 0.003823f, 0.004333f, 0.000122f, 0.002787f, -0.001861f, 0.000766f, 0.001474f, -0.002902f, 0.007865f, 0.002938f, -0.003249f, 0.001807f, -0.005890f, 0.006622f, -0.004211f, 0.004634f, -0.001112f, 0.002571f, -0.010994f, 0.000859f, -0.010375f, -0.002671f, -0.014406f, -0.016550f, -0.004864f, 0.003780f, -0.003366f, 0.006307f, 0.005090f, 0.011262f, 0.006390f, -0.020317f, -0.000382f, -0.003277f, -0.000659f, 0.001838f, -0.001185f, -0.000092f, -0.004035f, 0.004366f, 0.009637f, -0.000093f, -0.000447f, 0.001653f, 0.003330f, -0.001211f, 0.000902f, -0.011254f, -0.005751f, -0.004297f, -0.000749f, 0.011745f, 0.005804f, -0.015009f, -0.003715f, -0.010419f, -0.000645f, -0.002229f, -0.000348f, 0.000484f, 0.008563f, -0.004587f, 0.006796f, 0.018214f, -0.000201f, -0.006313f, -0.008194f, -0.009751f, -0.014287f, -0.003901f, 0.004855f, 0.010675f, 0.006462f, -0.009409f, 0.006879f, -0.004770f, -0.003013f, -0.013835f, -0.005367f, 0.001413f, 0.009372f, 0.001058f, 0.008955f, -0.008039f, -0.015841f, 0.008883f, -0.003456f, -0.009339f, -0.005073f, 0.001228f, -0.009310f, 0.006648f, -0.010303f, -0.014242f, 0.000382f, 0.001953f, -0.007184f, -0.006932f, -0.003032f, 0.005172f, 0.006970f, 0.007058f, -0.010714f, 0.009688f, 0.001143f, -0.008739f, -0.000271f, -0.005703f, 0.013877f, -0.003693f, -0.012513f, 0.003646f, -0.005780f, 0.005368f, -0.012478f, -0.000605f, 0.000612f, 0.002210f, -0.011236f, 0.003820f, 0.002141f, -0.000721f, 0.011493f, -0.006039f, 0.001320f, -0.004486f, 0.010068f, 0.002132f, -0.007206f, -0.002033f, -0.001803f, -0.005888f, 0.006316f, -0.011377f, 0.001215f, 0.010111f, -0.004723f, -0.005556f, 0.003060f, -0.010878f, -0.001267f, -0.012185f, -0.007656f, 0.000121f, 0.009060f, -0.005174f, 0.021690f, -0.009650f, -0.008004f, -0.002304f, 0.003698f, -0.001632f, 0.008826f, 0.007958f, 0.002030f, -0.003070f, -0.000450f, -0.000489f, 0.004240f, -0.008415f, 0.002266f, -0.014882f, -0.004406f, -0.008781f, 0.004148f, -0.013404f, 0.009404f, 0.013183f, 0.009186f, -0.008173f, 0.002242f, 0.005269f, 0.001873f, 0.001084f, 0.006363f, 0.004126f, -0.001218f, -0.006656f, 0.001881f, -0.003543f, 0.002666f, -0.007701f, 0.001252f, -0.000233f, 0.001433f, 0.000272f, 0.012729f, 0.004529f, -0.010701f, 0.004550f, -0.001220f, 0.004853f, 0.001881f, 0.003364f, -0.001936f, 0.005343f, -0.008158f, -0.002380f, -0.007899f, 0.004315f, -0.001456f, 0.002910f, -0.004580f, -0.003916f, 0.012438f, 0.010040f, -0.007591f, 0.011429f, -0.003973f, 0.003061f, -0.006027f, -0.007755f, 0.002220f, 0.004956f, -0.003060f, 0.001650f, 0.000912f, 0.006146f, 0.002211f, 0.004419f, 0.003950f, -0.009677f, 0.001682f, -0.023568f, 0.000096f, -0.004208f, -0.003972f, 0.001569f, -0.009107f, -0.000747f, 0.005029f, -0.008309f, 0.015064f, -0.000259f, -0.006453f, 0.000545f, 0.017450f, -0.010386f, 0.001323f, -0.001439f, 0.003152f, -0.003856f, -0.001298f, -0.007096f, -0.005384f, 0.003087f, -0.009141f, -0.014028f, -0.008921f, -0.000350f, 0.001210f, -0.017543f, -0.009006f, -0.000353f, -0.013560f, -0.006312f, 0.003560f, -0.003485f, -0.004698f, 0.003136f, 0.008389f, -0.000123f, -0.007694f, 0.008032f, -0.001770f, -0.006336f, -0.013404f, 0.001091f, -0.000350f, -0.008274f, 0.004727f, 0.003638f, 0.004109f, 0.014223f, 0.001756f, -0.004969f, -0.007365f, -0.009717f, -0.009483f, -0.001406f, -0.005432f, 0.003235f, -0.004615f, -0.010379f, 0.000425f, -0.008367f, 0.002212f, 0.006615f, 0.005990f, -0.001951f, -0.002984f, 0.001001f, 0.013409f, 0.002072f, -0.003731f, -0.004972f, 0.002940f, -0.003937f, 0.001264f, -0.002805f, 0.004283f, 0.011752f, 0.007458f, 0.002654f, -0.009219f, 0.000006f, -0.004804f, -0.004549f, 0.004239f, 0.005897f, 0.004116f, 0.003174f, -0.015748f, 0.001310f, -0.005318f, 0.008225f, -0.009704f, 0.004050f, -0.010162f, 0.008944f, -0.004820f, 0.002209f, -0.002220f, 0.002020f, -0.003624f, -0.001433f, -0.005083f, -0.004349f, 0.000127f, -0.008249f, -0.005029f, -0.012494f, 0.008376f, 0.006571f, -0.002654f, -0.011037f, -0.001599f, -0.007618f, -0.014552f, 0.001196f, 0.006385f, -0.001425f, 0.011098f, 0.001265f, -0.003413f, -0.009754f, 0.008067f, 0.005024f, -0.001717f, -0.000846f, -0.000195f, -0.001795f, 0.015083f, 0.003243f, 0.002345f, 0.002992f, -0.005361f, 0.000560f, -0.002473f, -0.011088f, -0.006143f, 0.002664f, 0.006548f, 0.000477f, -0.000287f, -0.008138f, 0.012394f };
static const float seqdense_layer2_biases[64] = { 0.006004f, -0.020711f, 0.043842f, 0.018507f, -0.025331f, -0.089226f, 0.060724f, 0.074834f, -0.022734f, 0.145985f, 0.016037f, 0.101726f, -0.023385f, -0.009018f, -0.021317f, 0.054950f, 0.017473f, 0.032929f, -0.025787f, -0.052435f, -0.071917f, -0.042162f, -0.024768f, -0.059134f, 0.030377f, -0.041659f, 0.133334f, -0.052108f, 0.086021f, 0.105765f, -0.016959f, 0.082566f, 0.096806f, -0.015523f, -0.123920f, 0.085915f, 0.036293f, -0.033885f, 0.008388f, -0.124948f, -0.059792f, 0.014351f, -0.044704f, 0.032468f, 0.047148f, 0.001846f, -0.101020f, 0.050957f, -0.029172f, -0.115575f, -0.004278f, 0.067421f, -0.013474f, 0.035544f, 0.015769f, -0.177605f, -0.040091f, 0.014562f, 0.051123f, -0.049578f, 0.066149f, 0.063000f, 0.010895f, 0.093145f };
static const float seqdense_layer3_weights[192] = { -0.004434f, -0.002896f, -0.002151f, -0.002967f, 0.000350f, -0.002865f, 0.001361f, 0.002257f, -0.000331f, -0.002415f, -0.002258f, -0.000575f, -0.000259f, -0.001343f, 0.000448f, 0.001927f, -0.000347f, 0.002613f, -0.001286f, 0.003066f, 0.001388f, 0.004788f, 0.000726f, 0.003072f, -0.003352f, -0.003359f, -0.001600f, 0.000894f, -0.001334f, 0.001172f, -0.001458f, -0.003363f, 0.000107f, 0.003107f, -0.004261f, 0.000082f, 0.006644f, 0.006160f, 0.003895f, -0.001176f, -0.000537f, -0.000630f, 0.000605f, 0.004487f, -0.000143f, 0.002222f, -0.000734f, -0.000330f, 0.003004f, -0.002906f, -0.000764f, 0.003757f, 0.001853f, 0.002000f, -0.001130f, -0.001957f, 0.001657f, 0.000707f, -0.001328f, 0.000552f, 0.004279f, 0.002113f, 0.001334f, 0.000316f, -0.000382f, -0.003203f, 0.000302f, -0.001342f, -0.000479f, -0.000841f, -0.000393f, 0.002392f, 0.004760f, 0.002038f, 0.003685f, 0.004976f, 0.001205f, 0.001146f, 0.000199f, -0.000807f, -0.002263f, -0.002230f, -0.003112f, -0.000673f, 0.002055f, 0.001831f, -0.000158f, -0.003033f, -0.000133f, 0.001832f, -0.006686f, -0.001299f, -0.001571f, -0.002410f, 0.000239f, -0.002428f, 0.000690f, -0.001504f, 0.003712f, -0.001049f, -0.003905f, -0.007991f, 0.001528f, 0.001767f, 0.001845f, -0.002136f, -0.000731f, 0.000590f, -0.004270f, -0.004062f, 0.001604f, -0.000675f, 0.001341f, -0.001503f, -0.003515f, -0.002077f, -0.004781f, -0.000066f, 0.003966f, 0.001230f, 0.000868f, -0.003397f, 0.000780f, -0.002051f, 0.003382f, 0.001054f, 0.002618f, -0.001038f, -0.001973f, 0.000249f, -0.000477f, -0.000684f, -0.003784f, 0.000066f, -0.002598f, -0.000074f, -0.001218f, -0.000241f, 0.006866f, 0.007757f, 0.003795f, -0.001447f, -0.000028f, -0.003579f, -0.002370f, -0.000244f, -0.003807f, 0.000011f, -0.003666f, 0.000507f, -0.000122f, -0.000945f, 0.002555f, 0.002157f, -0.005025f, 0.001682f, -0.000339f, -0.003065f, -0.000412f, -0.006285f, -0.005204f, -0.004035f, 0.000327f, 0.001291f, -0.001454f, -0.006072f, 0.000549f, -0.002737f, 0.002872f, 0.003801f, 0.005086f, 0.004183f, 0.000020f, 0.003554f, -0.001719f, -0.003478f, -0.000228f, -0.000212f, -0.000928f, 0.001697f, 0.001639f, -0.000815f, 0.000557f, 0.000817f, -0.000369f, 0.000348f, -0.000843f, 0.002112f, 0.001808f, -0.000834f, 0.003042f, -0.000171f };
static const float seqdense_layer3_biases[3] = { 8.291616f, -0.003635f, 0.023399f };
static float seqdense_buf1[64];
static float seqdense_buf2[64];
static const EmlNetLayer seqdense_layers[4] = { 
{ 9, 9, seqdense_layer0_weights, seqdense_layer0_biases, EmlNetActivationIdentity }, 
{ 64, 9, seqdense_layer1_weights, seqdense_layer1_biases, EmlNetActivationIdentity }, 
{ 64, 64, seqdense_layer2_weights, seqdense_layer2_biases, EmlNetActivationIdentity }, 
{ 3, 64, seqdense_layer3_weights, seqdense_layer3_biases, EmlNetActivationIdentity } };
static EmlNet seqdense = { 4, seqdense_layers, seqdense_buf1, seqdense_buf2, 64 };

    int32_t
    seqdense_predict(const float *features, int32_t n_features)
    {
        return eml_net_predict(&seqdense, features, n_features);
    }
    

    int32_t
    seqdense_regress(const float *features, int32_t n_features, float *out, int32_t out_length)
    {
        return eml_net_regress(&seqdense, features, n_features, out, out_length);
    }
    

    float
    seqdense_regress1(const float *features, int32_t n_features)
    {
        return eml_net_regress1(&seqdense, features, n_features);
    }
    