<?xml version="1.0"?>
<opencv_storage>
<cascade>
  <stageType>BOOST</stageType>
  <featureType>LBP</featureType>
  <height>22</height>
  <width>9</width>
  <stageParams>
    <boostType>GAB</boostType>
    <minHitRate>9.9900001287460327e-01</minHitRate>
    <maxFalseAlarm>5.0000000000000000e-01</maxFalseAlarm>
    <weightTrimRate>9.4999998807907104e-01</weightTrimRate>
    <maxDepth>1</maxDepth>
    <maxWeakCount>100</maxWeakCount></stageParams>
  <featureParams>
    <maxCatCount>256</maxCatCount>
    <featSize>1</featSize></featureParams>
  <stageNum>20</stageNum>
  <stages>
    <!-- stage 0 -->
    <_>
      <maxWeakCount>3</maxWeakCount>
      <stageThreshold>-8.5375905036926270e-01</stageThreshold>
      <weakClassifiers>
        <_>
          <internalNodes>
            0 -1 10 -69730306 -82357611 -804594490 -481869246 -70398774
            -398571480 -1060544101 1193765411</internalNodes>
          <leafValues>
            -8.8519638776779175e-01 8.4492480754852295e-01</leafValues></_>
        <_>
          <internalNodes>
            0 -1 13 -268435585 -28116537 -364723117 -146614011
            -675069167 -570391804 -1472047295 -14456201</internalNodes>
          <leafValues>
            -7.7822041511535645e-01 8.1375044584274292e-01</leafValues></_>
        <_>
          <internalNodes>
            0 -1 69 -1358954497 -285278209 -1 -151060481 2013233151
            -822083585 -129 -131209</internalNodes>
          <leafValues>
            -7.3505473136901855e-01 8.0965775251388550e-01</leafValues></_></weakClassifiers></_>
    <!-- stage 1 -->
    <_>
      <maxWeakCount>5</maxWeakCount>
      <stageThreshold>-1.0172592401504517e+00</stageThreshold>
      <weakClassifiers>
        <_>
          <internalNodes>
            0 -1 71 -134238210 -524289 -21574 -6 -2049 -2049 -17478 -22</internalNodes>
          <leafValues>
            -7.0837086439132690e-01 8.4875619411468506e-01</leafValues></_>
        <_>
          <internalNodes>
            0 -1 16 -134217729 -65553 -4097 -200913 1719093111
            2138406773 -151186059 -445122761</internalNodes>
          <leafValues>
            -6.6597408056259155e-01 8.5092496871948242e-01</leafValues></_>
        <_>
          <internalNodes>
            0 -1 113 -33554571 -1312688777 -73209697 -1998797743
            -87711497 -727150645 -336607013 -2064062209</internalNodes>
          <leafValues>
            -7.1115505695343018e-01 6.9071805477142334e-01</leafValues></_>
        <_>
          <internalNodes>
            0 -1 29 -419435602 -179039797 -607934080 -48508533
            1945714983 -115146749 -922629622 2137483874</internalNodes>
          <leafValues>
            -8.5128808021545410e-01 5.4285210371017456e-01</leafValues></_>
        <_>
          <internalNodes>
            0 -1 6 -521207841 -112602813 -1073641469 -1199513577
            138626235 -2013216754 -670485285 870468447</internalNodes>
          <leafValues>
            -9.0300643444061279e-01 5.2538865804672241e-01</leafValues></_></weakClassifiers></_>
    <!-- stage 2 -->
    <_>
      <maxWeakCount>5</maxWeakCount>
      <stageThreshold>-8.2928484678268433e-01</stageThreshold>
      <weakClassifiers>
        <_>
          <internalNodes>
            0 -1 122 -134219913 7829367 -1 3929971 -536870913 1882718200
            -268435475 -989855745</internalNodes>
          <leafValues>
            -6.5194344520568848e-01 8.3308196067810059e-01</leafValues></_>
        <_>
          <internalNodes>
            0 -1 34 -489488897 -755838007 -112339873 -671293354 201115
            1629653706 -952652817 2009497183</internalNodes>
          <leafValues>
            -8.6305850744247437e-01 6.4023858308792114e-01</leafValues></_>
        <_>
          <internalNodes>
            0 -1 56 -16411 -16385 -17 -1073807361 -131137 -1 -17
            -1383813248</internalNodes>
          <leafValues>
            -6.4572751522064209e-01 7.8512847423553467e-01</leafValues></_>
        <_>
          <internalNodes>
            0 -1 46 -1897930245 -66404039 -1321089377 -35335254
            950903595 -456883390 -83162505 -76056749</internalNodes>
          <leafValues>
            -6.5001386404037476e-01 6.7281639575958252e-01</leafValues></_>
        <_>
          <internalNodes>
            0 -1 50 -610822 -135859745 -641365537 -71122082 -261944877
            -73285558 1493895771 -631184</internalNodes>
          <leafValues>
            -6.8891787528991699e-01 6.5862816572189331e-01</leafValues></_></weakClassifiers></_>
    <!-- stage 3 -->
    <_>
      <maxWeakCount>5</maxWeakCount>
      <stageThreshold>-1.0145941972732544e+00</stageThreshold>
      <weakClassifiers>
        <_>
          <internalNodes>
            0 -1 70 -20978 -17 -2 -1 -268439553 -32769 -16777217 -130</internalNodes>
          <leafValues>
            -6.6954851150512695e-01 7.7692306041717529e-01</leafValues></_>
        <_>
          <internalNodes>
            0 -1 76 -524420 -750657503 1090621595 -146280245 -863247635
            -7241726 -146019873 813694719</internalNodes>
          <leafValues>
            -7.4795550107955933e-01 6.6650491952896118e-01</leafValues></_>
        <_>
          <internalNodes>
            0 -1 35 -287842305 -223621026 -788381298 -204259297
            302219827 -1010580334 1745057651 -1049933</internalNodes>
          <leafValues>
            -6.3945806026458740e-01 6.8694841861724854e-01</leafValues></_>
        <_>
          <internalNodes>
            0 -1 1 -291776513 -556015441 -1019097061 -1714449451
            -502582273 -611680118 -527621161 1197950821</internalNodes>
          <leafValues>
            -7.2595947980880737e-01 5.5633616447448730e-01</leafValues></_>
        <_>
          <internalNodes>
            0 -1 127 -246753419 276128341 -805253055 886432603
            -939351919 293666816 -234709439 1049324235</internalNodes>
          <leafValues>
            -7.8308194875717163e-01 4.8603180050849915e-01</leafValues></_></weakClassifiers></_>
    <!-- stage 4 -->
    <_>
      <maxWeakCount>5</maxWeakCount>
      <stageThreshold>-1.0675653219223022e+00</stageThreshold>
      <weakClassifiers>
        <_>
          <internalNodes>
            0 -1 74 -1073790977 -201326593 1073684106 -20486 -1 -1
            -1073791174 -21926</internalNodes>
          <leafValues>
            -6.0035681724548340e-01 7.9600000381469727e-01</leafValues></_>
        <_>
          <internalNodes>
            0 -1 8 -10506242 -740306546 1879126361 -539023207
            -1716786689 -1148482902 -90445573 1928853333</internalNodes>
          <leafValues>
            -7.5008654594421387e-01 6.3223361968994141e-01</leafValues></_>
        <_>
          <internalNodes>
            0 -1 106 1970798356 287559895 -1048194981 1373104007
            -382607149 -729038325 -1055749431 -185603363</internalNodes>
          <leafValues>
            -6.6737073659896851e-01 6.2489706277847290e-01</leafValues></_>
        <_>
          <internalNodes>
            0 -1 33 -464061441 -569445997 -1054355349 -932975 2018470455
            805520425 1674275676 -353831969</internalNodes>
          <leafValues>
            -6.8977499008178711e-01 5.2340835332870483e-01</leafValues></_>
        <_>
          <internalNodes>
            0 -1 101 -2132423 -649129469 -1073297406 -687364073
            -1056718614 -939491318 -1072611168 902785589</internalNodes>
          <leafValues>
            -8.6450642347335815e-01 4.2684042453765869e-01</leafValues></_></weakClassifiers></_>
    <!-- stage 5 -->
    <_>
      <maxWeakCount>6</maxWeakCount>
      <stageThreshold>-1.6799161434173584e+00</stageThreshold>
      <weakClassifiers>
        <_>
          <internalNodes>
            0 -1 24 -1024262401 -135069697 2147483647 -327681 16074743
            -134742017 805273599 -143130625</internalNodes>
          <leafValues>
            -6.7735260725021362e-01 7.3073351383209229e-01</leafValues></_>
        <_>
          <internalNodes>
            0 -1 111 -545259531 -143262219 -1 2113798143 -3 -167903241
            -268435457 -1061158913</internalNodes>
          <leafValues>
            -5.5022490024566650e-01 7.4125623703002930e-01</leafValues></_>
        <_>
          <internalNodes>
            0 -1 5 -531105281 -48922431 -1857170947 -270805761
            1611004571 -1411710833 1477123707 1878226407</internalNodes>
          <leafValues>
            -5.8398663997650146e-01 5.9704887866973877e-01</leafValues></_>
        <_>
          <internalNodes>
            0 -1 88 -1463639378 -661454823 -721301295 -247689159
            -1148591957 -243259263 -1459508485 -1084519739</internalNodes>
          <leafValues>
            -6.5788191556930542e-01 5.3246122598648071e-01</leafValues></_>
        <_>
          <internalNodes>
            0 -1 119 -168855707 822472961 1073971721 831246977
            -460350769 1342316672 -922631990 613412301</internalNodes>
          <leafValues>
            -7.3845356702804565e-01 4.3817567825317383e-01</leafValues></_>
        <_>
          <internalNodes>
            0 -1 58 -212389378 -779516839 1082197454 -987113334
            -127201109 -108445558 -729732982 933707270</internalNodes>
          <leafValues>
            -9.2575627565383911e-01 3.4694802761077881e-01</leafValues></_></weakClassifiers></_>
    <!-- stage 6 -->
    <_>
      <maxWeakCount>7</maxWeakCount>
      <stageThreshold>-1.2341266870498657e+00</stageThreshold>
      <weakClassifiers>
        <_>
          <internalNodes>
            0 -1 63 -20562 -1 -16466 -1087389714 -1 -1 -16385 671072207</internalNodes>
          <leafValues>
            -6.7187500000000000e-01 6.8359547853469849e-01</leafValues></_>
        <_>
          <internalNodes>
            0 -1 14 -741347329 -783430613 285261845 -746274807
            1375825703 168312840 1954828915 -144704753</internalNodes>
          <leafValues>
            -6.0271829366683960e-01 6.5434503555297852e-01</leafValues></_>
        <_>
          <internalNodes>
            0 -1 67 -1897990145 -10499765 -182204416 -552676973
            -2103205717 -50182654 -241472517 -272698581</internalNodes>
          <leafValues>
            -5.4032582044601440e-01 5.7884114980697632e-01</leafValues></_>
        <_>
          <internalNodes>
            0 -1 45 1758380026 -709817965 -115779623 -69533425
            1090623997 -892682104 -930936197 -570783</internalNodes>
          <leafValues>
            -6.2902444601058960e-01 5.1004642248153687e-01</leafValues></_>
        <_>
          <internalNodes>
            0 -1 3 -896658945 -250494454 -1073725349 1400946955
            1346490521 -1056260090 1174620742 1448558965</internalNodes>
          <leafValues>
            -8.1970715522766113e-01 3.7285342812538147e-01</leafValues></_>
        <_>
          <internalNodes>
            0 -1 108 -171443084 285982851 -402534371 -41303839
            -335298543 -931028863 -758384131 -705994131</internalNodes>
          <leafValues>
            -6.1138468980789185e-01 4.6867948770523071e-01</leafValues></_>
        <_>
          <internalNodes>
            0 -1 86 1493370127 899088604 -1072573953 -44199853 537559451
            427933825 -922688609 544598191</internalNodes>
          <leafValues>
            -7.4132508039474487e-01 3.6828392744064331e-01</leafValues></_></weakClassifiers></_>
    <!-- stage 7 -->
    <_>
      <maxWeakCount>7</maxWeakCount>
      <stageThreshold>-1.0354908704757690e+00</stageThreshold>
      <weakClassifiers>
        <_>
          <internalNodes>
            0 -1 121 -134219913 24508279 -1 821821311 -1 1962246133 -4
            -859832833</internalNodes>
          <leafValues>
            -5.1887619495391846e-01 7.6185673475265503e-01</leafValues></_>
        <_>
          <internalNodes>
            0 -1 74 491880827 -241729200 496828830 -606694926 -796853777
            -394264436 -1987564614 -6321926</internalNodes>
          <leafValues>
            -5.8640748262405396e-01 6.3264024257659912e-01</leafValues></_>
        <_>
          <internalNodes>
            0 -1 55 -1534405641 -581610991 -536766261 -103870369
            2131424139 -91553407 710032123 -1498937216</internalNodes>
          <leafValues>
            -6.8173092603683472e-01 5.5041420459747314e-01</leafValues></_>
        <_>
          <internalNodes>
            0 -1 128 -3146889 1095193867 -752779237 143234241 -439696761
            855810050 -1689520411 569302014</internalNodes>
          <leafValues>
            -6.5411716699600220e-01 4.6419614553451538e-01</leafValues></_>
        <_>
          <internalNodes>
            0 -1 9 787799039 -90532573 -1996488551 -148926433 110394060
            679706632 -2130681309 1940340695</internalNodes>
          <leafValues>
            -7.7525603771209717e-01 3.8149893283843994e-01</leafValues></_>
        <_>
          <internalNodes>
            0 -1 52 -422062113 -233258932 -263109800 -188022711
            1929879945 -225214390 1913229991 -1081186229</internalNodes>
          <leafValues>
            -5.3993827104568481e-01 5.5903917551040649e-01</leafValues></_>
        <_>
          <internalNodes>
            0 -1 30 -1459882193 2038926087 -2147450417 -786972456
            1149978963 1627915272 1087622219 -142294159</internalNodes>
          <leafValues>
            -6.5990483760833740e-01 4.4576692581176758e-01</leafValues></_></weakClassifiers></_>
    <!-- stage 8 -->
    <_>
      <maxWeakCount>7</maxWeakCount>
      <stageThreshold>-1.2183063030242920e+00</stageThreshold>
      <weakClassifiers>
        <_>
          <internalNodes>
            0 -1 116 -70519817 1425407971 -1 -855769089 -571080715
            -737935363 -1 -1056964609</internalNodes>
          <leafValues>
            -5.1905626058578491e-01 7.3848438262939453e-01</leafValues></_>
        <_>
          <internalNodes>
            0 -1 72 -457444897 -2108778237 286359579 -1361440754
            386508974 311419036 -830236518 -16574261</internalNodes>
          <leafValues>
            -6.6811829805374146e-01 5.6760203838348389e-01</leafValues></_>
        <_>
          <internalNodes>
            0 -1 0 -1049628161 -772341753 -1862168359 530382990
            -528246565 -897548150 -1714223065 1389879844</internalNodes>
          <leafValues>
            -6.7377340793609619e-01 4.2239907383918762e-01</leafValues></_>
        <_>
          <internalNodes>
            0 -1 62 -202131506 1897762817 1879294354 -49037309
            -2004794741 1252065416 -445591350 -603006734</internalNodes>
          <leafValues>
            -6.1185818910598755e-01 4.7346466779708862e-01</leafValues></_>
        <_>
          <internalNodes>
            0 -1 82 -1119149601 -743206437 1343453299 -1323036046
            1485398539 -1983807360 -91653221 657486434</internalNodes>
          <leafValues>
            -7.1223640441894531e-01 3.8277867436408997e-01</leafValues></_>
        <_>
          <internalNodes>
            0 -1 38 -1183853857 -208207718 -788336420 -28782563
            1208698994 454688874 1887987872 -51072117</internalNodes>
          <leafValues>
            -6.5784001350402832e-01 3.7436774373054504e-01</leafValues></_>
        <_>
          <internalNodes>
            0 -1 57 1369421294 -716598959 -1793781257 -1247047353
            -899821415 1507000874 -259262261 -3808958</internalNodes>
          <leafValues>
            -5.0190031528472900e-01 5.0704574584960938e-01</leafValues></_></weakClassifiers></_>
    <!-- stage 9 -->
    <_>
      <maxWeakCount>7</maxWeakCount>
      <stageThreshold>-1.2371151447296143e+00</stageThreshold>
      <weakClassifiers>
        <_>
          <internalNodes>
            0 -1 109 -65537 -67239937 -1 -4194309 -1 -1 -134217729
            1890631675</internalNodes>
          <leafValues>
            -4.9904397130012512e-01 6.9445782899856567e-01</leafValues></_>
        <_>
          <internalNodes>
            0 -1 87 -2885852 890652939 -1862083361 -1854889045
            -891232337 1779081928 -368516423 -1142961645</internalNodes>
          <leafValues>
            -6.5222191810607910e-01 5.1089149713516235e-01</leafValues></_>
        <_>
          <internalNodes>
            0 -1 11 -871170085 -553609341 16834947 -144418933 -108297825
            -1093304246 -1736213521 2076933731</internalNodes>
          <leafValues>
            -6.7782998085021973e-01 4.4725045561790466e-01</leafValues></_>
        <_>
          <internalNodes>
            0 -1 64 -1432633261 -448720638 1498420241 -2998245 377618459
            -662175352 -795275205 -24411925</internalNodes>
          <leafValues>
            -5.7758301496505737e-01 5.1959669589996338e-01</leafValues></_>
        <_>
          <internalNodes>
            0 -1 28 -288161825 -12334333 -754909167 -230457151
            1637607627 59375744 -913782645 1996911363</internalNodes>
          <leafValues>
            -7.1501815319061279e-01 4.2546176910400391e-01</leafValues></_>
        <_>
          <internalNodes>
            0 -1 78 -1646937260 1410924757 -2028984233 -250394225
            -494294343 -2119613553 -1423773527 1889377247</internalNodes>
          <leafValues>
            -6.7783737182617188e-01 3.7405836582183838e-01</leafValues></_>
        <_>
          <internalNodes>
            0 -1 15 -221316641 -1689868288 1887531264 -1186309759
            1149655951 185123208 -1342018421 1997698863</internalNodes>
          <leafValues>
            -7.0985078811645508e-01 3.4741011261940002e-01</leafValues></_></weakClassifiers></_>
    <!-- stage 10 -->
    <_>
      <maxWeakCount>6</maxWeakCount>
      <stageThreshold>-1.7015627622604370e+00</stageThreshold>
      <weakClassifiers>
        <_>
          <internalNodes>
            0 -1 89 -1360089106 -65537 -1090584594 -65538 -1073741825
            -1174405121 -66391861 -67178067</internalNodes>
          <leafValues>
            -6.3278687000274658e-01 6.7905712127685547e-01</leafValues></_>
        <_>
          <internalNodes>
            0 -1 13 -1928858113 -599399557 1233993753 -41283181
            -1207772861 -1708933119 -589176235 -535841</internalNodes>
          <leafValues>
            -5.7242202758789062e-01 5.7615113258361816e-01</leafValues></_>
        <_>
          <internalNodes>
            0 -1 105 -68814991 1472327747 -1070514036 -1782202173
            -381525540 536871307 -888516180 1961750013</internalNodes>
          <leafValues>
            -6.1166155338287354e-01 4.6337792277336121e-01</leafValues></_>
        <_>
          <internalNodes>
            0 -1 80 -1785884611 1536344276 -788377122 -1638461357
            -1986861933 -1719073920 -399721992 10338555</internalNodes>
          <leafValues>
            -7.1854114532470703e-01 4.0729314088821411e-01</leafValues></_>
        <_>
          <internalNodes>
            0 -1 75 -673459951 957726877 1036112347 1066931593
            -1702612561 -627503029 -1953780801 606398216</internalNodes>
          <leafValues>
            -7.6567053794860840e-01 3.3207029104232788e-01</leafValues></_>
        <_>
          <internalNodes>
            0 -1 123 -3702971 874072413 -1056877887 298551430 1090732545
            75579522 -788443099 15059613</internalNodes>
          <leafValues>
            -8.5012793540954590e-01 2.8767541050910950e-01</leafValues></_></weakClassifiers></_>
    <!-- stage 11 -->
    <_>
      <maxWeakCount>7</maxWeakCount>
      <stageThreshold>-1.1174972057342529e+00</stageThreshold>
      <weakClassifiers>
        <_>
          <internalNodes>
            0 -1 100 -33603651 -1985 2147467260 -257 -1 -1 -49610404
            -49668</internalNodes>
          <leafValues>
            -5.0179857015609741e-01 7.3519164323806763e-01</leafValues></_>
        <_>
          <internalNodes>
            0 -1 2 -18153665 1860501503 -65729 -852361 2146795519
            -143130625 -1091108865 -135006345</internalNodes>
          <leafValues>
            -4.7305434942245483e-01 6.1322277784347534e-01</leafValues></_>
        <_>
          <internalNodes>
            0 -1 125 -607159977 1683185683 -2142142207 1682391307
            -670177659 1921482882 -938753491 550497871</internalNodes>
          <leafValues>
            -6.7801654338836670e-01 4.1622453927993774e-01</leafValues></_>
        <_>
          <internalNodes>
            0 -1 102 1506489341 1964859409 -2130624369 -548208053
            -1047802903 -931020671 -1018322007 1014889309</internalNodes>
          <leafValues>
            -7.4210268259048462e-01 3.5625115036964417e-01</leafValues></_>
        <_>
          <internalNodes>
            0 -1 26 -245511730 -229035617 1091572119 -855300744
            1384245711 1619273944 -259401589 -824471145</internalNodes>
          <leafValues>
            -5.6075656414031982e-01 4.8928165435791016e-01</leafValues></_>
        <_>
          <internalNodes>
            0 -1 68 -992554849 -1338867453 -670478207 -1794486253
            1166500109 956989568 -792625102 -37588465</internalNodes>
          <leafValues>
            -6.9469863176345825e-01 3.4600356221199036e-01</leafValues></_>
        <_>
          <internalNodes>
            0 -1 22 -7357601 1364893977 1359366191 -988774159 1095895059
            1342373888 -1056880919 -537035995</internalNodes>
          <leafValues>
            -5.9111934900283813e-01 3.9798685908317566e-01</leafValues></_></weakClassifiers></_>
    <!-- stage 12 -->
    <_>
      <maxWeakCount>8</maxWeakCount>
      <stageThreshold>-9.3424892425537109e-01</stageThreshold>
      <weakClassifiers>
        <_>
          <internalNodes>
            0 -1 112 -57 -262145 -1 -66561 -262147 -1 -131075 537656831</internalNodes>
          <leafValues>
            -5.4733407497406006e-01 6.4577656984329224e-01</leafValues></_>
        <_>
          <internalNodes>
            0 -1 65 -65537 -85524482 -1114114 -84738050 -16781313
            -838926337 -133121 -148701185</internalNodes>
          <leafValues>
            -4.1393345594406128e-01 6.6404366493225098e-01</leafValues></_>
        <_>
          <internalNodes>
            0 -1 21 -247344673 -70188687 469856475 -250605278 -670541701
            1887451289 -1988048677 667582570</internalNodes>
          <leafValues>
            -6.5606814622879028e-01 3.9488896727561951e-01</leafValues></_>
        <_>
          <internalNodes>
            0 -1 73 -1828587809 1037893840 1610715137 856686835
            134387810 -922714102 1745389579 -11894489</internalNodes>
          <leafValues>
            -4.9943467974662781e-01 4.9354895949363708e-01</leafValues></_>
        <_>
          <internalNodes>
            0 -1 25 -243948114 1905903697 -804138544 1359077632
            -108102277 -92010349 -536743805 2009266547</internalNodes>
          <leafValues>
            -6.6235119104385376e-01 3.4127813577651978e-01</leafValues></_>
        <_>
          <internalNodes>
            0 -1 5 1141897087 1263603721 -855522864 -912977774
            1619564970 -393609208 688417490 1807120263</internalNodes>
          <leafValues>
            -7.1862357854843140e-01 2.8862741589546204e-01</leafValues></_>
        <_>
          <internalNodes>
            0 -1 81 -234892996 928497927 -805186409 -1656504101
            -930414435 2063630337 -867448533 747547180</internalNodes>
          <leafValues>
            -7.0882165431976318e-01 2.5674960017204285e-01</leafValues></_>
        <_>
          <internalNodes>
            0 -1 35 -833366065 -704638373 1073811500 -519077469
            536888434 -805167096 -402472873 2063360066</internalNodes>
          <leafValues>
            -6.9346815347671509e-01 2.9586625099182129e-01</leafValues></_></weakClassifiers></_>
    <!-- stage 13 -->
    <_>
      <maxWeakCount>9</maxWeakCount>
      <stageThreshold>-1.2401692867279053e+00</stageThreshold>
      <weakClassifiers>
        <_>
          <internalNodes>
            0 -1 107 2139055875 1971289983 -129 2012741631 -33554601
            1987540855 -8519683 -2049</internalNodes>
          <leafValues>
            -4.2483660578727722e-01 6.7024391889572144e-01</leafValues></_>
        <_>
          <internalNodes>
            0 -1 47 584056767 -1727799294 -1878982623 1359069186
            814246539 -1467424760 1929977999 1934252555</internalNodes>
          <leafValues>
            -6.9992232322692871e-01 4.4241461157798767e-01</leafValues></_>
        <_>
          <internalNodes>
            0 -1 117 -644132517 868290648 -1879014767 1610698753
            -1415937693 269090944 -1823759413 -1594117477</internalNodes>
          <leafValues>
            -6.4395403861999512e-01 3.9301511645317078e-01</leafValues></_>
        <_>
          <internalNodes>
            0 -1 53 -1052751416 -611217399 285299027 -576614382
            545802392 -1971322872 -1954510677 -70574073</internalNodes>
          <leafValues>
            -5.8958679437637329e-01 3.9822807908058167e-01</leafValues></_>
        <_>
          <internalNodes>
            0 -1 56 1627488651 -1148125031 285233395 -1788936055
            -1040076610 2030043297 -2012560981 -1314643188</internalNodes>
          <leafValues>
            -5.8629524707794189e-01 3.8876965641975403e-01</leafValues></_>
        <_>
          <internalNodes>
            0 -1 129 -475008393 491475459 285212687 629245961
            -1064375872 1627553922 -359992663 1858663305</internalNodes>
          <leafValues>
            -6.3146722316741943e-01 3.4220972657203674e-01</leafValues></_>
        <_>
          <internalNodes>
            0 -1 51 -1 -16842753 -16385 2146577078 -32769 -32769
            -8945749 -135043200</internalNodes>
          <leafValues>
            -3.7830659747123718e-01 5.5710101127624512e-01</leafValues></_>
        <_>
          <internalNodes>
            0 -1 17 -66131377 285253633 1963036928 -1693854693
            1351289739 940048648 -1064797941 -250439413</internalNodes>
          <leafValues>
            -5.5532091856002808e-01 3.5988298058509827e-01</leafValues></_>
        <_>
          <internalNodes>
            0 -1 79 -1873106998 -792046702 1765969994 -484913148
            -2146828241 -1874198527 -1568653009 -135264156</internalNodes>
          <leafValues>
            -6.6397345066070557e-01 2.8417122364044189e-01</leafValues></_></weakClassifiers></_>
    <!-- stage 14 -->
    <_>
      <maxWeakCount>10</maxWeakCount>
      <stageThreshold>-1.3866544961929321e+00</stageThreshold>
      <weakClassifiers>
        <_>
          <internalNodes>
            0 -1 109 -1061 -33554434 -1 -1145667589 -2 -1 -16777217
            1879096319</internalNodes>
          <leafValues>
            -4.9549549818038940e-01 6.0859829187393188e-01</leafValues></_>
        <_>
          <internalNodes>
            0 -1 99 -170708976 -552927232 -603881448 -784314301
            -503260960 -1610481664 -2004143688 -69471560</internalNodes>
          <leafValues>
            -6.3633686304092407e-01 4.2769429087638855e-01</leafValues></_>
        <_>
          <internalNodes>
            0 -1 42 -384900626 -720146175 -1055911535 1364242456
            -2000158582 -670994429 -1073108550 -539866134</internalNodes>
          <leafValues>
            -6.1439085006713867e-01 3.7581172585487366e-01</leafValues></_>
        <_>
          <internalNodes>
            0 -1 35 -300950785 1487601664 33915082 -582860795 237571
            33685504 19018240 -7821035</internalNodes>
          <leafValues>
            -7.2065281867980957e-01 2.9505231976509094e-01</leafValues></_>
        <_>
          <internalNodes>
            0 -1 10 -668806406 -99561062 -671002408 1627508752
            -2012577608 -938831350 -2012526343 1326152702</internalNodes>
          <leafValues>
            -7.4735462665557861e-01 2.5204545259475708e-01</leafValues></_>
        <_>
          <internalNodes>
            0 -1 67 -1462318081 -544145263 -787377135 -619630326 608651
            1082789888 -805181301 -6434294</internalNodes>
          <leafValues>
            -5.4945486783981323e-01 3.8571891188621521e-01</leafValues></_>
        <_>
          <internalNodes>
            0 -1 77 -620506817 285278476 -2147412645 529613057
            -1879009117 1577222146 -2138516489 -56784705</internalNodes>
          <leafValues>
            -4.5571824908256531e-01 4.4884294271469116e-01</leafValues></_>
        <_>
          <internalNodes>
            0 -1 84 -580998340 2002960577 -805302272 2063696211
            -1073688380 -1979000702 1343341924 516477655</internalNodes>
          <leafValues>
            -7.2343671321868896e-01 2.4075426161289215e-01</leafValues></_>
        <_>
          <internalNodes>
            0 -1 44 -2111835393 -737492832 10 -787349430 1107853322
            -2113896317 34291778 2004273907</internalNodes>
          <leafValues>
            -5.9912711381912231e-01 3.0437740683555603e-01</leafValues></_>
        <_>
          <internalNodes>
            0 -1 19 -988601886 986284373 1342181458 -795356813
            -657702438 447426722 -2138423073 1079009458</internalNodes>
          <leafValues>
            -7.1769016981124878e-01 2.6425731182098389e-01</leafValues></_></weakClassifiers></_>
    <!-- stage 15 -->
    <_>
      <maxWeakCount>10</maxWeakCount>
      <stageThreshold>-1.2756583690643311e+00</stageThreshold>
      <weakClassifiers>
        <_>
          <internalNodes>
            0 -1 130 -1 1023279103 -1 -1107427345 -33589251 1040185335
            2009028597 2113895935</internalNodes>
          <leafValues>
            -4.1232228279113770e-01 6.5537267923355103e-01</leafValues></_>
        <_>
          <internalNodes>
            0 -1 4 -783664161 -175685503 16520 -678723062 1384358542
            402898947 1379955543 2003636813</internalNodes>
          <leafValues>
            -6.7562091350555420e-01 4.0463683009147644e-01</leafValues></_>
        <_>
          <internalNodes>
            0 -1 104 -892347871 -146178045 3091 -917815296 1078886652
            1212284928 -737984308 1405576141</internalNodes>
          <leafValues>
            -6.0765099525451660e-01 3.7180170416831970e-01</leafValues></_>
        <_>
          <internalNodes>
            0 -1 7 -242627377 1801175107 1090601177 1133875219
            -787963894 -1683291903 1543629051 1207405042</internalNodes>
          <leafValues>
            -5.9541189670562744e-01 3.7186422944068909e-01</leafValues></_>
        <_>
          <internalNodes>
            0 -1 32 -358681121 -805138112 -1073676287 -2147270399
            1168892554 25823369 -1996367730 1979611659</internalNodes>
          <leafValues>
            -7.5076317787170410e-01 2.6395866274833679e-01</leafValues></_>
        <_>
          <internalNodes>
            0 -1 92 432551647 1006637064 16810325 -1659420416 8475578
            814350352 2057968188 1875435994</internalNodes>
          <leafValues>
            -5.8753812313079834e-01 2.8477022051811218e-01</leafValues></_>
        <_>
          <internalNodes>
            0 -1 114 -1144044603 289865728 18433 285688389 -1073624614
            -1585266688 -2138861367 616820165</internalNodes>
          <leafValues>
            -7.3736244440078735e-01 2.4595040082931519e-01</leafValues></_>
        <_>
          <internalNodes>
            0 -1 13 -414202297 -77164393 -1744793333 -714948412
            -930291670 -1040154624 -1434218125 -216902805</internalNodes>
          <leafValues>
            -5.7238316535949707e-01 3.0969354510307312e-01</leafValues></_>
        <_>
          <internalNodes>
            0 -1 66 -8470530 -1073741825 2147430079 -364609 -49161
            -1342177289 -1073774785 2146742021</internalNodes>
          <leafValues>
            -3.9973631501197815e-01 4.5114180445671082e-01</leafValues></_>
        <_>
          <internalNodes>
            0 -1 103 -213162931 -830274556 -2147475327 -2096906231
            -1869905912 1376157834 1078149956 882113337</internalNodes>
          <leafValues>
            -6.5656483173370361e-01 2.4672625958919525e-01</leafValues></_></weakClassifiers></_>
    <!-- stage 16 -->
    <_>
      <maxWeakCount>10</maxWeakCount>
      <stageThreshold>-1.1515009403228760e+00</stageThreshold>
      <weakClassifiers>
        <_>
          <internalNodes>
            0 -1 124 -143130761 1166014327 -129 1157627903 -537395201
            1962409847 -268500993 -704643073</internalNodes>
          <leafValues>
            -3.2315522432327271e-01 6.6941297054290771e-01</leafValues></_>
        <_>
          <internalNodes>
            0 -1 56 -20497 -16401 -9 -1342177281 -180241 -1 -134217793
            -1345474680</internalNodes>
          <leafValues>
            -4.1639563441276550e-01 5.4173439741134644e-01</leafValues></_>
        <_>
          <internalNodes>
            0 -1 129 -104084681 1573634231 -1073528807 897761290
            -1031630720 109297794 3031193 1854653099</internalNodes>
          <leafValues>
            -5.5632054805755615e-01 3.8045412302017212e-01</leafValues></_>
        <_>
          <internalNodes>
            0 -1 69 -298597921 -1059962486 268521497 -268435454
            402737832 151650688 -838825974 -131444213</internalNodes>
          <leafValues>
            -6.7445105314254761e-01 2.7831354737281799e-01</leafValues></_>
        <_>
          <internalNodes>
            0 -1 94 1138307120 1363345425 1895874805 298389523
            -1341726184 -1207861078 -1207791109 -8791496</internalNodes>
          <leafValues>
            -5.1131868362426758e-01 3.8054782152175903e-01</leafValues></_>
        <_>
          <internalNodes>
            0 -1 23 248500108 1359168129 -1048375295 -716992311
            1212829731 269029376 42467339 2101670769</internalNodes>
          <leafValues>
            -7.5036501884460449e-01 2.5177991390228271e-01</leafValues></_>
        <_>
          <internalNodes>
            0 -1 49 -157361462 -1289695231 1627519007 -1878994908
            132844259 -1056333824 -779538035 -357528278</internalNodes>
          <leafValues>
            -5.8597922325134277e-01 3.0506452918052673e-01</leafValues></_>
        <_>
          <internalNodes>
            0 -1 126 -758427065 660668425 1207967896 42520719
            -2071295871 1263110144 -905412411 675859339</internalNodes>
          <leafValues>
            -7.9177927970886230e-01 2.1134579181671143e-01</leafValues></_>
        <_>
          <internalNodes>
            0 -1 36 1157640411 -921694208 285217025 -737668859 427866506
            -1182236664 -1988099928 -770500351</internalNodes>
          <leafValues>
            -5.4937058687210083e-01 3.0622750520706177e-01</leafValues></_>
        <_>
          <internalNodes>
            0 -1 61 -246337358 965955978 549458129 -1723854498
            1610832043 -1735786366 270103134 534472750</internalNodes>
          <leafValues>
            -6.3614410161972046e-01 2.7628600597381592e-01</leafValues></_></weakClassifiers></_>
    <!-- stage 17 -->
    <_>
      <maxWeakCount>11</maxWeakCount>
      <stageThreshold>-9.7405749559402466e-01</stageThreshold>
      <weakClassifiers>
        <_>
          <internalNodes>
            0 -1 85 -35 1056833535 -16386 -589826 -134217729 -1342177281
            -1073907780 12320735</internalNodes>
          <leafValues>
            -3.4929078817367554e-01 6.5880584716796875e-01</leafValues></_>
        <_>
          <internalNodes>
            0 -1 71 -219700770 -788463613 -1878937186 -641707750
            -2012491570 -494370814 -2146397446 -644875406</internalNodes>
          <leafValues>
            -7.0756965875625610e-01 3.5647553205490112e-01</leafValues></_>
        <_>
          <internalNodes>
            0 -1 75 -754846881 -1790308224 1358971349 -1657569275
            -1442666309 -108490624 -1970619393 -1475313109</internalNodes>
          <leafValues>
            -5.1098823547363281e-01 4.3984594941139221e-01</leafValues></_>
        <_>
          <internalNodes>
            0 -1 43 -1454452085 -620592986 1073815565 -1853734904
            1540335619 -1207959541 -2113289817 2138128487</internalNodes>
          <leafValues>
            -7.6450747251510620e-01 2.9047170281410217e-01</leafValues></_>
        <_>
          <internalNodes>
            0 -1 93 -749527003 -2130198521 -2147418041 1364656141
            1082335373 -2003107836 -1073069617 -47064548</internalNodes>
          <leafValues>
            -6.1335229873657227e-01 2.6921150088310242e-01</leafValues></_>
        <_>
          <internalNodes>
            0 -1 27 -320886354 -1879048048 -1879027264 1364283529
            -1601672997 -401041280 -1742176173 2098262373</internalNodes>
          <leafValues>
            -7.4054551124572754e-01 2.1834525465965271e-01</leafValues></_>
        <_>
          <internalNodes>
            0 -1 0 -113117765 -74153961 -1056898853 27000844 -2062831409
            -913670134 1922091185 -712048460</internalNodes>
          <leafValues>
            -5.2663201093673706e-01 3.6245617270469666e-01</leafValues></_>
        <_>
          <internalNodes>
            0 -1 83 -790670284 534054912 -1073692591 -1983393391
            -1408743283 2072625290 -1073557366 559718712</internalNodes>
          <leafValues>
            -7.1585232019424438e-01 2.2389627993106842e-01</leafValues></_>
        <_>
          <internalNodes>
            0 -1 38 -645661221 -1022295935 1140850755 1143357504
            1225261082 1082654848 641211 -1146165061</internalNodes>
          <leafValues>
            -4.6276754140853882e-01 3.5055348277091980e-01</leafValues></_>
        <_>
          <internalNodes>
            0 -1 16 -141863973 -250969982 1073856707 -1052213239
            1107300875 1207975936 -1293407828 -654220767</internalNodes>
          <leafValues>
            -5.6442713737487793e-01 3.2847407460212708e-01</leafValues></_>
        <_>
          <internalNodes>
            0 -1 97 -1051998976 -1055670270 -2145218476 -757923748
            -1878505104 9502730 -356472655 -178046816</internalNodes>
          <leafValues>
            -5.6789308786392212e-01 3.2330614328384399e-01</leafValues></_></weakClassifiers></_>
    <!-- stage 18 -->
    <_>
      <maxWeakCount>13</maxWeakCount>
      <stageThreshold>-1.3378685712814331e+00</stageThreshold>
      <weakClassifiers>
        <_>
          <internalNodes>
            0 -1 33 -50595634 -1 272625662 -262145 914325375 1971289983
            1904442749 -197367</internalNodes>
          <leafValues>
            -4.2767295241355896e-01 6.1236733198165894e-01</leafValues></_>
        <_>
          <internalNodes>
            0 -1 59 -113 -65537 -1073758209 -1073758273 -12337
            2147483647 -65570 -17040386</internalNodes>
          <leafValues>
            -2.8894504904747009e-01 6.9398683309555054e-01</leafValues></_>
        <_>
          <internalNodes>
            0 -1 120 -788311781 -821886967 -2141126319 -1567145727
            -637425527 -1013284856 -670455655 -991960669</internalNodes>
          <leafValues>
            -5.6812995672225952e-01 3.5518702864646912e-01</leafValues></_>
        <_>
          <internalNodes>
            0 -1 90 -783026908 874987544 1090523390 -113246192 33603760
            -1303871480 -1979542800 -192741173</internalNodes>
          <leafValues>
            -6.9597733020782471e-01 2.6534986495971680e-01</leafValues></_>
        <_>
          <internalNodes>
            0 -1 91 -1852894225 -746454895 -1877933693 320504016
            -2146957285 -1744764928 -1727954637 -12189686</internalNodes>
          <leafValues>
            -5.3427422046661377e-01 3.0366393923759460e-01</leafValues></_>
        <_>
          <internalNodes>
            0 -1 95 -114721 -32770 -20545 -1 -51 -268435585 -3301928
            -1266688259</internalNodes>
          <leafValues>
            -3.7097302079200745e-01 4.7039771080017090e-01</leafValues></_>
        <_>
          <internalNodes>
            0 -1 40 -519515653 -1023209463 1342787738 -988557311
            -1878513521 -1440218998 -1995945774 218169376</internalNodes>
          <leafValues>
            -6.1005336046218872e-01 2.9286536574363708e-01</leafValues></_>
        <_>
          <internalNodes>
            0 -1 131 1641239273 960954368 1359331345 -259964799
            1610760395 987627520 1082182331 2139783299</internalNodes>
          <leafValues>
            -3.7669011950492859e-01 4.1358828544616699e-01</leafValues></_>
        <_>
          <internalNodes>
            0 -1 98 -635366788 -805257008 20607 -653979584 -2145352966
            -670498776 -796884246 -335994855</internalNodes>
          <leafValues>
            -4.4490471482276917e-01 3.4001183509826660e-01</leafValues></_>
        <_>
          <internalNodes>
            0 -1 41 -1324027554 -803176447 4113 -2012561390 -536854453
            -935247735 -2147442685 -432391418</internalNodes>
          <leafValues>
            -5.0987917184829712e-01 3.2281425595283508e-01</leafValues></_>
        <_>
          <internalNodes>
            0 -1 110 -779881637 -1291517935 1090617353 705253659
            -2104784502 1266843656 -2147446165 -251727425</internalNodes>
          <leafValues>
            -4.3675485253334045e-01 3.3694902062416077e-01</leafValues></_>
        <_>
          <internalNodes>
            0 -1 48 -536337026 805376033 1342214160 1359376400
            1216563851 -2012512254 1611219339 -233778432</internalNodes>
          <leafValues>
            -6.5845412015914917e-01 2.6495647430419922e-01</leafValues></_>
        <_>
          <internalNodes>
            0 -1 12 -334970605 -788463487 1073758208 1476850944
            1510566402 -1476296694 1610627752 1905920589</internalNodes>
          <leafValues>
            -7.1473473310470581e-01 1.9088017940521240e-01</leafValues></_></weakClassifiers></_>
    <!-- stage 19 -->
    <_>
      <maxWeakCount>14</maxWeakCount>
      <stageThreshold>-1.2049540281295776e+00</stageThreshold>
      <weakClassifiers>
        <_>
          <internalNodes>
            0 -1 20 -134234129 -1073742041 -1073741825 -4177 1735819127
            2004352885 -134392331 -8519873</internalNodes>
          <leafValues>
            -4.2212674021720886e-01 5.9908676147460938e-01</leafValues></_>
        <_>
          <internalNodes>
            0 -1 54 890341855 -786852847 -1862267760 -581828600
            201885882 -1735917536 -2013167461 -1081884453</internalNodes>
          <leafValues>
            -4.4921794533729553e-01 4.5760697126388550e-01</leafValues></_>
        <_>
          <internalNodes>
            0 -1 60 -531631653 -1035861887 1359184512 -209305461
            1661780106 -2130051072 -1952345677 -874001709</internalNodes>
          <leafValues>
            -4.3257749080657959e-01 3.9994582533836365e-01</leafValues></_>
        <_>
          <internalNodes>
            0 -1 105 -1060125647 -247340926 131083 -616349309 1074331788
            1258832514 1077952712 1431018650</internalNodes>
          <leafValues>
            -4.3171221017837524e-01 3.7929075956344604e-01</leafValues></_>
        <_>
          <internalNodes>
            0 -1 131 1938026973 767557632 269029397 -116551651
            1870749842 438960264 -1064687439 -1195411063</internalNodes>
          <leafValues>
            -4.6209385991096497e-01 3.3380097150802612e-01</leafValues></_>
        <_>
          <internalNodes>
            0 -1 118 -615919419 1140918537 285294850 167919634
            -1056898943 76218368 -1073102643 537520589</internalNodes>
          <leafValues>
            -7.6815134286880493e-01 2.0941066741943359e-01</leafValues></_>
        <_>
          <internalNodes>
            0 -1 29 -2046564054 -952089072 -2146892606 -803974837
            -2004198357 -1182793599 -938747390 1896966402</internalNodes>
          <leafValues>
            -8.3101236820220947e-01 1.1339147388935089e-01</leafValues></_>
        <_>
          <internalNodes>
            0 -1 37 -397290686 -636485631 16777216 -620101439 580159695
            1644396698 -2138531813 -754808758</internalNodes>
          <leafValues>
            -5.5597585439682007e-01 2.2659260034561157e-01</leafValues></_>
        <_>
          <internalNodes>
            0 -1 96 1367877661 1493319681 1371624661 -1516666862
            -1610473334 -1266106368 -2004875011 8700600</internalNodes>
          <leafValues>
            -6.4385610818862915e-01 2.1818979084491730e-01</leafValues></_>
        <_>
          <internalNodes>
            0 -1 31 1073860763 -737607664 -2147434495 1359348001
            -2130177875 -75399160 -922736640 541284369</internalNodes>
          <leafValues>
            -5.1458513736724854e-01 2.8649991750717163e-01</leafValues></_>
        <_>
          <internalNodes>
            0 -1 39 -931082017 -779939707 17039569 -805076607 -670725494
            -586547062 -1979676669 -2134048635</internalNodes>
          <leafValues>
            -5.3212541341781616e-01 2.9313710331916809e-01</leafValues></_>
        <_>
          <internalNodes>
            0 -1 115 1531154779 1136721929 -2147450495 544669953
            150996993 -2095906816 251822696 10621491</internalNodes>
          <leafValues>
            -7.1504914760589600e-01 2.0242536067962646e-01</leafValues></_>
        <_>
          <internalNodes>
            0 -1 18 -1475452281 -1291497469 65801 -620752635 -872404054
            974096392 1762338826 1728198662</internalNodes>
          <leafValues>
            -6.6562980413436890e-01 1.8015521764755249e-01</leafValues></_>
        <_>
          <internalNodes>
            0 -1 38 -885403530 -1073037167 1073763076 -834240368
            671638026 32904 142096 -326583395</internalNodes>
          <leafValues>
            -6.1016958951950073e-01 2.3667970299720764e-01</leafValues></_></weakClassifiers></_></stages>
  <features>
    <_>
      <rect>
        0 0 1 1</rect></_>
    <_>
      <rect>
        0 0 1 2</rect></_>
    <_>
      <rect>
        0 0 1 3</rect></_>
    <_>
      <rect>
        0 0 1 6</rect></_>
    <_>
      <rect>
        0 0 1 7</rect></_>
    <_>
      <rect>
        0 0 2 2</rect></_>
    <_>
      <rect>
        0 0 2 6</rect></_>
    <_>
      <rect>
        0 0 3 2</rect></_>
    <_>
      <rect>
        0 0 3 3</rect></_>
    <_>
      <rect>
        0 1 2 2</rect></_>
    <_>
      <rect>
        0 1 3 4</rect></_>
    <_>
      <rect>
        0 2 2 3</rect></_>
    <_>
      <rect>
        0 2 2 4</rect></_>
    <_>
      <rect>
        0 3 1 2</rect></_>
    <_>
      <rect>
        0 3 1 6</rect></_>
    <_>
      <rect>
        0 3 2 5</rect></_>
    <_>
      <rect>
        0 4 1 5</rect></_>
    <_>
      <rect>
        0 4 2 4</rect></_>
    <_>
      <rect>
        0 4 2 5</rect></_>
    <_>
      <rect>
        0 4 3 5</rect></_>
    <_>
      <rect>
        0 5 1 5</rect></_>
    <_>
      <rect>
        0 5 3 2</rect></_>
    <_>
      <rect>
        0 6 1 4</rect></_>
    <_>
      <rect>
        0 7 1 5</rect></_>
    <_>
      <rect>
        0 7 2 3</rect></_>
    <_>
      <rect>
        0 7 3 5</rect></_>
    <_>
      <rect>
        0 8 3 2</rect></_>
    <_>
      <rect>
        0 9 3 4</rect></_>
    <_>
      <rect>
        0 10 2 4</rect></_>
    <_>
      <rect>
        0 10 3 4</rect></_>
    <_>
      <rect>
        0 11 1 3</rect></_>
    <_>
      <rect>
        0 12 2 1</rect></_>
    <_>
      <rect>
        0 12 2 3</rect></_>
    <_>
      <rect>
        0 13 1 3</rect></_>
    <_>
      <rect>
        0 13 2 3</rect></_>
    <_>
      <rect>
        0 14 1 2</rect></_>
    <_>
      <rect>
        0 14 2 1</rect></_>
    <_>
      <rect>
        0 15 2 2</rect></_>
    <_>
      <rect>
        0 19 1 1</rect></_>
    <_>
      <rect>
        1 0 1 1</rect></_>
    <_>
      <rect>
        1 0 2 1</rect></_>
    <_>
      <rect>
        1 0 2 4</rect></_>
    <_>
      <rect>
        1 0 2 7</rect></_>
    <_>
      <rect>
        1 1 1 3</rect></_>
    <_>
      <rect>
        1 2 1 2</rect></_>
    <_>
      <rect>
        1 2 2 2</rect></_>
    <_>
      <rect>
        1 3 1 2</rect></_>
    <_>
      <rect>
        1 4 1 6</rect></_>
    <_>
      <rect>
        1 5 2 4</rect></_>
    <_>
      <rect>
        1 7 2 3</rect></_>
    <_>
      <rect>
        1 9 2 2</rect></_>
    <_>
      <rect>
        1 12 2 1</rect></_>
    <_>
      <rect>
        1 14 1 2</rect></_>
    <_>
      <rect>
        1 15 2 1</rect></_>
    <_>
      <rect>
        1 18 2 1</rect></_>
    <_>
      <rect>
        2 0 1 1</rect></_>
    <_>
      <rect>
        2 0 2 1</rect></_>
    <_>
      <rect>
        2 1 2 2</rect></_>
    <_>
      <rect>
        2 1 2 4</rect></_>
    <_>
      <rect>
        2 1 2 6</rect></_>
    <_>
      <rect>
        2 3 1 1</rect></_>
    <_>
      <rect>
        2 5 2 2</rect></_>
    <_>
      <rect>
        2 5 2 4</rect></_>
    <_>
      <rect>
        2 7 2 5</rect></_>
    <_>
      <rect>
        2 9 1 1</rect></_>
    <_>
      <rect>
        2 11 1 1</rect></_>
    <_>
      <rect>
        2 12 2 2</rect></_>
    <_>
      <rect>
        2 14 1 2</rect></_>
    <_>
      <rect>
        2 15 1 2</rect></_>
    <_>
      <rect>
        2 16 1 1</rect></_>
    <_>
      <rect>
        2 16 2 1</rect></_>
    <_>
      <rect>
        2 16 2 2</rect></_>
    <_>
      <rect>
        2 17 1 1</rect></_>
    <_>
      <rect>
        2 19 1 1</rect></_>
    <_>
      <rect>
        2 19 2 1</rect></_>
    <_>
      <rect>
        3 0 2 1</rect></_>
    <_>
      <rect>
        3 0 2 4</rect></_>
    <_>
      <rect>
        3 2 2 1</rect></_>
    <_>
      <rect>
        3 2 2 2</rect></_>
    <_>
      <rect>
        3 4 1 1</rect></_>
    <_>
      <rect>
        3 5 2 1</rect></_>
    <_>
      <rect>
        3 5 2 3</rect></_>
    <_>
      <rect>
        3 6 1 1</rect></_>
    <_>
      <rect>
        3 6 2 2</rect></_>
    <_>
      <rect>
        3 10 2 4</rect></_>
    <_>
      <rect>
        3 12 2 1</rect></_>
    <_>
      <rect>
        3 14 2 1</rect></_>
    <_>
      <rect>
        3 14 2 2</rect></_>
    <_>
      <rect>
        3 15 1 1</rect></_>
    <_>
      <rect>
        3 16 1 1</rect></_>
    <_>
      <rect>
        3 16 2 1</rect></_>
    <_>
      <rect>
        3 19 1 1</rect></_>
    <_>
      <rect>
        3 19 2 1</rect></_>
    <_>
      <rect>
        4 1 1 2</rect></_>
    <_>
      <rect>
        4 2 1 1</rect></_>
    <_>
      <rect>
        4 5 1 1</rect></_>
    <_>
      <rect>
        4 6 1 1</rect></_>
    <_>
      <rect>
        4 10 1 1</rect></_>
    <_>
      <rect>
        4 14 1 1</rect></_>
    <_>
      <rect>
        4 17 1 1</rect></_>
    <_>
      <rect>
        4 18 1 1</rect></_>
    <_>
      <rect>
        5 0 1 6</rect></_>
    <_>
      <rect>
        5 1 1 3</rect></_>
    <_>
      <rect>
        5 2 1 3</rect></_>
    <_>
      <rect>
        5 2 1 6</rect></_>
    <_>
      <rect>
        5 3 1 5</rect></_>
    <_>
      <rect>
        5 8 1 2</rect></_>
    <_>
      <rect>
        5 9 1 1</rect></_>
    <_>
      <rect>
        5 9 1 2</rect></_>
    <_>
      <rect>
        6 0 1 1</rect></_>
    <_>
      <rect>
        6 0 1 2</rect></_>
    <_>
      <rect>
        6 0 1 3</rect></_>
    <_>
      <rect>
        6 0 1 5</rect></_>
    <_>
      <rect>
        6 1 1 2</rect></_>
    <_>
      <rect>
        6 1 1 7</rect></_>
    <_>
      <rect>
        6 2 1 1</rect></_>
    <_>
      <rect>
        6 2 1 2</rect></_>
    <_>
      <rect>
        6 3 1 1</rect></_>
    <_>
      <rect>
        6 3 1 3</rect></_>
    <_>
      <rect>
        6 4 1 6</rect></_>
    <_>
      <rect>
        6 5 1 1</rect></_>
    <_>
      <rect>
        6 5 1 4</rect></_>
    <_>
      <rect>
        6 6 1 3</rect></_>
    <_>
      <rect>
        6 7 1 5</rect></_>
    <_>
      <rect>
        6 8 1 2</rect></_>
    <_>
      <rect>
        6 11 1 3</rect></_>
    <_>
      <rect>
        6 13 1 2</rect></_>
    <_>
      <rect>
        6 13 1 3</rect></_>
    <_>
      <rect>
        6 14 1 2</rect></_>
    <_>
      <rect>
        6 15 1 2</rect></_>
    <_>
      <rect>
        6 16 1 2</rect></_>
    <_>
      <rect>
        6 19 1 1</rect></_></features></cascade>
</opencv_storage>
