<?xml version="1.0"?>
<opencv_storage>
<cascade>
  <stageType>BOOST</stageType>
  <featureType>LBP</featureType>
  <height>17</height>
  <width>7</width>
  <stageParams>
    <boostType>GAB</boostType>
    <minHitRate>9.9000000953674316e-01</minHitRate>
    <maxFalseAlarm>5.0000000000000000e-01</maxFalseAlarm>
    <weightTrimRate>9.4999998807907104e-01</weightTrimRate>
    <maxDepth>1</maxDepth>
    <maxWeakCount>100</maxWeakCount></stageParams>
  <featureParams>
    <maxCatCount>256</maxCatCount>
    <featSize>1</featSize></featureParams>
  <stageNum>20</stageNum>
  <stages>
    <!-- stage 0 -->
    <_>
      <maxWeakCount>2</maxWeakCount>
      <stageThreshold>-3.5577714443206787e-02</stageThreshold>
      <weakClassifiers>
        <_>
          <internalNodes>
            0 -1 27 -2097170 -57151482 -322193999 -548945904 -762779955
            -1131839488 -661459257 -990586432</internalNodes>
          <leafValues>
            -8.4971100091934204e-01 8.3867275714874268e-01</leafValues></_>
        <_>
          <internalNodes>
            0 -1 17 -285212673 -251658241 -1 -1 1467447159 2004318079
            2138537318 -557193</internalNodes>
          <leafValues>
            -7.6794356107711792e-01 8.1413328647613525e-01</leafValues></_></weakClassifiers></_>
    <!-- stage 1 -->
    <_>
      <maxWeakCount>2</maxWeakCount>
      <stageThreshold>-4.6339474618434906e-02</stageThreshold>
      <weakClassifiers>
        <_>
          <internalNodes>
            0 -1 52 -1392595026 -65537 -2 -65538 -268435457 -90771067
            -104215601 -267285</internalNodes>
          <leafValues>
            -7.7943927049636841e-01 8.2634031772613525e-01</leafValues></_>
        <_>
          <internalNodes>
            0 -1 8 266338303 -456006153 -639513089 -757793541 1336373363
            -204351441 -282203289 -211551369</internalNodes>
          <leafValues>
            -8.1455904245376587e-01 7.3309975862503052e-01</leafValues></_></weakClassifiers></_>
    <!-- stage 2 -->
    <_>
      <maxWeakCount>2</maxWeakCount>
      <stageThreshold>-1.4761938154697418e-01</stageThreshold>
      <weakClassifiers>
        <_>
          <internalNodes>
            0 -1 78 -1163 1963971389 -234763625 1901454731 -1033670379
            1971323138 -74753911 2147482543</internalNodes>
          <leafValues>
            -7.9055440425872803e-01 7.4724060297012329e-01</leafValues></_>
        <_>
          <internalNodes>
            0 -1 9 -253755393 -642856042 -1073692603 -251346677
            1111638139 172025937 1082352391 1666710295</internalNodes>
          <leafValues>
            -8.2850247621536255e-01 6.4293503761291504e-01</leafValues></_></weakClassifiers></_>
    <!-- stage 3 -->
    <_>
      <maxWeakCount>2</maxWeakCount>
      <stageThreshold>-1.3259759545326233e-01</stageThreshold>
      <weakClassifiers>
        <_>
          <internalNodes>
            0 -1 53 -1497059586 -554237954 -111175174 -2297858 -409445
            -1 -524290 -2662</internalNodes>
          <leafValues>
            -7.5740212202072144e-01 7.9183441400527954e-01</leafValues></_>
        <_>
          <internalNodes>
            0 -1 6 -19468322 -145133089 -1056878190 -678234982
            -131396629 -1684288893 -644797509 2142186367</internalNodes>
          <leafValues>
            -8.4178268909454346e-01 6.2480449676513672e-01</leafValues></_></weakClassifiers></_>
    <!-- stage 4 -->
    <_>
      <maxWeakCount>3</maxWeakCount>
      <stageThreshold>-6.4014482498168945e-01</stageThreshold>
      <weakClassifiers>
        <_>
          <internalNodes>
            0 -1 72 -134219915 286357367 -5 989855743 -3 2012938231
            -268435459 -989855745</internalNodes>
          <leafValues>
            -6.5827339887619019e-01 7.8614097833633423e-01</leafValues></_>
        <_>
          <internalNodes>
            0 -1 66 -33554571 -134348811 -1 -167772161 -1 -134348809 -1
            -1057095809</internalNodes>
          <leafValues>
            -6.3130789995193481e-01 7.4369376897811890e-01</leafValues></_>
        <_>
          <internalNodes>
            0 -1 51 -1948669458 -237530991 -770443823 -69250917
            -234643271 -1189470208 -352261889 -82367813</internalNodes>
          <leafValues>
            -6.4915424585342407e-01 6.4943647384643555e-01</leafValues></_></weakClassifiers></_>
    <!-- stage 5 -->
    <_>
      <maxWeakCount>4</maxWeakCount>
      <stageThreshold>-2.6941338181495667e-01</stageThreshold>
      <weakClassifiers>
        <_>
          <internalNodes>
            0 -1 37 -34144258 821559294 -1 -83886085 -134758401
            838859639 -1 -16778242</internalNodes>
          <leafValues>
            -5.9894460439682007e-01 7.6713156700134277e-01</leafValues></_>
        <_>
          <internalNodes>
            0 -1 64 -49409 -129 -1073762561 -2 -1073758210 -1 -58084
            -16388</internalNodes>
          <leafValues>
            -6.2817776203155518e-01 6.6495633125305176e-01</leafValues></_>
        <_>
          <internalNodes>
            0 -1 1 -285738241 -1877579537 -1021328868 -109073825
            1908832667 822249867 -221050457 1975985959</internalNodes>
          <leafValues>
            -7.1640688180923462e-01 5.3485435247421265e-01</leafValues></_>
        <_>
          <internalNodes>
            0 -1 70 -179307587 1061471251 -1056749559 199189579
            -1073101365 440124177 -750260019 547219901</internalNodes>
          <leafValues>
            -8.4475398063659668e-01 4.2285463213920593e-01</leafValues></_></weakClassifiers></_>
    <!-- stage 6 -->
    <_>
      <maxWeakCount>4</maxWeakCount>
      <stageThreshold>-3.5847163200378418e-01</stageThreshold>
      <weakClassifiers>
        <_>
          <internalNodes>
            0 -1 20 -153095425 -258285182 -796662720 -607418193
            1884515711 1881211305 1212219707 2145372299</internalNodes>
          <leafValues>
            -7.2216099500656128e-01 6.5939331054687500e-01</leafValues></_>
        <_>
          <internalNodes>
            0 -1 18 -1882095141 -40824432 286559101 -6749807 982061295
            -74973032 -374137925 2140353299</internalNodes>
          <leafValues>
            -7.6217377185821533e-01 5.3510028123855591e-01</leafValues></_>
        <_>
          <internalNodes>
            0 -1 45 -1121997897 -1145470073 -787098157 -136380269
            -1300106325 -1148551168 -1576453185 -1345584504</internalNodes>
          <leafValues>
            -6.6907083988189697e-01 5.7596498727798462e-01</leafValues></_>
        <_>
          <internalNodes>
            0 -1 46 -1856851590 -780812207 423695082 -741703410
            -1341489009 -1686019967 -1971308374 -207322366</internalNodes>
          <leafValues>
            -6.5881663560867310e-01 5.4989814758300781e-01</leafValues></_></weakClassifiers></_>
    <!-- stage 7 -->
    <_>
      <maxWeakCount>5</maxWeakCount>
      <stageThreshold>-9.5704042911529541e-01</stageThreshold>
      <weakClassifiers>
        <_>
          <internalNodes>
            0 -1 59 -8440064 2012739575 -10 -3 -41945612 1946154871
            -393675373 -5506885</internalNodes>
          <leafValues>
            -6.3426369428634644e-01 7.1150541305541992e-01</leafValues></_>
        <_>
          <internalNodes>
            0 -1 41 -119604225 -1203077079 -251400187 -204602365
            1625004187 420192426 -225736102 -2107313</internalNodes>
          <leafValues>
            -6.1226928234100342e-01 5.9542864561080933e-01</leafValues></_>
        <_>
          <internalNodes>
            0 -1 68 926378993 994410759 1091666269 -304376957 -267965791
            -1336899188 -1894796321 -251676677</internalNodes>
          <leafValues>
            -5.9956753253936768e-01 6.1020147800445557e-01</leafValues></_>
        <_>
          <internalNodes>
            0 -1 10 -27334226 -653279097 -1064897706 -620056454
            1539648319 -357874162 -385090133 -145526222</internalNodes>
          <leafValues>
            -6.3005095720291138e-01 4.7194731235504150e-01</leafValues></_>
        <_>
          <internalNodes>
            0 -1 77 -145393289 1439744149 -1811824490 852578565 21015041
            1883930624 -1877899125 1822132443</internalNodes>
          <leafValues>
            -7.9265624284744263e-01 3.7314087152481079e-01</leafValues></_></weakClassifiers></_>
    <!-- stage 8 -->
    <_>
      <maxWeakCount>4</maxWeakCount>
      <stageThreshold>-3.6107948422431946e-01</stageThreshold>
      <weakClassifiers>
        <_>
          <internalNodes>
            0 -1 60 -12 2147483519 -65540 -1 -134365260 2113241085
            -33694212 -39854081</internalNodes>
          <leafValues>
            -4.7826087474822998e-01 7.6295334100723267e-01</leafValues></_>
        <_>
          <internalNodes>
            0 -1 4 -921450017 -379747367 -743353513 -580972261
            -215301446 -107445566 -1165861989 1940990272</internalNodes>
          <leafValues>
            -6.9178277254104614e-01 5.5335688591003418e-01</leafValues></_>
        <_>
          <internalNodes>
            0 -1 54 425629662 -784220111 -1852242790 -1111217918
            1342951819 -1231912959 -1693404758 -1142021606</internalNodes>
          <leafValues>
            -7.4115496873855591e-01 4.0835109353065491e-01</leafValues></_>
        <_>
          <internalNodes>
            0 -1 12 -1441793073 -787799805 -805191680 -318678781
            1241669642 536944768 1225489930 2072593251</internalNodes>
          <leafValues>
            -7.5359106063842773e-01 4.0061306953430176e-01</leafValues></_></weakClassifiers></_>
    <!-- stage 9 -->
    <_>
      <maxWeakCount>4</maxWeakCount>
      <stageThreshold>-4.2544555664062500e-01</stageThreshold>
      <weakClassifiers>
        <_>
          <internalNodes>
            0 -1 2 -1 -2717010 -2147249663 -536948737 -1316197
            -259850753 -963675517 -147643529</internalNodes>
          <leafValues>
            -5.8243900537490845e-01 6.7064166069030762e-01</leafValues></_>
        <_>
          <internalNodes>
            0 -1 36 1859305726 -197996477 -586989287 -149237477
            1455911555 -502931455 -71687749 -67704497</internalNodes>
          <leafValues>
            -6.6919738054275513e-01 4.9139100313186646e-01</leafValues></_>
        <_>
          <internalNodes>
            0 -1 35 -6314066 2103150834 -1069362988 -1282813375
            -801247001 -930430789 -1069354757 556693973</internalNodes>
          <leafValues>
            -7.7418202161788940e-01 4.1028979420661926e-01</leafValues></_>
        <_>
          <internalNodes>
            0 -1 30 -2886673 268489497 -258994126 825479451 1612794089
            1477468962 -796700426 1389099770</internalNodes>
          <leafValues>
            -6.5226161479949951e-01 4.3978452682495117e-01</leafValues></_></weakClassifiers></_>
    <!-- stage 10 -->
    <_>
      <maxWeakCount>4</maxWeakCount>
      <stageThreshold>-5.0447547435760498e-01</stageThreshold>
      <weakClassifiers>
        <_>
          <internalNodes>
            0 -1 63 -71090892 -644120446 -905801496 -242756969
            -895329503 -1467875328 -1165882752 -7349622</internalNodes>
          <leafValues>
            -7.7835720777511597e-01 5.8494305610656738e-01</leafValues></_>
        <_>
          <internalNodes>
            0 -1 11 -2097201 -607272881 143425947 -712013813 1967614723
            1346371621 1338851575 -16718329</internalNodes>
          <leafValues>
            -6.8455749750137329e-01 4.9836808443069458e-01</leafValues></_>
        <_>
          <internalNodes>
            0 -1 67 -557185 2004320247 -8421377 1409286015 -134217739
            1551367679 -1 -1325662209</internalNodes>
          <leafValues>
            -5.3991949558258057e-01 5.7870614528656006e-01</leafValues></_>
        <_>
          <internalNodes>
            0 -1 42 -23923226 80742135 1363493302 -491016055 -1987915301
            405307520 -1879035172 2056061098</internalNodes>
          <leafValues>
            -8.4703946113586426e-01 3.7973311543464661e-01</leafValues></_></weakClassifiers></_>
    <!-- stage 11 -->
    <_>
      <maxWeakCount>6</maxWeakCount>
      <stageThreshold>-6.0313284397125244e-01</stageThreshold>
      <weakClassifiers>
        <_>
          <internalNodes>
            0 -1 24 -16385 -740818945 -4122213 -579030 1887596031
            -1994389352 -33611541 2146793329</internalNodes>
          <leafValues>
            -5.3394496440887451e-01 6.8750000000000000e-01</leafValues></_>
        <_>
          <internalNodes>
            0 -1 33 -719841857 903156117 1342783701 -14905104
            -1744639237 1635844138 -1144960514 781093514</internalNodes>
          <leafValues>
            -7.1002721786499023e-01 4.9248662590980530e-01</leafValues></_>
        <_>
          <internalNodes>
            0 -1 44 -618553889 -602890153 -1182783334 198185872
            537182655 -1131937664 430123946 -67941665</internalNodes>
          <leafValues>
            -6.8583261966705322e-01 4.1197520494461060e-01</leafValues></_>
        <_>
          <internalNodes>
            0 -1 66 -250349963 -75038680 -2046818031 -50134911
            -116686167 -75267950 -753817493 -191106277</internalNodes>
          <leafValues>
            -5.5539852380752563e-01 5.7260036468505859e-01</leafValues></_>
        <_>
          <internalNodes>
            0 -1 49 -900296356 -665435752 -729634736 -51866344
            1132531874 -90143736 -485844831 -72636200</internalNodes>
          <leafValues>
            -5.8055102825164795e-01 4.1524869203567505e-01</leafValues></_>
        <_>
          <internalNodes>
            0 -1 40 -490800169 -217608189 -721297639 -586051005
            1887478147 1913129096 -788364662 2073778731</internalNodes>
          <leafValues>
            -6.6720724105834961e-01 3.6901393532752991e-01</leafValues></_></weakClassifiers></_>
    <!-- stage 12 -->
    <_>
      <maxWeakCount>5</maxWeakCount>
      <stageThreshold>-8.1749385595321655e-01</stageThreshold>
      <weakClassifiers>
        <_>
          <internalNodes>
            0 -1 73 -134219913 1433761655 -1 2147483647 -524420
            2004746237 -1 1627389951</internalNodes>
          <leafValues>
            -5.2209198474884033e-01 6.9350028038024902e-01</leafValues></_>
        <_>
          <internalNodes>
            0 -1 65 -70389249 1360351300 -1593708335 -606666485
            -510942326 -1157627744 -217861649 808498777</internalNodes>
          <leafValues>
            -6.9495075941085815e-01 4.8262637853622437e-01</leafValues></_>
        <_>
          <internalNodes>
            0 -1 57 -134250635 -161644676 -129 2004074335 -3 -33554561
            -3 -48365766</internalNodes>
          <leafValues>
            -4.9815848469734192e-01 5.5305850505828857e-01</leafValues></_>
        <_>
          <internalNodes>
            0 -1 7 -225722485 -250957823 -1073671807 1541394824
            1096253371 1493893131 1502371843 1998060327</internalNodes>
          <leafValues>
            -6.3998937606811523e-01 4.0016800165176392e-01</leafValues></_>
        <_>
          <internalNodes>
            0 -1 79 -610283403 1363705984 -536870689 1468500162
            -2121760637 1980268544 -2146910002 -139736913</internalNodes>
          <leafValues>
            -5.5367761850357056e-01 5.0520128011703491e-01</leafValues></_></weakClassifiers></_>
    <!-- stage 13 -->
    <_>
      <maxWeakCount>6</maxWeakCount>
      <stageThreshold>-1.3648942708969116e+00</stageThreshold>
      <weakClassifiers>
        <_>
          <internalNodes>
            0 -1 75 -1 2063597567 -1 -131073 -134217729 956301311 -651
            553517053</internalNodes>
          <leafValues>
            -5.1149427890777588e-01 6.4179104566574097e-01</leafValues></_>
        <_>
          <internalNodes>
            0 -1 5 -614738518 -74497789 285343805 -720400249 -660963122
            -1987933940 -1763980341 -8918429</internalNodes>
          <leafValues>
            -5.8222025632858276e-01 4.7324019670486450e-01</leafValues></_>
        <_>
          <internalNodes>
            0 -1 21 -318516785 -363003883 16842897 -201129983 -363689982
            856295425 331516603 -138706773</internalNodes>
          <leafValues>
            -5.7691365480422974e-01 4.2350068688392639e-01</leafValues></_>
        <_>
          <internalNodes>
            0 -1 9 -74745905 -653196796 168542896 -615350270 1895981326
            503875616 -1043651957 1998975495</internalNodes>
          <leafValues>
            -6.8390369415283203e-01 3.4230393171310425e-01</leafValues></_>
        <_>
          <internalNodes>
            0 -1 54 873501406 -259514238 83890599 -1280077112
            -1055866864 -931135484 33499 -140539686</internalNodes>
          <leafValues>
            -5.2643322944641113e-01 4.2606171965599060e-01</leafValues></_>
        <_>
          <internalNodes>
            0 -1 71 -673496489 1464451183 -511672235 360956042
            -763346247 1242040712 -800366131 719318989</internalNodes>
          <leafValues>
            -6.6342210769653320e-01 3.0865386128425598e-01</leafValues></_></weakClassifiers></_>
    <!-- stage 14 -->
    <_>
      <maxWeakCount>6</maxWeakCount>
      <stageThreshold>-6.6179555654525757e-01</stageThreshold>
      <weakClassifiers>
        <_>
          <internalNodes>
            0 -1 0 -1 -1073743873 2147483583 -49425 -1073741825 -1
            2139879423 1207399860</internalNodes>
          <leafValues>
            -5.6060606241226196e-01 5.9183675050735474e-01</leafValues></_>
        <_>
          <internalNodes>
            0 -1 55 -201 -201 -1 -1 -1 2147450879 -49156 -139493956</internalNodes>
          <leafValues>
            -5.0629812479019165e-01 5.7788544893264771e-01</leafValues></_>
        <_>
          <internalNodes>
            0 -1 31 -69392193 305346697 -788407821 1393152273 -104777217
            1990230151 -527392341 783977134</internalNodes>
          <leafValues>
            -7.6967370510101318e-01 3.5022416710853577e-01</leafValues></_>
        <_>
          <internalNodes>
            0 -1 64 -778356782 -804978687 -444485263 -247218144
            -1333751706 -1065220096 -2088565864 -81034900</internalNodes>
          <leafValues>
            -6.5677237510681152e-01 3.2070910930633545e-01</leafValues></_>
        <_>
          <internalNodes>
            0 -1 23 -250888225 -1077174143 18366674 -649264959
            1619546121 2059536387 -2096590181 2066684075</internalNodes>
          <leafValues>
            -4.8967832326889038e-01 4.6040016412734985e-01</leafValues></_>
        <_>
          <internalNodes>
            0 -1 32 652214171 -1744797696 1073860609 218513410 688583067
            -1845133184 -637369174 2064470403</internalNodes>
          <leafValues>
            -7.5876981019973755e-01 2.7339175343513489e-01</leafValues></_></weakClassifiers></_>
    <!-- stage 15 -->
    <_>
      <maxWeakCount>7</maxWeakCount>
      <stageThreshold>-1.1890819072723389e+00</stageThreshold>
      <weakClassifiers>
        <_>
          <internalNodes>
            0 -1 26 -134217801 -1069058 -1 -1073758209 -1 -66 -1
            -1936871542</internalNodes>
          <leafValues>
            -3.6915886402130127e-01 7.0439416170120239e-01</leafValues></_>
        <_>
          <internalNodes>
            0 -1 39 -91563526 -756154368 -668939838 -218984353
            -125640528 -218071029 -1417330125 -169813877</internalNodes>
          <leafValues>
            -5.0156164169311523e-01 4.9864169955253601e-01</leafValues></_>
        <_>
          <internalNodes>
            0 -1 28 -175900930 -784133488 352654071 -628948917
            -1064582702 -1929346302 -129840905 842267579</internalNodes>
          <leafValues>
            -7.1920436620712280e-01 3.0879351496696472e-01</leafValues></_>
        <_>
          <internalNodes>
            0 -1 3 -783929633 -788414454 -2147483648 -578482164
            1082776204 -2122301054 302562146 1733772095</internalNodes>
          <leafValues>
            -6.3941246271133423e-01 3.3604663610458374e-01</leafValues></_>
        <_>
          <internalNodes>
            0 -1 62 -641011664 1430802435 -1425436456 -216956797
            -2139053904 -1606385528 -1025388308 -611583861</internalNodes>
          <leafValues>
            -6.4188164472579956e-01 3.0458927154541016e-01</leafValues></_>
        <_>
          <internalNodes>
            0 -1 48 -1073569470 -197918711 -1861107245 -283914109
            41947154 -1411383296 1611202731 -879558498</internalNodes>
          <leafValues>
            -6.1826980113983154e-01 2.9835176467895508e-01</leafValues></_>
        <_>
          <internalNodes>
            0 -1 13 -3173969 1342767113 -2138537836 -777191424
            1648575094 16777218 -1817740522 -374988697</internalNodes>
          <leafValues>
            -6.3623869419097900e-01 3.2287904620170593e-01</leafValues></_></weakClassifiers></_>
    <!-- stage 16 -->
    <_>
      <maxWeakCount>7</maxWeakCount>
      <stageThreshold>-6.9211924076080322e-01</stageThreshold>
      <weakClassifiers>
        <_>
          <internalNodes>
            0 -1 16 -249831975 -787415029 1342247058 2101480010
            -1475856166 -1433894776 1476933707 1999051571</internalNodes>
          <leafValues>
            -6.0784316062927246e-01 5.4822337627410889e-01</leafValues></_>
        <_>
          <internalNodes>
            0 -1 69 -687105701 -981233661 -1862254589 1154056385
            -1609424637 808058891 -343742022 -190061685</internalNodes>
          <leafValues>
            -6.0704642534255981e-01 4.1050785779953003e-01</leafValues></_>
        <_>
          <internalNodes>
            0 -1 15 -959776549 -653674365 16809984 1359024130 923515523
            1175060488 -1826914166 2072660619</internalNodes>
          <leafValues>
            -5.7603019475936890e-01 3.9149817824363708e-01</leafValues></_>
        <_>
          <internalNodes>
            0 -1 4 -802045197 -988528639 1426086225 -978120181
            -1744297298 -356384604 -1601607474 1866679296</internalNodes>
          <leafValues>
            -6.4404112100601196e-01 3.2393223047256470e-01</leafValues></_>
        <_>
          <internalNodes>
            0 -1 34 -34612598 -927769983 269603024 -528383547 1216568057
            1807804552 134324619 -1028931141</internalNodes>
          <leafValues>
            -5.8288854360580444e-01 3.2886081933975220e-01</leafValues></_>
        <_>
          <internalNodes>
            0 -1 25 -468194303 -184303359 32768 -1790254009 -2147258359
            -1068974080 1543783819 839003087</internalNodes>
          <leafValues>
            -8.9579778909683228e-01 2.0579843223094940e-01</leafValues></_>
        <_>
          <internalNodes>
            0 -1 43 -535572277 -1876981741 -1879007224 -1710211063
            287343370 1100185602 -2012740990 2005133451</internalNodes>
          <leafValues>
            -7.2731935977935791e-01 2.2654783725738525e-01</leafValues></_></weakClassifiers></_>
    <!-- stage 17 -->
    <_>
      <maxWeakCount>6</maxWeakCount>
      <stageThreshold>-5.8502745628356934e-01</stageThreshold>
      <weakClassifiers>
        <_>
          <internalNodes>
            0 -1 56 -25165953 -8470529 -2 -67469445 -67 -134217921 -8199
            -1141112968</internalNodes>
          <leafValues>
            -3.0142858624458313e-01 7.2582972049713135e-01</leafValues></_>
        <_>
          <internalNodes>
            0 -1 23 -800992869 -246692722 16914435 -971321037 1518997935
            992563201 -2146905382 1064828967</internalNodes>
          <leafValues>
            -6.3856410980224609e-01 4.3471625447273254e-01</leafValues></_>
        <_>
          <internalNodes>
            0 -1 72 -2057 2004318071 -1 -1074036737 -4 2147450869 -2
            -855638017</internalNodes>
          <leafValues>
            -4.7261440753936768e-01 5.4008841514587402e-01</leafValues></_>
        <_>
          <internalNodes>
            0 -1 47 84476415 -725581632 -1073622959 -782925743
            1353199723 -1325367296 -1426042745 -1411145526</internalNodes>
          <leafValues>
            -6.1052983999252319e-01 4.0520679950714111e-01</leafValues></_>
        <_>
          <internalNodes>
            0 -1 76 -2927276 1192165377 -2055208947 818479241
            -1035941759 1686274434 -2147450674 616801098</internalNodes>
          <leafValues>
            -8.4848779439926147e-01 2.6344963908195496e-01</leafValues></_>
        <_>
          <internalNodes>
            0 -1 65 1342427207 -36995071 1610715615 425363459
            -1962900853 -1476231038 -1425946437 807436550</internalNodes>
          <leafValues>
            -7.9050183296203613e-01 2.4360227584838867e-01</leafValues></_></weakClassifiers></_>
    <!-- stage 18 -->
    <_>
      <maxWeakCount>7</maxWeakCount>
      <stageThreshold>-6.7950487136840820e-01</stageThreshold>
      <weakClassifiers>
        <_>
          <internalNodes>
            0 -1 58 -158664671 -748109725 -1996472101 -1069481920
            -2139094802 -1065353212 -1061149496 1098991832</internalNodes>
          <leafValues>
            -6.3417887687683105e-01 5.1988220214843750e-01</leafValues></_>
        <_>
          <internalNodes>
            0 -1 19 -352071201 -620756912 -2080076719 -251395888
            588185890 1342210048 419430986 -1451128694</internalNodes>
          <leafValues>
            -6.4636957645416260e-01 3.8021832704544067e-01</leafValues></_>
        <_>
          <internalNodes>
            0 -1 80 -779369562 1372962816 1107296257 -1727987712
            -2012643166 579502272 -2013118464 1359609867</internalNodes>
          <leafValues>
            -7.8261542320251465e-01 3.4037315845489502e-01</leafValues></_>
        <_>
          <internalNodes>
            0 -1 29 1747177691 -1975517165 1342242817 -586399735
            -2113893746 553648266 -1601601113 -272383837</internalNodes>
          <leafValues>
            -6.0614299774169922e-01 3.3872941136360168e-01</leafValues></_>
        <_>
          <internalNodes>
            0 -1 50 -1852206217 -784269296 1343324499 -213810687
            -1073708895 -2139095040 -771585918 1203765385</internalNodes>
          <leafValues>
            -5.9996879100799561e-01 3.7379753589630127e-01</leafValues></_>
        <_>
          <internalNodes>
            0 -1 48 537297482 -532496335 -267964396 -775843839 50987525
            -2004877312 1753893515 -913602421</internalNodes>
          <leafValues>
            -7.9743063449859619e-01 2.6206499338150024e-01</leafValues></_>
        <_>
          <internalNodes>
            0 -1 67 -251492225 -99549176 1082202195 251994257
            -2011000695 402784256 -1476230438 -1867791485</internalNodes>
          <leafValues>
            -5.3355193138122559e-01 4.0906712412834167e-01</leafValues></_></weakClassifiers></_>
    <!-- stage 19 -->
    <_>
      <maxWeakCount>8</maxWeakCount>
      <stageThreshold>-8.7794697284698486e-01</stageThreshold>
      <weakClassifiers>
        <_>
          <internalNodes>
            0 -1 81 2147483647 1073709055 -1 -1 2146926591 1073709055
            2113372031 2041171967</internalNodes>
          <leafValues>
            -4.6393761038780212e-01 6.0227274894714355e-01</leafValues></_>
        <_>
          <internalNodes>
            0 -1 22 -804073066 -917438447 184666586 -711966440 679477379
            -1610039160 -2147481449 -1417314173</internalNodes>
          <leafValues>
            -7.2613221406936646e-01 3.6147120594978333e-01</leafValues></_>
        <_>
          <internalNodes>
            0 -1 14 -796692457 1502445632 -2147411963 1560870916
            -1845415814 1442971776 -796909494 860825738</internalNodes>
          <leafValues>
            -6.8263179063796997e-01 3.5674372315406799e-01</leafValues></_>
        <_>
          <internalNodes>
            0 -1 74 1942700609 1623917506 0 122249218 -2104917886
            -1584887808 134217866 -2012503926</internalNodes>
          <leafValues>
            -6.4497476816177368e-01 3.2390311360359192e-01</leafValues></_>
        <_>
          <internalNodes>
            0 -1 56 -523935147 -1064304640 65630 17367113 -1072660342
            1212186624 -503084871 -548697720</internalNodes>
          <leafValues>
            -4.4243273138999939e-01 4.8837193846702576e-01</leafValues></_>
        <_>
          <internalNodes>
            0 -1 38 1686890539 -2143285248 285241344 -788443136
            411566081 -2079817720 -1870589724 -242909047</internalNodes>
          <leafValues>
            -6.3726490736007690e-01 3.0732661485671997e-01</leafValues></_>
        <_>
          <internalNodes>
            0 -1 61 -687795473 16793600 1073774736 -805207672
            -2139058046 -1744830463 -1073217505 832303132</internalNodes>
          <leafValues>
            -5.7157599925994873e-01 3.4644117951393127e-01</leafValues></_>
        <_>
          <internalNodes>
            0 -1 26 -1870490410 -385548288 -2130622245 51449937
            -2147450711 -1844838269 1795789023 1082704458</internalNodes>
          <leafValues>
            -5.6607216596603394e-01 3.1663066148757935e-01</leafValues></_></weakClassifiers></_></stages>
  <features>
    <_>
      <rect>
        0 0 1 1</rect></_>
    <_>
      <rect>
        0 0 1 2</rect></_>
    <_>
      <rect>
        0 0 1 3</rect></_>
    <_>
      <rect>
        0 0 1 5</rect></_>
    <_>
      <rect>
        0 0 2 1</rect></_>
    <_>
      <rect>
        0 0 2 2</rect></_>
    <_>
      <rect>
        0 0 2 4</rect></_>
    <_>
      <rect>
        0 2 1 4</rect></_>
    <_>
      <rect>
        0 3 1 1</rect></_>
    <_>
      <rect>
        0 3 1 4</rect></_>
    <_>
      <rect>
        0 4 2 3</rect></_>
    <_>
      <rect>
        0 5 1 3</rect></_>
    <_>
      <rect>
        0 5 1 4</rect></_>
    <_>
      <rect>
        0 6 1 2</rect></_>
    <_>
      <rect>
        0 7 1 2</rect></_>
    <_>
      <rect>
        0 8 1 3</rect></_>
    <_>
      <rect>
        0 9 2 1</rect></_>
    <_>
      <rect>
        0 10 1 2</rect></_>
    <_>
      <rect>
        0 10 2 1</rect></_>
    <_>
      <rect>
        0 11 1 1</rect></_>
    <_>
      <rect>
        0 11 1 2</rect></_>
    <_>
      <rect>
        0 12 1 1</rect></_>
    <_>
      <rect>
        0 13 2 1</rect></_>
    <_>
      <rect>
        0 14 1 1</rect></_>
    <_>
      <rect>
        0 14 2 1</rect></_>
    <_>
      <rect>
        1 0 1 5</rect></_>
    <_>
      <rect>
        1 0 2 1</rect></_>
    <_>
      <rect>
        1 0 2 2</rect></_>
    <_>
      <rect>
        1 0 2 3</rect></_>
    <_>
      <rect>
        1 2 1 1</rect></_>
    <_>
      <rect>
        1 2 2 4</rect></_>
    <_>
      <rect>
        1 4 2 2</rect></_>
    <_>
      <rect>
        1 5 1 4</rect></_>
    <_>
      <rect>
        1 5 2 1</rect></_>
    <_>
      <rect>
        1 5 2 2</rect></_>
    <_>
      <rect>
        1 5 2 4</rect></_>
    <_>
      <rect>
        1 6 1 2</rect></_>
    <_>
      <rect>
        1 6 2 2</rect></_>
    <_>
      <rect>
        1 7 1 1</rect></_>
    <_>
      <rect>
        1 8 1 1</rect></_>
    <_>
      <rect>
        1 10 1 2</rect></_>
    <_>
      <rect>
        1 11 1 2</rect></_>
    <_>
      <rect>
        1 12 2 1</rect></_>
    <_>
      <rect>
        1 13 1 1</rect></_>
    <_>
      <rect>
        1 14 2 1</rect></_>
    <_>
      <rect>
        2 0 1 1</rect></_>
    <_>
      <rect>
        2 3 1 1</rect></_>
    <_>
      <rect>
        2 6 1 1</rect></_>
    <_>
      <rect>
        2 7 1 1</rect></_>
    <_>
      <rect>
        2 8 1 1</rect></_>
    <_>
      <rect>
        2 10 1 1</rect></_>
    <_>
      <rect>
        2 11 1 1</rect></_>
    <_>
      <rect>
        2 12 1 1</rect></_>
    <_>
      <rect>
        2 13 1 1</rect></_>
    <_>
      <rect>
        2 14 1 1</rect></_>
    <_>
      <rect>
        3 0 1 5</rect></_>
    <_>
      <rect>
        3 1 1 1</rect></_>
    <_>
      <rect>
        3 2 1 1</rect></_>
    <_>
      <rect>
        3 2 1 4</rect></_>
    <_>
      <rect>
        3 7 1 1</rect></_>
    <_>
      <rect>
        3 8 1 1</rect></_>
    <_>
      <rect>
        3 8 1 2</rect></_>
    <_>
      <rect>
        3 12 1 1</rect></_>
    <_>
      <rect>
        3 13 1 1</rect></_>
    <_>
      <rect>
        3 14 1 1</rect></_>
    <_>
      <rect>
        4 0 1 1</rect></_>
    <_>
      <rect>
        4 0 1 2</rect></_>
    <_>
      <rect>
        4 1 1 1</rect></_>
    <_>
      <rect>
        4 1 1 2</rect></_>
    <_>
      <rect>
        4 2 1 1</rect></_>
    <_>
      <rect>
        4 2 1 3</rect></_>
    <_>
      <rect>
        4 2 1 5</rect></_>
    <_>
      <rect>
        4 4 1 3</rect></_>
    <_>
      <rect>
        4 4 1 4</rect></_>
    <_>
      <rect>
        4 6 1 2</rect></_>
    <_>
      <rect>
        4 8 1 2</rect></_>
    <_>
      <rect>
        4 10 1 2</rect></_>
    <_>
      <rect>
        4 11 1 1</rect></_>
    <_>
      <rect>
        4 11 1 2</rect></_>
    <_>
      <rect>
        4 12 1 1</rect></_>
    <_>
      <rect>
        4 13 1 1</rect></_>
    <_>
      <rect>
        4 14 1 1</rect></_></features></cascade>
</opencv_storage>
