FANN_FLO_2.1
num_layers=4
learning_rate=0.300000
connection_rate=1.000000
network_type=0
learning_momentum=0.300000
training_algorithm=0
train_error_function=1
train_stop_function=0
cascade_output_change_fraction=0.010000
quickprop_decay=-0.000100
quickprop_mu=1.750000
rprop_increase_factor=1.200000
rprop_decrease_factor=0.500000
rprop_delta_min=0.000000
rprop_delta_max=50.000000
rprop_delta_zero=0.100000
cascade_output_stagnation_epochs=12
cascade_candidate_change_fraction=0.010000
cascade_candidate_stagnation_epochs=12
cascade_max_out_epochs=150
cascade_min_out_epochs=50
cascade_max_cand_epochs=150
cascade_min_cand_epochs=50
cascade_num_candidate_groups=2
bit_fail_limit=3.49999994039535522461e-01
cascade_candidate_limit=1.00000000000000000000e+03
cascade_weight_multiplier=4.00000005960464477539e-01
cascade_activation_functions_count=10
cascade_activation_functions=3 5 7 8 10 11 14 15 16 17 
cascade_activation_steepnesses_count=4
cascade_activation_steepnesses=2.50000000000000000000e-01 5.00000000000000000000e-01 7.50000000000000000000e-01 1.00000000000000000000e+00 
layer_sizes=121 16 8 2 
scale_included=0
neurons (num_inputs, activation_function, activation_steepness)=(0, 0, 0.00000000000000000000e+00) (0, 0, 0.00000000000000000000e+00) (0, 0, 0.00000000000000000000e+00) (0, 0, 0.00000000000000000000e+00) (0, 0, 0.00000000000000000000e+00) (0, 0, 0.00000000000000000000e+00) (0, 0, 0.00000000000000000000e+00) (0, 0, 0.00000000000000000000e+00) (0, 0, 0.00000000000000000000e+00) (0, 0, 0.00000000000000000000e+00) (0, 0, 0.00000000000000000000e+00) (0, 0, 0.00000000000000000000e+00) (0, 0, 0.00000000000000000000e+00) (0, 0, 0.00000000000000000000e+00) (0, 0, 0.00000000000000000000e+00) (0, 0, 0.00000000000000000000e+00) (0, 0, 0.00000000000000000000e+00) (0, 0, 0.00000000000000000000e+00) (0, 0, 0.00000000000000000000e+00) (0, 0, 0.00000000000000000000e+00) (0, 0, 0.00000000000000000000e+00) (0, 0, 0.00000000000000000000e+00) (0, 0, 0.00000000000000000000e+00) (0, 0, 0.00000000000000000000e+00) (0, 0, 0.00000000000000000000e+00) (0, 0, 0.00000000000000000000e+00) (0, 0, 0.00000000000000000000e+00) (0, 0, 0.00000000000000000000e+00) (0, 0, 0.00000000000000000000e+00) (0, 0, 0.00000000000000000000e+00) (0, 0, 0.00000000000000000000e+00) (0, 0, 0.00000000000000000000e+00) (0, 0, 0.00000000000000000000e+00) (0, 0, 0.00000000000000000000e+00) (0, 0, 0.00000000000000000000e+00) (0, 0, 0.00000000000000000000e+00) (0, 0, 0.00000000000000000000e+00) (0, 0, 0.00000000000000000000e+00) (0, 0, 0.00000000000000000000e+00) (0, 0, 0.00000000000000000000e+00) (0, 0, 0.00000000000000000000e+00) (0, 0, 0.00000000000000000000e+00) (0, 0, 0.00000000000000000000e+00) (0, 0, 0.00000000000000000000e+00) (0, 0, 0.00000000000000000000e+00) (0, 0, 0.00000000000000000000e+00) (0, 0, 0.00000000000000000000e+00) (0, 0, 0.00000000000000000000e+00) (0, 0, 0.00000000000000000000e+00) (0, 0, 0.00000000000000000000e+00) (0, 0, 0.00000000000000000000e+00) (0, 0, 0.00000000000000000000e+00) (0, 0, 0.00000000000000000000e+00) (0, 0, 0.00000000000000000000e+00) (0, 0, 0.00000000000000000000e+00) (0, 0, 0.00000000000000000000e+00) (0, 0, 0.00000000000000000000e+00) (0, 0, 0.00000000000000000000e+00) (0, 0, 0.00000000000000000000e+00) (0, 0, 0.00000000000000000000e+00) (0, 0, 0.00000000000000000000e+00) (0, 0, 0.00000000000000000000e+00) (0, 0, 0.00000000000000000000e+00) (0, 0, 0.00000000000000000000e+00) (0, 0, 0.00000000000000000000e+00) (0, 0, 0.00000000000000000000e+00) (0, 0, 0.00000000000000000000e+00) (0, 0, 0.00000000000000000000e+00) (0, 0, 0.00000000000000000000e+00) (0, 0, 0.00000000000000000000e+00) (0, 0, 0.00000000000000000000e+00) (0, 0, 0.00000000000000000000e+00) (0, 0, 0.00000000000000000000e+00) (0, 0, 0.00000000000000000000e+00) (0, 0, 0.00000000000000000000e+00) (0, 0, 0.00000000000000000000e+00) (0, 0, 0.00000000000000000000e+00) (0, 0, 0.00000000000000000000e+00) (0, 0, 0.00000000000000000000e+00) (0, 0, 0.00000000000000000000e+00) (0, 0, 0.00000000000000000000e+00) (0, 0, 0.00000000000000000000e+00) (0, 0, 0.00000000000000000000e+00) (0, 0, 0.00000000000000000000e+00) (0, 0, 0.00000000000000000000e+00) (0, 0, 0.00000000000000000000e+00) (0, 0, 0.00000000000000000000e+00) (0, 0, 0.00000000000000000000e+00) (0, 0, 0.00000000000000000000e+00) (0, 0, 0.00000000000000000000e+00) (0, 0, 0.00000000000000000000e+00) (0, 0, 0.00000000000000000000e+00) (0, 0, 0.00000000000000000000e+00) (0, 0, 0.00000000000000000000e+00) (0, 0, 0.00000000000000000000e+00) (0, 0, 0.00000000000000000000e+00) (0, 0, 0.00000000000000000000e+00) (0, 0, 0.00000000000000000000e+00) (0, 0, 0.00000000000000000000e+00) (0, 0, 0.00000000000000000000e+00) (0, 0, 0.00000000000000000000e+00) (0, 0, 0.00000000000000000000e+00) (0, 0, 0.00000000000000000000e+00) (0, 0, 0.00000000000000000000e+00) (0, 0, 0.00000000000000000000e+00) (0, 0, 0.00000000000000000000e+00) (0, 0, 0.00000000000000000000e+00) (0, 0, 0.00000000000000000000e+00) (0, 0, 0.00000000000000000000e+00) (0, 0, 0.00000000000000000000e+00) (0, 0, 0.00000000000000000000e+00) (0, 0, 0.00000000000000000000e+00) (0, 0, 0.00000000000000000000e+00) (0, 0, 0.00000000000000000000e+00) (0, 0, 0.00000000000000000000e+00) (0, 0, 0.00000000000000000000e+00) (0, 0, 0.00000000000000000000e+00) (0, 0, 0.00000000000000000000e+00) (0, 0, 0.00000000000000000000e+00) (0, 0, 0.00000000000000000000e+00) (0, 0, 0.00000000000000000000e+00) (121, 5, 5.00000000000000000000e-01) (121, 5, 5.00000000000000000000e-01) (121, 5, 5.00000000000000000000e-01) (121, 5, 5.00000000000000000000e-01) (121, 5, 5.00000000000000000000e-01) (121, 5, 5.00000000000000000000e-01) (121, 5, 5.00000000000000000000e-01) (121, 5, 5.00000000000000000000e-01) (121, 5, 5.00000000000000000000e-01) (121, 5, 5.00000000000000000000e-01) (121, 5, 5.00000000000000000000e-01) (121, 5, 5.00000000000000000000e-01) (121, 5, 5.00000000000000000000e-01) (121, 5, 5.00000000000000000000e-01) (121, 5, 5.00000000000000000000e-01) (0, 5, 0.00000000000000000000e+00) (16, 5, 5.00000000000000000000e-01) (16, 5, 5.00000000000000000000e-01) (16, 5, 5.00000000000000000000e-01) (16, 5, 5.00000000000000000000e-01) (16, 5, 5.00000000000000000000e-01) (16, 5, 5.00000000000000000000e-01) (16, 5, 5.00000000000000000000e-01) (0, 5, 0.00000000000000000000e+00) (8, 0, 5.00000000000000000000e-01) (0, 0, 0.00000000000000000000e+00) 
connections (connected_to_neuron, weight)=(0, 6.92343041300773620605e-02) (1, 2.95665152370929718018e-02) (2, -1.08066029846668243408e-01) (3, 9.38959196209907531738e-02) (4, -5.59378564357757568359e-02) (5, 1.74224283546209335327e-02) (6, 8.49381461739540100098e-02) (7, 3.91760021448135375977e-02) (8, -4.07684408128261566162e-02) (9, -2.34740599989891052246e-02) (10, -6.94808363914489746094e-02) (11, -1.09134808182716369629e-01) (12, -5.54963909089565277100e-02) (13, 6.68659508228302001953e-02) (14, -2.70668119192123413086e-02) (15, -9.56780016422271728516e-02) (16, -5.25963306427001953125e-02) (17, 7.70172402262687683105e-02) (18, -3.19089107215404510498e-02) (19, 7.19504281878471374512e-02) (20, -7.50486329197883605957e-02) (21, -8.14150720834732055664e-02) (22, -5.41423857212066650391e-02) (23, 3.98358367383480072021e-02) (24, 3.72304432094097137451e-02) (25, -8.13452228903770446777e-02) (26, 2.62183882296085357666e-02) (27, -9.36775729060173034668e-02) (28, 2.03469954431056976318e-02) (29, 3.59671004116535186768e-02) (30, -5.30616752803325653076e-03) (31, -1.06155760586261749268e-02) (32, -4.10291217267513275146e-02) (33, -2.11259210482239723206e-03) (34, -1.81568842381238937378e-02) (35, -2.90621467866003513336e-03) (36, -7.33878016471862792969e-02) (37, -3.19704301655292510986e-02) (38, -6.86771497130393981934e-02) (39, -2.81224003992974758148e-03) (40, 4.83769141137599945068e-02) (41, -4.36058938503265380859e-02) (42, -5.69116731639951467514e-04) (43, 9.07873064279556274414e-02) (44, -8.16725343465805053711e-02) (45, 8.37853327393531799316e-02) (46, 9.66783314943313598633e-02) (47, -3.94760146737098693848e-02) (48, 7.22555369138717651367e-02) (49, -3.51273529231548309326e-02) (50, -7.14766606688499450684e-02) (51, -9.13027077913284301758e-02) (52, -1.68456975370645523071e-02) (53, -2.95789465308189392090e-02) (54, 6.00486472249031066895e-02) (55, -7.88970068097114562988e-02) (56, -1.42555516213178634644e-02) (57, -2.18091695569455623627e-03) (58, -7.21209868788719177246e-02) (59, -9.94146093726158142090e-02) (60, -5.46211823821067810059e-02) (61, 2.29443330317735671997e-02) (62, -1.47175965830683708191e-02) (63, 1.59754566848278045654e-02) (64, -7.63959214091300964355e-02) (65, 6.45305439829826354980e-02) (66, -7.52694159746170043945e-02) (67, -4.87919822335243225098e-02) (68, -7.06714317202568054199e-02) (69, -3.22521179914474487305e-02) (70, 4.57055494189262390137e-02) (71, 7.12864920496940612793e-02) (72, 3.58783304691314697266e-02) (73, -5.21560087800025939941e-02) (74, 5.83577230572700500488e-02) (75, 6.59909620881080627441e-02) (76, -6.96539133787155151367e-02) (77, 5.03695793449878692627e-02) (78, -6.16541057825088500977e-02) (79, -9.63265374302864074707e-02) (80, -8.89372676610946655273e-02) (81, -2.12519094347953796387e-02) (82, -8.74158814549446105957e-02) (83, -9.05548129230737686157e-03) (84, 6.10823743045330047607e-02) (85, 7.09702521562576293945e-02) (86, 8.62917490303516387939e-03) (87, -4.12199422717094421387e-02) (88, -3.07534057646989822388e-02) (89, 3.32210436463356018066e-02) (90, -2.86699421703815460205e-02) (91, 1.43332183361053466797e-02) (92, -4.69329431653022766113e-02) (93, 6.86152055859565734863e-02) (94, -6.91320672631263732910e-02) (95, -2.86364946514368057251e-02) (96, 4.51604016125202178955e-02) (97, -4.38299998641014099121e-02) (98, 1.68189555406570434570e-02) (99, 8.65337699651718139648e-02) (100, 2.45715733617544174194e-02) (101, -4.00047749280929565430e-02) (102, 6.98665603995323181152e-02) (103, -3.85308973491191864014e-02) (104, 3.14244953915476799011e-03) (105, 4.02848087251186370850e-02) (106, -7.17811733484268188477e-02) (107, 3.06110884994268417358e-02) (108, 2.70595727488398551941e-03) (109, -3.06321773678064346313e-02) (110, 3.08494530618190765381e-02) (111, 2.58251614868640899658e-02) (112, 4.80925962328910827637e-02) (113, 4.02985624969005584717e-02) (114, -7.11994096636772155762e-02) (115, 1.15196742117404937744e-02) (116, 1.03004751726984977722e-02) (117, 4.94362972676753997803e-02) (118, 6.95473328232765197754e-02) (119, 7.86351636052131652832e-02) (120, -7.89630971848964691162e-03) (0, -6.12423606216907501221e-02) (1, 4.14378149434924125671e-03) (2, 4.03950959444046020508e-02) (3, -9.22321304678916931152e-02) (4, 3.22308503091335296631e-02) (5, -7.49101117253303527832e-02) (6, 5.33511489629745483398e-02) (7, 9.45047214627265930176e-02) (8, 5.55066019296646118164e-02) (9, 4.02521118521690368652e-02) (10, 6.75327377393841743469e-04) (11, -7.07446634769439697266e-02) (12, 1.05140190571546554565e-02) (13, 7.58202522993087768555e-02) (14, 4.61969822645187377930e-02) (15, -4.88106831908226013184e-02) (16, -1.11093595623970031738e-01) (17, -9.22496151179075241089e-03) (18, 5.43007701635360717773e-02) (19, -2.45714690536260604858e-02) (20, -6.42969906330108642578e-02) (21, -1.95431150496006011963e-02) (22, -9.95236858725547790527e-02) (23, 8.99180918931961059570e-02) (24, 9.61752142757177352905e-03) (25, 3.48382182419300079346e-02) (26, 1.42017696052789688110e-02) (27, -4.06059287488460540771e-02) (28, -3.79945300519466400146e-02) (29, 6.74265762791037559509e-03) (30, 5.44048659503459930420e-02) (31, 2.18343455344438552856e-02) (32, -8.66413637995719909668e-02) (33, 1.44063103944063186646e-02) (34, 3.97598072886466979980e-02) (35, 5.05663603544235229492e-02) (36, 5.76061122119426727295e-02) (37, -1.00339977070689201355e-02) (38, 4.34447713196277618408e-02) (39, 2.96039376407861709595e-02) (40, -9.72314029932022094727e-02) (41, -3.95841002464294433594e-02) (42, 7.33096897602081298828e-02) (43, 1.99428126215934753418e-02) (44, -6.22984878718852996826e-02) (45, 3.20072881877422332764e-02) (46, 7.17112421989440917969e-02) (47, -5.80934770405292510986e-02) (48, -6.69553428888320922852e-02) (49, 2.92190369218587875366e-02) (50, 1.17182368412613868713e-02) (51, -2.34181620180606842041e-02) (52, -8.61592888832092285156e-02) (53, 2.62302663177251815796e-02) (54, -2.79792472720146179199e-02) (55, 2.19611674547195434570e-02) (56, -5.27833588421344757080e-02) (57, 8.94576162099838256836e-02) (58, 8.55108723044395446777e-02) (59, 3.37115265429019927979e-02) (60, -3.07049555703997612000e-03) (61, 3.88040170073509216309e-02) (62, -4.24038283526897430420e-02) (63, 8.68110451847314834595e-03) (64, -7.05767050385475158691e-02) (65, 8.76776501536369323730e-02) (66, -4.47438880801200866699e-02) (67, 8.80148112773895263672e-02) (68, -3.01736667752265930176e-02) (69, 9.25102010369300842285e-02) (70, 3.29840779304504394531e-02) (71, -9.14949644356966018677e-03) (72, -5.55104538798332214355e-02) (73, -7.85730127245187759399e-03) (74, 1.21060118079185485840e-01) (75, -2.85144560039043426514e-02) (76, -6.85021653771400451660e-02) (77, 1.01055771112442016602e-01) (78, 4.23689722083508968353e-04) (79, -3.88142131268978118896e-02) (80, 3.41656729578971862793e-02) (81, 9.67779755592346191406e-02) (82, 3.28485816717147827148e-02) (83, 4.64025996625423431396e-02) (84, 5.52174402400851249695e-03) (85, -8.81889387965202331543e-02) (86, -3.31658385694026947021e-02) (87, 3.29162217676639556885e-02) (88, 9.96020138263702392578e-02) (89, 1.45612597465515136719e-01) (90, -5.54363131523132324219e-02) (91, 4.58810303825885057449e-04) (92, 7.75255486369132995605e-02) (93, -2.23122090101242065430e-02) (94, -9.32466089725494384766e-02) (95, 1.22758038341999053955e-01) (96, -6.12287037074565887451e-02) (97, -3.79448011517524719238e-02) (98, 1.24378383159637451172e-01) (99, -2.03393399715423583984e-02) (100, -5.01761846244335174561e-02) (101, 5.45201897621154785156e-02) (102, 3.92419323325157165527e-02) (103, -2.04495433717966079712e-03) (104, 1.56810104846954345703e-01) (105, 2.66932640224695205688e-02) (106, 6.62603601813316345215e-02) (107, -9.80208627879619598389e-03) (108, -8.19378066807985305786e-03) (109, -4.79835644364356994629e-02) (110, 5.54615631699562072754e-02) (111, 8.75509530305862426758e-02) (112, -3.58308590948581695557e-02) (113, -3.97500675171613693237e-03) (114, -7.02924700453877449036e-03) (115, 6.11681863665580749512e-02) (116, 7.71396607160568237305e-03) (117, 1.64682343602180480957e-02) (118, 2.20867269672453403473e-03) (119, 7.71833769977092742920e-03) (120, 2.07425355911254882812e-02) (0, 3.37880216538906097412e-02) (1, 2.88379639387130737305e-02) (2, -3.25075513683259487152e-03) (3, -8.89356359839439392090e-02) (4, 3.48628908395767211914e-02) (5, -3.53399328887462615967e-02) (6, -5.06484322249889373779e-02) (7, 7.66024962067604064941e-02) (8, 1.30713447928428649902e-01) (9, 2.86759994924068450928e-02) (10, -3.21916937828063964844e-02) (11, 2.36152820289134979248e-02) (12, -3.24510000646114349365e-02) (13, 2.24867258220911026001e-02) (14, 1.57914590090513229370e-02) (15, 9.39018130302429199219e-02) (16, 1.78191345185041427612e-02) (17, 3.78239825367927551270e-02) (18, -1.46395480260252952576e-02) (19, 2.82068047672510147095e-02) (20, 1.21779583394527435303e-01) (21, -2.72563919425010681152e-02) (22, -6.26120343804359436035e-02) (23, -5.61376288533210754395e-02) (24, 6.55251070857048034668e-02) (25, 3.20807881653308868408e-02) (26, -2.54510752856731414795e-02) (27, -1.81091465055942535400e-02) (28, 2.67473794519901275635e-02) (29, 2.58349790237843990326e-03) (30, -1.02132275700569152832e-01) (31, 1.08079604804515838623e-01) (32, -7.59400948882102966309e-02) (33, -5.70859983563423156738e-02) (34, -1.02340221405029296875e-01) (35, 4.65738959610462188721e-02) (36, -4.03658747673034667969e-02) (37, -4.49303761124610900879e-02) (38, 2.48858984559774398804e-02) (39, -5.35269305109977722168e-02) (40, -4.47184890508651733398e-02) (41, 5.01830801367759704590e-02) (42, 3.13392318785190582275e-02) (43, 1.02629782631993293762e-02) (44, -3.34650576114654541016e-02) (45, -8.67075845599174499512e-02) (46, 2.78228800743818283081e-03) (47, 4.43615242838859558105e-02) (48, 2.29125693440437316895e-02) (49, 8.31429213285446166992e-02) (50, -1.63081809878349304199e-02) (51, 2.26006582379341125488e-02) (52, -4.98757921159267425537e-02) (53, -1.90833304077386856079e-02) (54, 5.02057075500488281250e-02) (55, -8.11782404780387878418e-02) (56, -5.95877170562744140625e-02) (57, -8.57477411627769470215e-02) (58, -7.43716349825263023376e-03) (59, -5.05510577932000160217e-03) (60, 1.26370899379253387451e-02) (61, -6.20726868510246276855e-03) (62, -1.17236766964197158813e-02) (63, 3.83689962327480316162e-02) (64, 9.90088209509849548340e-02) (65, -1.83983822353184223175e-03) (66, -7.39920465275645256042e-03) (67, -3.97497080266475677490e-02) (68, -1.37812063097953796387e-01) (69, -6.93726912140846252441e-02) (70, -3.26014161109924316406e-02) (71, -1.40047967433929443359e-01) (72, -1.00430712103843688965e-01) (73, -6.45522698760032653809e-02) (74, -6.98378756642341613770e-02) (75, -9.49794240295886993408e-03) (76, -6.81847929954528808594e-02) (77, -6.49419438559561967850e-04) (78, -3.51280085742473602295e-02) (79, 6.28893822431564331055e-02) (80, -4.15231361985206604004e-02) (81, 8.44916552305221557617e-02) (82, 1.42499062349088490009e-04) (83, -4.74961241707205772400e-03) (84, 6.58194581046700477600e-03) (85, -6.68963566422462463379e-02) (86, -1.97309464216232299805e-01) (87, 9.39139574766159057617e-02) (88, -4.77860495448112487793e-02) (89, -1.03792302310466766357e-01) (90, 4.13018055260181427002e-02) (91, 5.61696328222751617432e-02) (92, -2.07656994462013244629e-01) (93, -1.20616694912314414978e-02) (94, 2.80699227005243301392e-04) (95, -6.42578676342964172363e-02) (96, -5.03157861530780792236e-02) (97, -1.06322042644023895264e-01) (98, -5.66100925207138061523e-02) (99, -1.87650620937347412109e-02) (100, -6.28253296017646789551e-02) (101, -1.98209539055824279785e-01) (102, 1.62505153566598892212e-02) (103, -7.14992061257362365723e-02) (104, -2.03958153724670410156e-01) (105, -7.27827996015548706055e-02) (106, 2.69009303301572799683e-02) (107, -1.92550972104072570801e-01) (108, -8.68979990482330322266e-02) (109, -7.03354477882385253906e-02) (110, -2.53719359636306762695e-01) (111, 6.41854628920555114746e-02) (112, 7.52788409590721130371e-02) (113, -1.87501952052116394043e-01) (114, 5.83284832537174224854e-02) (115, 4.29995823651552200317e-03) (116, -1.67238309979438781738e-01) (117, 6.56722560524940490723e-02) (118, -2.22505461424589157104e-02) (119, -1.28270119428634643555e-01) (120, -3.51325944066047668457e-02) (0, -7.08398297429084777832e-02) (1, 1.65809169411659240723e-02) (2, 2.51077823340892791748e-02) (3, 1.99825968593358993530e-02) (4, -7.25690573453903198242e-02) (5, -1.85287427157163619995e-02) (6, 7.24671706557273864746e-02) (7, -8.38548317551612854004e-02) (8, -4.85962554812431335449e-02) (9, -4.34721484780311584473e-02) (10, -4.98850271105766296387e-03) (11, -1.37171791866421699524e-02) (12, 7.54104778170585632324e-02) (13, -2.43047741241753101349e-03) (14, 2.20719315111637115479e-02) (15, -9.48144346475601196289e-02) (16, -3.66116873919963836670e-02) (17, 7.61896446347236633301e-02) (18, -7.92960226535797119141e-02) (19, -8.58536064624786376953e-02) (20, 7.59994238615036010742e-02) (21, 8.74389261007308959961e-02) (22, -4.72646020352840423584e-02) (23, -5.09586222469806671143e-02) (24, 4.80690971016883850098e-02) (25, -1.57019533216953277588e-02) (26, 4.89864014089107513428e-02) (27, 1.59926768392324447632e-02) (28, -2.14938130229711532593e-02) (29, -5.47303212806582450867e-03) (30, -1.08995288610458374023e-01) (31, -4.01345863938331604004e-02) (32, -9.74253118038177490234e-02) (33, -2.42213644087314605713e-02) (34, 5.84118142724037170410e-02) (35, -8.47533643245697021484e-02) (36, 2.06170845776796340942e-02) (37, 4.40746806561946868896e-02) (38, -7.07567408680915832520e-02) (39, 3.93715836107730865479e-02) (40, -2.43753511458635330200e-02) (41, -2.17666570097208023071e-02) (42, -1.02025471627712249756e-01) (43, -5.60336187481880187988e-02) (44, 6.56007304787635803223e-02) (45, -2.86356010474264621735e-03) (46, -5.07670342922210693359e-02) (47, -1.15098260343074798584e-01) (48, -4.41481657326221466064e-02) (49, -3.13835255801677703857e-02) (50, -9.54288989305496215820e-02) (51, -7.97223821282386779785e-02) (52, -4.65701110661029815674e-02) (53, -8.75918269157409667969e-02) (54, -3.66819761693477630615e-02) (55, -9.39150080084800720215e-02) (56, 1.75998173654079437256e-02) (57, -8.81975889205932617188e-02) (58, 1.75071507692337036133e-02) (59, 1.73655040562152862549e-02) (60, 1.18932975456118583679e-02) (61, 1.31215415894985198975e-02) (62, -1.44236221909523010254e-01) (63, 2.56307888776063919067e-02) (64, -4.30548526346683502197e-02) (65, 2.40820683538913726807e-02) (66, 5.77547028660774230957e-02) (67, 8.14850330352783203125e-02) (68, -2.59019285440444946289e-02) (69, -9.09060537815093994141e-02) (70, -1.76464002579450607300e-02) (71, -9.80932731181383132935e-03) (72, 1.47795323282480239868e-02) (73, 2.12087705731391906738e-02) (74, -8.95536504685878753662e-03) (75, 1.32438102737069129944e-02) (76, -9.52632576227188110352e-02) (77, 6.62011094391345977783e-03) (78, 3.63536030054092407227e-02) (79, -2.73603852838277816772e-02) (80, -1.48039653897285461426e-01) (81, 8.47781375050544738770e-02) (82, 1.07604116201400756836e-02) (83, -1.05905175209045410156e-01) (84, -5.39388544857501983643e-02) (85, 5.83799742162227630615e-02) (86, -1.06101721525192260742e-01) (87, -8.19877833127975463867e-02) (88, 8.01805406808853149414e-02) (89, -1.81644842028617858887e-01) (90, -1.04996085166931152344e-01) (91, -1.19756311178207397461e-02) (92, -5.69685287773609161377e-02) (93, -8.39367434382438659668e-02) (94, -7.53938183188438415527e-02) (95, -4.76767458021640777588e-02) (96, -8.95584225654602050781e-02) (97, -1.11825168132781982422e-01) (98, -1.08665779232978820801e-01) (99, 6.04108162224292755127e-02) (100, -8.49817842245101928711e-02) (101, -2.21544489264488220215e-01) (102, 3.19330617785453796387e-02) (103, 2.73231398314237594604e-02) (104, -1.27445742487907409668e-01) (105, 9.85127501189708709717e-03) (106, -4.52802814543247222900e-02) (107, -1.27833276987075805664e-01) (108, 8.87530948966741561890e-03) (109, -6.66033253073692321777e-02) (110, -6.33595511317253112793e-02) (111, 5.91038279235363006592e-02) (112, -1.13955646753311157227e-01) (113, -1.69342741370201110840e-01) (114, -4.24575321376323699951e-02) (115, -4.03177551925182342529e-02) (116, -2.03648954629898071289e-01) (117, 6.13553151488304138184e-02) (118, -3.77353206276893615723e-02) (119, -2.17202067375183105469e-01) (120, -1.07130542397499084473e-01) (0, -7.71293696016073226929e-03) (1, 7.87048190832138061523e-02) (2, 8.74472409486770629883e-02) (3, 1.57414115965366363525e-02) (4, -7.18308016657829284668e-02) (5, 6.75188601016998291016e-02) (6, 3.35274562239646911621e-02) (7, -6.30764737725257873535e-02) (8, -7.17614823952317237854e-03) (9, 1.22858269605785608292e-03) (10, -1.89572181552648544312e-02) (11, 1.19005190208554267883e-02) (12, -5.96753843128681182861e-02) (13, -7.67096877098083496094e-02) (14, -6.82809203863143920898e-02) (15, 5.72630502283573150635e-02) (16, 8.25346261262893676758e-03) (17, 5.81855401396751403809e-02) (18, -2.68890857696533203125e-02) (19, 1.14665916189551353455e-02) (20, 5.60574047267436981201e-02) (21, -6.07915855944156646729e-02) (22, 3.76837737858295440674e-02) (23, -4.54586260020732879639e-02) (24, 3.55168851092457771301e-03) (25, 8.11438262462615966797e-02) (26, 2.53410954028367996216e-02) (27, -2.83616092056035995483e-02) (28, 4.48133971076458692551e-04) (29, 8.90206396579742431641e-02) (30, -2.59120445698499679565e-02) (31, 7.62360170483589172363e-02) (32, 6.60708844661712646484e-02) (33, -5.81641644239425659180e-02) (34, -1.53847029432654380798e-02) (35, 9.05251353979110717773e-02) (36, 9.07824784517288208008e-02) (37, -8.01872536540031433105e-02) (38, -7.14951977133750915527e-02) (39, -3.37391719222068786621e-02) (40, 4.07005995512008666992e-02) (41, -2.95668211765587329865e-03) (42, 6.23686611652374267578e-02) (43, 7.60098323225975036621e-02) (44, 1.90562047064304351807e-02) (45, 7.97720700502395629883e-02) (46, 3.22188511490821838379e-02) (47, -8.44556242227554321289e-02) (48, 2.53469832241535186768e-02) (49, -9.71895754337310791016e-02) (50, 3.08267846703529357910e-02) (51, -2.93560195714235305786e-02) (52, -6.10989294946193695068e-02) (53, -4.26014214754104614258e-02) (54, 1.61909461021423339844e-02) (55, 4.30816672742366790771e-02) (56, -5.12598119676113128662e-02) (57, -6.57223165035247802734e-02) (58, -8.90249460935592651367e-02) (59, 3.05309165269136428833e-02) (60, -8.20466950535774230957e-02) (61, -1.42323235049843788147e-02) (62, 5.22031029686331748962e-03) (63, 8.04596096277236938477e-02) (64, 4.46104370057582855225e-02) (65, -1.03591218590736389160e-01) (66, 6.92375302314758300781e-02) (67, 3.39774377644062042236e-02) (68, -7.83256664872169494629e-02) (69, 9.76690277457237243652e-02) (70, 8.91721472144126892090e-02) (71, 4.87865284085273742676e-02) (72, -3.65207693539559841156e-03) (73, 6.13392591476440429688e-02) (74, 1.68091505765914916992e-02) (75, -8.12374800443649291992e-02) (76, 3.56141030788421630859e-02) (77, -5.72639107704162597656e-02) (78, -6.06143847107887268066e-02) (79, -3.70774455368518829346e-02) (80, -5.77423870563507080078e-02) (81, 7.71141201257705688477e-02) (82, 3.71415615081787109375e-02) (83, -1.84241924434900283813e-02) (84, -5.69700524210929870605e-02) (85, -5.16356714069843292236e-02) (86, -7.48817771673202514648e-02) (87, 2.06820783205330371857e-03) (88, -1.64930485188961029053e-02) (89, -5.93207925558090209961e-02) (90, -5.53869754076004028320e-02) (91, -1.57884776126593351364e-03) (92, 3.08822691440582275391e-02) (93, 6.36806860566139221191e-02) (94, -1.97522602975368499756e-02) (95, -3.66584174335002899170e-02) (96, 7.55623281002044677734e-02) (97, -5.10677471756935119629e-02) (98, -1.12890094518661499023e-01) (99, -8.55047404766082763672e-02) (100, -5.02380207180976867676e-02) (101, -1.22439533472061157227e-01) (102, 8.23292061686515808105e-02) (103, 4.26969081163406372070e-02) (104, 3.08636557310819625854e-02) (105, 1.99726093560457229614e-02) (106, 6.34656697511672973633e-02) (107, -3.57715114951133728027e-02) (108, 8.53358730673789978027e-02) (109, -8.72100144624710083008e-02) (110, 2.34376937150955200195e-02) (111, -4.78828139603137969971e-02) (112, 7.77850747108459472656e-02) (113, -4.61261607706546783447e-02) (114, 6.01915754377841949463e-02) (115, -7.36630186438560485840e-02) (116, 7.91175873018801212311e-04) (117, -8.63821431994438171387e-02) (118, 2.21574231982231140137e-02) (119, -1.17538489401340484619e-01) (120, -1.66620276868343353271e-02) (0, 7.29317441582679748535e-02) (1, 3.86481024324893951416e-02) (2, -5.12555874884128570557e-02) (3, 3.66037636995315551758e-02) (4, -7.85859972238540649414e-02) (5, 4.67652715742588043213e-02) (6, 1.21544674038887023926e-02) (7, -2.46790871024131774902e-02) (8, 7.06913173198699951172e-02) (9, 2.66115628182888031006e-02) (10, 2.23686322569847106934e-02) (11, 8.72689187526702880859e-02) (12, 8.87048151344060897827e-03) (13, -2.81554441899061203003e-02) (14, 5.93188740313053131104e-02) (15, -7.12472945451736450195e-02) (16, -6.49114996194839477539e-02) (17, -3.29251214861869812012e-02) (18, -8.60288366675376892090e-02) (19, -5.57606257498264312744e-02) (20, -6.36685565114021301270e-02) (21, -3.40447127819061279297e-02) (22, -7.67838060855865478516e-02) (23, 3.80883999168872833252e-02) (24, -7.40344822406768798828e-02) (25, -4.66026365756988525391e-02) (26, -1.10576823353767395020e-02) (27, -6.06264360249042510986e-02) (28, 7.37605094909667968750e-02) (29, 2.35374774783849716187e-02) (30, 2.37552765756845474243e-02) (31, 4.98763173818588256836e-02) (32, -3.98254841566085815430e-02) (33, 7.13055953383445739746e-02) (34, -1.12782455980777740479e-02) (35, -2.03539542853832244873e-02) (36, 1.66019368916749954224e-02) (37, 9.94706153869628906250e-02) (38, 5.14415949583053588867e-02) (39, -1.44704366102814674377e-02) (40, 1.96609329432249069214e-02) (41, -2.65250727534294128418e-02) (42, -2.93302889913320541382e-02) (43, -6.95960223674774169922e-02) (44, 4.22668941318988800049e-02) (45, -7.24985226988792419434e-02) (46, -4.14373464882373809814e-02) (47, 7.67468810081481933594e-02) (48, -8.30895174294710159302e-03) (49, -2.69884262233972549438e-02) (50, -8.35696086287498474121e-02) (51, 2.46989615261554718018e-02) (52, 3.98379936814308166504e-02) (53, -6.15044087171554565430e-02) (54, -4.09482680261135101318e-02) (55, 6.51865154504776000977e-02) (56, -1.39177609235048294067e-02) (57, 4.38444390892982482910e-02) (58, 1.04910559952259063721e-01) (59, -3.87299396097660064697e-02) (60, -3.72200831770896911621e-02) (61, 2.81499084085226058960e-02) (62, 1.08747825026512145996e-01) (63, 1.79331116378307342529e-02) (64, -5.69475302472710609436e-03) (65, -7.86193180829286575317e-03) (66, 9.21300053596496582031e-02) (67, -8.95043611526489257812e-02) (68, -1.29433311522006988525e-02) (69, 3.77290025353431701660e-02) (70, -5.09706209413707256317e-04) (71, 1.07939392328262329102e-01) (72, -9.50441583991050720215e-02) (73, 6.63543194532394409180e-02) (74, -6.29415959119796752930e-02) (75, 4.05648015439510345459e-02) (76, 9.56574305891990661621e-02) (77, -5.72242029011249542236e-03) (78, 1.02462600916624069214e-02) (79, -1.41224423423409461975e-02) (80, 6.48697540163993835449e-02) (81, 1.91899035125970840454e-02) (82, -9.04649570584297180176e-02) (83, 7.75713357143104076385e-04) (84, 4.98220473527908325195e-02) (85, -2.98936814069747924805e-02) (86, -3.79863791167736053467e-02) (87, -7.23688006401062011719e-02) (88, -8.68010818958282470703e-02) (89, -3.79559546709060668945e-02) (90, -1.97550673037767410278e-02) (91, -2.34827660024166107178e-02) (92, 8.52213725447654724121e-02) (93, -2.00851913541555404663e-02) (94, 9.34658944606781005859e-02) (95, -2.08822246640920639038e-02) (96, 6.26085773110389709473e-02) (97, 8.50187391042709350586e-02) (98, -1.09791597351431846619e-02) (99, -6.01839274168014526367e-02) (100, 2.13643666356801986694e-02) (101, 8.38852599263191223145e-02) (102, -6.24950975179672241211e-02) (103, 2.61475127190351486206e-02) (104, 4.88259159028530120850e-02) (105, -3.60923111438751220703e-02) (106, -3.40624302625656127930e-02) (107, 4.07277867197990417480e-02) (108, 4.71385233104228973389e-02) (109, 7.23204836249351501465e-02) (110, -7.62603282928466796875e-02) (111, 5.31673198565840721130e-04) (112, -6.07786653563380241394e-03) (113, -6.91489577293395996094e-02) (114, 8.94043743610382080078e-02) (115, -5.87487034499645233154e-02) (116, -3.51963634602725505829e-03) (117, -6.08784109354019165039e-02) (118, -2.94952746480703353882e-02) (119, 5.38004515692591667175e-03) (120, -1.14458976313471794128e-02) (0, 4.62571755051612854004e-02) (1, 6.29395619034767150879e-02) (2, 2.54226592369377613068e-03) (3, -7.42403939366340637207e-02) (4, 5.38892485201358795166e-02) (5, 6.65993243455886840820e-02) (6, 8.79147648811340332031e-02) (7, 2.61737648397684097290e-02) (8, -6.02112375199794769287e-02) (9, -7.26626440882682800293e-02) (10, -3.77481095492839813232e-02) (11, 1.07136927545070648193e-01) (12, -3.55740450322628021240e-02) (13, 6.74246177077293395996e-02) (14, 3.89008969068527221680e-02) (15, 2.79161315411329269409e-02) (16, -5.69032542407512664795e-02) (17, -3.81845608353614807129e-02) (18, -2.53740753978490829468e-02) (19, 9.25590246915817260742e-02) (20, -3.28954458236694335938e-02) (21, 7.48029723763465881348e-02) (22, 3.71981528587639331818e-03) (23, -2.08419170230627059937e-02) (24, 6.38280212879180908203e-02) (25, 1.28217488527297973633e-02) (26, 5.62912300229072570801e-02) (27, -9.73996371030807495117e-02) (28, 1.20980024337768554688e-01) (29, -5.81085234880447387695e-02) (30, -9.34701040387153625488e-03) (31, 4.21056337654590606689e-02) (32, 9.82789322733879089355e-02) (33, 5.07885068655014038086e-02) (34, 5.73989190161228179932e-02) (35, 4.27756495773792266846e-02) (36, -2.34993174672126770020e-02) (37, 4.56746108829975128174e-02) (38, -3.28195132315158843994e-02) (39, -2.29409523308277130127e-02) (40, 1.00191183388233184814e-01) (41, 8.47020559012889862061e-03) (42, -5.29037006199359893799e-02) (43, -4.37137521803379058838e-02) (44, -2.87407003343105316162e-02) (45, 5.09233847260475158691e-02) (46, 8.18019360303878784180e-02) (47, -4.55626379698514938354e-03) (48, 8.00260230898857116699e-02) (49, -4.79425825178623199463e-02) (50, -9.05445497483015060425e-03) (51, -8.30240324139595031738e-02) (52, -7.89149031043052673340e-02) (53, 7.65420272946357727051e-02) (54, -3.15537825226783752441e-02) (55, 8.49889591336250305176e-02) (56, 1.36800704058259725571e-03) (57, 9.94696915149688720703e-02) (58, 8.14452841877937316895e-02) (59, -7.24113965407013893127e-03) (60, -8.12523737549781799316e-02) (61, -2.74677406996488571167e-02) (62, -6.95703253149986267090e-02) (63, 9.69005003571510314941e-02) (64, -5.33695481717586517334e-02) (65, -1.05948522686958312988e-01) (66, 2.20934413373470306396e-02) (67, 2.04118099063634872437e-02) (68, 4.55345809459686279297e-02) (69, 7.40238130092620849609e-02) (70, 8.17794054746627807617e-02) (71, 2.43722181767225265503e-02) (72, -3.03781460970640182495e-02) (73, -5.87048903107643127441e-02) (74, 6.76394999027252197266e-02) (75, 3.03975343704223632812e-02) (76, 8.49197283387184143066e-02) (77, 3.88849824666976928711e-02) (78, -8.22647735476493835449e-02) (79, 6.59866482019424438477e-02) (80, -1.15359351038932800293e-01) (81, 3.08780581690371036530e-03) (82, 8.86932760477066040039e-02) (83, -9.48030203580856323242e-02) (84, -2.37212069332599639893e-02) (85, -5.14541715383529663086e-02) (86, -1.10250458121299743652e-01) (87, 7.67441987991333007812e-02) (88, -5.17951287329196929932e-02) (89, -1.23362272977828979492e-01) (90, -2.90113110095262527466e-02) (91, -3.71163748204708099365e-02) (92, -4.58067916333675384521e-02) (93, 5.42805297300219535828e-03) (94, -4.01384457945823669434e-02) (95, -1.76447406411170959473e-02) (96, 5.75555302202701568604e-03) (97, 7.86256119608879089355e-02) (98, -1.13005831837654113770e-01) (99, -3.99676002562046051025e-02) (100, 5.58146834373474121094e-02) (101, -1.31463900208473205566e-01) (102, 9.56424549221992492676e-02) (103, -8.08410346508026123047e-02) (104, -1.02891430258750915527e-01) (105, 7.69934728741645812988e-02) (106, 5.16226291656494140625e-02) (107, -1.23743005096912384033e-01) (108, 3.20880189538002014160e-02) (109, 7.97023624181747436523e-02) (110, 3.54033298790454864502e-02) (111, 3.55652347207069396973e-02) (112, -3.66923287510871887207e-02) (113, 1.16101289168000221252e-02) (114, 6.23620487749576568604e-02) (115, 4.59388718008995056152e-02) (116, -1.44050776958465576172e-01) (117, 7.62208029627799987793e-02) (118, 1.25462114810943603516e-02) (119, -1.00310094654560089111e-01) (120, 8.28347280621528625488e-02) (0, 9.74723398685455322266e-02) (1, 2.97332424670457839966e-02) (2, -6.33866386488080024719e-03) (3, 2.31480807997286319733e-03) (4, 9.50402021408081054688e-02) (5, 1.06478445231914520264e-01) (6, -9.25632864236831665039e-02) (7, 6.71135857701301574707e-02) (8, -7.36426562070846557617e-02) (9, -3.31166274845600128174e-02) (10, 5.17821386456489562988e-02) (11, -6.95121884346008300781e-02) (12, -3.81523333489894866943e-02) (13, 5.54889328777790069580e-02) (14, -3.39726880192756652832e-02) (15, -6.18647225201129913330e-02) (16, 3.21907401084899902344e-02) (17, -1.64016745984554290771e-02) (18, 6.94566443562507629395e-02) (19, -2.67716124653816223145e-02) (20, -3.67923900485038757324e-02) (21, 4.35329508036375045776e-03) (22, 7.91411027312278747559e-02) (23, -7.79136866331100463867e-02) (24, -3.40737365186214447021e-02) (25, -1.14875501021742820740e-02) (26, -7.18639045953750610352e-02) (27, -5.86460754275321960449e-02) (28, -2.33942102640867233276e-02) (29, -1.91521421074867248535e-02) (30, -7.97704756259918212891e-02) (31, -5.98179697990417480469e-02) (32, 9.88620594143867492676e-02) (33, -1.70311145484447479248e-02) (34, 2.52902582287788391113e-02) (35, 7.87613689899444580078e-02) (36, -3.92428264021873474121e-02) (37, 3.64065095782279968262e-02) (38, 4.25208099186420440674e-02) (39, -3.91627103090286254883e-02) (40, -5.35675585269927978516e-02) (41, -3.65040302276611328125e-02) (42, -3.18956375122070312500e-02) (43, -5.49031188711524009705e-03) (44, -8.88919308781623840332e-02) (45, 1.38361612334847450256e-02) (46, 3.19705680012702941895e-02) (47, 1.50641081854701042175e-02) (48, 8.04975330829620361328e-02) (49, -4.75713377818465232849e-03) (50, -1.07161037623882293701e-01) (51, -6.95858672261238098145e-02) (52, 9.17397290468215942383e-02) (53, 4.71300780773162841797e-02) (54, -5.73054701089859008789e-02) (55, -4.12037372589111328125e-02) (56, -4.66880165040493011475e-02) (57, -3.55309806764125823975e-02) (58, -7.13318632915616035461e-03) (59, -1.21772093698382377625e-02) (60, 4.27313484251499176025e-02) (61, 1.41953816637396812439e-02) (62, 2.09046434611082077026e-02) (63, 4.25363555550575256348e-02) (64, -6.62206113338470458984e-02) (65, -4.23033274710178375244e-02) (66, 2.58411373943090438843e-02) (67, -7.42360623553395271301e-03) (68, -9.70942676067352294922e-02) (69, -2.37654764205217361450e-02) (70, 2.76382509618997573853e-02) (71, -8.38991105556488037109e-02) (72, 5.09992949664592742920e-02) (73, -8.27060416340827941895e-02) (74, -7.81354773789644241333e-03) (75, 7.68006294965744018555e-02) (76, 1.85958165675401687622e-02) (77, -9.24460440874099731445e-02) (78, 9.98315773904323577881e-03) (79, 3.31198191270232200623e-03) (80, -6.79717538878321647644e-03) (81, 2.45471764355897903442e-02) (82, 4.07983399927616119385e-02) (83, -1.57606061547994613647e-02) (84, -3.39652062393724918365e-03) (85, 7.00944066047668457031e-02) (86, -1.57623812556266784668e-01) (87, 7.83549100160598754883e-02) (88, -6.39704540371894836426e-02) (89, -5.75202181935310363770e-02) (90, -2.01227678917348384857e-03) (91, 7.21599161624908447266e-02) (92, -1.36244863271713256836e-01) (93, -4.56865727901458740234e-02) (94, 1.66001524776220321655e-02) (95, -1.31326735019683837891e-01) (96, 5.06268143653869628906e-02) (97, -5.96803203225135803223e-02) (98, -6.47898539900779724121e-02) (99, 9.56601724028587341309e-02) (100, 2.25122198462486267090e-02) (101, -1.36759400367736816406e-01) (102, -4.26173061132431030273e-02) (103, -3.29332686960697174072e-02) (104, -1.39841228723526000977e-01) (105, 9.86928269267082214355e-02) (106, -5.23976236581802368164e-02) (107, -2.86927353590726852417e-02) (108, -4.11515310406684875488e-02) (109, 7.84378871321678161621e-02) (110, -1.36262074112892150879e-01) (111, -9.16530564427375793457e-02) (112, -2.24483441561460494995e-02) (113, -1.24713443219661712646e-02) (114, 5.26954233646392822266e-02) (115, 8.70988294482231140137e-02) (116, -4.56165187060832977295e-02) (117, 5.86656667292118072510e-02) (118, 5.05049601197242736816e-02) (119, -1.35586373507976531982e-02) (120, -3.35669368505477905273e-02) (0, -3.84012572467327117920e-02) (1, 5.88361918926239013672e-02) (2, -2.86301411688327789307e-02) (3, 1.56060913577675819397e-02) (4, -2.21098065376281738281e-02) (5, 1.77127085626125335693e-02) (6, -3.40342000126838684082e-02) (7, 3.79489772021770477295e-02) (8, -6.49106651544570922852e-02) (9, -3.87663431465625762939e-02) (10, -6.73631653189659118652e-02) (11, -1.50310024619102478027e-02) (12, 1.82056240737438201904e-02) (13, 3.34421843290328979492e-02) (14, 3.60097885131835937500e-02) (15, 1.64477098733186721802e-02) (16, 6.42856359481811523438e-02) (17, 2.96964123845100402832e-03) (18, 7.48132392764091491699e-02) (19, 6.28573596477508544922e-02) (20, 6.69476538896560668945e-02) (21, 8.25514271855354309082e-02) (22, -8.18519368767738342285e-02) (23, 5.85154145956039428711e-02) (24, 3.45947295427322387695e-02) (25, -5.08627668023109436035e-02) (26, 2.12520640343427658081e-02) (27, -7.47980829328298568726e-03) (28, 4.58485409617424011230e-02) (29, 1.99939738959074020386e-02) (30, 6.03876598179340362549e-02) (31, -5.57790361344814300537e-02) (32, -2.12774542160332202911e-03) (33, -3.67767624557018280029e-02) (34, 7.84887447953224182129e-02) (35, 9.79484170675277709961e-02) (36, -9.00705903768539428711e-02) (37, -5.97859770059585571289e-02) (38, 4.61616031825542449951e-02) (39, -2.86628901958465576172e-02) (40, -4.60828989744186401367e-02) (41, -8.07119682431221008301e-02) (42, 7.92473554611206054688e-02) (43, -1.13107874989509582520e-01) (44, 6.82765021920204162598e-02) (45, 3.49733419716358184814e-02) (46, 3.73826082795858383179e-03) (47, 7.02498182654380798340e-02) (48, -4.60446923971176147461e-02) (49, -1.52330445125699043274e-02) (50, 3.50496582686901092529e-02) (51, -6.71070441603660583496e-02) (52, -2.55933552980422973633e-02) (53, 8.70048329234123229980e-02) (54, 9.95642319321632385254e-02) (55, -9.27164927124977111816e-02) (56, 1.23008385300636291504e-01) (57, 2.51815151423215866089e-02) (58, 7.56266433745622634888e-03) (59, 1.20967879891395568848e-01) (60, -5.46161457896232604980e-02) (61, -3.35718244314193725586e-02) (62, -2.10832506418228149414e-02) (63, 3.95806990563869476318e-02) (64, -1.15451328456401824951e-02) (65, -4.94753718376159667969e-02) (66, 2.98880152404308319092e-02) (67, -6.54767325613647699356e-04) (68, -1.33682247251272201538e-02) (69, -3.52501533925533294678e-02) (70, -1.01248860359191894531e-01) (71, 8.23497399687767028809e-02) (72, -3.10040824115276336670e-02) (73, 5.33673577010631561279e-02) (74, 9.47288870811462402344e-02) (75, -8.15457701683044433594e-02) (76, 1.49280182085931301117e-03) (77, 2.18963976949453353882e-02) (78, 6.61073327064514160156e-02) (79, 5.02701699733734130859e-02) (80, 1.22582860291004180908e-01) (81, -2.54275649785995483398e-02) (82, 7.51434862613677978516e-02) (83, 4.28170012310147285461e-03) (84, -6.85463771224021911621e-02) (85, 8.87060388922691345215e-02) (86, 1.89014989882707595825e-02) (87, -7.95508325099945068359e-02) (88, 1.17103848606348037720e-02) (89, 1.24983459711074829102e-01) (90, -9.63194221258163452148e-02) (91, 6.36809393763542175293e-02) (92, -9.95456892997026443481e-03) (93, -5.91349788010120391846e-02) (94, 1.02203362621366977692e-03) (95, 1.17203831672668457031e-01) (96, -5.38709685206413269043e-02) (97, -6.75417035818099975586e-02) (98, 5.29712513089179992676e-02) (99, -1.63912363350391387939e-02) (100, -9.32271964848041534424e-03) (101, 5.89870885014533996582e-02) (102, -8.70521664619445800781e-02) (103, 6.64477795362472534180e-02) (104, 4.30284254252910614014e-02) (105, 5.08017353713512420654e-02) (106, 8.05417746305465698242e-02) (107, 1.61232903599739074707e-01) (108, -8.80138725042343139648e-02) (109, 2.31258086860179901123e-02) (110, 1.32177770137786865234e-01) (111, 6.97760507464408874512e-02) (112, -7.48060867190361022949e-02) (113, 1.34612336754798889160e-01) (114, -9.49273407459259033203e-02) (115, -5.76554201543331146240e-02) (116, 1.35852560400962829590e-01) (117, -4.88498359918594360352e-02) (118, -2.11372897028923034668e-02) (119, 6.11108131706714630127e-02) (120, 1.05299331247806549072e-01) (0, -1.93555224686861038208e-02) (1, -1.01230353116989135742e-01) (2, -1.40778139233589172363e-01) (3, 2.14270744472742080688e-02) (4, -2.04732734709978103638e-03) (5, -6.66613643988966941833e-03) (6, 6.75562918186187744141e-02) (7, 4.39878515899181365967e-02) (8, -1.40594199299812316895e-01) (9, -4.88601326942443847656e-02) (10, -9.19894054532051086426e-02) (11, -7.27123618125915527344e-02) (12, -3.58012914657592773438e-02) (13, -9.82062444090843200684e-02) (14, -2.51616947352886199951e-02) (15, -8.48275423049926757812e-02) (16, 6.06723986566066741943e-02) (17, -6.38252049684524536133e-02) (18, -7.25688412785530090332e-02) (19, 4.93437424302101135254e-02) (20, 6.40037655830383300781e-02) (21, 9.73790809512138366699e-02) (22, 3.66042256355285644531e-02) (23, -1.02921640500426292419e-02) (24, -9.71919968724250793457e-02) (25, -5.53927607834339141846e-02) (26, -8.76531377434730529785e-02) (27, -4.56675104796886444092e-02) (28, -5.15610426664352416992e-02) (29, -4.40968908369541168213e-02) (30, -4.60948236286640167236e-02) (31, 7.01959803700447082520e-02) (32, -3.52375842630863189697e-02) (33, -3.77517938613891601562e-02) (34, 1.07018463313579559326e-02) (35, 7.77900516986846923828e-02) (36, -9.80450287461280822754e-02) (37, -2.54234466701745986938e-02) (38, 2.39333771169185638428e-02) (39, -9.52458009123802185059e-02) (40, -2.42612771689891815186e-02) (41, 6.77736774086952209473e-02) (42, -2.83504538238048553467e-02) (43, 5.41046634316444396973e-02) (44, 7.75378420948982238770e-02) (45, 8.24925675988197326660e-02) (46, 7.14767575263977050781e-02) (47, 7.15769827365875244141e-02) (48, -4.94933314621448516846e-02) (49, -9.45709496736526489258e-02) (50, 1.53577383607625961304e-02) (51, -5.81638589501380920410e-02) (52, -8.86318683624267578125e-02) (53, -1.69556941837072372437e-02) (54, 5.45489154756069183350e-02) (55, -8.73880758881568908691e-02) (56, 6.33110105991363525391e-03) (57, 8.56436640024185180664e-02) (58, -2.39605829119682312012e-02) (59, 1.05187110602855682373e-01) (60, -4.43726219236850738525e-02) (61, 2.83390060067176818848e-02) (62, 8.33483859896659851074e-02) (63, 3.01069244742393493652e-02) (64, 4.77920398116111755371e-02) (65, -1.87521725893020629883e-02) (66, 1.31609914824366569519e-02) (67, 5.26419505476951599121e-02) (68, 4.55120019614696502686e-02) (69, -6.17402419447898864746e-02) (70, 8.58724862337112426758e-02) (71, -4.04279269278049468994e-02) (72, -9.69927608966827392578e-02) (73, -6.70677348971366882324e-02) (74, 1.36551052331924438477e-01) (75, 7.33020380139350891113e-02) (76, -7.09364265203475952148e-02) (77, 1.27304166555404663086e-01) (78, 3.34226600825786590576e-02) (79, -2.48577240854501724243e-02) (80, 1.44465118646621704102e-01) (81, -6.71326667070388793945e-02) (82, 7.82558973878622055054e-03) (83, 1.57733187079429626465e-01) (84, -3.95639240741729736328e-03) (85, -2.38331072032451629639e-02) (86, -2.76721343398094177246e-02) (87, 7.81575217843055725098e-02) (88, -4.01260368525981903076e-02) (89, 4.04911711812019348145e-02) (90, 5.49347549676895141602e-02) (91, 2.29056552052497863770e-02) (92, 1.61369085311889648438e-01) (93, 5.39564574137330055237e-03) (94, -4.95935417711734771729e-02) (95, 1.43634513020515441895e-01) (96, 4.97838072478771209717e-02) (97, 6.58235847949981689453e-02) (98, 1.26747205853462219238e-01) (99, -4.59240376949310302734e-02) (100, 9.67272594571113586426e-02) (101, 1.13753579556941986084e-01) (102, -3.19357514381408691406e-02) (103, -9.15181487798690795898e-02) (104, 1.71400398015975952148e-01) (105, -4.53251115977764129639e-02) (106, 7.69993364810943603516e-02) (107, 1.10076600685715675354e-02) (108, -7.23243206739425659180e-02) (109, -1.35543765500187873840e-02) (110, 1.00087180733680725098e-01) (111, -8.67819041013717651367e-02) (112, 5.00202439725399017334e-02) (113, 2.97615490853786468506e-02) (114, -9.27698463201522827148e-02) (115, -6.78894668817520141602e-02) (116, 1.13459751009941101074e-01) (117, -8.85506421327590942383e-02) (118, -7.31119439005851745605e-02) (119, 1.81826010346412658691e-01) (120, -1.23595530167222023010e-02) (0, 6.90170973539352416992e-02) (1, -2.11598519235849380493e-02) (2, -4.50748056173324584961e-02) (3, -2.53857634961605072021e-02) (4, 2.62080784887075424194e-02) (5, -8.44704508781433105469e-02) (6, -7.53834471106529235840e-02) (7, -1.45079912617802619934e-02) (8, 5.41816018521785736084e-02) (9, -2.10375338792800903320e-02) (10, -1.45980045199394226074e-02) (11, -2.54096407443284988403e-02) (12, 4.73831817507743835449e-02) (13, -1.48322097957134246826e-02) (14, -5.25571256875991821289e-02) (15, -9.75338444113731384277e-02) (16, -3.94256748259067535400e-02) (17, -4.56819310784339904785e-02) (18, -6.93746134638786315918e-02) (19, 6.56829103827476501465e-02) (20, 4.47895042598247528076e-02) (21, -5.56571446359157562256e-02) (22, 7.33497133478522300720e-03) (23, 5.99128156900405883789e-02) (24, -4.78012338280677795410e-02) (25, 4.12037596106529235840e-02) (26, -4.64988723397254943848e-02) (27, -3.56598757207393646240e-02) (28, 6.03161975741386413574e-02) (29, -8.95585864782333374023e-02) (30, 4.40630279481410980225e-02) (31, 2.78720706701278686523e-02) (32, -1.43362954258918762207e-02) (33, -9.25977230072021484375e-02) (34, -9.94077920913696289062e-02) (35, -9.13355946540832519531e-02) (36, -6.85176253318786621094e-02) (37, -7.34363496303558349609e-02) (38, -7.87491630762815475464e-03) (39, 9.43636670708656311035e-02) (40, 1.03587321937084197998e-02) (41, 7.39550441503524780273e-02) (42, -2.21780966967344284058e-02) (43, -4.42674569785594940186e-02) (44, -4.31288070976734161377e-02) (45, 3.43034602701663970947e-02) (46, -4.07505631446838378906e-02) (47, 1.40065932646393775940e-02) (48, 9.78390872478485107422e-02) (49, -1.03888092562556266785e-02) (50, -2.14040447026491165161e-02) (51, 5.20416349172592163086e-02) (52, 3.35900597274303436279e-02) (53, 8.35138410329818725586e-02) (54, 2.15444453060626983643e-02) (55, 8.63813906908035278320e-02) (56, 2.47963350266218185425e-02) (57, 8.48224386572837829590e-02) (58, -4.92738932371139526367e-02) (59, -1.93013101816177368164e-02) (60, -9.47593301534652709961e-02) (61, 9.49486196041107177734e-02) (62, -9.37926173210144042969e-02) (63, 1.06662500184029340744e-03) (64, -9.37779992818832397461e-02) (65, -9.30460691452026367188e-02) (66, 2.00828500092029571533e-02) (67, -6.15141727030277252197e-02) (68, -6.71148449182510375977e-02) (69, -7.72615820169448852539e-02) (70, -7.04463198781013488770e-02) (71, 3.83783876895904541016e-02) (72, -9.25935730338096618652e-02) (73, 1.04133626446127891541e-02) (74, -1.08168877661228179932e-01) (75, -2.48179752379655838013e-02) (76, -5.67227825522422790527e-02) (77, -5.16686029732227325439e-02) (78, -9.97161492705345153809e-02) (79, -5.78083060681819915771e-02) (80, 3.60042639076709747314e-02) (81, -9.82795190066099166870e-03) (82, 9.45158675312995910645e-02) (83, -3.14064212143421173096e-02) (84, -1.48542746901512145996e-02) (85, 1.44179919734597206116e-02) (86, -4.60706204175949096680e-02) (87, -7.84099847078323364258e-02) (88, -3.08378919726237654686e-04) (89, 4.13855165243148803711e-03) (90, 1.40985120087862014771e-02) (91, 4.50114579871296882629e-03) (92, -1.05978187639266252518e-03) (93, 3.23027931153774261475e-02) (94, -9.37358736991882324219e-02) (95, 1.66440336033701896667e-03) (96, 5.14042042195796966553e-02) (97, 2.69036535173654556274e-02) (98, 3.63880880177021026611e-02) (99, 9.66209396719932556152e-02) (100, 5.05199432373046875000e-02) (101, 6.59703239798545837402e-02) (102, 4.74866703152656555176e-02) (103, 5.86057379841804504395e-02) (104, -2.61227656155824661255e-02) (105, 5.19734285771846771240e-02) (106, -6.52957335114479064941e-02) (107, 1.65774673223495483398e-02) (108, -8.68926197290420532227e-02) (109, -6.17835186421871185303e-02) (110, 5.76032474637031555176e-02) (111, 6.20879568159580230713e-02) (112, 2.74403039366006851196e-02) (113, 5.11656813323497772217e-02) (114, -5.61951920390129089355e-02) (115, -8.48243981599807739258e-02) (116, -3.32686714828014373779e-02) (117, 1.09984753653407096863e-02) (118, -6.43020868301391601562e-02) (119, 6.76031410694122314453e-02) (120, -7.04162120819091796875e-02) (0, 5.01897744834423065186e-02) (1, -1.01020056754350662231e-02) (2, 2.87384893745183944702e-02) (3, -1.71648543328046798706e-02) (4, -3.94950387999415397644e-03) (5, -5.46043068170547485352e-02) (6, -6.53956457972526550293e-02) (7, -6.95519596338272094727e-02) (8, -1.02806761860847473145e-01) (9, -6.84602111577987670898e-02) (10, 6.62715807557106018066e-02) (11, 7.89005234837532043457e-02) (12, 7.93656408786773681641e-02) (13, 3.89093011617660522461e-02) (14, -3.12506370246410369873e-02) (15, 3.16693149507045745850e-02) (16, 6.20976053178310394287e-02) (17, -9.83564630150794982910e-02) (18, 4.51179370284080505371e-02) (19, -8.34226831793785095215e-02) (20, 7.58624225854873657227e-02) (21, 7.48105207458138465881e-03) (22, 2.58175618946552276611e-02) (23, 4.36794087290763854980e-02) (24, 5.15839755535125732422e-02) (25, 6.22301250696182250977e-02) (26, -7.26874023675918579102e-02) (27, -3.71398366987705230713e-02) (28, 6.23565874993801116943e-02) (29, -8.80680009722709655762e-02) (30, -8.28135944902896881104e-03) (31, 3.06172352284193038940e-02) (32, 3.18293482996523380280e-03) (33, -6.69373571872711181641e-02) (34, -7.72452205419540405273e-02) (35, 1.02631352841854095459e-01) (36, -1.02738216519355773926e-02) (37, -4.60271760821342468262e-02) (38, -6.93123042583465576172e-02) (39, -3.25558823533356189728e-03) (40, -3.97893562912940979004e-02) (41, 1.10692597925662994385e-01) (42, -1.63419153541326522827e-02) (43, -5.39026781916618347168e-02) (44, 5.03576621413230895996e-02) (45, 5.86868487298488616943e-02) (46, 7.77454227209091186523e-02) (47, 2.54152733832597732544e-02) (48, 6.46323785185813903809e-02) (49, 2.55173332989215850830e-02) (50, 3.64575758576393127441e-02) (51, 4.26485762000083923340e-02) (52, -6.33907243609428405762e-02) (53, -2.60427445173263549805e-02) (54, -1.35580133646726608276e-02) (55, 8.65102931857109069824e-02) (56, -7.63316825032234191895e-02) (57, 1.18515072390437126160e-02) (58, -4.72112707793712615967e-02) (59, 1.07404112815856933594e-01) (60, 1.96693036705255508423e-02) (61, 4.30937297642230987549e-02) (62, 3.97548414766788482666e-02) (63, -8.33180025219917297363e-02) (64, 5.44520020484924316406e-02) (65, 5.31780533492565155029e-02) (66, -8.89523699879646301270e-02) (67, -5.55457882583141326904e-02) (68, 9.97051745653152465820e-02) (69, -6.84657543897628784180e-02) (70, 5.51843680441379547119e-02) (71, -2.38119997084140777588e-02) (72, -6.99563100934028625488e-02) (73, -7.45651423931121826172e-02) (74, 3.04987840354442596436e-02) (75, 6.62227496504783630371e-02) (76, 9.10380482673645019531e-02) (77, 1.48698175325989723206e-02) (78, -2.45339162647724151611e-02) (79, 5.19544966518878936768e-02) (80, -5.70505075156688690186e-02) (81, 9.36408862471580505371e-02) (82, -9.76931955665349960327e-03) (83, -2.30242647230625152588e-02) (84, -5.25538809597492218018e-02) (85, 8.30063149333000183105e-02) (86, -3.90249975025653839111e-02) (87, -5.10937049984931945801e-02) (88, -7.21530802547931671143e-03) (89, 6.55042473226785659790e-03) (90, -6.78689181804656982422e-02) (91, -8.42100158333778381348e-02) (92, 1.42378419637680053711e-01) (93, 4.55842427909374237061e-02) (94, -6.99593201279640197754e-02) (95, 1.09953835606575012207e-01) (96, -2.94084381312131881714e-02) (97, -5.95394447445869445801e-02) (98, -3.41704189777374267578e-02) (99, -5.99398873746395111084e-02) (100, -3.26882153749465942383e-02) (101, 1.17156155407428741455e-01) (102, -1.60382017493247985840e-02) (103, 5.07711811223998665810e-05) (104, 1.50766894221305847168e-01) (105, 8.01106318831443786621e-02) (106, -3.66880893707275390625e-02) (107, 1.41917392611503601074e-01) (108, -4.14168238639831542969e-02) (109, 2.46462058275938034058e-02) (110, 9.63272973895072937012e-02) (111, -3.70424278080463409424e-02) (112, 3.13880965113639831543e-02) (113, -8.08038096874952316284e-03) (114, -8.85702436789870262146e-04) (115, 7.05274417996406555176e-02) (116, -2.71734185516834259033e-02) (117, 1.72062627971172332764e-02) (118, -7.33512714505195617676e-02) (119, 6.42363503575325012207e-02) (120, 7.94592350721359252930e-02) (0, -4.99876178801059722900e-02) (1, -3.83465387858450412750e-03) (2, 7.10857287049293518066e-02) (3, 9.48719680309295654297e-02) (4, 1.97561532258987426758e-02) (5, 3.08899600058794021606e-02) (6, -3.52558307349681854248e-02) (7, 5.22204786539077758789e-02) (8, 4.41408008337020874023e-02) (9, 4.12423722445964813232e-03) (10, -8.04715603590011596680e-02) (11, 6.21821545064449310303e-03) (12, 8.74427184462547302246e-02) (13, 9.46615450084209442139e-03) (14, -5.51800534594804048538e-04) (15, 6.69381618499755859375e-02) (16, 7.05762356519699096680e-02) (17, -1.88232380896806716919e-02) (18, -7.50609859824180603027e-02) (19, -7.02315184753388166428e-04) (20, -8.52760523557662963867e-02) (21, -1.26588568091392517090e-02) (22, -7.10643976926803588867e-02) (23, -5.84601908922195434570e-02) (24, 8.59554558992385864258e-02) (25, -1.04460239410400390625e-01) (26, -5.31936287879943847656e-02) (27, 2.69714836031198501587e-03) (28, -7.69763439893722534180e-02) (29, 4.11642119288444519043e-02) (30, -1.91469900310039520264e-02) (31, -2.95842792838811874390e-02) (32, -5.68972565233707427979e-02) (33, -4.60138395428657531738e-02) (34, -3.63407619297504425049e-02) (35, 6.81391581892967224121e-02) (36, 8.72704312205314636230e-02) (37, 3.04555911570787429810e-02) (38, 2.62651760131120681763e-02) (39, 3.41810807585716247559e-02) (40, -5.91077394783496856689e-02) (41, 4.79547157883644104004e-02) (42, -5.63761331140995025635e-02) (43, -7.18550980091094970703e-02) (44, -3.77135761082172393799e-02) (45, 4.67336028814315795898e-02) (46, 9.54248160123825073242e-02) (47, -6.54779449105262756348e-02) (48, -6.79372772574424743652e-02) (49, -7.94172957539558410645e-02) (50, 3.92218530178070068359e-02) (51, -4.85296919941902160645e-02) (52, 8.12473613768815994263e-03) (53, 6.92075416445732116699e-02) (54, -1.81073346175253391266e-03) (55, -4.88468445837497711182e-03) (56, 7.10405707359313964844e-02) (57, 5.06623387336730957031e-02) (58, -1.02048300206661224365e-01) (59, -1.07124716043472290039e-01) (60, -1.96775863878428936005e-03) (61, -2.04428564757108688354e-02) (62, -3.39838862419128417969e-02) (63, 4.78307381272315979004e-02) (64, 3.92123721539974212646e-02) (65, 3.53794395923614501953e-02) (66, 2.31667328625917434692e-02) (67, 2.71953120827674865723e-02) (68, -2.92402096092700958252e-02) (69, -4.29170653223991394043e-02) (70, -4.10781204700469970703e-02) (71, 1.15687474608421325684e-02) (72, -8.68385359644889831543e-02) (73, 6.55181147158145904541e-03) (74, 4.11008410155773162842e-02) (75, -1.59558933228254318237e-02) (76, -4.78723384439945220947e-02) (77, 3.88774871826171875000e-02) (78, 2.76372302323579788208e-02) (79, -1.37373590841889381409e-02) (80, 6.28407225012779235840e-02) (81, -2.35674399882555007935e-02) (82, 3.90442460775375366211e-02) (83, -2.45653986930847167969e-02) (84, -4.43418286740779876709e-02) (85, -6.27691298723220825195e-02) (86, 7.52771571278572082520e-02) (87, -6.27900063991546630859e-02) (88, 8.93894806504249572754e-02) (89, 7.90356844663619995117e-02) (90, -5.89336864650249481201e-02) (91, -1.29394121468067169189e-02) (92, -3.50950993597507476807e-02) (93, 1.85793917626142501831e-02) (94, -6.30364567041397094727e-02) (95, -9.40143167972564697266e-02) (96, -3.40986773371696472168e-02) (97, 6.19482994079589843750e-02) (98, 3.55886630713939666748e-02) (99, 4.91101890802383422852e-02) (100, -7.86273926496505737305e-02) (101, -9.94177758693695068359e-02) (102, -2.63800155371427536011e-02) (103, -6.49457052350044250488e-02) (104, 1.04362228885293006897e-02) (105, -7.18308985233306884766e-02) (106, 2.05762423574924468994e-02) (107, 6.82061463594436645508e-02) (108, 8.09985548257827758789e-02) (109, -4.65386025607585906982e-02) (110, -4.07287664711475372314e-02) (111, 5.83277121186256408691e-02) (112, 2.86254473030567169189e-02) (113, -9.69350934028625488281e-02) (114, -5.11991940438747406006e-02) (115, 8.70770141482353210449e-02) (116, -5.37818111479282379150e-02) (117, -6.03673383593559265137e-02) (118, -7.59483054280281066895e-02) (119, -5.87340518832206726074e-02) (120, -6.56957104802131652832e-02) (0, -2.68990695476531982422e-02) (1, 6.19214065372943878174e-02) (2, -8.26362706720829010010e-03) (3, 9.26949530839920043945e-02) (4, -9.67323482036590576172e-02) (5, 1.74722019582986831665e-02) (6, -4.03415672481060028076e-02) (7, 8.03343802690505981445e-02) (8, -2.60744392871856689453e-02) (9, -9.02550667524337768555e-02) (10, 7.69698619842529296875e-02) (11, -3.69108584709465503693e-03) (12, -1.56126692891120910645e-02) (13, -5.78279122710227966309e-02) (14, -7.06804171204566955566e-02) (15, 1.35709140449762344360e-02) (16, 4.52058874070644378662e-02) (17, -7.88949131965637207031e-02) (18, -4.39632078632712364197e-03) (19, -6.39447122812271118164e-02) (20, 4.87250136211514472961e-03) (21, -4.51512709259986877441e-02) (22, 3.37940864264965057373e-02) (23, 3.28240916132926940918e-02) (24, 4.61053056642413139343e-03) (25, 6.94533362984657287598e-02) (26, -9.52588245272636413574e-02) (27, 4.51631844043731689453e-02) (28, 3.10419742017984390259e-02) (29, -2.77395434677600860596e-02) (30, 8.09274911880493164062e-02) (31, -6.07359632849693298340e-02) (32, -6.54984712600708007812e-02) (33, -1.74553936813026666641e-03) (34, -5.10082505643367767334e-02) (35, -5.94277717173099517822e-02) (36, -6.12617991864681243896e-02) (37, 1.99721660465002059937e-03) (38, 1.14569261670112609863e-01) (39, 3.28953303396701812744e-02) (40, -3.71080338954925537109e-02) (41, 1.15061633288860321045e-01) (42, -5.40467239916324615479e-02) (43, 5.68596646189689636230e-02) (44, -4.38772067427635192871e-02) (45, -1.13211506977677345276e-02) (46, -2.84317843616008758545e-02) (47, 1.23161286115646362305e-01) (48, 1.93780735135078430176e-02) (49, 7.04768821597099304199e-02) (50, -5.52607327699661254883e-02) (51, -7.02905952930450439453e-02) (52, -6.94377273321151733398e-02) (53, 9.82042029500007629395e-02) (54, 6.40633851289749145508e-02) (55, 3.20127010345458984375e-02) (56, 4.07117120921611785889e-02) (57, 6.64546936750411987305e-02) (58, -1.77315883338451385498e-02) (59, 1.02515295147895812988e-02) (60, -6.78887292742729187012e-02) (61, -3.92916202545166015625e-02) (62, 4.91697154939174652100e-02) (63, -4.39454205334186553955e-02) (64, 1.51164764538407325745e-02) (65, 7.67073109745979309082e-02) (66, -1.79705787450075149536e-02) (67, 5.24753481149673461914e-02) (68, -3.96762005984783172607e-02) (69, -2.17105764895677566528e-02) (70, 1.16826938465237617493e-02) (71, 4.99291978776454925537e-02) (72, -2.87652630358934402466e-02) (73, 3.14507260918617248535e-02) (74, 2.02637370675802230835e-02) (75, 1.40619277954101562500e-03) (76, -6.80529475212097167969e-02) (77, 1.00375771522521972656e-01) (78, -5.21555962041020393372e-03) (79, 4.32848855853080749512e-02) (80, 7.26755335927009582520e-02) (81, 5.68851130083203315735e-03) (82, 6.36135786771774291992e-02) (83, 9.61551889777183532715e-02) (84, -3.35309505462646484375e-02) (85, 3.89315150678157806396e-02) (86, 2.04398371279239654541e-02) (87, 6.58079981803894042969e-02) (88, 1.57560454681515693665e-03) (89, 8.67170318961143493652e-02) (90, -6.90945088863372802734e-02) (91, 3.86229641735553741455e-02) (92, 1.30383774638175964355e-01) (93, 3.08493152260780334473e-02) (94, 8.94097834825515747070e-02) (95, 6.90454691648483276367e-02) (96, -4.52529527246952056885e-02) (97, -2.99290791153907775879e-02) (98, 4.29939627647399902344e-02) (99, -4.17041480541229248047e-02) (100, 3.86343933641910552979e-02) (101, 1.46634235978126525879e-01) (102, 4.75341714918613433838e-02) (103, 1.14764072000980377197e-01) (104, 9.28551256656646728516e-02) (105, -9.68360602855682373047e-02) (106, 9.65220946818590164185e-03) (107, 1.24822303652763366699e-01) (108, 3.49937789142131805420e-02) (109, 7.75525495409965515137e-02) (110, 7.27997869253158569336e-02) (111, -6.50329440832138061523e-02) (112, 8.35645757615566253662e-03) (113, 4.69489991664886474609e-02) (114, 5.41411601006984710693e-02) (115, 5.86470514535903930664e-02) (116, 1.82256728410720825195e-01) (117, 9.36770662665367126465e-02) (118, 3.79617288708686828613e-02) (119, 8.07003304362297058105e-02) (120, -1.50440924335271120071e-03) (0, 5.13166710734367370605e-02) (1, 6.81549459695816040039e-02) (2, -1.32199779152870178223e-01) (3, -2.00806036591529846191e-02) (4, 3.73849384486675262451e-02) (5, -5.35338297486305236816e-02) (6, 3.25310975313186645508e-02) (7, -8.91258269548416137695e-02) (8, -4.59706969559192657471e-03) (9, 8.86261090636253356934e-02) (10, -5.86032215505838394165e-03) (11, -5.62090352177619934082e-02) (12, 3.41185927391052246094e-02) (13, 3.37656438350677490234e-02) (14, 3.39725688099861145020e-02) (15, 3.53029370307922363281e-02) (16, -1.03647522628307342529e-01) (17, -4.82552908360958099365e-02) (18, -3.15653532743453979492e-02) (19, -5.71041330695152282715e-02) (20, 1.30469407886266708374e-02) (21, 1.38205231633037328720e-03) (22, -1.55681595206260681152e-02) (23, 4.37402054667472839355e-02) (24, -4.62851151823997497559e-02) (25, 1.72171350568532943726e-02) (26, 5.41228661313652992249e-03) (27, -5.44150695204734802246e-02) (28, 3.62660959362983703613e-02) (29, 6.10959455370903015137e-02) (30, 3.90852913260459899902e-02) (31, 4.68946993350982666016e-02) (32, 3.97105701267719268799e-02) (33, 7.33958780765533447266e-02) (34, -4.48695197701454162598e-02) (35, -5.49874082207679748535e-03) (36, -1.75392273813486099243e-02) (37, 8.27350690960884094238e-02) (38, 4.32408042252063751221e-03) (39, -6.37815892696380615234e-02) (40, 7.54955690354108810425e-04) (41, -5.46854250133037567139e-02) (42, 3.29813361167907714844e-02) (43, -4.34975996613502502441e-02) (44, 8.56963396072387695312e-02) (45, 1.47920567542314529419e-02) (46, -1.05025440454483032227e-01) (47, -7.52365589141845703125e-02) (48, -9.15496423840522766113e-02) (49, -2.51336544752120971680e-02) (50, -4.55787330865859985352e-02) (51, 5.69879524409770965576e-02) (52, 8.97133871912956237793e-02) (53, 7.77535140514373779297e-02) (54, 3.00687178969383239746e-02) (55, -5.76365664601325988770e-02) (56, -4.04861867427825927734e-02) (57, -4.12382446229457855225e-02) (58, 1.95931829512119293213e-03) (59, -3.72431576251983642578e-02) (60, -6.35064467787742614746e-02) (61, -5.96861727535724639893e-02) (62, 1.16391554474830627441e-01) (63, 8.66190493106842041016e-02) (64, 5.32908663153648376465e-02) (65, 1.48517981171607971191e-01) (66, -1.48010468110442161560e-02) (67, -5.88731765747070312500e-02) (68, 1.12454384565353393555e-01) (69, 8.77537801861763000488e-02) (70, 1.97380259633064270020e-02) (71, 6.40821307897567749023e-02) (72, -7.46687278151512145996e-02) (73, -8.15140977501869201660e-02) (74, 1.48989126086235046387e-01) (75, 9.72802788019180297852e-02) (76, 5.44924959540367126465e-02) (77, 1.68177261948585510254e-01) (78, -9.77025479078292846680e-02) (79, 5.74548654258251190186e-02) (80, 5.53243905305862426758e-02) (81, -6.93650320172309875488e-02) (82, 2.61423364281654357910e-03) (83, 4.30094860494136810303e-02) (84, 7.66802355647087097168e-02) (85, -4.62281368672847747803e-02) (86, 8.32922011613845825195e-02) (87, 9.83078256249427795410e-02) (88, 9.77665651589632034302e-03) (89, 1.69044733047485351562e-01) (90, -8.27667936682701110840e-02) (91, 5.85705861449241638184e-02) (92, 1.93161621689796447754e-01) (93, 8.34436491131782531738e-02) (94, 4.16677184402942657471e-02) (95, 1.90425902605056762695e-01) (96, 7.61459618806838989258e-02) (97, -7.04644322395324707031e-02) (98, 6.95420354604721069336e-02) (99, 2.66034360975027084351e-02) (100, -9.20960828661918640137e-02) (101, 1.84625878930091857910e-01) (102, -7.74970054626464843750e-02) (103, -5.41245527565479278564e-02) (104, 2.32219159603118896484e-01) (105, 9.71287786960601806641e-02) (106, -6.25797435641288757324e-02) (107, 1.94792002439498901367e-01) (108, 8.47556665539741516113e-02) (109, -9.42553207278251647949e-02) (110, 1.65312916040420532227e-01) (111, -4.70264889299869537354e-02) (112, -1.81322768330574035645e-02) (113, 9.20136421918869018555e-02) (114, 2.07130983471870422363e-03) (115, -6.03647418320178985596e-02) (116, 1.48981764912605285645e-01) (117, 8.52182358503341674805e-02) (118, -3.66855598986148834229e-02) (119, 2.64275699853897094727e-01) (120, 3.99812646210193634033e-02) (121, -3.27983237802982330322e-02) (122, 4.56094406545162200928e-02) (123, -1.56604386866092681885e-02) (124, -8.86266008019447326660e-02) (125, -5.59859424829483032227e-02) (126, -3.56515217572450637817e-03) (127, -1.08463004231452941895e-01) (128, -4.25646081566810607910e-02) (129, 6.26564398407936096191e-02) (130, 8.72423797845840454102e-02) (131, -1.01718818768858909607e-02) (132, -8.24346905574202537537e-04) (133, 6.98366314172744750977e-02) (134, 3.47933322191238403320e-02) (135, 3.06218490004539489746e-02) (136, 6.18543624877929687500e-02) (121, 2.93282493948936462402e-02) (122, -1.54591903090476989746e-01) (123, 2.70434737205505371094e-01) (124, 2.51757800579071044922e-01) (125, 9.28336158394813537598e-02) (126, -7.95422494411468505859e-02) (127, 4.46903295814990997314e-02) (128, 1.37020811438560485840e-01) (129, -1.08549930155277252197e-01) (130, -1.83247298002243041992e-01) (131, -8.77117067575454711914e-02) (132, -4.90203611552715301514e-02) (133, 3.91601510345935821533e-02) (134, -1.95101484656333923340e-01) (135, -2.83072412014007568359e-01) (136, 5.36740534007549285889e-02) (121, 6.67428225278854370117e-02) (122, 1.87498852610588073730e-01) (123, -3.73304218053817749023e-01) (124, -3.39410692453384399414e-01) (125, -1.15426883101463317871e-01) (126, -7.07221701741218566895e-02) (127, -1.82520776987075805664e-01) (128, -2.01366305351257324219e-01) (129, 2.62342005968093872070e-01) (130, 2.88935542106628417969e-01) (131, 3.45793366432189941406e-02) (132, 1.36134162545204162598e-01) (133, -5.42047955095767974854e-02) (134, 2.28412792086601257324e-01) (135, 3.70451748371124267578e-01) (136, -4.92951460182666778564e-02) (121, -9.11961346864700317383e-02) (122, -9.14274528622627258301e-03) (123, 9.46766361594200134277e-02) (124, 4.12041060626506805420e-02) (125, 4.87012416124343872070e-03) (126, -7.65445381402969360352e-02) (127, -1.83697026222944259644e-02) (128, -7.75567889213562011719e-02) (129, -5.30141638591885566711e-03) (130, 9.66122839599847793579e-03) (131, 2.74999048560857772827e-02) (132, -8.14096778631210327148e-02) (133, 2.57071349769830703735e-02) (134, 7.18155503273010253906e-02) (135, 9.29329693317413330078e-02) (136, -3.02640050649642944336e-02) (121, 6.99376985430717468262e-02) (122, -1.12206139601767063141e-03) (123, -2.66801059246063232422e-01) (124, -2.59089857339859008789e-01) (125, -1.12367868423461914062e-01) (126, 3.30145806074142456055e-02) (127, -1.60517111420631408691e-01) (128, -1.38820499181747436523e-01) (129, 1.36027872562408447266e-01) (130, 2.35482096672058105469e-01) (131, -6.92753046751022338867e-02) (132, 1.29022866487503051758e-01) (133, 1.97487100958824157715e-02) (134, 1.65724664926528930664e-01) (135, 3.38802427053451538086e-01) (136, 4.36871387064456939697e-02) (121, -7.00504034757614135742e-02) (122, 9.33888554573059082031e-02) (123, -9.38920825719833374023e-02) (124, -2.53916699439287185669e-02) (125, 7.87645950913429260254e-02) (126, 5.67277707159519195557e-02) (127, 4.40160669386386871338e-02) (128, -2.64396797865629196167e-02) (129, 1.53920296579599380493e-02) (130, 3.15572842955589294434e-02) (131, 1.24462582170963287354e-02) (132, 1.10916346311569213867e-01) (133, -4.46261689066886901855e-02) (134, 5.10337837040424346924e-02) (135, 2.49037276953458786011e-02) (136, -6.37250319123268127441e-02) (121, 2.23430879414081573486e-02) (122, 4.98727113008499145508e-02) (123, -1.23357295989990234375e-01) (124, 9.00370720773935317993e-03) (125, -5.29825836420059204102e-02) (126, 9.83583088964223861694e-03) (127, -8.07909965515136718750e-02) (128, 4.61613386869430541992e-02) (129, 2.40831356495618820190e-02) (130, 3.75561579130589962006e-03) (131, 3.89940068125724792480e-02) (132, -6.41323700547218322754e-02) (133, -1.13256655633449554443e-01) (134, 7.33320415019989013672e-02) (135, 1.37022554874420166016e-01) (136, -4.92386445403099060059e-02) (137, 1.37276396155357360840e-01) (138, -5.43651223182678222656e-01) (139, 7.97536075115203857422e-01) (140, 5.31495036557316780090e-03) (141, 5.96888661384582519531e-01) (142, 1.10252395272254943848e-01) (143, 1.73891454935073852539e-01) (144, -1.58619582653045654297e-02) 
