FANN_FLO_2.1
num_layers=4
learning_rate=0.100000
connection_rate=1.000000
network_type=0
learning_momentum=0.600000
training_algorithm=0
train_error_function=1
train_stop_function=0
cascade_output_change_fraction=0.010000
quickprop_decay=-0.000100
quickprop_mu=1.750000
rprop_increase_factor=1.200000
rprop_decrease_factor=0.500000
rprop_delta_min=0.000000
rprop_delta_max=50.000000
rprop_delta_zero=0.100000
cascade_output_stagnation_epochs=12
cascade_candidate_change_fraction=0.010000
cascade_candidate_stagnation_epochs=12
cascade_max_out_epochs=150
cascade_min_out_epochs=50
cascade_max_cand_epochs=150
cascade_min_cand_epochs=50
cascade_num_candidate_groups=2
bit_fail_limit=3.49999994039535522461e-01
cascade_candidate_limit=1.00000000000000000000e+03
cascade_weight_multiplier=4.00000005960464477539e-01
cascade_activation_functions_count=10
cascade_activation_functions=3 5 7 8 10 11 14 15 16 17 
cascade_activation_steepnesses_count=4
cascade_activation_steepnesses=2.50000000000000000000e-01 5.00000000000000000000e-01 7.50000000000000000000e-01 1.00000000000000000000e+00 
layer_sizes=81 9 5 2 
scale_included=0
neurons (num_inputs, activation_function, activation_steepness)=(0, 0, 0.00000000000000000000e+00) (0, 0, 0.00000000000000000000e+00) (0, 0, 0.00000000000000000000e+00) (0, 0, 0.00000000000000000000e+00) (0, 0, 0.00000000000000000000e+00) (0, 0, 0.00000000000000000000e+00) (0, 0, 0.00000000000000000000e+00) (0, 0, 0.00000000000000000000e+00) (0, 0, 0.00000000000000000000e+00) (0, 0, 0.00000000000000000000e+00) (0, 0, 0.00000000000000000000e+00) (0, 0, 0.00000000000000000000e+00) (0, 0, 0.00000000000000000000e+00) (0, 0, 0.00000000000000000000e+00) (0, 0, 0.00000000000000000000e+00) (0, 0, 0.00000000000000000000e+00) (0, 0, 0.00000000000000000000e+00) (0, 0, 0.00000000000000000000e+00) (0, 0, 0.00000000000000000000e+00) (0, 0, 0.00000000000000000000e+00) (0, 0, 0.00000000000000000000e+00) (0, 0, 0.00000000000000000000e+00) (0, 0, 0.00000000000000000000e+00) (0, 0, 0.00000000000000000000e+00) (0, 0, 0.00000000000000000000e+00) (0, 0, 0.00000000000000000000e+00) (0, 0, 0.00000000000000000000e+00) (0, 0, 0.00000000000000000000e+00) (0, 0, 0.00000000000000000000e+00) (0, 0, 0.00000000000000000000e+00) (0, 0, 0.00000000000000000000e+00) (0, 0, 0.00000000000000000000e+00) (0, 0, 0.00000000000000000000e+00) (0, 0, 0.00000000000000000000e+00) (0, 0, 0.00000000000000000000e+00) (0, 0, 0.00000000000000000000e+00) (0, 0, 0.00000000000000000000e+00) (0, 0, 0.00000000000000000000e+00) (0, 0, 0.00000000000000000000e+00) (0, 0, 0.00000000000000000000e+00) (0, 0, 0.00000000000000000000e+00) (0, 0, 0.00000000000000000000e+00) (0, 0, 0.00000000000000000000e+00) (0, 0, 0.00000000000000000000e+00) (0, 0, 0.00000000000000000000e+00) (0, 0, 0.00000000000000000000e+00) (0, 0, 0.00000000000000000000e+00) (0, 0, 0.00000000000000000000e+00) (0, 0, 0.00000000000000000000e+00) (0, 0, 0.00000000000000000000e+00) (0, 0, 0.00000000000000000000e+00) (0, 0, 0.00000000000000000000e+00) (0, 0, 0.00000000000000000000e+00) (0, 0, 0.00000000000000000000e+00) (0, 0, 0.00000000000000000000e+00) (0, 0, 0.00000000000000000000e+00) (0, 0, 0.00000000000000000000e+00) (0, 0, 0.00000000000000000000e+00) (0, 0, 0.00000000000000000000e+00) (0, 0, 0.00000000000000000000e+00) (0, 0, 0.00000000000000000000e+00) (0, 0, 0.00000000000000000000e+00) (0, 0, 0.00000000000000000000e+00) (0, 0, 0.00000000000000000000e+00) (0, 0, 0.00000000000000000000e+00) (0, 0, 0.00000000000000000000e+00) (0, 0, 0.00000000000000000000e+00) (0, 0, 0.00000000000000000000e+00) (0, 0, 0.00000000000000000000e+00) (0, 0, 0.00000000000000000000e+00) (0, 0, 0.00000000000000000000e+00) (0, 0, 0.00000000000000000000e+00) (0, 0, 0.00000000000000000000e+00) (0, 0, 0.00000000000000000000e+00) (0, 0, 0.00000000000000000000e+00) (0, 0, 0.00000000000000000000e+00) (0, 0, 0.00000000000000000000e+00) (0, 0, 0.00000000000000000000e+00) (0, 0, 0.00000000000000000000e+00) (0, 0, 0.00000000000000000000e+00) (0, 0, 0.00000000000000000000e+00) (81, 13, 5.00000000000000000000e-01) (81, 13, 5.00000000000000000000e-01) (81, 13, 5.00000000000000000000e-01) (81, 13, 5.00000000000000000000e-01) (81, 13, 5.00000000000000000000e-01) (81, 13, 5.00000000000000000000e-01) (81, 13, 5.00000000000000000000e-01) (81, 13, 5.00000000000000000000e-01) (0, 13, 0.00000000000000000000e+00) (9, 13, 5.00000000000000000000e-01) (9, 13, 5.00000000000000000000e-01) (9, 13, 5.00000000000000000000e-01) (9, 13, 5.00000000000000000000e-01) (0, 13, 0.00000000000000000000e+00) (5, 0, 5.00000000000000000000e-01) (0, 0, 0.00000000000000000000e+00) 
connections (connected_to_neuron, weight)=(0, 9.38999801874160766602e-02) (1, -2.98125576227903366089e-02) (2, 5.18389195203781127930e-02) (3, -5.79967945814132690430e-02) (4, -6.62065716460347175598e-03) (5, 6.40285313129425048828e-02) (6, -2.37760767340660095215e-02) (7, 2.75559220463037490845e-02) (8, 1.86228603124618530273e-02) (9, 3.61155495047569274902e-02) (10, 1.02416791021823883057e-01) (11, 9.91620719432830810547e-02) (12, -3.40393674559891223907e-03) (13, 3.02598029375076293945e-02) (14, -6.14879280328750610352e-02) (15, 3.72838438488543033600e-03) (16, 6.80639371275901794434e-02) (17, -1.27758048474788665771e-02) (18, -3.10723688453435897827e-02) (19, 1.73361133784055709839e-02) (20, -1.73158885445445775986e-03) (21, -3.10071576386690139771e-02) (22, 2.10575312376022338867e-02) (23, 4.74910922348499298096e-02) (24, -5.15260221436619758606e-03) (25, 7.45433345437049865723e-02) (26, -4.37115738168358802795e-03) (27, 3.10356877744197845459e-02) (28, -7.71112591028213500977e-02) (29, -7.53878280520439147949e-02) (30, -5.97930289804935455322e-02) (31, 1.06669671833515167236e-01) (32, -2.96758115291595458984e-02) (33, 1.02606602013111114502e-01) (34, -6.37925118207931518555e-02) (35, -2.48794537037611007690e-03) (36, 4.91300746798515319824e-02) (37, -4.99365590512752532959e-02) (38, 9.80123206973075866699e-02) (39, -8.61857458949089050293e-02) (40, 2.77223400771617889404e-02) (41, 7.88558721542358398438e-02) (42, 7.94278308749198913574e-02) (43, -8.18283855915069580078e-02) (44, -2.80258376151323318481e-02) (45, -9.32419151067733764648e-02) (46, 1.37284100055694580078e-02) (47, -1.02458745241165161133e-01) (48, 8.09270364698022603989e-04) (49, 3.08731533586978912354e-02) (50, 4.09115999937057495117e-02) (51, 6.50032982230186462402e-02) (52, 7.73676633834838867188e-02) (53, -6.36995881795883178711e-02) (54, 3.06685008108615875244e-02) (55, -4.91924062371253967285e-02) (56, -9.97694060206413269043e-02) (57, -1.26201987266540527344e-01) (58, 1.01433977484703063965e-01) (59, -1.27827018499374389648e-01) (60, -5.58420121669769287109e-02) (61, -1.55350238084793090820e-01) (62, -7.87533670663833618164e-02) (63, -1.06847196817398071289e-01) (64, 1.10101088881492614746e-01) (65, -1.69247239828109741211e-01) (66, 2.63937171548604965210e-02) (67, -7.74744898080825805664e-02) (68, -3.36225852370262145996e-02) (69, -7.29049071669578552246e-02) (70, 2.44767162948846817017e-02) (71, -2.18802809715270996094e-01) (72, 2.66794227063655853271e-02) (73, -1.31684526801109313965e-01) (74, -2.24503707140684127808e-02) (75, -2.59422928094863891602e-01) (76, 1.40273636206984519958e-02) (77, -1.45706713199615478516e-01) (78, -8.41380506753921508789e-02) (79, -2.88965314626693725586e-01) (80, -3.66491801105439662933e-03) (0, 2.57722288370132446289e-02) (1, -1.11723229289054870605e-01) (2, 5.55589841678738594055e-03) (3, 7.75566846132278442383e-02) (4, 6.22461317107081413269e-04) (5, 6.10121227800846099854e-02) (6, -1.01142287254333496094e-01) (7, 2.29516141116619110107e-02) (8, 6.03558793663978576660e-02) (9, -7.82914981245994567871e-02) (10, 5.66817857325077056885e-02) (11, 6.45546615123748779297e-02) (12, -6.24184645712375640869e-02) (13, -8.93248990178108215332e-02) (14, 7.06788823008537292480e-02) (15, -4.83798682689666748047e-02) (16, 5.70316873490810394287e-02) (17, -1.71544235199689865112e-02) (18, 1.50889307260513305664e-02) (19, 7.61602539569139480591e-03) (20, -6.37760832905769348145e-02) (21, 2.99202222377061843872e-02) (22, -3.60978730022907257080e-02) (23, 4.36127036809921264648e-02) (24, 8.20570513606071472168e-02) (25, -4.82882410287857055664e-02) (26, -1.47242029197514057159e-03) (27, 2.33542677015066146851e-02) (28, -1.94805581122636795044e-02) (29, 1.11296987161040306091e-02) (30, -8.41137543320655822754e-02) (31, -8.16346779465675354004e-02) (32, 1.65123771876096725464e-02) (33, 2.33108978718519210815e-02) (34, -9.24845635890960693359e-02) (35, -4.50867973268032073975e-02) (36, -1.93705374840646982193e-03) (37, -5.85357621312141418457e-02) (38, -1.03980846703052520752e-01) (39, -1.00507233291864395142e-02) (40, -4.21428680419921875000e-03) (41, 6.93416893482208251953e-02) (42, -2.46785581111907958984e-02) (43, 4.29717227816581726074e-02) (44, -9.74533632397651672363e-02) (45, -4.18748594820499420166e-02) (46, -9.68268662691116333008e-02) (47, 8.61305817961692810059e-02) (48, 4.27875481545925140381e-02) (49, 4.97383400797843933105e-02) (50, -1.35278580710291862488e-02) (51, 1.02083921432495117188e-01) (52, -5.32961124554276466370e-03) (53, 6.97156712412834167480e-02) (54, 4.18405383825302124023e-02) (55, -5.80870639532804489136e-03) (56, -6.89175128936767578125e-02) (57, -2.75295879691839218140e-02) (58, -8.70521068572998046875e-02) (59, 4.27548140287399291992e-02) (60, 6.72405362129211425781e-02) (61, -1.88879948109388351440e-02) (62, 4.60127741098403930664e-02) (63, 4.71391715109348297119e-02) (64, 8.01027640700340270996e-02) (65, 1.19584985077381134033e-01) (66, 8.97622853517532348633e-02) (67, 4.86914329230785369873e-02) (68, -7.41981938481330871582e-02) (69, 1.38529479503631591797e-01) (70, -9.77250188589096069336e-02) (71, 8.14491212368011474609e-02) (72, 5.62289878726005554199e-02) (73, 4.80515174567699432373e-02) (74, -5.39701804518699645996e-02) (75, 1.39650374650955200195e-01) (76, 4.57010380923748016357e-02) (77, 6.71600475907325744629e-02) (78, 4.74300980567932128906e-02) (79, 9.09815728664398193359e-02) (80, -7.16226026415824890137e-02) (0, -3.91294173896312713623e-02) (1, -2.32236329466104507446e-02) (2, 4.00195084512233734131e-02) (3, -9.67519357800483703613e-02) (4, -6.25168755650520324707e-02) (5, -1.10971331596374511719e-01) (6, -6.05618283152580261230e-02) (7, -5.57383755221962928772e-03) (8, -8.39756578207015991211e-02) (9, 5.91902509331703186035e-02) (10, -8.55133216828107833862e-03) (11, -3.00739258527755737305e-02) (12, 1.94174535572528839111e-02) (13, -1.03252433240413665771e-01) (14, -2.47757993638515472412e-02) (15, -1.15312635898590087891e-03) (16, 7.72135928273200988770e-02) (17, 6.87175914645195007324e-02) (18, 3.96543331444263458252e-02) (19, 6.84414654970169067383e-02) (20, 9.00162160396575927734e-02) (21, -4.48932386934757232666e-02) (22, 6.00856430828571319580e-02) (23, -4.88527491688728332520e-02) (24, 3.37634012103080749512e-02) (25, -7.15044513344764709473e-03) (26, 1.04334555566310882568e-01) (27, -9.58336368203163146973e-02) (28, -5.62545508146286010742e-02) (29, -1.35437035933136940002e-02) (30, -7.21444860100746154785e-02) (31, -4.17619943618774414062e-03) (32, 7.65736103057861328125e-02) (33, 5.10603561997413635254e-02) (34, 7.37110897898674011230e-03) (35, -7.15925022959709167480e-02) (36, 4.92448806762695312500e-02) (37, 6.00393265485763549805e-02) (38, 3.55262346565723419189e-02) (39, 7.69607275724411010742e-02) (40, 4.49882782995700836182e-02) (41, -7.50926658511161804199e-02) (42, -3.81268598139286041260e-02) (43, -4.28754352033138275146e-02) (44, -6.15064501762390136719e-02) (45, 3.19540426135063171387e-02) (46, 6.06326460838317871094e-02) (47, -7.60022178292274475098e-02) (48, -4.74524480523541569710e-04) (49, 1.18786599487066268921e-02) (50, 8.34577530622482299805e-02) (51, -5.30615355819463729858e-03) (52, 7.77926966547966003418e-02) (53, 4.49135042726993560791e-02) (54, 4.01892773807048797607e-02) (55, 1.20759615674614906311e-02) (56, -5.66676184535026550293e-02) (57, 5.77088706195354461670e-02) (58, 8.55638831853866577148e-03) (59, -1.24198064440861344337e-04) (60, -7.45247229933738708496e-02) (61, 6.95626139640808105469e-02) (62, 7.74682462215423583984e-02) (63, -5.46536110341548919678e-02) (64, -5.78343262895941734314e-03) (65, 3.14873754978179931641e-02) (66, -4.19697649776935577393e-02) (67, -4.74614044651389122009e-03) (68, -4.55508679151535034180e-02) (69, 1.30216360092163085938e-01) (70, -6.68233856558799743652e-02) (71, 1.43411532044410705566e-01) (72, 1.01013787090778350830e-01) (73, 4.98742274940013885498e-02) (74, -7.79324993491172790527e-02) (75, 4.87774470821022987366e-03) (76, -8.12830850481986999512e-02) (77, 1.81441873311996459961e-01) (78, -5.18494099378585815430e-02) (79, 1.03622525930404663086e-01) (80, -7.26059870794415473938e-03) (0, -7.87977799773216247559e-02) (1, 8.51551145315170288086e-02) (2, -2.94978488236665725708e-02) (3, 6.07278868556022644043e-02) (4, -4.78771142661571502686e-03) (5, 5.16554415225982666016e-02) (6, 6.50011524558067321777e-02) (7, -3.33175398409366607666e-02) (8, -6.69023543596267700195e-02) (9, -3.00652645528316497803e-02) (10, -1.89332589507102966309e-02) (11, 1.00903131067752838135e-01) (12, -7.54572749137878417969e-02) (13, 1.02076539769768714905e-02) (14, -1.79146751761436462402e-02) (15, 3.94807048141956329346e-02) (16, 1.76351610571146011353e-02) (17, 4.64515648782253265381e-02) (18, 6.69669881463050842285e-02) (19, 2.98466831445693969727e-02) (20, 6.79669454693794250488e-02) (21, 7.32217952609062194824e-02) (22, 3.85236851871013641357e-02) (23, -5.04639632999897003174e-02) (24, 9.15226042270660400391e-02) (25, 5.22028505802154541016e-02) (26, -5.53127825260162353516e-02) (27, 9.84366461634635925293e-02) (28, 6.41233250498771667480e-02) (29, 5.93075305223464965820e-02) (30, -4.71352450549602508545e-02) (31, -7.56611526012420654297e-02) (32, 9.12689976394176483154e-03) (33, 5.03437481820583343506e-02) (34, 4.31912355124950408936e-02) (35, -2.24287230521440505981e-02) (36, -3.09298243373632431030e-02) (37, 8.08853581547737121582e-02) (38, 1.85175333172082901001e-02) (39, 6.19276911020278930664e-02) (40, -5.57861328125000000000e-02) (41, -5.88406473398208618164e-02) (42, 4.37929071485996246338e-02) (43, -3.97600745782256126404e-03) (44, 3.37314642965793609619e-02) (45, -4.34692725539207458496e-02) (46, -9.52061936259269714355e-02) (47, -2.83173983916640281677e-04) (48, 6.02533631026744842529e-02) (49, 1.22279115021228790283e-01) (50, 7.68203139305114746094e-02) (51, 6.71466290950775146484e-02) (52, 7.20009431242942810059e-02) (53, 4.87537682056427001953e-02) (54, 6.73312991857528686523e-02) (55, 9.17573347687721252441e-02) (56, -2.76691969484090805054e-02) (57, -4.16225604712963104248e-02) (58, 4.63287048041820526123e-02) (59, -1.99070088565349578857e-02) (60, 5.93092702329158782959e-02) (61, -3.24273370206356048584e-02) (62, -4.75735813379287719727e-02) (63, 4.89722192287445068359e-02) (64, 5.14450669288635253906e-02) (65, -2.60603446513414382935e-02) (66, 8.14723074436187744141e-02) (67, 1.17904599756002426147e-03) (68, 8.32665041089057922363e-02) (69, 4.95301038026809692383e-02) (70, 9.49724987149238586426e-02) (71, -1.81865021586418151855e-02) (72, 1.01962769404053688049e-02) (73, 9.90063771605491638184e-02) (74, -3.17044220864772796631e-02) (75, 1.15920947864651679993e-02) (76, 7.53606781363487243652e-02) (77, 7.91554003953933715820e-02) (78, 1.63434538990259170532e-02) (79, 1.20057314634323120117e-01) (80, -9.05514112673699855804e-04) (0, 1.73112954944372177124e-02) (1, -1.62522941827774047852e-02) (2, -4.68655824661254882812e-02) (3, -6.37459605932235717773e-02) (4, -2.90516689419746398926e-02) (5, -7.70045742392539978027e-02) (6, 1.58807262778282165527e-03) (7, -1.53475496917963027954e-02) (8, 7.33554586768150329590e-02) (9, 3.79882976412773132324e-02) (10, -4.48997952044010162354e-02) (11, 9.54459458589553833008e-02) (12, 9.41608101129531860352e-02) (13, 5.92214278876781463623e-02) (14, 5.68150430917739868164e-02) (15, -8.36635008454322814941e-02) (16, 3.32752466201782226562e-02) (17, -9.44460481405258178711e-02) (18, 1.09319381415843963623e-01) (19, -8.31358432769775390625e-02) (20, 9.13075059652328491211e-02) (21, -7.64407142996788024902e-02) (22, 1.76642332226037979126e-02) (23, 2.67407484352588653564e-02) (24, 1.53107019141316413879e-02) (25, 6.64335414767265319824e-02) (26, -1.27559062093496322632e-02) (27, -8.40576365590095520020e-02) (28, -1.62235293537378311157e-02) (29, -7.39146992564201354980e-02) (30, 2.05469503998756408691e-02) (31, 8.77572149038314819336e-02) (32, 1.02685140445828437805e-02) (33, 6.66299611330032348633e-02) (34, -7.22635984420776367188e-02) (35, 5.40552921593189239502e-02) (36, 9.00644436478614807129e-02) (37, 3.41637758538126945496e-03) (38, -6.34947866201400756836e-02) (39, 4.26402278244495391846e-02) (40, -6.85171559453010559082e-02) (41, -2.19006761908531188965e-02) (42, 3.40367965400218963623e-02) (43, -8.22221487760543823242e-02) (44, -6.70495033264160156250e-02) (45, -1.85815934091806411743e-02) (46, -6.36344477534294128418e-02) (47, 4.91289086639881134033e-02) (48, -6.32317550480365753174e-03) (49, -7.39082694053649902344e-02) (50, 7.79023393988609313965e-02) (51, -2.89185009896755218506e-02) (52, -5.11221773922443389893e-02) (53, -1.65804401040077209473e-02) (54, -9.18363332748413085938e-02) (55, 5.47775961458683013916e-02) (56, -4.83950152993202209473e-02) (57, -2.22138315439224243164e-02) (58, 7.90794119238853454590e-02) (59, 1.91356725990772247314e-02) (60, 1.83361470699310302734e-02) (61, -2.65606325119733810425e-02) (62, 1.89596600830554962158e-02) (63, -1.02957263588905334473e-01) (64, -4.16628308594226837158e-02) (65, 1.54280504211783409119e-02) (66, 6.10528104007244110107e-02) (67, -8.42070952057838439941e-02) (68, -5.95045685768127441406e-02) (69, 7.71382674574851989746e-02) (70, 7.85419121384620666504e-02) (71, -5.11724390089511871338e-02) (72, -1.88431851565837860107e-02) (73, -1.33616849780082702637e-02) (74, 5.62293920665979385376e-03) (75, -1.55421858653426170349e-02) (76, 9.50301364064216613770e-02) (77, -5.49930147826671600342e-03) (78, -3.21080833673477172852e-02) (79, -4.90402579307556152344e-02) (80, 5.79896010458469390869e-02) (0, -6.28867447376251220703e-02) (1, 5.08698411285877227783e-02) (2, -5.97002431750297546387e-02) (3, 1.55434207990765571594e-02) (4, 4.01665121316909790039e-02) (5, 6.52690604329109191895e-02) (6, 6.43079578876495361328e-02) (7, -5.45990765094757080078e-02) (8, 3.71565669775009155273e-02) (9, 5.09439734742045402527e-03) (10, 6.45100027322769165039e-02) (11, -6.81537315249443054199e-02) (12, -8.17508548498153686523e-02) (13, 7.12286233901977539062e-02) (14, -7.81401246786117553711e-03) (15, 5.56761361658573150635e-02) (16, 2.00775638222694396973e-02) (17, 2.07221545279026031494e-02) (18, 8.83561894297599792480e-02) (19, 3.74071747064590454102e-02) (20, 2.04276666045188903809e-02) (21, -3.27773429453372955322e-02) (22, -4.48807813227176666260e-02) (23, -8.36972296237945556641e-02) (24, 6.92692026495933532715e-02) (25, 3.43750678002834320068e-02) (26, -6.98724314570426940918e-02) (27, -7.68585782498121261597e-03) (28, -1.02863296866416931152e-01) (29, 5.80548727884888648987e-03) (30, -6.61222189664840698242e-02) (31, -5.72242066264152526855e-02) (32, -4.77273240685462951660e-02) (33, -3.17497625946998596191e-02) (34, 4.58854697644710540771e-02) (35, -5.89795559644699096680e-02) (36, -7.28019699454307556152e-02) (37, 5.65438047051429748535e-02) (38, -1.26268118619918823242e-02) (39, 1.01089790463447570801e-01) (40, -1.51115171611309051514e-02) (41, -3.34834679961204528809e-02) (42, -6.03702962398529052734e-02) (43, 4.26750024780631065369e-03) (44, -5.37588819861412048340e-02) (45, 3.65577265620231628418e-02) (46, -5.01069352030754089355e-02) (47, 9.27167236804962158203e-02) (48, -6.46999478340148925781e-02) (49, -2.98700630664825439453e-02) (50, -4.53330157324671745300e-03) (51, 7.43405669927597045898e-02) (52, 3.69458347558975219727e-02) (53, 6.26516193151473999023e-02) (54, 6.08227998018264770508e-02) (55, 1.40223577618598937988e-02) (56, -1.09662320464849472046e-02) (57, 1.20420485734939575195e-01) (58, 7.83610641956329345703e-02) (59, 1.31879653781652450562e-02) (60, -2.02069468796253204346e-02) (61, -2.98427604138851165771e-02) (62, 1.42436139285564422607e-02) (63, 1.06953196227550506592e-01) (64, -1.89962107688188552856e-02) (65, 3.57734300196170806885e-02) (66, 1.11793309450149536133e-01) (67, 8.96011888980865478516e-02) (68, -7.71133378148078918457e-02) (69, 4.96671386063098907471e-02) (70, 2.13867481797933578491e-02) (71, 6.67625740170478820801e-02) (72, 2.72943004965782165527e-02) (73, 1.32901638746261596680e-01) (74, 4.36515659093856811523e-02) (75, 1.58750727772712707520e-01) (76, -2.73406486958265304565e-02) (77, 3.08527406305074691772e-02) (78, 3.06437369436025619507e-02) (79, 1.20812065899372100830e-01) (80, -4.29895967245101928711e-02) (0, -6.48890957236289978027e-02) (1, 1.73061098903417587280e-02) (2, -2.39303782582283020020e-02) (3, 1.32376015186309814453e-01) (4, 3.28408344648778438568e-03) (5, 1.32855735719203948975e-02) (6, 8.94474331289529800415e-04) (7, 1.40840306878089904785e-01) (8, -1.04549853131175041199e-02) (9, 5.20893968641757965088e-02) (10, -1.59054286777973175049e-02) (11, -4.45354776456952095032e-03) (12, -3.38947623968124389648e-02) (13, -2.67889127135276794434e-02) (14, 3.85737121105194091797e-02) (15, 3.25818061828613281250e-02) (16, 9.93819348514080047607e-03) (17, -4.24514338374137878418e-03) (18, 5.08299991488456726074e-02) (19, 2.56083626300096511841e-02) (20, 1.92265324294567108154e-02) (21, 1.24741479754447937012e-01) (22, -3.66876949556171894073e-03) (23, 2.74667870253324508667e-02) (24, 4.96649332344532012939e-02) (25, 8.30569267272949218750e-02) (26, 1.45610701292753219604e-02) (27, 8.37519615888595581055e-02) (28, 9.53100528568029403687e-03) (29, -4.96330559253692626953e-02) (30, -1.13831171765923500061e-02) (31, 1.15927439182996749878e-02) (32, 3.51586453616619110107e-02) (33, 8.28349664807319641113e-02) (34, 4.07374501228332519531e-02) (35, -3.77543829381465911865e-02) (36, -2.14501675218343734741e-02) (37, -2.55566574633121490479e-02) (38, -3.93522381782531738281e-02) (39, -7.62322843074798583984e-02) (40, 4.21639205887913703918e-03) (41, -1.73769928514957427979e-02) (42, -4.14377413690090179443e-02) (43, 4.86838780343532562256e-02) (44, -1.36166028678417205811e-02) (45, -1.36613398790359497070e-01) (46, -1.79559011012315750122e-02) (47, -1.65534652769565582275e-02) (48, -6.73041911795735359192e-04) (49, -9.36038777581416070461e-05) (50, -3.59933124855160713196e-03) (51, -1.70119613409042358398e-01) (52, -1.07295922935009002686e-02) (53, -1.73195242881774902344e-01) (54, 2.50984150916337966919e-02) (55, -1.16355985403060913086e-01) (56, 3.42263514176011085510e-03) (57, -1.93818643689155578613e-01) (58, -6.32600858807563781738e-02) (59, -2.15961530804634094238e-01) (60, -8.03942512720823287964e-03) (61, -2.20217496156692504883e-01) (62, 2.11306903511285781860e-02) (63, -1.79521411657333374023e-01) (64, -5.93380928039550781250e-02) (65, -1.55914410948753356934e-01) (66, -1.00663546472787857056e-02) (67, -3.23378324508666992188e-01) (68, -4.93858456611633300781e-02) (69, -3.89345705509185791016e-01) (70, -6.27628490328788757324e-02) (71, -4.22844946384429931641e-01) (72, 1.07388952746987342834e-02) (73, -3.36259931325912475586e-01) (74, -1.34367849677801132202e-02) (75, -4.90776360034942626953e-01) (76, -1.38582838699221611023e-02) (77, -5.14338374137878417969e-01) (78, 4.68827560544013977051e-02) (79, -6.13165557384490966797e-01) (80, -7.54747614264488220215e-02) (0, 9.29087549448013305664e-02) (1, -8.27107205986976623535e-02) (2, 7.12132528424263000488e-02) (3, -9.22832861542701721191e-02) (4, 3.27537767589092254639e-03) (5, -4.06648665666580200195e-02) (6, 6.06570020318031311035e-02) (7, 2.84970309585332870483e-02) (8, -1.09628736972808837891e-02) (9, 8.30606222152709960938e-02) (10, 6.96734786033630371094e-02) (11, 2.98791211098432540894e-02) (12, -1.02789327502250671387e-02) (13, -2.21097134053707122803e-02) (14, 3.55460532009601593018e-02) (15, -4.43796105682849884033e-02) (16, -6.16581849753856658936e-02) (17, 7.00262039899826049805e-02) (18, -6.33581867441534996033e-03) (19, -5.36193624138832092285e-02) (20, -6.34364262223243713379e-02) (21, 1.56676284968852996826e-02) (22, 5.65101504325866699219e-02) (23, 9.32471379637718200684e-02) (24, 1.43717490136623382568e-02) (25, -9.32710543274879455566e-02) (26, 4.92298342287540435791e-02) (27, 8.58236253261566162109e-02) (28, 8.57775360345840454102e-02) (29, 6.55784979462623596191e-02) (30, -8.43551456928253173828e-02) (31, 8.54892432689666748047e-02) (32, 7.92437791824340820312e-02) (33, 9.44914966821670532227e-02) (34, 9.04860720038414001465e-02) (35, -1.14771891385316848755e-02) (36, -4.91512045264244079590e-02) (37, 5.67665919661521911621e-02) (38, -8.59304666519165039062e-02) (39, 4.61018644273281097412e-02) (40, 3.61574478447437286377e-02) (41, 9.04589369893074035645e-02) (42, -2.69018150866031646729e-02) (43, -6.69812411069869995117e-02) (44, -3.44962030649185180664e-02) (45, -8.46338868141174316406e-02) (46, -1.33545845746994018555e-02) (47, 9.42859519273042678833e-03) (48, 8.36544781923294067383e-02) (49, 8.54349583387374877930e-02) (50, 5.47584146261215209961e-02) (51, -7.42134079337120056152e-02) (52, -1.01957668084651231766e-03) (53, 1.67596731334924697876e-02) (54, -8.19609761238098144531e-02) (55, -8.08521658182144165039e-02) (56, 2.16539092361927032471e-02) (57, 7.19696208834648132324e-02) (58, -9.58762615919113159180e-02) (59, 1.24411359429359436035e-02) (60, 3.73852290213108062744e-02) (61, -7.66166150569915771484e-02) (62, -2.43996409699320793152e-03) (63, 1.97016634047031402588e-02) (64, -8.16470235586166381836e-02) (65, -9.52525995671749114990e-03) (66, -9.19709429144859313965e-02) (67, -2.88489609956741333008e-02) (68, -5.18128871917724609375e-02) (69, -7.52805620431900024414e-02) (70, -8.16157385706901550293e-02) (71, 8.65711718797683715820e-02) (72, -8.27985331416130065918e-02) (73, -7.18447240069508552551e-03) (74, -7.66093134880065917969e-02) (75, -1.67695283889770507812e-02) (76, 1.10772764310240745544e-02) (77, 8.08582454919815063477e-03) (78, 9.67978909611701965332e-02) (79, -6.38259528204798698425e-03) (80, -2.14346291613765060902e-05) (81, 4.16549593210220336914e-01) (82, -1.73433497548103332520e-01) (83, -2.45023652911186218262e-01) (84, -1.40343442559242248535e-01) (85, 8.64914879202842712402e-02) (86, -1.92035838961601257324e-01) (87, 9.74065005779266357422e-01) (88, -3.26504558324813842773e-03) (89, -7.34985321760177612305e-02) (81, -6.66039483621716499329e-03) (82, -2.78536882251501083374e-02) (83, -3.92588078975677490234e-02) (84, -6.42308741807937622070e-02) (85, 7.98875465989112854004e-02) (86, -2.19779144972562789917e-02) (87, -5.12606836855411529541e-02) (88, 9.77186858654022216797e-02) (89, 4.35877405107021331787e-02) (81, 2.01770305633544921875e-01) (82, -1.59139469265937805176e-01) (83, 9.51647199690341949463e-03) (84, 6.94524357095360755920e-03) (85, -4.45116236805915832520e-02) (86, -7.87803083658218383789e-02) (87, 4.21888381242752075195e-01) (88, 2.05570682883262634277e-02) (89, 6.89008086919784545898e-02) (81, 1.37079432606697082520e-01) (82, -5.70641644299030303955e-02) (83, -8.09436365962028503418e-02) (84, 3.63565869629383087158e-02) (85, -1.00489764008671045303e-03) (86, -1.38729795813560485840e-01) (87, 4.58010733127593994141e-01) (88, 4.62756827473640441895e-02) (89, 4.55275326967239379883e-02) (90, -1.07190907001495361328e+00) (91, 3.17571647465229034424e-02) (92, -4.56342697143554687500e-01) (93, -4.66337203979492187500e-01) (94, -3.24514284729957580566e-02) 
