FANN_FLO_2.1
num_layers=3
learning_rate=0.400000
connection_rate=1.000000
network_type=0
learning_momentum=0.100000
training_algorithm=0
train_error_function=1
train_stop_function=0
cascade_output_change_fraction=0.010000
quickprop_decay=-0.000100
quickprop_mu=1.750000
rprop_increase_factor=1.200000
rprop_decrease_factor=0.500000
rprop_delta_min=0.000000
rprop_delta_max=50.000000
rprop_delta_zero=0.100000
cascade_output_stagnation_epochs=12
cascade_candidate_change_fraction=0.010000
cascade_candidate_stagnation_epochs=12
cascade_max_out_epochs=150
cascade_min_out_epochs=50
cascade_max_cand_epochs=150
cascade_min_cand_epochs=50
cascade_num_candidate_groups=2
bit_fail_limit=3.49999994039535522461e-01
cascade_candidate_limit=1.00000000000000000000e+03
cascade_weight_multiplier=4.00000005960464477539e-01
cascade_activation_functions_count=10
cascade_activation_functions=3 5 7 8 10 11 14 15 16 17 
cascade_activation_steepnesses_count=4
cascade_activation_steepnesses=2.50000000000000000000e-01 5.00000000000000000000e-01 7.50000000000000000000e-01 1.00000000000000000000e+00 
layer_sizes=121 16 2 
scale_included=0
neurons (num_inputs, activation_function, activation_steepness)=(0, 0, 0.00000000000000000000e+00) (0, 0, 0.00000000000000000000e+00) (0, 0, 0.00000000000000000000e+00) (0, 0, 0.00000000000000000000e+00) (0, 0, 0.00000000000000000000e+00) (0, 0, 0.00000000000000000000e+00) (0, 0, 0.00000000000000000000e+00) (0, 0, 0.00000000000000000000e+00) (0, 0, 0.00000000000000000000e+00) (0, 0, 0.00000000000000000000e+00) (0, 0, 0.00000000000000000000e+00) (0, 0, 0.00000000000000000000e+00) (0, 0, 0.00000000000000000000e+00) (0, 0, 0.00000000000000000000e+00) (0, 0, 0.00000000000000000000e+00) (0, 0, 0.00000000000000000000e+00) (0, 0, 0.00000000000000000000e+00) (0, 0, 0.00000000000000000000e+00) (0, 0, 0.00000000000000000000e+00) (0, 0, 0.00000000000000000000e+00) (0, 0, 0.00000000000000000000e+00) (0, 0, 0.00000000000000000000e+00) (0, 0, 0.00000000000000000000e+00) (0, 0, 0.00000000000000000000e+00) (0, 0, 0.00000000000000000000e+00) (0, 0, 0.00000000000000000000e+00) (0, 0, 0.00000000000000000000e+00) (0, 0, 0.00000000000000000000e+00) (0, 0, 0.00000000000000000000e+00) (0, 0, 0.00000000000000000000e+00) (0, 0, 0.00000000000000000000e+00) (0, 0, 0.00000000000000000000e+00) (0, 0, 0.00000000000000000000e+00) (0, 0, 0.00000000000000000000e+00) (0, 0, 0.00000000000000000000e+00) (0, 0, 0.00000000000000000000e+00) (0, 0, 0.00000000000000000000e+00) (0, 0, 0.00000000000000000000e+00) (0, 0, 0.00000000000000000000e+00) (0, 0, 0.00000000000000000000e+00) (0, 0, 0.00000000000000000000e+00) (0, 0, 0.00000000000000000000e+00) (0, 0, 0.00000000000000000000e+00) (0, 0, 0.00000000000000000000e+00) (0, 0, 0.00000000000000000000e+00) (0, 0, 0.00000000000000000000e+00) (0, 0, 0.00000000000000000000e+00) (0, 0, 0.00000000000000000000e+00) (0, 0, 0.00000000000000000000e+00) (0, 0, 0.00000000000000000000e+00) (0, 0, 0.00000000000000000000e+00) (0, 0, 0.00000000000000000000e+00) (0, 0, 0.00000000000000000000e+00) (0, 0, 0.00000000000000000000e+00) (0, 0, 0.00000000000000000000e+00) (0, 0, 0.00000000000000000000e+00) (0, 0, 0.00000000000000000000e+00) (0, 0, 0.00000000000000000000e+00) (0, 0, 0.00000000000000000000e+00) (0, 0, 0.00000000000000000000e+00) (0, 0, 0.00000000000000000000e+00) (0, 0, 0.00000000000000000000e+00) (0, 0, 0.00000000000000000000e+00) (0, 0, 0.00000000000000000000e+00) (0, 0, 0.00000000000000000000e+00) (0, 0, 0.00000000000000000000e+00) (0, 0, 0.00000000000000000000e+00) (0, 0, 0.00000000000000000000e+00) (0, 0, 0.00000000000000000000e+00) (0, 0, 0.00000000000000000000e+00) (0, 0, 0.00000000000000000000e+00) (0, 0, 0.00000000000000000000e+00) (0, 0, 0.00000000000000000000e+00) (0, 0, 0.00000000000000000000e+00) (0, 0, 0.00000000000000000000e+00) (0, 0, 0.00000000000000000000e+00) (0, 0, 0.00000000000000000000e+00) (0, 0, 0.00000000000000000000e+00) (0, 0, 0.00000000000000000000e+00) (0, 0, 0.00000000000000000000e+00) (0, 0, 0.00000000000000000000e+00) (0, 0, 0.00000000000000000000e+00) (0, 0, 0.00000000000000000000e+00) (0, 0, 0.00000000000000000000e+00) (0, 0, 0.00000000000000000000e+00) (0, 0, 0.00000000000000000000e+00) (0, 0, 0.00000000000000000000e+00) (0, 0, 0.00000000000000000000e+00) (0, 0, 0.00000000000000000000e+00) (0, 0, 0.00000000000000000000e+00) (0, 0, 0.00000000000000000000e+00) (0, 0, 0.00000000000000000000e+00) (0, 0, 0.00000000000000000000e+00) (0, 0, 0.00000000000000000000e+00) (0, 0, 0.00000000000000000000e+00) (0, 0, 0.00000000000000000000e+00) (0, 0, 0.00000000000000000000e+00) (0, 0, 0.00000000000000000000e+00) (0, 0, 0.00000000000000000000e+00) (0, 0, 0.00000000000000000000e+00) (0, 0, 0.00000000000000000000e+00) (0, 0, 0.00000000000000000000e+00) (0, 0, 0.00000000000000000000e+00) (0, 0, 0.00000000000000000000e+00) (0, 0, 0.00000000000000000000e+00) (0, 0, 0.00000000000000000000e+00) (0, 0, 0.00000000000000000000e+00) (0, 0, 0.00000000000000000000e+00) (0, 0, 0.00000000000000000000e+00) (0, 0, 0.00000000000000000000e+00) (0, 0, 0.00000000000000000000e+00) (0, 0, 0.00000000000000000000e+00) (0, 0, 0.00000000000000000000e+00) (0, 0, 0.00000000000000000000e+00) (0, 0, 0.00000000000000000000e+00) (0, 0, 0.00000000000000000000e+00) (0, 0, 0.00000000000000000000e+00) (0, 0, 0.00000000000000000000e+00) (0, 0, 0.00000000000000000000e+00) (0, 0, 0.00000000000000000000e+00) (0, 0, 0.00000000000000000000e+00) (121, 6, 5.00000000000000000000e-01) (121, 6, 5.00000000000000000000e-01) (121, 6, 5.00000000000000000000e-01) (121, 6, 5.00000000000000000000e-01) (121, 6, 5.00000000000000000000e-01) (121, 6, 5.00000000000000000000e-01) (121, 6, 5.00000000000000000000e-01) (121, 6, 5.00000000000000000000e-01) (121, 6, 5.00000000000000000000e-01) (121, 6, 5.00000000000000000000e-01) (121, 6, 5.00000000000000000000e-01) (121, 6, 5.00000000000000000000e-01) (121, 6, 5.00000000000000000000e-01) (121, 6, 5.00000000000000000000e-01) (121, 6, 5.00000000000000000000e-01) (0, 6, 0.00000000000000000000e+00) (16, 0, 5.00000000000000000000e-01) (0, 0, 0.00000000000000000000e+00) 
connections (connected_to_neuron, weight)=(0, 9.25659984350204467773e-02) (1, -1.02449253201484680176e-01) (2, 3.01412958651781082153e-02) (3, 2.16711349785327911377e-02) (4, 1.99085045605897903442e-02) (5, 3.87755297124385833740e-02) (6, -6.20848424732685089111e-02) (7, 4.88846451044082641602e-02) (8, 8.87246727943420410156e-02) (9, -2.57674753665924072266e-02) (10, -3.18145975470542907715e-02) (11, 2.89914440363645553589e-02) (12, 6.09221681952476501465e-02) (13, 4.04656119644641876221e-02) (14, 8.20842832326889038086e-02) (15, -2.31917612254619598389e-02) (16, 1.49022322148084640503e-02) (17, -2.85702515393495559692e-02) (18, -7.57348835468292236328e-02) (19, 5.63025809824466705322e-02) (20, -8.01444798707962036133e-02) (21, -6.90794810652732849121e-02) (22, -7.73042365908622741699e-02) (23, 8.63481163978576660156e-02) (24, -6.89371079206466674805e-02) (25, -8.00650380551815032959e-03) (26, 5.55249601602554321289e-02) (27, -2.52045206725597381592e-02) (28, 6.39421716332435607910e-02) (29, -3.03918104618787765503e-02) (30, 2.46516317129135131836e-02) (31, 5.37561215460300445557e-02) (32, -2.88811791688203811646e-02) (33, -5.88084943592548370361e-02) (34, -2.59116720408201217651e-02) (35, 9.50465276837348937988e-02) (36, 6.62863999605178833008e-02) (37, 6.08139997348189353943e-03) (38, 4.51936312019824981689e-02) (39, 4.12215851247310638428e-02) (40, 8.12737867236137390137e-02) (41, 1.13861888647079467773e-01) (42, -4.36815433204174041748e-02) (43, 4.09830957651138305664e-02) (44, 5.40010333061218261719e-02) (45, -7.56901204586029052734e-02) (46, -8.07125121355056762695e-02) (47, -2.86326818168163299561e-02) (48, -1.84896234422922134399e-02) (49, -5.28981648385524749756e-02) (50, -7.08002448081970214844e-02) (51, -1.30939418449997901917e-02) (52, -2.80324742197990417480e-02) (53, -4.79696765542030334473e-02) (54, -4.15312387049198150635e-02) (55, 3.96674545481801033020e-03) (56, 4.64411191642284393311e-02) (57, 9.90259647369384765625e-02) (58, 7.87320137023925781250e-02) (59, 1.49181168526411056519e-02) (60, -4.64457534253597259521e-02) (61, 2.35957093536853790283e-03) (62, -2.57889945060014724731e-02) (63, 9.38409101217985153198e-03) (64, 4.32416386902332305908e-02) (65, 5.35579696297645568848e-02) (66, -1.09281130135059356689e-02) (67, 9.01749636977910995483e-03) (68, -3.07978652417659759521e-02) (69, -8.13092514872550964355e-02) (70, -5.60372807085514068604e-02) (71, -4.24855016171932220459e-02) (72, -8.32736566662788391113e-02) (73, 4.38385782763361930847e-03) (74, 1.05260565876960754395e-01) (75, 5.48720583319664001465e-02) (76, 2.61787790805101394653e-02) (77, -7.17144832015037536621e-02) (78, -8.97955819964408874512e-02) (79, -9.25616025924682617188e-02) (80, -2.61769574135541915894e-02) (81, -7.66256749629974365234e-02) (82, -5.93297556042671203613e-03) (83, 4.88113500177860260010e-02) (84, -4.05913926661014556885e-02) (85, 4.65309768915176391602e-02) (86, -4.67595495283603668213e-02) (87, 8.99081677198410034180e-02) (88, 4.34927791357040405273e-02) (89, -6.90231844782829284668e-02) (90, -1.11801121383905410767e-02) (91, 9.78416055440902709961e-02) (92, 3.17619033157825469971e-02) (93, 4.71020750701427459717e-02) (94, 4.85508795827627182007e-03) (95, -2.78137456625699996948e-02) (96, -1.52044370770454406738e-02) (97, 9.20111611485481262207e-02) (98, 7.74010270833969116211e-02) (99, 3.82166542112827301025e-02) (100, -9.07292142510414123535e-02) (101, -7.76997506618499755859e-02) (102, 8.00356864929199218750e-02) (103, -7.38135203719139099121e-02) (104, 2.19025611877441406250e-02) (105, 6.95641115307807922363e-02) (106, 7.47810080647468566895e-02) (107, -5.55628016591072082520e-02) (108, 8.20735618472099304199e-02) (109, 8.43941718339920043945e-02) (110, -5.33160269260406494141e-02) (111, -5.97571320831775665283e-02) (112, -9.11522656679153442383e-02) (113, 3.44594195485115051270e-02) (114, 7.34718516469001770020e-02) (115, -3.67342904210090637207e-02) (116, -2.06028539687395095825e-02) (117, -8.87259393930435180664e-02) (118, -4.46535013616085052490e-02) (119, -7.80434757471084594727e-02) (120, -6.27722069621086120605e-02) (0, 4.06915657222270965576e-02) (1, -8.30364674329757690430e-02) (2, 6.34228363633155822754e-02) (3, -1.35448221117258071899e-02) (4, -2.83146247966215014458e-04) (5, 1.19862288236618041992e-01) (6, 6.98563382029533386230e-02) (7, -6.55216118320822715759e-03) (8, 8.16711857914924621582e-02) (9, 6.75352569669485092163e-03) (10, 1.50081478059291839600e-02) (11, 8.87016505002975463867e-02) (12, -1.45290289074182510376e-02) (13, 2.60125342756509780884e-02) (14, -4.03127493336796760559e-03) (15, -4.63676787912845611572e-02) (16, 5.22462930530309677124e-03) (17, 2.57027484476566314697e-02) (18, -6.56221285462379455566e-02) (19, -5.58920949697494506836e-03) (20, 5.85369952023029327393e-02) (21, -2.67135240137577056885e-02) (22, 4.89666918292641639709e-03) (23, -1.99947226792573928833e-02) (24, -5.46006560325622558594e-02) (25, 7.18230977654457092285e-02) (26, 4.60817106068134307861e-02) (27, -4.46698516607284545898e-02) (28, -7.15024843811988830566e-02) (29, 5.50860650837421417236e-02) (30, -1.90544668585062026978e-02) (31, 5.31986132264137268066e-02) (32, 5.91412931680679321289e-02) (33, -7.68895596265792846680e-02) (34, -4.18422818183898925781e-02) (35, -3.39716449379920959473e-02) (36, -7.72983804345130920410e-02) (37, -7.93492197990417480469e-02) (38, 6.38313516974449157715e-02) (39, 8.50954502820968627930e-02) (40, 2.67446078360080718994e-02) (41, -2.98154074698686599731e-02) (42, 5.54197430610656738281e-02) (43, -7.54311010241508483887e-02) (44, 9.89109799265861511230e-02) (45, -6.62238299846649169922e-02) (46, -2.54000090062618255615e-02) (47, 4.44119051098823547363e-03) (48, 4.30629923939704895020e-02) (49, -3.38407536037266254425e-03) (50, 9.52715277671813964844e-02) (51, -1.38838905841112136841e-02) (52, 9.28835049271583557129e-02) (53, -6.35779369622468948364e-03) (54, 5.13453744351863861084e-02) (55, -8.09599459171295166016e-02) (56, -4.24478724598884582520e-02) (57, -1.59828662872314453125e-02) (58, -2.57365219295024871826e-02) (59, -2.40293014794588088989e-02) (60, -7.27437883615493774414e-02) (61, 6.62682056427001953125e-02) (62, -6.46071583032608032227e-02) (63, 7.58055225014686584473e-02) (64, 8.51807519793510437012e-02) (65, -1.77757870405912399292e-02) (66, -6.70260787010192871094e-02) (67, -9.82455387711524963379e-02) (68, -4.52897773357108235359e-04) (69, 8.92748758196830749512e-02) (70, 1.00413046777248382568e-01) (71, -7.53840208053588867188e-02) (72, -4.73314896225929260254e-02) (73, 4.80671897530555725098e-02) (74, -6.38141632080078125000e-02) (75, -5.35042323172092437744e-02) (76, 8.61172452569007873535e-02) (77, 2.26771039888262748718e-03) (78, 4.72860969603061676025e-02) (79, 3.14400903880596160889e-02) (80, -9.71245318651199340820e-02) (81, 4.08490747213363647461e-02) (82, -8.72655063867568969727e-02) (83, 7.77631327509880065918e-02) (84, -6.55089095234870910645e-02) (85, 7.56754800677299499512e-02) (86, -1.01415492594242095947e-01) (87, -5.98091538995504379272e-03) (88, -4.67846952378749847412e-02) (89, -2.45801750570535659790e-02) (90, 7.33824521303176879883e-02) (91, -1.91593822091817855835e-02) (92, -6.59320652484893798828e-02) (93, -8.57849344611167907715e-02) (94, -2.95765977352857589722e-02) (95, -8.38023647665977478027e-02) (96, 3.84918181225657463074e-03) (97, -1.69855598360300064087e-02) (98, -7.77195915579795837402e-02) (99, -8.70679318904876708984e-02) (100, -9.95959620922803878784e-03) (101, -8.59669819474220275879e-02) (102, -5.07195591926574707031e-02) (103, 2.82079931348562240601e-02) (104, -1.39715984463691711426e-01) (105, -1.01949821691960096359e-03) (106, 8.01966413855552673340e-02) (107, 4.28529866039752960205e-02) (108, -8.32569971680641174316e-02) (109, 3.24593782424926757812e-02) (110, -3.29576916992664337158e-02) (111, -6.22858852148056030273e-02) (112, -3.42298001050949096680e-02) (113, -2.22200192511081695557e-02) (114, -6.40531405806541442871e-02) (115, 1.20056862942874431610e-03) (116, -5.71783706545829772949e-02) (117, -4.22547720372676849365e-02) (118, 9.71760526299476623535e-02) (119, -7.12460651993751525879e-03) (120, 5.52751645445823669434e-02) (0, 7.13794380426406860352e-02) (1, -2.27842554450035095215e-02) (2, -3.30137610435485839844e-02) (3, 8.58481228351593017578e-02) (4, -1.58985760062932968140e-02) (5, 1.36909540742635726929e-02) (6, -1.02305719628930091858e-02) (7, 7.85422027111053466797e-02) (8, 6.92613571882247924805e-02) (9, 2.92105693370103836060e-03) (10, -1.11715802922844886780e-02) (11, 1.19743756949901580811e-01) (12, 5.23351877927780151367e-02) (13, 9.22408774495124816895e-02) (14, 1.21750600636005401611e-01) (15, -4.87268008291721343994e-02) (16, 7.63298273086547851562e-02) (17, 1.08575284481048583984e-01) (18, -3.19774486124515533447e-02) (19, 8.92453268170356750488e-03) (20, 2.52188276499509811401e-02) (21, 5.63505198806524276733e-03) (22, 8.58238711953163146973e-02) (23, -4.13088984787464141846e-02) (24, 4.14320677518844604492e-02) (25, -6.01617898792028427124e-03) (26, 5.89824020862579345703e-02) (27, 9.90798547863960266113e-02) (28, -4.24874667078256607056e-03) (29, 1.21800396591424942017e-02) (30, 5.83748035132884979248e-02) (31, -6.76337182521820068359e-02) (32, 4.61169481277465820312e-02) (33, 8.06465595960617065430e-02) (34, -4.26117591559886932373e-02) (35, -6.32447674870491027832e-02) (36, -4.82140891253948211670e-02) (37, 2.79581304639577865601e-02) (38, -8.16170871257781982422e-02) (39, 8.07300359010696411133e-02) (40, -6.80825859308242797852e-02) (41, -1.84353999793529510498e-02) (42, 6.22173845767974853516e-02) (43, 1.09231956303119659424e-01) (44, -2.36182641237974166870e-02) (45, 4.75554391741752624512e-02) (46, -5.09203709661960601807e-02) (47, -4.85596880316734313965e-02) (48, 2.24361661821603775024e-02) (49, -1.42783513292670249939e-02) (50, 5.40069304406642913818e-02) (51, -8.38005468249320983887e-02) (52, -5.28670661151409149170e-02) (53, 2.56051328033208847046e-02) (54, -5.47249726951122283936e-02) (55, 4.20195125043392181396e-02) (56, -9.89612415432929992676e-02) (57, 7.78149291872978210449e-02) (58, 3.96231301128864288330e-02) (59, -2.46635228395462036133e-02) (60, -3.28629240393638610840e-02) (61, 1.81308705359697341919e-02) (62, 2.04109642654657363892e-02) (63, 9.33384075760841369629e-02) (64, -9.61713958531618118286e-03) (65, 5.18896356225013732910e-02) (66, -8.58911797404289245605e-02) (67, 2.12924666702747344971e-02) (68, -2.69465856254100799561e-02) (69, -8.03008899092674255371e-02) (70, 3.74895259737968444824e-02) (71, -2.23163957707583904266e-03) (72, -9.59400087594985961914e-03) (73, -2.64407731592655181885e-02) (74, -2.46228761970996856689e-02) (75, 5.97975440323352813721e-02) (76, -6.59141913056373596191e-02) (77, 4.57784812897443771362e-03) (78, -9.23986211419105529785e-02) (79, 5.86058609187602996826e-02) (80, -9.91639494895935058594e-02) (81, 6.22524134814739227295e-02) (82, 5.98433613777160644531e-02) (83, -9.67951938509941101074e-02) (84, -7.69457221031188964844e-03) (85, -6.61654248833656311035e-02) (86, -1.53248846530914306641e-01) (87, 2.08642636425793170929e-03) (88, 9.30322855710983276367e-02) (89, -1.07693560421466827393e-02) (90, 8.94600376486778259277e-02) (91, -4.11072820425033569336e-02) (92, -1.09510712325572967529e-01) (93, 2.63099595904350280762e-02) (94, -1.71027351170778274536e-02) (95, -2.83772386610507965088e-02) (96, -1.10266671981662511826e-03) (97, -5.73202110826969146729e-02) (98, -9.43170487880706787109e-02) (99, 9.72033217549324035645e-02) (100, 5.24872099049389362335e-04) (101, -1.79853841662406921387e-01) (102, 2.48900186270475387573e-02) (103, 6.14344701170921325684e-02) (104, -1.06477305293083190918e-01) (105, -6.58708810806274414062e-02) (106, 3.65447327494621276855e-02) (107, -8.19711908698081970215e-02) (108, 7.69654214382171630859e-02) (109, 5.18810302019119262695e-02) (110, -1.39406725764274597168e-01) (111, -7.84501954913139343262e-02) (112, -5.45506132766604423523e-03) (113, -1.81315004825592041016e-01) (114, -2.63686869293451309204e-02) (115, 9.25871655344963073730e-02) (116, -1.73490092158317565918e-01) (117, -2.49713882803916931152e-02) (118, -2.03211023472249507904e-03) (119, -1.87355533242225646973e-01) (120, -7.23242089152336120605e-02) (0, -1.83628611266613006592e-02) (1, 4.42797690629959106445e-02) (2, 1.22650451958179473877e-02) (3, -9.32223871350288391113e-02) (4, 5.91568239033222198486e-02) (5, -4.34038713574409484863e-02) (6, 4.28504357114434242249e-03) (7, -7.32060074806213378906e-02) (8, 4.10124696791172027588e-02) (9, 2.07187054911628365517e-04) (10, 3.18250954151153564453e-02) (11, 4.64135669171810150146e-02) (12, -7.63880908489227294922e-02) (13, -1.55357317999005317688e-02) (14, -6.46511614322662353516e-02) (15, -4.38532568514347076416e-02) (16, -8.04690420627593994141e-02) (17, 5.46112954616546630859e-02) (18, -6.85890018939971923828e-02) (19, 6.14078007638454437256e-02) (20, -7.26215466856956481934e-02) (21, -4.89395335316658020020e-02) (22, -3.14556322991847991943e-02) (23, -3.01366280764341354370e-02) (24, 2.27426514029502868652e-02) (25, -3.60739491879940032959e-02) (26, 2.58538983762264251709e-02) (27, 9.58880931138992309570e-02) (28, 5.92433735728263854980e-02) (29, 7.38790929317474365234e-02) (30, -8.07671397924423217773e-02) (31, -8.37745442986488342285e-02) (32, -1.93888451904058456421e-02) (33, -6.19694328634068369865e-05) (34, -5.00246584415435791016e-02) (35, -6.13313652575016021729e-02) (36, 2.64615379273891448975e-02) (37, 3.96230928599834442139e-02) (38, -3.79104502499103546143e-02) (39, -6.10468462109565734863e-02) (40, -5.84733448922634124756e-02) (41, 7.04955309629440307617e-02) (42, 5.82943223416805267334e-02) (43, -1.86876580119132995605e-02) (44, -4.83977943658828735352e-02) (45, 6.79148584604263305664e-02) (46, 2.89879497140645980835e-02) (47, -3.45981568098068237305e-02) (48, -1.29352847579866647720e-03) (49, 3.73246185481548309326e-02) (50, -8.14632996916770935059e-02) (51, 3.87224229052662849426e-03) (52, 1.28242865204811096191e-01) (53, -2.75192502886056900024e-02) (54, 5.28851002454757690430e-02) (55, 1.77932027727365493774e-02) (56, 1.86327099800109863281e-02) (57, -3.98628823459148406982e-02) (58, 1.23980985954403877258e-02) (59, -4.15405072271823883057e-02) (60, -8.20656344294548034668e-02) (61, 4.44867089390754699707e-02) (62, -2.07539126276969909668e-02) (63, -1.54477730393409729004e-02) (64, -5.99743165075778961182e-02) (65, 6.85300631448626518250e-03) (66, 1.19634708389639854431e-02) (67, 4.99503649771213531494e-02) (68, -6.16350620985031127930e-02) (69, 6.50705620646476745605e-02) (70, 1.14857383072376251221e-01) (71, -2.98335142433643341064e-02) (72, 2.80050747096538543701e-02) (73, 5.31657002866268157959e-02) (74, 2.55589801818132400513e-02) (75, 7.47362524271011352539e-02) (76, 3.12382001429796218872e-02) (77, -6.30511641502380371094e-02) (78, -6.23553395271301269531e-02) (79, -6.89736977219581604004e-02) (80, -1.21162548661231994629e-01) (81, -4.33686226606369018555e-02) (82, 2.36580912023782730103e-02) (83, -1.28296807408332824707e-01) (84, 3.21938470005989074707e-02) (85, -2.57775699719786643982e-03) (86, -1.31698809564113616943e-02) (87, -4.31581474840641021729e-02) (88, 4.33701500296592712402e-02) (89, -1.02631688117980957031e-01) (90, 2.36437618732452392578e-02) (91, 6.04004375636577606201e-02) (92, 2.70801112055778503418e-02) (93, -8.57677832245826721191e-02) (94, -3.39318253099918365479e-02) (95, -1.44155398011207580566e-01) (96, 3.53411398828029632568e-02) (97, 3.79632823169231414795e-02) (98, 1.14696826785802841187e-02) (99, 9.10618528723716735840e-02) (100, 2.90009696036577224731e-02) (101, 5.46937528997659683228e-03) (102, -1.82562135159969329834e-02) (103, -6.23146966099739074707e-02) (104, -4.47469614446163177490e-02) (105, -6.94439634680747985840e-02) (106, -7.60673657059669494629e-02) (107, -1.25130578875541687012e-01) (108, -6.19244435802102088928e-03) (109, -3.38710062205791473389e-02) (110, -1.10071673989295959473e-01) (111, 2.64720572158694267273e-03) (112, 6.97508268058300018311e-03) (113, 7.96160008758306503296e-03) (114, 7.85364396870136260986e-03) (115, -5.55907562375068664551e-02) (116, -1.18514664471149444580e-01) (117, -6.79334327578544616699e-02) (118, 3.44544043764472007751e-03) (119, -1.84931039810180664062e-01) (120, -3.08708995580673217773e-02) (0, -8.48069190979003906250e-02) (1, 7.95838087797164916992e-02) (2, -6.01687505841255187988e-02) (3, -7.17911347746849060059e-02) (4, -9.38498899340629577637e-02) (5, -5.44086694717407226562e-02) (6, 6.22369572520256042480e-02) (7, 5.35975657403469085693e-02) (8, -8.89867693185806274414e-02) (9, 5.19961826503276824951e-02) (10, -2.67535466700792312622e-02) (11, 7.47315958142280578613e-02) (12, -6.77057877182960510254e-02) (13, 6.85867667198181152344e-03) (14, -5.28793875128030776978e-03) (15, -3.86084243655204772949e-02) (16, 2.40965299308300018311e-02) (17, 3.84095683693885803223e-02) (18, 5.36220930516719818115e-02) (19, 7.45822712779045104980e-02) (20, -9.57831665873527526855e-02) (21, -4.54337187111377716064e-02) (22, -1.72473303973674774170e-02) (23, -1.04468800127506256104e-01) (24, 6.06930628418922424316e-02) (25, 2.39800978451967239380e-02) (26, -3.53735424578189849854e-02) (27, 9.10675004124641418457e-02) (28, -8.01035687327384948730e-02) (29, -2.88070086389780044556e-02) (30, -3.95702607929706573486e-02) (31, -6.90307691693305969238e-02) (32, -6.75392076373100280762e-02) (33, 2.51385453157126903534e-03) (34, -3.23313213884830474854e-02) (35, -6.77813664078712463379e-02) (36, 5.08352816104888916016e-02) (37, -6.93016201257705688477e-02) (38, 8.16294103860855102539e-02) (39, 6.51110485196113586426e-02) (40, 8.26008170843124389648e-02) (41, -5.49005679786205291748e-02) (42, 4.36151325702667236328e-02) (43, -7.96784162521362304688e-02) (44, 4.95011806488037109375e-02) (45, -5.73110729455947875977e-02) (46, -2.28339582681655883789e-02) (47, -3.15336808562278747559e-02) (48, 8.61292928457260131836e-02) (49, -7.86031261086463928223e-02) (50, -6.09881542623043060303e-02) (51, 9.60637256503105163574e-02) (52, -6.94301445037126541138e-03) (53, 1.65880601853132247925e-02) (54, 9.80329588055610656738e-02) (55, -5.73964565992355346680e-02) (56, -6.76490813493728637695e-02) (57, -3.00760287791490554810e-02) (58, -6.67781233787536621094e-02) (59, -5.80091066658496856689e-02) (60, 4.92181517183780670166e-02) (61, -3.10368067584931850433e-03) (62, -3.20297516882419586182e-02) (63, 9.05872508883476257324e-02) (64, 9.91509184241294860840e-02) (65, 2.33362484723329544067e-02) (66, -6.74318671226501464844e-02) (67, 4.43524047732353210449e-02) (68, 4.20118160545825958252e-02) (69, -7.51557871699333190918e-02) (70, 2.29330230504274368286e-02) (71, 1.38215804472565650940e-02) (72, -1.87324248254299163818e-02) (73, -4.41702604293823242188e-02) (74, 1.89455635845661163330e-02) (75, -5.71038797497749328613e-02) (76, 3.79371549934148788452e-03) (77, -1.13501675426959991455e-01) (78, 2.43698395788669586182e-02) (79, -1.02352220565080642700e-02) (80, -9.12563651800155639648e-02) (81, 7.72072225809097290039e-02) (82, -1.77568551152944564819e-02) (83, -1.34696802124381065369e-02) (84, 8.34224093705415725708e-03) (85, -8.38330201804637908936e-03) (86, 2.60676536709070205688e-02) (87, 5.59972859919071197510e-02) (88, 5.86200244724750518799e-02) (89, 5.75889758765697479248e-02) (90, -8.59613940119743347168e-02) (91, 6.76671275869011878967e-03) (92, -4.93342168629169464111e-02) (93, -1.19060231372714042664e-03) (94, 5.48438820987939834595e-03) (95, -5.28727434575557708740e-02) (96, -6.03121928870677947998e-02) (97, 2.66529414802789688110e-02) (98, -1.04440018534660339355e-01) (99, -9.99904647469520568848e-02) (100, 6.01777434349060058594e-02) (101, 1.00299706682562828064e-02) (102, 3.29168550670146942139e-02) (103, -6.33964538574218750000e-02) (104, 6.86395242810249328613e-02) (105, -2.82563380897045135498e-02) (106, -1.13436738029122352600e-02) (107, -2.86746807396411895752e-02) (108, -2.09846403449773788452e-02) (109, -8.54697823524475097656e-02) (110, 6.06175102293491363525e-02) (111, 9.41481813788414001465e-03) (112, 8.59551355242729187012e-02) (113, -5.33282496035099029541e-02) (114, -8.14928039908409118652e-02) (115, 7.15179019607603549957e-04) (116, 3.22833471000194549561e-02) (117, 6.80515319108963012695e-02) (118, -4.43179495632648468018e-02) (119, -1.12497890368103981018e-02) (120, 3.97763960063457489014e-02) (0, -3.45880351960659027100e-02) (1, -6.17284364998340606689e-02) (2, -6.83144330978393554688e-02) (3, 6.48185610771179199219e-02) (4, 2.50780191272497177124e-02) (5, 4.73115919157862663269e-03) (6, -9.49490219354629516602e-02) (7, -4.27214615046977996826e-02) (8, 2.70215105265378952026e-02) (9, -9.43816751241683959961e-02) (10, -7.84543901681900024414e-02) (11, -3.53432334959506988525e-02) (12, 3.90657819807529449463e-02) (13, -4.60484549403190612793e-02) (14, -3.77145111560821533203e-02) (15, -8.87115448713302612305e-02) (16, 3.87606360018253326416e-02) (17, 6.32070079445838928223e-02) (18, -9.20705869793891906738e-03) (19, 4.79549206793308258057e-02) (20, 5.47574311494827270508e-02) (21, -9.93456542491912841797e-02) (22, 3.52016426622867584229e-02) (23, -6.60838633775711059570e-02) (24, -8.04012194275856018066e-02) (25, -6.84821605682373046875e-02) (26, 9.91314277052879333496e-02) (27, 8.81049335002899169922e-02) (28, -1.50836119428277015686e-02) (29, 2.14719753712415695190e-02) (30, 3.87042276561260223389e-02) (31, 4.25292029976844787598e-02) (32, 5.09632676839828491211e-02) (33, 6.53300806879997253418e-02) (34, 1.73988025635480880737e-02) (35, -2.11185794323682785034e-02) (36, -3.44467721879482269287e-02) (37, 1.94584559649229049683e-02) (38, 3.87406833469867706299e-02) (39, 8.86347070336341857910e-02) (40, 2.46852152049541473389e-02) (41, 5.63035309314727783203e-02) (42, -5.01314848661422729492e-02) (43, -3.02344225347042083740e-02) (44, -8.71219187974929809570e-02) (45, 9.19628608971834182739e-03) (46, -2.13673599064350128174e-02) (47, 5.23926503956317901611e-02) (48, -2.98736467957496643066e-02) (49, 6.00117184221744537354e-02) (50, -1.30286527564749121666e-04) (51, -7.68282189965248107910e-02) (52, 7.53342807292938232422e-02) (53, -6.67792931199073791504e-02) (54, -4.41260039806365966797e-02) (55, 8.42482969164848327637e-02) (56, -3.85856553912162780762e-02) (57, -4.54244352877140045166e-02) (58, 7.21080079674720764160e-02) (59, 4.12304736673831939697e-02) (60, 7.64883309602737426758e-02) (61, 1.60962380468845367432e-02) (62, -1.31009640172123908997e-02) (63, 2.86310873925685882568e-02) (64, -2.06131711602210998535e-02) (65, -1.01900562644004821777e-01) (66, -9.03588011860847473145e-02) (67, 4.03159670531749725342e-02) (68, 1.49014769122004508972e-02) (69, 5.12980259954929351807e-02) (70, 3.90285253524780273438e-02) (71, -6.19502663612365722656e-02) (72, 1.10088950023055076599e-02) (73, 8.22909250855445861816e-02) (74, 9.57512413151562213898e-04) (75, 2.82253231853246688843e-02) (76, -4.54583624377846717834e-03) (77, 7.57966414093971252441e-02) (78, -1.42128057777881622314e-02) (79, 6.62578493356704711914e-02) (80, 4.17741313576698303223e-02) (81, 9.18542668223381042480e-02) (82, 8.67644026875495910645e-02) (83, 9.09169111400842666626e-03) (84, -6.78343027830123901367e-02) (85, -4.86917570233345031738e-02) (86, -3.49661684595048427582e-03) (87, 1.69516855385154485703e-03) (88, 2.66497861593961715698e-03) (89, -2.74617783725261688232e-02) (90, -4.81773577630519866943e-02) (91, -2.13972292840480804443e-02) (92, -1.12060993909835815430e-01) (93, 4.86700609326362609863e-02) (94, -8.42115059494972229004e-02) (95, -3.09617426246404647827e-02) (96, 5.77347315847873687744e-02) (97, -8.69253128767013549805e-02) (98, -8.34792926907539367676e-02) (99, -1.53063489124178886414e-02) (100, 7.45388269424438476562e-02) (101, 5.31199946999549865723e-02) (102, 3.59178557991981506348e-02) (103, -2.14721281081438064575e-02) (104, 3.93528863787651062012e-02) (105, -4.89967949688434600830e-02) (106, -8.76486450433731079102e-02) (107, -6.38167709112167358398e-02) (108, -5.80032840371131896973e-02) (109, 2.81666551018133759499e-04) (110, -9.73487943410873413086e-02) (111, -9.97131392359733581543e-02) (112, -1.25530110672116279602e-02) (113, -1.07322044670581817627e-01) (114, 2.71146763116121292114e-02) (115, 2.20259465277194976807e-02) (116, -5.98232410848140716553e-02) (117, -5.72642534971237182617e-02) (118, -7.59687349200248718262e-02) (119, 4.28983122110366821289e-02) (120, 3.54609489440917968750e-02) (0, -2.38118544220924377441e-02) (1, -6.62862369790673255920e-03) (2, 7.15024173259735107422e-02) (3, -7.48855099081993103027e-02) (4, -3.22169438004493713379e-02) (5, -3.70832383632659912109e-02) (6, 8.29936861991882324219e-02) (7, -1.07601564377546310425e-02) (8, 3.13646462745964527130e-03) (9, -3.20834331214427947998e-02) (10, -1.87460668385028839111e-02) (11, -1.85372233390808105469e-02) (12, -9.59775000810623168945e-02) (13, 4.32150997221469879150e-02) (14, -5.14069050550460815430e-02) (15, -4.48975712060928344727e-02) (16, 5.75943477451801300049e-02) (17, 1.34869311004877090454e-02) (18, -2.78431689366698265076e-03) (19, -4.25926111638545989990e-02) (20, 4.75908741354942321777e-02) (21, -2.43683997541666030884e-03) (22, 5.29290027916431427002e-02) (23, 7.46828690171241760254e-02) (24, -7.52908140420913696289e-02) (25, -2.14122794568538665771e-02) (26, -5.01429811120033264160e-02) (27, -3.24895083904266357422e-02) (28, 5.76301524415612220764e-03) (29, -7.09303542971611022949e-02) (30, -9.65032577514648437500e-02) (31, 5.85363171994686126709e-02) (32, -1.07319522649049758911e-02) (33, 4.93851155042648315430e-02) (34, 1.09661683440208435059e-01) (35, 5.92435486614704132080e-02) (36, 8.81765335798263549805e-02) (37, 8.03896635770797729492e-02) (38, -5.04768230020999908447e-02) (39, -3.12483552843332290649e-02) (40, -5.11116720736026763916e-02) (41, 1.23520959168672561646e-02) (42, 2.91014034301042556763e-02) (43, -3.08759137988090515137e-02) (44, -4.28169593214988708496e-02) (45, 5.79316057264804840088e-02) (46, 1.51207493618130683899e-02) (47, -8.64415168762207031250e-02) (48, -4.64340560138225555420e-02) (49, -1.11523136496543884277e-01) (50, -3.25131565332412719727e-02) (51, 8.49143490195274353027e-02) (52, 2.63360571116209030151e-02) (53, -8.87485519051551818848e-02) (54, 4.47410643100738525391e-02) (55, 1.81269794702529907227e-02) (56, -2.27112639695405960083e-02) (57, 8.19865912199020385742e-02) (58, 8.45389142632484436035e-02) (59, 6.79697915911674499512e-02) (60, -9.90525856614112854004e-02) (61, 1.00330881774425506592e-01) (62, 3.43469269573688507080e-02) (63, -1.77907589823007583618e-02) (64, 4.45098653435707092285e-02) (65, 2.60358490049839019775e-02) (66, -6.38347566127777099609e-02) (67, 1.65103040635585784912e-02) (68, 5.00131165608763694763e-04) (69, -1.73109453171491622925e-02) (70, -8.80545899271965026855e-02) (71, 4.31160852313041687012e-02) (72, 9.34910103678703308105e-02) (73, 2.02764868736267089844e-02) (74, -1.10124818980693817139e-01) (75, -4.82093468308448791504e-02) (76, -1.16301923990249633789e-02) (77, -8.26281495392322540283e-03) (78, -3.11537794768810272217e-02) (79, 4.26165908575057983398e-02) (80, -9.92209836840629577637e-03) (81, 4.27465476095676422119e-02) (82, 1.68602392077445983887e-02) (83, -1.13941252231597900391e-01) (84, 6.29939809441566467285e-02) (85, -1.69615820050239562988e-02) (86, 6.41716551035642623901e-03) (87, -4.78258021175861358643e-02) (88, -4.76547852158546447754e-02) (89, -6.03929860517382621765e-03) (90, -6.56623840332031250000e-02) (91, -4.85861264169216156006e-02) (92, -1.49146951735019683838e-02) (93, 8.58224928379058837891e-02) (94, 5.51651678979396820068e-02) (95, -7.51307532191276550293e-02) (96, 3.18633727729320526123e-02) (97, 5.20635358989238739014e-02) (98, -1.46633937954902648926e-01) (99, -4.45819534361362457275e-02) (100, -3.88886369764804840088e-02) (101, -1.49814784526824951172e-01) (102, -7.52969980239868164062e-02) (103, -6.52894154191017150879e-02) (104, -2.62375473976135253906e-02) (105, -5.65484985709190368652e-02) (106, -7.15530477464199066162e-04) (107, -1.42687395215034484863e-01) (108, 6.70813769102096557617e-02) (109, 7.21974670886993408203e-02) (110, -8.61624442040920257568e-03) (111, -7.30357179418206214905e-03) (112, 3.25104192597791552544e-04) (113, -9.03547853231430053711e-02) (114, 1.77318789064884185791e-02) (115, -3.10182962566614151001e-02) (116, -2.46933698654174804688e-02) (117, -3.30571793019771575928e-02) (118, 2.25796736776828765869e-02) (119, -1.76999732851982116699e-01) (120, -8.63368809223175048828e-02) (0, 4.93460670113563537598e-02) (1, 7.09846196696162223816e-03) (2, 6.99104815721511840820e-02) (3, 3.41121368110179901123e-02) (4, -1.00811511278152465820e-01) (5, -5.12950532138347625732e-02) (6, -3.52561324834823608398e-02) (7, 6.95293545722961425781e-02) (8, -4.01522293686866760254e-02) (9, 1.90275181084871292114e-02) (10, -5.53951822221279144287e-02) (11, -2.79704146087169647217e-02) (12, 4.24679815769195556641e-02) (13, -3.65863069891929626465e-02) (14, 1.14454641938209533691e-01) (15, 8.45200344920158386230e-02) (16, 6.24506846070289611816e-02) (17, -5.61063438653945922852e-02) (18, 5.01852668821811676025e-02) (19, 2.77851838618516921997e-02) (20, 1.14568695425987243652e-01) (21, -5.86718358099460601807e-02) (22, -6.16041682660579681396e-02) (23, 1.11836912110447883606e-02) (24, 5.74585609138011932373e-02) (25, 9.37250349670648574829e-03) (26, -2.34047174453735351562e-02) (27, -7.71426558494567871094e-02) (28, -6.87727704644203186035e-02) (29, -6.54279347509145736694e-03) (30, -7.07934871315956115723e-02) (31, 5.45157119631767272949e-02) (32, 6.21678791940212249756e-02) (33, 7.14447721838951110840e-02) (34, 2.15444453060626983643e-02) (35, 6.40624761581420898438e-02) (36, 9.42734107375144958496e-02) (37, 7.42829442024230957031e-02) (38, 3.52373272180557250977e-02) (39, -6.98818415403366088867e-02) (40, -5.59403514489531517029e-03) (41, 5.83665184676647186279e-02) (42, -2.01264582574367523193e-02) (43, -4.23521660268306732178e-02) (44, -7.61167183518409729004e-02) (45, -2.63282358646392822266e-02) (46, -6.71088397502899169922e-02) (47, 8.39277356863021850586e-02) (48, -8.10853613074868917465e-04) (49, 5.55349029600620269775e-02) (50, 6.40831049531698226929e-03) (51, -2.68841092474758625031e-03) (52, -5.37405535578727722168e-02) (53, 3.33375670015811920166e-02) (54, 9.37171801924705505371e-02) (55, 6.63303732872009277344e-02) (56, -7.32244178652763366699e-02) (57, -4.17873375117778778076e-02) (58, 8.93053933978080749512e-02) (59, -6.15746714174747467041e-02) (60, 4.25389967858791351318e-02) (61, -6.51198104023933410645e-02) (62, -9.96768251061439514160e-02) (63, -1.91310490481555461884e-03) (64, 1.00761234760284423828e-01) (65, -1.90654781181365251541e-03) (66, -4.12472411990165710449e-02) (67, 7.80893489718437194824e-02) (68, -3.81450988352298736572e-02) (69, 9.33103412389755249023e-02) (70, -5.86316138505935668945e-02) (71, 4.64362911880016326904e-02) (72, 5.26914969086647033691e-02) (73, -1.98655761778354644775e-03) (74, -1.24836660921573638916e-01) (75, 8.07483568787574768066e-02) (76, 8.44152271747589111328e-02) (77, -1.10076308250427246094e-01) (78, 7.16840699315071105957e-02) (79, -1.49740027263760566711e-02) (80, -1.44519969820976257324e-01) (81, -1.14325825124979019165e-02) (82, 7.11958631873130798340e-02) (83, -1.36043518781661987305e-01) (84, -6.45597949624061584473e-02) (85, 9.20909047126770019531e-02) (86, 3.09975296258926391602e-02) (87, -2.08078604191541671753e-02) (88, -6.29335567355155944824e-02) (89, 2.19995025545358657837e-02) (90, 3.72996740043163299561e-02) (91, 7.79555439949035644531e-02) (92, -1.56175777316093444824e-01) (93, 6.08171559870243072510e-02) (94, 3.27412458136677742004e-03) (95, -1.62277102470397949219e-01) (96, -1.44870225340127944946e-02) (97, 1.80473681539297103882e-02) (98, -1.71960204839706420898e-01) (99, 7.76012986898422241211e-02) (100, 4.41984422504901885986e-02) (101, -1.50537446141242980957e-01) (102, 5.79813681542873382568e-02) (103, -2.64874715358018875122e-02) (104, -5.05871810019016265869e-02) (105, 7.02913552522659301758e-02) (106, -2.86441277712583541870e-02) (107, -7.29715302586555480957e-02) (108, -9.90642607212066650391e-02) (109, -5.05039915442466735840e-02) (110, -1.98332995176315307617e-01) (111, -9.85133275389671325684e-02) (112, 2.13051158934831619263e-02) (113, -2.57836878299713134766e-02) (114, -8.53855758905410766602e-02) (115, 6.46819025278091430664e-02) (116, -5.47752380371093750000e-02) (117, 9.93420481681823730469e-02) (118, -5.37048652768135070801e-02) (119, -2.39969715476036071777e-02) (120, 7.17818588018417358398e-02) (0, 7.78350979089736938477e-02) (1, 8.43197032809257507324e-02) (2, 1.00673317909240722656e-01) (3, 3.88228595256805419922e-02) (4, -5.59446103870868682861e-02) (5, 1.06620915234088897705e-01) (6, -7.56452158093452453613e-02) (7, 8.22921320796012878418e-02) (8, 1.07615083456039428711e-01) (9, -9.79750379920005798340e-02) (10, 2.49020811170339584351e-02) (11, -6.48701637983322143555e-02) (12, 5.99176883697509765625e-02) (13, -1.02218486368656158447e-01) (14, 7.04417452216148376465e-02) (15, 3.00361812114715576172e-02) (16, -3.40842939913272857666e-02) (17, -1.20329465717077255249e-02) (18, 3.07153202593326568604e-02) (19, 6.52469927445054054260e-03) (20, -1.14501025527715682983e-02) (21, 3.17810997366905212402e-02) (22, -6.47340863943099975586e-02) (23, -2.92783863842487335205e-02) (24, 4.59329411387443542480e-02) (25, 9.95023027062416076660e-02) (26, -7.15980902314186096191e-02) (27, 4.48665991425514221191e-02) (28, -5.64426854252815246582e-02) (29, -7.86168202757835388184e-02) (30, 2.45445836335420608521e-02) (31, -9.11187008023262023926e-02) (32, 9.29949954152107238770e-02) (33, 1.14425448700785636902e-02) (34, 6.41609281301498413086e-02) (35, -5.80227784812450408936e-02) (36, 5.18342992290854454041e-03) (37, 8.41894075274467468262e-02) (38, -7.18991458415985107422e-02) (39, 8.34668811876326799393e-04) (40, 8.56422856450080871582e-02) (41, 4.56245243549346923828e-02) (42, 2.48336121439933776855e-02) (43, 5.71656040847301483154e-02) (44, 4.66079227626323699951e-02) (45, -1.50995086878538131714e-02) (46, -1.61861013621091842651e-02) (47, -8.70642587542533874512e-02) (48, 6.35975301265716552734e-02) (49, -9.75387766957283020020e-02) (50, 1.66268404573202133179e-02) (51, -5.62087595462799072266e-02) (52, 5.73526956140995025635e-02) (53, 4.67815287411212921143e-02) (54, 6.89400546252727508545e-03) (55, -1.41084557399153709412e-02) (56, 3.92213761806488037109e-02) (57, 2.89536900818347930908e-02) (58, -6.82840421795845031738e-02) (59, 7.37392529845237731934e-02) (60, 4.54147495329380035400e-02) (61, 6.60425424575805664062e-02) (62, 8.71127322316169738770e-02) (63, 3.46721448004245758057e-02) (64, -2.60353982448577880859e-02) (65, 4.08188775181770324707e-02) (66, 7.44643881916999816895e-02) (67, 7.36613497138023376465e-02) (68, 2.01278626918792724609e-02) (69, -9.83572155237197875977e-02) (70, -1.04804392904043197632e-02) (71, 2.99178878776729106903e-03) (72, 4.70884814858436584473e-02) (73, -9.37837734818458557129e-02) (74, -5.27009330689907073975e-02) (75, -4.95966663584113121033e-03) (76, -3.70626873336732387543e-03) (77, 2.30568666011095046997e-02) (78, 1.06457732617855072021e-02) (79, -3.78444604575634002686e-02) (80, 3.04119121283292770386e-02) (81, -6.83490931987762451172e-02) (82, 1.62686046678572893143e-03) (83, -2.89655122905969619751e-02) (84, 8.43064710497856140137e-02) (85, -7.85085409879684448242e-02) (86, 5.87520562112331390381e-02) (87, 3.11200413852930068970e-02) (88, 4.54196035861968994141e-02) (89, -1.07434459030628204346e-01) (90, 1.37300221249461174011e-02) (91, -9.25403274595737457275e-03) (92, 5.23630641400814056396e-02) (93, 1.14738205447793006897e-02) (94, -6.14832751452922821045e-02) (95, -7.54188299179077148438e-02) (96, -3.53728793561458587646e-02) (97, -1.04657225310802459717e-01) (98, -9.62866172194480895996e-02) (99, 9.89136248826980590820e-02) (100, -8.69830623269081115723e-02) (101, -1.51642058044672012329e-02) (102, 1.79424919188022613525e-02) (103, 4.76774163544178009033e-02) (104, -9.29305795580148696899e-03) (105, 8.28579068183898925781e-02) (106, -4.98332940042018890381e-02) (107, -1.15761414170265197754e-01) (108, 2.52797380089759826660e-02) (109, 6.53214603662490844727e-02) (110, -5.91113902628421783447e-02) (111, -2.27329768240451812744e-02) (112, 8.99819657206535339355e-02) (113, 4.22865115106105804443e-02) (114, 7.19188600778579711914e-02) (115, 7.69856944680213928223e-02) (116, -1.46290957927703857422e-01) (117, 5.66068924963474273682e-02) (118, 9.36928763985633850098e-03) (119, -4.44872537627816200256e-03) (120, 6.75853118300437927246e-02) (0, -7.78698697686195373535e-02) (1, -2.37439870834350585938e-02) (2, 9.97489020228385925293e-02) (3, 3.44327092170715332031e-02) (4, -4.69206906855106353760e-02) (5, -4.39261570572853088379e-02) (6, -1.00284814834594726562e-01) (7, -4.18011881411075592041e-02) (8, -6.18544220924377441406e-03) (9, -1.00584141910076141357e-01) (10, -5.23668620735406875610e-03) (11, 1.15299850702285766602e-01) (12, 1.80726069957017898560e-02) (13, -8.21685940027236938477e-02) (14, 4.70349602401256561279e-02) (15, 1.46783166565001010895e-03) (16, -2.95396745204925537109e-02) (17, 7.40357786417007446289e-02) (18, -7.26420283317565917969e-02) (19, -6.31727725267410278320e-02) (20, -3.76499183475971221924e-02) (21, 5.13195386156439781189e-03) (22, -6.43330886960029602051e-02) (23, -4.28058356046676635742e-02) (24, -2.24914383143186569214e-02) (25, -8.23979750275611877441e-02) (26, -3.53531688451766967773e-02) (27, -6.53730332851409912109e-02) (28, 3.18860188126564025879e-02) (29, 1.16265706717967987061e-01) (30, -8.71837586164474487305e-02) (31, 2.05813981592655181885e-02) (32, -4.14114929735660552979e-02) (33, 7.40870237350463867188e-02) (34, -6.56934967264533042908e-03) (35, 2.70038023591041564941e-02) (36, 9.38558056950569152832e-02) (37, -2.24127937108278274536e-02) (38, 9.77815985679626464844e-02) (39, -4.63936142623424530029e-02) (40, -2.23313756287097930908e-02) (41, -2.55985278636217117310e-02) (42, -6.31036385893821716309e-02) (43, -7.93765336275100708008e-02) (44, 1.99891882948577404022e-03) (45, 5.37874698638916015625e-02) (46, 1.22122392058372497559e-02) (47, 7.81566202640533447266e-02) (48, 3.85329476557672023773e-04) (49, 8.26746877282857894897e-03) (50, -8.58216285705566406250e-02) (51, 3.75252440571784973145e-02) (52, -2.90655326098203659058e-02) (53, -5.71020022034645080566e-02) (54, 7.13224634528160095215e-02) (55, 2.36837984994053840637e-03) (56, -5.05225248634815216064e-02) (57, -8.42829793691635131836e-02) (58, 3.54264043271541595459e-02) (59, 6.65437057614326477051e-02) (60, -8.47587287425994873047e-02) (61, 7.08716586232185363770e-02) (62, 7.02243670821189880371e-03) (63, -4.00158502161502838135e-02) (64, 3.67731191217899322510e-02) (65, -1.15683294832706451416e-01) (66, 7.69568681716918945312e-02) (67, 1.40036530792713165283e-02) (68, -3.69311682879924774170e-02) (69, 6.78358227014541625977e-02) (70, -9.41812917590141296387e-02) (71, 4.36609648168087005615e-02) (72, -6.27759695053100585938e-02) (73, -8.13229084014892578125e-02) (74, 4.46859188377857208252e-02) (75, 3.79701703786849975586e-02) (76, 8.43966528773307800293e-02) (77, -5.06989061832427978516e-02) (78, 1.81986279785633087158e-02) (79, -1.07031781226396560669e-02) (80, -1.17814064025878906250e-01) (81, 3.86388935148715972900e-02) (82, -8.48925039172172546387e-02) (83, -7.75305032730102539062e-02) (84, 9.15125980973243713379e-02) (85, -8.28500464558601379395e-02) (86, -1.58163219690322875977e-01) (87, -4.48379330337047576904e-02) (88, -8.35956260561943054199e-02) (89, -2.45845201425254344940e-03) (90, -6.08684979379177093506e-02) (91, -6.92817345261573791504e-02) (92, -3.17767150700092315674e-02) (93, 6.78981691598892211914e-02) (94, 2.29538176208734512329e-02) (95, -8.58335569500923156738e-02) (96, 7.81264975666999816895e-02) (97, -5.21390028297901153564e-02) (98, -1.43226146697998046875e-01) (99, -2.84198299050331115723e-02) (100, -4.56524863839149475098e-02) (101, -1.45531520247459411621e-01) (102, -4.97886985540390014648e-02) (103, -3.18221859633922576904e-02) (104, -1.11869782209396362305e-01) (105, -6.62316232919692993164e-02) (106, -7.70910307765007019043e-02) (107, -1.19650579988956451416e-01) (108, 2.62870043516159057617e-02) (109, 5.87766431272029876709e-02) (110, -2.87899468094110488892e-02) (111, 5.70672303438186645508e-02) (112, -1.25249586999416351318e-02) (113, -1.99257954955101013184e-01) (114, -6.68397247791290283203e-02) (115, -1.46510386839509010315e-02) (116, -1.92993611097335815430e-01) (117, -6.57426714897155761719e-02) (118, 4.39744815230369567871e-02) (119, -1.68747827410697937012e-01) (120, 9.00013670325279235840e-02) (0, 7.85437524318695068359e-02) (1, 1.36286262422800064087e-02) (2, 1.76829267293214797974e-02) (3, 4.70516271889209747314e-02) (4, -7.22845494747161865234e-02) (5, -8.98874327540397644043e-02) (6, 2.56955325603485107422e-02) (7, 1.02771008387207984924e-02) (8, -4.88356277346611022949e-02) (9, 9.77733656764030456543e-02) (10, 6.04071095585823059082e-02) (11, -3.72445257380604743958e-03) (12, -5.17155714333057403564e-02) (13, -4.30072322487831115723e-02) (14, -1.15909978747367858887e-01) (15, -1.76132135093212127686e-02) (16, -8.95950570702552795410e-03) (17, -2.94998977333307266235e-02) (18, -9.12072286009788513184e-02) (19, -5.99178373813629150391e-02) (20, -4.26230989396572113037e-02) (21, 6.57931864261627197266e-02) (22, 2.93041355907917022705e-02) (23, -1.61218736320734024048e-02) (24, 9.88773256540298461914e-02) (25, -8.62165018916130065918e-02) (26, 2.34772991389036178589e-02) (27, -6.68900609016418457031e-02) (28, 5.40726184844970703125e-02) (29, -1.06883145868778228760e-01) (30, -6.97576850652694702148e-02) (31, 3.98092158138751983643e-02) (32, 9.33166686445474624634e-03) (33, 6.69097006320953369141e-02) (34, -1.85771994292736053467e-02) (35, 3.35346087813377380371e-02) (36, 9.57717821002006530762e-02) (37, -8.61545577645301818848e-02) (38, -5.63515387475490570068e-02) (39, -3.45254279673099517822e-02) (40, -8.96425172686576843262e-02) (41, -9.14640128612518310547e-02) (42, 8.00976678729057312012e-02) (43, -4.49186749756336212158e-02) (44, -3.27747650444507598877e-02) (45, 8.24687331914901733398e-02) (46, 3.65690365433692932129e-02) (47, 5.79949021339416503906e-02) (48, -2.90060602128505706787e-02) (49, 4.54961806535720825195e-02) (50, -9.95643436908721923828e-02) (51, 4.62939478456974029541e-02) (52, 8.57438705861568450928e-03) (53, 3.38435955345630645752e-02) (54, -5.18487244844436645508e-02) (55, 1.24193653464317321777e-02) (56, 5.06463982164859771729e-02) (57, 8.93342345952987670898e-02) (58, 4.48469184339046478271e-02) (59, 6.54602050781250000000e-03) (60, -1.00236825644969940186e-01) (61, 7.18237236142158508301e-02) (62, -5.81468194723129272461e-02) (63, 2.61957738548517227173e-02) (64, 3.98557111620903015137e-02) (65, 2.47698742896318435669e-02) (66, -2.36468743532896041870e-02) (67, 3.74642610549926757812e-02) (68, 3.40344384312629699707e-02) (69, 3.63915190100669860840e-02) (70, -9.60280001163482666016e-02) (71, 4.15778346359729766846e-02) (72, 6.12924844026565551758e-02) (73, 8.24086144566535949707e-02) (74, -1.02185316383838653564e-01) (75, -5.56131042540073394775e-02) (76, 6.49142637848854064941e-02) (77, 3.69475558400154113770e-02) (78, -8.20410326123237609863e-02) (79, -6.53455331921577453613e-02) (80, -1.42087992280721664429e-02) (81, -6.66315853595733642578e-02) (82, 8.22030678391456604004e-02) (83, -9.91462990641593933105e-02) (84, 8.16207975149154663086e-02) (85, -6.87400028109550476074e-02) (86, 1.54788820073008537292e-02) (87, 4.60211001336574554443e-02) (88, -7.59519860148429870605e-02) (89, -3.62595692276954650879e-02) (90, -3.40677797794342041016e-02) (91, -7.78783485293388366699e-02) (92, -5.71877732872962951660e-02) (93, 2.04535964876413345337e-02) (94, 4.58624102175235748291e-02) (95, 8.94678980112075805664e-02) (96, -4.27719652652740478516e-02) (97, -7.13123604655265808105e-02) (98, 3.22540514171123504639e-02) (99, -9.74620655179023742676e-02) (100, 6.05550333857536315918e-02) (101, 4.11138013005256652832e-02) (102, 5.46394772827625274658e-02) (103, 2.61540263891220092773e-02) (104, 3.12501154839992523193e-02) (105, 6.24624527990818023682e-02) (106, 7.39269703626632690430e-02) (107, 3.65722551941871643066e-03) (108, 8.84995050728321075439e-03) (109, 9.01689603924751281738e-02) (110, 4.84963394701480865479e-02) (111, -9.68239083886146545410e-02) (112, -7.40279257297515869141e-02) (113, 4.02569249272346496582e-02) (114, -8.82351398468017578125e-02) (115, -8.88828560709953308105e-02) (116, 7.97173753380775451660e-02) (117, 3.40062901377677917480e-02) (118, 5.43637089431285858154e-02) (119, 1.08873076736927032471e-01) (120, -9.15185138583183288574e-02) (0, -7.88994356989860534668e-02) (1, 7.73640070110559463501e-03) (2, 5.13883959501981735229e-03) (3, 4.22107130289077758789e-02) (4, 8.30998569726943969727e-02) (5, -5.08337607607245445251e-03) (6, -1.00038498640060424805e-01) (7, -8.20593088865280151367e-02) (8, 1.26022994518280029297e-01) (9, -9.68205481767654418945e-02) (10, 1.32969826459884643555e-01) (11, 6.46615475416183471680e-02) (12, 5.85465505719184875488e-02) (13, 1.54326176270842552185e-02) (14, -8.05300381034612655640e-03) (15, 2.15046573430299758911e-02) (16, -9.33239643927663564682e-04) (17, 8.92036631703376770020e-02) (18, -6.89336955547332763672e-02) (19, -2.78749503195285797119e-03) (20, 2.95750536024570465088e-02) (21, -6.50256425142288208008e-02) (22, 3.73285748064517974854e-02) (23, -3.99596914649009704590e-02) (24, -5.25800622999668121338e-02) (25, 5.70509321987628936768e-02) (26, -7.34141469001770019531e-02) (27, 8.21408107876777648926e-02) (28, 2.14493330568075180054e-02) (29, -7.90554732084274291992e-02) (30, 8.63913521170616149902e-02) (31, -6.50512240827083587646e-03) (32, -5.64584322273731231689e-02) (33, -6.20956346392631530762e-02) (34, -4.20285761356353759766e-03) (35, -7.94655457139015197754e-02) (36, -1.74665730446577072144e-02) (37, -2.75396965444087982178e-02) (38, -7.01542943716049194336e-02) (39, -3.82229164242744445801e-02) (40, -2.14729346334934234619e-02) (41, -9.02313217520713806152e-02) (42, 8.29176306724548339844e-02) (43, -2.38937772810459136963e-02) (44, 1.79933123290538787842e-02) (45, -6.55393525958061218262e-02) (46, 7.66210854053497314453e-02) (47, -9.84599813818931579590e-02) (48, 8.75505730509757995605e-02) (49, 5.72900176048278808594e-02) (50, -2.11327075958251953125e-02) (51, -1.52812432497739791870e-02) (52, -1.30850272253155708313e-02) (53, -1.15875706076622009277e-01) (54, 1.55983334407210350037e-02) (55, -3.84948775172233581543e-02) (56, -6.11316994763910770416e-04) (57, 1.81008093059062957764e-02) (58, -5.82360737025737762451e-02) (59, -1.27911284565925598145e-01) (60, 2.05559488385915756226e-02) (61, -4.33250665664672851562e-02) (62, -3.33595536649227142334e-02) (63, 5.03648966550827026367e-02) (64, -1.51730738580226898193e-02) (65, 5.59788616374135017395e-03) (66, 6.32011219859123229980e-02) (67, 3.34080606698989868164e-02) (68, -1.54215931892395019531e-01) (69, 9.05273631215095520020e-02) (70, -4.16472665965557098389e-02) (71, -1.08592316508293151855e-01) (72, -9.89210978150367736816e-02) (73, 9.40170064568519592285e-02) (74, -1.02449029684066772461e-01) (75, 2.57506463676691055298e-02) (76, -4.76266443729400634766e-02) (77, -1.73104256391525268555e-01) (78, 3.93360182642936706543e-02) (79, -5.79111836850643157959e-02) (80, -1.24948360025882720947e-02) (81, -6.33323416113853454590e-02) (82, 3.33214248530566692352e-03) (83, -1.51167176663875579834e-02) (84, -5.50686046481132507324e-02) (85, -3.00112459808588027954e-02) (86, -1.69264420866966247559e-01) (87, 7.47945457696914672852e-02) (88, 6.09998852014541625977e-02) (89, -1.40321061015129089355e-01) (90, 8.24551284313201904297e-02) (91, -2.21416540443897247314e-02) (92, -1.23045004904270172119e-01) (93, -8.89769475907087326050e-03) (94, -2.27645449340343475342e-02) (95, -6.77575916051864624023e-02) (96, -5.50405867397785186768e-02) (97, 5.44082894921302795410e-02) (98, -1.27045422792434692383e-01) (99, -5.43415583670139312744e-02) (100, 1.04078941047191619873e-01) (101, -1.23802445828914642334e-01) (102, -1.24589307233691215515e-03) (103, 6.16294071078300476074e-02) (104, -1.41105368733406066895e-01) (105, 6.39127716422080993652e-02) (106, 1.94981954991817474365e-02) (107, -1.17793269455432891846e-01) (108, 6.50409981608390808105e-02) (109, -3.13775092363357543945e-02) (110, -1.11819297075271606445e-01) (111, 3.47036272287368774414e-02) (112, -2.79988758265972137451e-02) (113, -2.21159338951110839844e-01) (114, 9.29314643144607543945e-03) (115, 3.23124937713146209717e-02) (116, -2.07345306873321533203e-01) (117, 3.80444526672363281250e-02) (118, 1.02803166955709457397e-02) (119, -2.73673653602600097656e-01) (120, -1.07589609920978546143e-01) (0, -3.23533900082111358643e-02) (1, 2.82469186931848526001e-02) (2, 3.94421070814132690430e-02) (3, 5.79895041882991790771e-02) (4, -1.12225003540515899658e-02) (5, -4.53922431915998458862e-03) (6, -9.81372222304344177246e-02) (7, -3.01852822303771972656e-02) (8, 1.00689411163330078125e-01) (9, -5.34299910068511962891e-02) (10, -2.82680206000804901123e-02) (11, 1.83724015951156616211e-02) (12, 4.40637506544589996338e-02) (13, -9.17429774999618530273e-02) (14, 1.33052423596382141113e-01) (15, 6.53324369341135025024e-03) (16, 6.03898474946618080139e-03) (17, 7.91264995932579040527e-02) (18, -2.99974549561738967896e-02) (19, 4.52710799872875213623e-02) (20, 4.64841537177562713623e-02) (21, -9.71668064594268798828e-02) (22, -7.75127783417701721191e-02) (23, 1.21044456958770751953e-01) (24, 1.01709542796015739441e-02) (25, 3.98725867271423339844e-02) (26, 1.70090552419424057007e-02) (27, -5.36392852663993835449e-02) (28, -6.48787468671798706055e-02) (29, 5.48104494810104370117e-02) (30, -5.05743473768234252930e-02) (31, -3.27872522175312042236e-02) (32, -4.46198247373104095459e-02) (33, 4.50365319848060607910e-02) (34, -3.34660150110721588135e-02) (35, 6.90753161907196044922e-02) (36, -1.01013287901878356934e-01) (37, -4.75027486681938171387e-02) (38, -3.98738607764244079590e-02) (39, 6.05575330555438995361e-02) (40, 1.89192476682364940643e-03) (41, 2.00713109225034713745e-02) (42, -5.79897724092006683350e-02) (43, -2.55587510764598846436e-02) (44, 4.66520451009273529053e-02) (45, -5.98646998405456542969e-02) (46, 7.24275857210159301758e-02) (47, -3.27588357031345367432e-02) (48, 8.72312635183334350586e-02) (49, -8.53608027100563049316e-02) (50, -7.94037580490112304688e-02) (51, 4.05326485633850097656e-03) (52, -2.04090438783168792725e-02) (53, -5.66305629909038543701e-02) (54, -2.66673811711370944977e-03) (55, 4.17056083679199218750e-02) (56, 8.00922363996505737305e-02) (57, 8.99583399295806884766e-02) (58, -1.11122213304042816162e-01) (59, -9.41974148154258728027e-02) (60, 2.41462662816047668457e-02) (61, -3.74724566936492919922e-02) (62, 3.59013210982084274292e-04) (63, 6.20117038488388061523e-02) (64, -1.02118596434593200684e-01) (65, 5.53778894245624542236e-02) (66, 1.76635775715112686157e-02) (67, -1.21105022728443145752e-01) (68, -8.59754607081413269043e-02) (69, 6.77048414945602416992e-02) (70, 7.67636522650718688965e-02) (71, 2.17890515923500061035e-02) (72, -2.03736200928688049316e-02) (73, -1.07661299407482147217e-01) (74, -1.23961709439754486084e-01) (75, -7.78382569551467895508e-02) (76, -5.50225116312503814697e-02) (77, 3.90135794878005981445e-02) (78, -1.11878830939531326294e-02) (79, -6.72972500324249267578e-02) (80, -1.27097725868225097656e-01) (81, 1.33007187396287918091e-02) (82, 2.26011145859956741333e-02) (83, -8.80701392889022827148e-02) (84, 6.45235180854797363281e-02) (85, -4.95828650891780853271e-02) (86, -1.37257933616638183594e-01) (87, 5.69447055459022521973e-02) (88, -7.79468491673469543457e-02) (89, -1.38339236378669738770e-01) (90, 7.84278884530067443848e-02) (91, 4.54722307622432708740e-02) (92, -8.77867117524147033691e-02) (93, -9.68379608821123838425e-04) (94, 3.90532352030277252197e-02) (95, -9.10209938883781433105e-02) (96, -2.09680348634719848633e-02) (97, -9.71476510167121887207e-02) (98, -9.23692062497138977051e-02) (99, 2.23838109523057937622e-02) (100, -8.85929763317108154297e-02) (101, -1.31650641560554504395e-01) (102, -2.17261146754026412964e-02) (103, -3.45915779471397399902e-02) (104, -1.29952758550643920898e-01) (105, -7.53367971628904342651e-03) (106, 4.29645599797368049622e-03) (107, -8.31424519419670104980e-02) (108, -2.58468203246593475342e-02) (109, -8.81627127528190612793e-02) (110, -5.10438345372676849365e-02) (111, -4.66444063931703567505e-03) (112, 1.59299373626708984375e-02) (113, -1.13607406616210937500e-01) (114, 6.08236715197563171387e-02) (115, -1.38880023732781410217e-02) (116, -7.31793269515037536621e-02) (117, 8.30438360571861267090e-02) (118, -5.27909025549888610840e-02) (119, -2.40423172712326049805e-01) (120, -4.25791516900062561035e-02) (0, -7.30890333652496337891e-02) (1, 3.12072671949863433838e-02) (2, -2.44324952363967895508e-02) (3, 2.65756137669086456299e-02) (4, -7.38890189677476882935e-03) (5, 6.52383863925933837891e-02) (6, -9.38335880637168884277e-02) (7, 3.90360765159130096436e-02) (8, -3.98993305861949920654e-02) (9, 2.90697645395994186401e-02) (10, 3.61404530704021453857e-02) (11, 2.25544720888137817383e-02) (12, -9.23564732074737548828e-02) (13, -4.73446920514106750488e-02) (14, -1.03675752878189086914e-01) (15, 5.03912859130650758743e-04) (16, 6.92881643772125244141e-02) (17, 2.40927822887897491455e-02) (18, 7.47878402471542358398e-02) (19, 7.80496522784233093262e-02) (20, -5.75913954526185989380e-03) (21, -2.99426000565290451050e-02) (22, -3.07237706147134304047e-03) (23, -8.74337106943130493164e-02) (24, -6.91757947206497192383e-02) (25, 8.21442157030105590820e-02) (26, 7.90647864341735839844e-02) (27, -8.61480310559272766113e-02) (28, -7.42037743330001831055e-02) (29, 8.46213698387145996094e-02) (30, -7.55359604954719543457e-02) (31, -2.70525515079498291016e-02) (32, 5.46472668647766113281e-02) (33, 1.95426531136035919189e-02) (34, 7.51421824097633361816e-02) (35, -4.72174398601055145264e-02) (36, 2.91519798338413238525e-03) (37, -1.09604462981224060059e-01) (38, 9.75639745593070983887e-02) (39, 7.96919539570808410645e-02) (40, 1.86017416417598724365e-02) (41, 5.73327802121639251709e-02) (42, 1.75624340772628784180e-02) (43, 1.11655285581946372986e-02) (44, -8.55607315897941589355e-02) (45, 2.78782565146684646606e-02) (46, -7.88840800523757934570e-02) (47, 9.12716090679168701172e-02) (48, -3.58297154307365417480e-02) (49, -8.17878320813179016113e-02) (50, 7.76437073945999145508e-02) (51, 6.90415874123573303223e-02) (52, -5.11874705553054809570e-02) (53, -1.22891059145331382751e-02) (54, 9.08074453473091125488e-02) (55, 9.95189417153596878052e-03) (56, -1.29844332113862037659e-02) (57, 7.69506767392158508301e-02) (58, 2.47145127505064010620e-02) (59, 3.30113172531127929688e-02) (60, 6.63201510906219482422e-02) (61, 3.77508550882339477539e-02) (62, 1.05638705193996429443e-01) (63, 2.37117223441600799561e-02) (64, -3.90479005873203277588e-02) (65, 1.04020610451698303223e-01) (66, 7.67387151718139648438e-02) (67, 7.91481211781501770020e-02) (68, 1.08118340373039245605e-01) (69, 7.23558142781257629395e-02) (70, 3.19884493947029113770e-02) (71, 4.04557101428508758545e-02) (72, 2.62915585190057754517e-02) (73, -2.92873736470937728882e-02) (74, -2.02457718551158905029e-02) (75, 3.48896235227584838867e-02) (76, 8.77532064914703369141e-02) (77, 1.89614761620759963989e-02) (78, 1.80648658424615859985e-02) (79, -4.84687909483909606934e-02) (80, 3.28913182020187377930e-02) (81, -1.50336856022477149963e-02) (82, -6.93607404828071594238e-02) (83, 1.16256669163703918457e-01) (84, 5.95990493893623352051e-02) (85, -1.00640438497066497803e-01) (86, 3.00861354917287826538e-02) (87, -6.90567791461944580078e-02) (88, 8.77644121646881103516e-02) (89, -4.24899496138095855713e-02) (90, 4.61481921374797821045e-02) (91, 5.58035969734191894531e-02) (92, 1.08657643198966979980e-01) (93, 3.13550643622875213623e-02) (94, -4.04157452285289764404e-02) (95, -2.05982849001884460449e-02) (96, 1.23869711533188819885e-02) (97, -2.85396445542573928833e-02) (98, 1.51994928717613220215e-01) (99, -5.19571546465158462524e-03) (100, -8.07683616876602172852e-02) (101, 1.04054018855094909668e-01) (102, -9.31985750794410705566e-02) (103, 6.39293640851974487305e-02) (104, -2.47987303882837295532e-02) (105, -4.43584099411964416504e-02) (106, -1.55831966549158096313e-02) (107, -2.81853415071964263916e-02) (108, 4.09406051039695739746e-02) (109, -1.01013749837875366211e-01) (110, 3.46228815615177154541e-02) (111, -6.30405917763710021973e-02) (112, -1.10913219396024942398e-03) (113, 6.66542127728462219238e-02) (114, -8.67227613925933837891e-02) (115, -4.91028726100921630859e-02) (116, 8.65354910492897033691e-02) (117, 6.77612988511100411415e-05) (118, -1.87734011560678482056e-02) (119, 8.27823579311370849609e-02) (120, 1.67742595076560974121e-02) (0, -6.64754956960678100586e-02) (1, 7.40783708170056343079e-03) (2, 1.96353308856487274170e-02) (3, 6.54246881604194641113e-02) (4, 2.62430775910615921021e-02) (5, 4.19611521065235137939e-02) (6, -2.17016842216253280640e-02) (7, 8.94052535295486450195e-02) (8, 3.31328809261322021484e-02) (9, 7.37429559230804443359e-02) (10, -4.08216528594493865967e-02) (11, -2.73528303951025009155e-02) (12, 8.13271105289459228516e-02) (13, 7.96811357140541076660e-02) (14, -2.18400843441486358643e-02) (15, -6.24503567814826965332e-02) (16, -2.06836964935064315796e-02) (17, -2.43050735443830490112e-02) (18, 7.93515518307685852051e-02) (19, -3.59887978993356227875e-03) (20, 3.05886939167976379395e-02) (21, -8.27263891696929931641e-02) (22, 1.04148529469966888428e-01) (23, 1.11757397651672363281e-01) (24, -6.85212090611457824707e-02) (25, -3.25548425316810607910e-02) (26, 7.37738516181707382202e-03) (27, 3.24891917407512664795e-02) (28, 6.11367896199226379395e-02) (29, 9.59315374493598937988e-02) (30, -5.59587106108665466309e-02) (31, 5.26027008891105651855e-02) (32, -5.61793819069862365723e-02) (33, 1.35873118415474891663e-02) (34, 6.73895701766014099121e-02) (35, 7.42409601807594299316e-02) (36, -9.17789116501808166504e-02) (37, -7.52204880118370056152e-02) (38, 6.49307817220687866211e-02) (39, -3.09039629064500331879e-03) (40, 1.00262105464935302734e-01) (41, 8.94782766699790954590e-02) (42, 2.77798827737569808960e-02) (43, 1.13069094717502593994e-01) (44, 7.06685706973075866699e-02) (45, 6.66243955492973327637e-02) (46, -6.35349825024604797363e-02) (47, -5.43885082006454467773e-02) (48, -9.34774801135063171387e-02) (49, 7.36797899007797241211e-02) (50, 3.23317237198352813721e-02) (51, 4.26368927583098411560e-03) (52, -3.44071760773658752441e-02) (53, 1.64043158292770385742e-02) (54, -1.43194831907749176025e-02) (55, -6.23613297939300537109e-02) (56, 5.76429031789302825928e-02) (57, 6.68422803282737731934e-02) (58, 6.96355998516082763672e-02) (59, -1.18466112762689590454e-02) (60, 4.11598309874534606934e-02) (61, -6.14999718964099884033e-02) (62, -4.73797209560871124268e-02) (63, 6.72101154923439025879e-02) (64, 4.30513285100460052490e-02) (65, -1.15752562880516052246e-01) (66, 2.86776106804609298706e-02) (67, 2.36139614135026931763e-02) (68, -1.04879640042781829834e-01) (69, -1.49783901870250701904e-02) (70, -2.96134464442729949951e-02) (71, -1.18461929261684417725e-01) (72, -3.14877368509769439697e-02) (73, 6.22146911919116973877e-02) (74, -1.49105906486511230469e-01) (75, -6.18990845978260040283e-02) (76, 4.76666465401649475098e-02) (77, -1.40831172466278076172e-01) (78, -1.29883447661995887756e-02) (79, 5.64628764986991882324e-02) (80, -1.53223186731338500977e-01) (81, -7.19682723283767700195e-02) (82, -5.73313571512699127197e-02) (83, -1.46827131509780883789e-01) (84, 5.79052828252315521240e-02) (85, 6.85546696186065673828e-02) (86, -1.08220137655735015869e-01) (87, 3.43778319656848907471e-02) (88, 1.32276080548763275146e-02) (89, -1.36338263750076293945e-01) (90, -5.43916635215282440186e-02) (91, -4.76254746317863464355e-02) (92, -1.18907973170280456543e-01) (93, 2.67781410366296768188e-02) (94, -3.92438881099224090576e-02) (95, -1.87845826148986816406e-01) (96, 4.48868237435817718506e-02) (97, 1.97870805859565734863e-02) (98, -4.62256073951721191406e-02) (99, 7.95307531952857971191e-02) (100, -4.51365225017070770264e-02) (101, -2.07125678658485412598e-01) (102, -9.36186164617538452148e-02) (103, -1.27906352281570434570e-02) (104, -4.32647503912448883057e-02) (105, -9.24043580889701843262e-02) (106, 4.87753860652446746826e-02) (107, -1.07566066086292266846e-01) (108, -7.73206800222396850586e-02) (109, -5.31503036618232727051e-02) (110, -1.69587165117263793945e-01) (111, -6.78534731268882751465e-02) (112, -5.09852990508079528809e-02) (113, -1.27402529120445251465e-01) (114, -4.56022694706916809082e-02) (115, -8.22614207863807678223e-02) (116, -1.93181514739990234375e-01) (117, 2.23702266812324523926e-02) (118, 5.63761256635189056396e-02) (119, -9.06360447406768798828e-02) (120, 5.99600002169609069824e-02) (121, -5.30692972242832183838e-02) (122, -1.78348705172538757324e-01) (123, -3.37105780839920043945e-01) (124, -1.97226271033287048340e-01) (125, 6.65452703833580017090e-03) (126, -7.79733583331108093262e-02) (127, -1.92378237843513488770e-01) (128, -2.30522736907005310059e-01) (129, -1.35717347264289855957e-01) (130, -3.36611539125442504883e-01) (131, 1.05789475142955780029e-01) (132, -3.98110717535018920898e-01) (133, -3.53888213634490966797e-01) (134, 1.36515200138092041016e-01) (135, -3.68108659982681274414e-01) (136, -6.45413808524608612061e-03) 
