FANN_FLO_2.1
num_layers=4
learning_rate=0.100000
connection_rate=1.000000
network_type=0
learning_momentum=0.600000
training_algorithm=0
train_error_function=1
train_stop_function=0
cascade_output_change_fraction=0.010000
quickprop_decay=-0.000100
quickprop_mu=1.750000
rprop_increase_factor=1.200000
rprop_decrease_factor=0.500000
rprop_delta_min=0.000000
rprop_delta_max=50.000000
rprop_delta_zero=0.100000
cascade_output_stagnation_epochs=12
cascade_candidate_change_fraction=0.010000
cascade_candidate_stagnation_epochs=12
cascade_max_out_epochs=150
cascade_min_out_epochs=50
cascade_max_cand_epochs=150
cascade_min_cand_epochs=50
cascade_num_candidate_groups=2
bit_fail_limit=3.49999994039535522461e-01
cascade_candidate_limit=1.00000000000000000000e+03
cascade_weight_multiplier=4.00000005960464477539e-01
cascade_activation_functions_count=10
cascade_activation_functions=3 5 7 8 10 11 14 15 16 17 
cascade_activation_steepnesses_count=4
cascade_activation_steepnesses=2.50000000000000000000e-01 5.00000000000000000000e-01 7.50000000000000000000e-01 1.00000000000000000000e+00 
layer_sizes=81 9 5 2 
scale_included=0
neurons (num_inputs, activation_function, activation_steepness)=(0, 0, 0.00000000000000000000e+00) (0, 0, 0.00000000000000000000e+00) (0, 0, 0.00000000000000000000e+00) (0, 0, 0.00000000000000000000e+00) (0, 0, 0.00000000000000000000e+00) (0, 0, 0.00000000000000000000e+00) (0, 0, 0.00000000000000000000e+00) (0, 0, 0.00000000000000000000e+00) (0, 0, 0.00000000000000000000e+00) (0, 0, 0.00000000000000000000e+00) (0, 0, 0.00000000000000000000e+00) (0, 0, 0.00000000000000000000e+00) (0, 0, 0.00000000000000000000e+00) (0, 0, 0.00000000000000000000e+00) (0, 0, 0.00000000000000000000e+00) (0, 0, 0.00000000000000000000e+00) (0, 0, 0.00000000000000000000e+00) (0, 0, 0.00000000000000000000e+00) (0, 0, 0.00000000000000000000e+00) (0, 0, 0.00000000000000000000e+00) (0, 0, 0.00000000000000000000e+00) (0, 0, 0.00000000000000000000e+00) (0, 0, 0.00000000000000000000e+00) (0, 0, 0.00000000000000000000e+00) (0, 0, 0.00000000000000000000e+00) (0, 0, 0.00000000000000000000e+00) (0, 0, 0.00000000000000000000e+00) (0, 0, 0.00000000000000000000e+00) (0, 0, 0.00000000000000000000e+00) (0, 0, 0.00000000000000000000e+00) (0, 0, 0.00000000000000000000e+00) (0, 0, 0.00000000000000000000e+00) (0, 0, 0.00000000000000000000e+00) (0, 0, 0.00000000000000000000e+00) (0, 0, 0.00000000000000000000e+00) (0, 0, 0.00000000000000000000e+00) (0, 0, 0.00000000000000000000e+00) (0, 0, 0.00000000000000000000e+00) (0, 0, 0.00000000000000000000e+00) (0, 0, 0.00000000000000000000e+00) (0, 0, 0.00000000000000000000e+00) (0, 0, 0.00000000000000000000e+00) (0, 0, 0.00000000000000000000e+00) (0, 0, 0.00000000000000000000e+00) (0, 0, 0.00000000000000000000e+00) (0, 0, 0.00000000000000000000e+00) (0, 0, 0.00000000000000000000e+00) (0, 0, 0.00000000000000000000e+00) (0, 0, 0.00000000000000000000e+00) (0, 0, 0.00000000000000000000e+00) (0, 0, 0.00000000000000000000e+00) (0, 0, 0.00000000000000000000e+00) (0, 0, 0.00000000000000000000e+00) (0, 0, 0.00000000000000000000e+00) (0, 0, 0.00000000000000000000e+00) (0, 0, 0.00000000000000000000e+00) (0, 0, 0.00000000000000000000e+00) (0, 0, 0.00000000000000000000e+00) (0, 0, 0.00000000000000000000e+00) (0, 0, 0.00000000000000000000e+00) (0, 0, 0.00000000000000000000e+00) (0, 0, 0.00000000000000000000e+00) (0, 0, 0.00000000000000000000e+00) (0, 0, 0.00000000000000000000e+00) (0, 0, 0.00000000000000000000e+00) (0, 0, 0.00000000000000000000e+00) (0, 0, 0.00000000000000000000e+00) (0, 0, 0.00000000000000000000e+00) (0, 0, 0.00000000000000000000e+00) (0, 0, 0.00000000000000000000e+00) (0, 0, 0.00000000000000000000e+00) (0, 0, 0.00000000000000000000e+00) (0, 0, 0.00000000000000000000e+00) (0, 0, 0.00000000000000000000e+00) (0, 0, 0.00000000000000000000e+00) (0, 0, 0.00000000000000000000e+00) (0, 0, 0.00000000000000000000e+00) (0, 0, 0.00000000000000000000e+00) (0, 0, 0.00000000000000000000e+00) (0, 0, 0.00000000000000000000e+00) (0, 0, 0.00000000000000000000e+00) (81, 13, 5.00000000000000000000e-01) (81, 13, 5.00000000000000000000e-01) (81, 13, 5.00000000000000000000e-01) (81, 13, 5.00000000000000000000e-01) (81, 13, 5.00000000000000000000e-01) (81, 13, 5.00000000000000000000e-01) (81, 13, 5.00000000000000000000e-01) (81, 13, 5.00000000000000000000e-01) (0, 13, 0.00000000000000000000e+00) (9, 13, 5.00000000000000000000e-01) (9, 13, 5.00000000000000000000e-01) (9, 13, 5.00000000000000000000e-01) (9, 13, 5.00000000000000000000e-01) (0, 13, 0.00000000000000000000e+00) (5, 0, 5.00000000000000000000e-01) (0, 0, 0.00000000000000000000e+00) 
connections (connected_to_neuron, weight)=(0, 9.33180376887321472168e-02) (1, -3.04247010499238967896e-02) (2, 5.08947037160396575928e-02) (3, -5.86070306599140167236e-02) (4, -7.00194202363491058350e-03) (5, 6.34340494871139526367e-02) (6, -2.45423726737499237061e-02) (7, 2.69867610186338424683e-02) (8, 1.79588161408901214600e-02) (9, 3.55841778218746185303e-02) (10, 1.01514406502246856689e-01) (11, 9.86753404140472412109e-02) (12, -3.02247446961700916290e-03) (13, 2.98187322914600372314e-02) (14, -6.20176903903484344482e-02) (15, 3.33885708823800086975e-03) (16, 6.80091157555580139160e-02) (17, -1.31176766008138656616e-02) (18, -3.13925147056579589844e-02) (19, 1.70457754284143447876e-02) (20, -1.34246260859072208405e-03) (21, -3.12353838235139846802e-02) (22, 2.11747903376817703247e-02) (23, 4.73221279680728912354e-02) (24, -5.05922595039010047913e-03) (25, 7.44348838925361633301e-02) (26, -4.35603689402341842651e-03) (27, 3.09914350509643554688e-02) (28, -7.60523676872253417969e-02) (29, -7.53660649061203002930e-02) (30, -5.92438653111457824707e-02) (31, 1.06760650873184204102e-01) (32, -3.01863159984350204468e-02) (33, 1.02758266031742095947e-01) (34, -6.45402297377586364746e-02) (35, -2.27275374345481395721e-03) (36, 4.90176156163215637207e-02) (37, -4.96602654457092285156e-02) (38, 9.79399010539054870605e-02) (39, -8.58543589711189270020e-02) (40, 2.78680771589279174805e-02) (41, 7.92324915528297424316e-02) (42, 7.94402584433555603027e-02) (43, -8.14135894179344177246e-02) (44, -2.75535136461257934570e-02) (45, -9.27934125065803527832e-02) (46, 1.45859392359852790833e-02) (47, -1.01992547512054443359e-01) (48, 2.30007688514888286591e-03) (49, 3.13422083854675292969e-02) (50, 4.28927280008792877197e-02) (51, 6.54786899685859680176e-02) (52, 7.98504427075386047363e-02) (53, -6.32295832037925720215e-02) (54, 3.20308282971382141113e-02) (55, -4.87406887114048004150e-02) (56, -9.86072868108749389648e-02) (57, -1.25777855515480041504e-01) (58, 1.02536916732788085938e-01) (59, -1.27435818314552307129e-01) (60, -5.50774522125720977783e-02) (61, -1.55014529824256896973e-01) (62, -7.82198831439018249512e-02) (63, -1.06588385999202728271e-01) (64, 1.10424160957336425781e-01) (65, -1.69083043932914733887e-01) (66, 2.63106841593980789185e-02) (67, -7.74370431900024414062e-02) (68, -3.41544710099697113037e-02) (69, -7.30162933468818664551e-02) (70, 2.39714756608009338379e-02) (71, -2.19103410840034484863e-01) (72, 2.62952391058206558228e-02) (73, -1.32191509008407592773e-01) (74, -2.15377211570739746094e-02) (75, -2.60151445865631103516e-01) (76, 1.67677234858274459839e-02) (77, -1.46671801805496215820e-01) (78, -7.93193355202674865723e-02) (79, -2.90157496929168701172e-01) (80, -3.74232651665806770325e-03) (0, 2.60473396629095077515e-02) (1, -1.11435323953628540039e-01) (2, 6.00090948864817619324e-03) (3, 7.78436362743377685547e-02) (4, 8.02408903837203979492e-04) (5, 6.12916350364685058594e-02) (6, -1.00782021880149841309e-01) (7, 2.32191290706396102905e-02) (8, 6.06681704521179199219e-02) (9, -7.80413821339607238770e-02) (10, 5.71055561304092407227e-02) (11, 6.47835060954093933105e-02) (12, -6.25967159867286682129e-02) (13, -8.91172438859939575195e-02) (14, 7.09288865327835083008e-02) (15, -4.81966249644756317139e-02) (16, 5.70589825510978698730e-02) (17, -1.69935412704944610596e-02) (18, 1.52402808889746665955e-02) (19, 7.75266392156481742859e-03) (20, -6.39573261141777038574e-02) (21, 3.00276465713977813721e-02) (22, -3.61519418656826019287e-02) (23, 4.36923354864120483398e-02) (24, 8.20145383477210998535e-02) (25, -4.82373833656311035156e-02) (26, -1.47636502515524625778e-03) (27, 2.33752112835645675659e-02) (28, -1.99748091399669647217e-02) (29, 1.11198024824261665344e-02) (30, -8.43681991100311279297e-02) (31, -8.16775262355804443359e-02) (32, 1.67563501745462417603e-02) (33, 2.32397988438606262207e-02) (34, -9.21297669410705566406e-02) (35, -4.51877601444721221924e-02) (36, -1.87962653581053018570e-03) (37, -5.86651489138603210449e-02) (38, -1.03942543268203735352e-01) (39, -1.02060046046972274780e-02) (40, -4.27968800067901611328e-03) (41, 6.91651031374931335449e-02) (42, -2.46824007481336593628e-02) (43, 4.27775271236896514893e-02) (44, -9.76740121841430664062e-02) (45, -4.20850440859794616699e-02) (46, -9.72294807434082031250e-02) (47, 8.59122797846794128418e-02) (48, 4.20870818197727203369e-02) (49, 4.95184883475303649902e-02) (50, -1.44583806395530700684e-02) (51, 1.01861193776130676270e-01) (52, -6.49541802704334259033e-03) (53, 6.94948360323905944824e-02) (54, 4.12007421255111694336e-02) (55, -6.02039089426398277283e-03) (56, -6.94635063409805297852e-02) (57, -2.77281589806079864502e-02) (58, -8.75702276825904846191e-02) (59, 4.25718948245048522949e-02) (60, 6.68822154402732849121e-02) (61, -1.90449431538581848145e-02) (62, 4.57629226148128509521e-02) (63, 4.70182746648788452148e-02) (64, 7.99507573246955871582e-02) (65, 1.19507700204849243164e-01) (66, 8.98026973009109497070e-02) (67, 4.86742854118347167969e-02) (68, -7.39478319883346557617e-02) (69, 1.38581871986389160156e-01) (70, -9.74861457943916320801e-02) (71, 8.15910920500755310059e-02) (72, 5.64109534025192260742e-02) (73, 4.82898764312267303467e-02) (74, -5.43972067534923553467e-02) (75, 1.39993086457252502441e-01) (76, 4.44146320223808288574e-02) (77, 6.76139742136001586914e-02) (78, 4.51675616204738616943e-02) (79, 9.15429964661598205566e-02) (80, -7.15811252593994140625e-02) (0, -3.88432033360004425049e-02) (1, -2.29226369410753250122e-02) (2, 4.04843203723430633545e-02) (3, -9.64517742395401000977e-02) (4, -6.23278729617595672607e-02) (5, -1.10679075121879577637e-01) (6, -6.01835288107395172119e-02) (7, -5.29403937980532646179e-03) (8, -8.36486816406250000000e-02) (9, 5.94515688717365264893e-02) (10, -8.10681656002998352051e-03) (11, -2.98346113413572311401e-02) (12, 1.92283615469932556152e-02) (13, -1.03035219013690948486e-01) (14, -2.45164204388856887817e-02) (15, -9.61529382038861513138e-04) (16, 7.72392898797988891602e-02) (17, 6.88855126500129699707e-02) (18, 3.98111529648303985596e-02) (19, 6.85846582055091857910e-02) (20, 8.98243412375450134277e-02) (21, -4.47807051241397857666e-02) (22, 6.00270293653011322021e-02) (23, -4.87694926559925079346e-02) (24, 3.37175428867340087891e-02) (25, -7.09720281884074211121e-03) (26, 1.04324571788311004639e-01) (27, -9.58115980029106140137e-02) (28, -5.67778646945953369141e-02) (29, -1.35541278868913650513e-02) (30, -7.24179223179817199707e-02) (31, -4.22081118449568748474e-03) (32, 7.68205001950263977051e-02) (33, 5.09858950972557067871e-02) (34, 7.73485796526074409485e-03) (35, -7.16984197497367858887e-02) (36, 4.92939837276935577393e-02) (37, 5.99034316837787628174e-02) (38, 3.55568528175354003906e-02) (39, 7.67980292439460754395e-02) (40, 4.49133962392807006836e-02) (41, -7.52778276801109313965e-02) (42, -3.81357036530971527100e-02) (43, -4.30793501436710357666e-02) (44, -6.17385655641555786133e-02) (45, 3.17335352301597595215e-02) (46, 6.02112151682376861572e-02) (47, -7.62314274907112121582e-02) (48, -1.20833900291472673416e-03) (49, 1.16477953270077705383e-02) (50, 8.24821591377258300781e-02) (51, -5.54025499150156974792e-03) (52, 7.65689238905906677246e-02) (53, 4.46819029748439788818e-02) (54, 3.95180247724056243896e-02) (55, 1.18535049259662628174e-02) (56, -5.72380647063255310059e-02) (57, 5.74999898672103881836e-02) (58, 8.01558978855609893799e-03) (59, -3.16711171763017773628e-04) (60, -7.48995468020439147949e-02) (61, 6.93973675370216369629e-02) (62, 7.72065222263336181641e-02) (63, -5.47812022268772125244e-02) (64, -5.94127736985683441162e-03) (65, 3.14063094556331634521e-02) (66, -4.19289916753768920898e-02) (67, -4.76496899500489234924e-03) (68, -4.52891699969768524170e-02) (69, 1.30270332098007202148e-01) (70, -6.65753260254859924316e-02) (71, 1.43558710813522338867e-01) (72, 1.01203322410583496094e-01) (73, 5.01231476664543151855e-02) (74, -7.83811807632446289062e-02) (75, 5.23588573560118675232e-03) (76, -8.26286301016807556152e-02) (77, 1.81916043162345886230e-01) (78, -5.42182885110378265381e-02) (79, 1.04209259152412414551e-01) (80, -7.22315954044461250305e-03) (0, -7.86767750978469848633e-02) (1, 8.52836742997169494629e-02) (2, -2.93008349835872650146e-02) (3, 6.08563311398029327393e-02) (4, -4.71003120765089988708e-03) (5, 5.17801977694034576416e-02) (6, 6.51593655347824096680e-02) (7, -3.31978276371955871582e-02) (8, -6.67665824294090270996e-02) (9, -2.99538001418113708496e-02) (10, -1.87462195754051208496e-02) (11, 1.01005606353282928467e-01) (12, -7.55430608987808227539e-02) (13, 1.03000262752175331116e-02) (14, -1.78078897297382354736e-02) (15, 3.95620800554752349854e-02) (16, 1.76403820514678955078e-02) (17, 4.65228706598281860352e-02) (18, 6.70294091105461120605e-02) (19, 2.99069266766309738159e-02) (20, 6.78772628307342529297e-02) (21, 7.32688829302787780762e-02) (22, 3.84913496673107147217e-02) (23, -5.04296347498893737793e-02) (24, 9.14980471134185791016e-02) (25, 5.22241219878196716309e-02) (26, -5.53208850324153900146e-02) (27, 9.84445884823799133301e-02) (28, 6.38945996761322021484e-02) (29, 5.93010187149047851562e-02) (30, -4.72551807761192321777e-02) (31, -7.56823420524597167969e-02) (32, 9.23289172351360321045e-03) (33, 5.03096766769886016846e-02) (34, 4.33471240103244781494e-02) (35, -2.24762652069330215454e-02) (36, -3.09128239750862121582e-02) (37, 8.08251202106475830078e-02) (38, 1.85255128890275955200e-02) (39, 6.18554167449474334717e-02) (40, -5.58245256543159484863e-02) (41, -5.89225776493549346924e-02) (42, 4.37817871570587158203e-02) (43, -4.06602676957845687866e-03) (44, 3.36200296878814697266e-02) (45, -4.35666516423225402832e-02) (46, -9.53986197710037231445e-02) (47, -3.84130660677328705788e-04) (48, 5.99269568920135498047e-02) (49, 1.22177630662918090820e-01) (50, 7.63874873518943786621e-02) (51, 6.70438632369041442871e-02) (52, 7.14623108506202697754e-02) (53, 4.86518256366252899170e-02) (54, 6.70311152935028076172e-02) (55, 9.16594341397285461426e-02) (56, -2.79307886958122253418e-02) (57, -4.17146757245063781738e-02) (58, 4.60802242159843444824e-02) (59, -1.99921932071447372437e-02) (60, 5.91317862272262573242e-02) (61, -3.25006917119026184082e-02) (62, -4.77014146745204925537e-02) (63, 4.89150770008563995361e-02) (64, 5.13620339334011077881e-02) (65, -2.60974448174238204956e-02) (66, 8.14754441380500793457e-02) (67, 1.16886117029935121536e-03) (68, 8.33636820316314697266e-02) (69, 4.95513938367366790771e-02) (70, 9.50654894113540649414e-02) (71, -1.81247591972351074219e-02) (72, 1.02625386789441108704e-02) (73, 9.91115495562553405762e-02) (74, -3.19121554493904113770e-02) (75, 1.17445858195424079895e-02) (76, 7.47638121247291564941e-02) (77, 7.93576911091804504395e-02) (78, 1.53056718409061431885e-02) (79, 1.20308287441730499268e-01) (80, -8.58257524669170379639e-04) (0, 1.72387361526489257812e-02) (1, -1.63240730762481689453e-02) (2, -4.69802580773830413818e-02) (3, -6.38172551989555358887e-02) (4, -2.91010849177837371826e-02) (5, -7.70743638277053833008e-02) (6, 1.49414630141109228134e-03) (7, -1.54144084081053733826e-02) (8, 7.32732564210891723633e-02) (9, 3.79261448979377746582e-02) (10, -4.50090728700160980225e-02) (11, 9.53890234231948852539e-02) (12, 9.42038819193840026855e-02) (13, 5.91694936156272888184e-02) (14, 5.67504800856113433838e-02) (15, -8.37091878056526184082e-02) (16, 3.32657359540462493896e-02) (17, -9.44862887263298034668e-02) (18, 1.09279118478298187256e-01) (19, -8.31699147820472717285e-02) (20, 9.13497656583786010742e-02) (21, -7.64675810933113098145e-02) (22, 1.76746621727943420410e-02) (23, 2.67208106815814971924e-02) (24, 1.53176235035061836243e-02) (25, 6.64206370711326599121e-02) (26, -1.27560067921876907349e-02) (27, -8.40626657009124755859e-02) (28, -1.61008741706609725952e-02) (29, -7.39120841026306152344e-02) (30, 2.06113737076520919800e-02) (31, 8.77678692340850830078e-02) (32, 1.02100446820259094238e-02) (33, 6.66477531194686889648e-02) (34, -7.23488852381706237793e-02) (35, 5.40804415941238403320e-02) (36, 9.00557115674018859863e-02) (37, 3.44863045029342174530e-03) (38, -6.34986981749534606934e-02) (39, 4.26791012287139892578e-02) (40, -6.84967562556266784668e-02) (41, -2.18566022813320159912e-02) (42, 3.40419225394725799561e-02) (43, -8.21734070777893066406e-02) (44, -6.69899806380271911621e-02) (45, -1.85290146619081497192e-02) (46, -6.35293722152709960938e-02) (47, 4.91836443543434143066e-02) (48, -6.14221999421715736389e-03) (49, -7.38528668880462646484e-02) (50, 7.81405717134475708008e-02) (51, -2.88626104593276977539e-02) (52, -5.08241690695285797119e-02) (53, -1.65250040590763092041e-02) (54, -9.16711166501045227051e-02) (55, 5.48308007419109344482e-02) (56, -4.82549220323562622070e-02) (57, -2.21638530492782592773e-02) (58, 7.92124047875404357910e-02) (59, 1.91818494349718093872e-02) (60, 1.84281468391418457031e-02) (61, -2.65209544450044631958e-02) (62, 1.90239530056715011597e-02) (63, -1.02926619350910186768e-01) (64, -4.16231080889701843262e-02) (65, 1.54476957395672798157e-02) (66, 6.10444471240043640137e-02) (67, -8.42028036713600158691e-02) (68, -5.95648027956485748291e-02) (69, 7.71249383687973022461e-02) (70, 7.84843564033508300781e-02) (71, -5.12074492871761322021e-02) (72, -1.88859887421131134033e-02) (73, -1.34209366515278816223e-02) (74, 5.73203573003411293030e-03) (75, -1.56275853514671325684e-02) (76, 9.53541249036788940430e-02) (77, -5.61253773048520088196e-03) (78, -3.15380878746509552002e-02) (79, -4.91805337369441986084e-02) (80, 5.79700656235218048096e-02) (0, -6.25887364149093627930e-02) (1, 5.11796846985816955566e-02) (2, -5.92196732759475708008e-02) (3, 1.58523079007863998413e-02) (4, 4.03616912662982940674e-02) (5, 6.55703470110893249512e-02) (6, 6.46966993808746337891e-02) (7, -5.43111227452754974365e-02) (8, 3.74941937625408172607e-02) (9, 5.36339497193694114685e-03) (10, 6.49670585989952087402e-02) (11, -6.79073035717010498047e-02) (12, -8.19425508379936218262e-02) (13, 7.14526027441024780273e-02) (14, -7.54568260163068771362e-03) (15, 5.58735206723213195801e-02) (16, 2.01059784740209579468e-02) (17, 2.08953768014907836914e-02) (18, 8.85183140635490417480e-02) (19, 3.75543907284736633301e-02) (20, 2.02312581241130828857e-02) (21, -3.26615869998931884766e-02) (22, -4.49399873614311218262e-02) (23, -8.36114287376403808594e-02) (24, 6.92227110266685485840e-02) (25, 3.44298779964447021484e-02) (26, -6.98786452412605285645e-02) (27, -7.66336265951395034790e-03) (28, -1.03397093713283538818e-01) (29, 5.79477846622467041016e-03) (30, -6.63970708847045898438e-02) (31, -5.72702474892139434814e-02) (32, -4.74662482738494873047e-02) (33, -3.18264998495578765869e-02) (34, 4.62646074593067169189e-02) (35, -5.90883679687976837158e-02) (36, -7.27443099021911621094e-02) (37, 5.64038716256618499756e-02) (38, -1.25895328819751739502e-02) (39, 1.00922301411628723145e-01) (40, -1.51868527755141258240e-02) (41, -3.36740240454673767090e-02) (42, -6.03797994554042816162e-02) (43, 4.05787443742156028748e-03) (44, -5.40034249424934387207e-02) (45, 3.63310724496841430664e-02) (46, -5.05456961691379547119e-02) (47, 9.24813151359558105469e-02) (48, -6.54594525694847106934e-02) (49, -3.01072299480438232422e-02) (50, -5.54113881662487983704e-03) (51, 7.41001367568969726562e-02) (52, 3.56847643852233886719e-02) (53, 6.24140277504920959473e-02) (54, 6.01297803223133087158e-02) (55, 1.37938745319843292236e-02) (56, -1.15597052499651908875e-02) (57, 1.20206095278263092041e-01) (58, 7.77979195117950439453e-02) (59, 1.29902334883809089661e-02) (60, -2.05972827970981597900e-02) (61, -3.00124324858188629150e-02) (62, 1.39695201069116592407e-02) (63, 1.06822408735752105713e-01) (64, -1.91628634929656982422e-02) (65, 3.56898009777069091797e-02) (66, 1.11832968890666961670e-01) (67, 8.95821452140808105469e-02) (68, -7.68473073840141296387e-02) (69, 4.97233346104621887207e-02) (70, 2.16406565159559249878e-02) (71, 6.69151619076728820801e-02) (72, 2.74869427084922790527e-02) (73, 1.33157163858413696289e-01) (74, 4.31891046464443206787e-02) (75, 1.59119158983230590820e-01) (76, -2.87298243492841720581e-02) (77, 3.13410349190235137939e-02) (78, 2.82020196318626403809e-02) (79, 1.21416591107845306396e-01) (80, -4.29399423301219940186e-02) (0, -6.62948191165924072266e-02) (1, 1.58306546509265899658e-02) (2, -2.62096673250198364258e-02) (3, 1.30904987454414367676e-01) (4, 2.36318632960319519043e-03) (5, 1.18524748831987380981e-02) (6, -9.53010865487158298492e-04) (7, 1.39469146728515625000e-01) (8, -1.20555702596902847290e-02) (9, 5.08089810609817504883e-02) (10, -1.80801246315240859985e-02) (11, -5.62620395794510841370e-03) (12, -3.29722650349140167236e-02) (13, -2.78519596904516220093e-02) (14, 3.72984483838081359863e-02) (15, 3.16432714462280273438e-02) (16, 9.80636570602655410767e-03) (17, -5.06885955110192298889e-03) (18, 5.00582121312618255615e-02) (19, 2.49087251722812652588e-02) (20, 2.01649777591228485107e-02) (21, 1.24191686511039733887e-01) (22, -3.38357500731945037842e-03) (23, 2.70597115159034729004e-02) (24, 4.98891696333885192871e-02) (25, 8.27968120574951171875e-02) (26, 1.45996687933802604675e-02) (27, 8.36461186408996582031e-02) (28, 1.20864845812320709229e-02) (29, -4.95805852115154266357e-02) (30, -1.00550968199968338013e-02) (31, 1.18128294125199317932e-02) (32, 3.39330509305000305176e-02) (33, 8.32023695111274719238e-02) (34, 3.89456376433372497559e-02) (35, -3.72347198426723480225e-02) (36, -2.17047967016696929932e-02) (37, -2.48895864933729171753e-02) (38, -3.95102575421333312988e-02) (39, -7.54329413175582885742e-02) (40, 4.58600698038935661316e-03) (41, -1.64674483239650726318e-02) (42, -4.13885600864887237549e-02) (43, 4.96846847236156463623e-02) (44, -1.24579453840851783752e-02) (45, -1.35532125830650329590e-01) (46, -1.58706195652484893799e-02) (47, -1.54287517070770263672e-02) (48, 2.94204638339579105377e-03) (49, 1.03875633794814348221e-03) (50, 1.19941798038780689240e-03) (51, -1.68971776962280273438e-01) (52, -4.71993675455451011658e-03) (53, -1.72060430049896240234e-01) (54, 2.84024961292743682861e-02) (55, -1.15264751017093658447e-01) (56, 6.24236650764942169189e-03) (57, -1.92793712019920349121e-01) (58, -6.05838224291801452637e-02) (59, -2.15017437934875488281e-01) (60, -6.18045311421155929565e-03) (61, -2.19407141208648681641e-01) (62, 2.24310830235481262207e-02) (63, -1.78895071148872375488e-01) (64, -5.85456229746341705322e-02) (65, -1.55513629317283630371e-01) (66, -1.02538736537098884583e-02) (67, -3.23285222053527832031e-01) (68, -5.06543479859828948975e-02) (69, -3.89612734317779541016e-01) (70, -6.39689415693283081055e-02) (71, -4.23568755388259887695e-01) (72, 9.82491951435804367065e-03) (73, -3.37478935718536376953e-01) (74, -1.12258587032556533813e-02) (75, -4.92531925439834594727e-01) (76, -7.23890075460076332092e-03) (77, -5.16665935516357421875e-01) (78, 5.85168898105621337891e-02) (79, -6.16044640541076660156e-01) (80, -7.56830051541328430176e-02) (0, 9.28831323981285095215e-02) (1, -8.27355235815048217773e-02) (2, 7.11729601025581359863e-02) (3, -9.23078954219818115234e-02) (4, 3.25711979530751705170e-03) (5, -4.06892970204353332520e-02) (6, 6.06246590614318847656e-02) (7, 2.84734871238470077515e-02) (8, -1.09924357384443283081e-02) (9, 8.30387249588966369629e-02) (10, 6.96352943778038024902e-02) (11, 2.98589430749416351318e-02) (12, -1.02654993534088134766e-02) (13, -2.21280679106712341309e-02) (14, 3.55239547789096832275e-02) (15, -4.43957895040512084961e-02) (16, -6.16605319082736968994e-02) (17, 7.00121372938156127930e-02) (18, -6.34892936795949935913e-03) (19, -5.36315068602561950684e-02) (20, -6.34198263287544250488e-02) (21, 1.56579948961734771729e-02) (22, 5.65156862139701843262e-02) (23, 9.32398736476898193359e-02) (24, 1.43764391541481018066e-02) (25, -9.32757630944252014160e-02) (26, 4.92304302752017974854e-02) (27, 8.58217850327491760254e-02) (28, 8.58215466141700744629e-02) (29, 6.55795782804489135742e-02) (30, -8.43330174684524536133e-02) (31, 8.54929462075233459473e-02) (32, 7.92224705219268798828e-02) (33, 9.44978296756744384766e-02) (34, 9.04569700360298156738e-02) (35, -1.14685790613293647766e-02) (36, -4.91516217589378356934e-02) (37, 5.67775964736938476562e-02) (38, -8.59302729368209838867e-02) (39, 4.61151152849197387695e-02) (40, 3.61692979931831359863e-02) (41, 9.04743224382400512695e-02) (42, -2.68944147974252700806e-02) (43, -6.69642463326454162598e-02) (44, -3.44680622220039367676e-02) (45, -8.46158117055892944336e-02) (46, -1.33108729496598243713e-02) (47, 9.44752991199493408203e-03) (48, 8.37230831384658813477e-02) (49, 8.54540914297103881836e-02) (50, 5.48468083143234252930e-02) (51, -7.41940662264823913574e-02) (52, -9.11366834770888090134e-04) (53, 1.67789477854967117310e-02) (54, -8.18997994065284729004e-02) (55, -8.08338969945907592773e-02) (56, 2.17121131718158721924e-02) (57, 7.19869211316108703613e-02) (58, -9.58208739757537841797e-02) (59, 1.24571956694126129150e-02) (60, 3.74268740415573120117e-02) (61, -7.66030922532081604004e-02) (62, -2.40674125961959362030e-03) (63, 1.97124611586332321167e-02) (64, -8.16246569156646728516e-02) (65, -9.51830577105283737183e-03) (66, -9.19649451971054077148e-02) (67, -2.88471523672342300415e-02) (68, -5.18246777355670928955e-02) (69, -7.52854868769645690918e-02) (70, -8.16272571682929992676e-02) (71, 8.65586474537849426270e-02) (72, -8.28050822019577026367e-02) (73, -7.20484135672450065613e-03) (74, -7.65628516674041748047e-02) (75, -1.67989842593669891357e-02) (76, 1.11996382474899291992e-02) (77, 8.04667361080646514893e-03) (78, 9.70049053430557250977e-02) (79, -6.43108785152435302734e-03) (80, -4.02193327317945659161e-05) (81, 4.16389614343643188477e-01) (82, -1.73348382115364074707e-01) (83, -2.45496109127998352051e-01) (84, -1.39601737260818481445e-01) (85, 8.67552459239959716797e-02) (86, -1.92451566457748413086e-01) (87, 9.75574553012847900391e-01) (88, -2.71631265059113502502e-03) (89, -7.37422332167625427246e-02) (81, -6.65594032034277915955e-03) (82, -2.78555694967508316040e-02) (83, -3.92447449266910552979e-02) (84, -6.42521306872367858887e-02) (85, 7.98791125416755676270e-02) (86, -2.19649001955986022949e-02) (87, -5.13059161603450775146e-02) (88, 9.77020412683486938477e-02) (89, 4.35784086585044860840e-02) (81, 2.01701000332832336426e-01) (82, -1.59101724624633789062e-01) (83, 9.31518897414207458496e-03) (84, 7.26021826267242431641e-03) (85, -4.44000512361526489258e-02) (86, -7.89564847946166992188e-02) (87, 4.22531396150588989258e-01) (88, 2.07908041775226593018e-02) (89, 6.87734782695770263672e-02) (81, 1.37008771300315856934e-01) (82, -5.70263117551803588867e-02) (83, -8.11489522457122802734e-02) (84, 3.66787016391754150391e-02) (85, -8.90910159796476364136e-04) (86, -1.38910591602325439453e-01) (87, 4.58666115999221801758e-01) (88, 4.65143285691738128662e-02) (89, 4.54030297696590423584e-02) (90, -1.07303190231323242188e+00) (91, 3.17780002951622009277e-02) (92, -4.56784337759017944336e-01) (93, -4.66956317424774169922e-01) (94, -3.20695713162422180176e-02) 
