FANN_FLO_2.1
num_layers=4
learning_rate=0.700000
connection_rate=1.000000
network_type=0
learning_momentum=0.600000
training_algorithm=0
train_error_function=1
train_stop_function=0
cascade_output_change_fraction=0.010000
quickprop_decay=-0.000100
quickprop_mu=1.750000
rprop_increase_factor=1.200000
rprop_decrease_factor=0.500000
rprop_delta_min=0.000000
rprop_delta_max=50.000000
rprop_delta_zero=0.100000
cascade_output_stagnation_epochs=12
cascade_candidate_change_fraction=0.010000
cascade_candidate_stagnation_epochs=12
cascade_max_out_epochs=150
cascade_min_out_epochs=50
cascade_max_cand_epochs=150
cascade_min_cand_epochs=50
cascade_num_candidate_groups=2
bit_fail_limit=3.49999994039535522461e-01
cascade_candidate_limit=1.00000000000000000000e+03
cascade_weight_multiplier=4.00000005960464477539e-01
cascade_activation_functions_count=10
cascade_activation_functions=3 5 7 8 10 11 14 15 16 17 
cascade_activation_steepnesses_count=4
cascade_activation_steepnesses=2.50000000000000000000e-01 5.00000000000000000000e-01 7.50000000000000000000e-01 1.00000000000000000000e+00 
layer_sizes=121 13 7 2 
scale_included=0
neurons (num_inputs, activation_function, activation_steepness)=(0, 0, 0.00000000000000000000e+00) (0, 0, 0.00000000000000000000e+00) (0, 0, 0.00000000000000000000e+00) (0, 0, 0.00000000000000000000e+00) (0, 0, 0.00000000000000000000e+00) (0, 0, 0.00000000000000000000e+00) (0, 0, 0.00000000000000000000e+00) (0, 0, 0.00000000000000000000e+00) (0, 0, 0.00000000000000000000e+00) (0, 0, 0.00000000000000000000e+00) (0, 0, 0.00000000000000000000e+00) (0, 0, 0.00000000000000000000e+00) (0, 0, 0.00000000000000000000e+00) (0, 0, 0.00000000000000000000e+00) (0, 0, 0.00000000000000000000e+00) (0, 0, 0.00000000000000000000e+00) (0, 0, 0.00000000000000000000e+00) (0, 0, 0.00000000000000000000e+00) (0, 0, 0.00000000000000000000e+00) (0, 0, 0.00000000000000000000e+00) (0, 0, 0.00000000000000000000e+00) (0, 0, 0.00000000000000000000e+00) (0, 0, 0.00000000000000000000e+00) (0, 0, 0.00000000000000000000e+00) (0, 0, 0.00000000000000000000e+00) (0, 0, 0.00000000000000000000e+00) (0, 0, 0.00000000000000000000e+00) (0, 0, 0.00000000000000000000e+00) (0, 0, 0.00000000000000000000e+00) (0, 0, 0.00000000000000000000e+00) (0, 0, 0.00000000000000000000e+00) (0, 0, 0.00000000000000000000e+00) (0, 0, 0.00000000000000000000e+00) (0, 0, 0.00000000000000000000e+00) (0, 0, 0.00000000000000000000e+00) (0, 0, 0.00000000000000000000e+00) (0, 0, 0.00000000000000000000e+00) (0, 0, 0.00000000000000000000e+00) (0, 0, 0.00000000000000000000e+00) (0, 0, 0.00000000000000000000e+00) (0, 0, 0.00000000000000000000e+00) (0, 0, 0.00000000000000000000e+00) (0, 0, 0.00000000000000000000e+00) (0, 0, 0.00000000000000000000e+00) (0, 0, 0.00000000000000000000e+00) (0, 0, 0.00000000000000000000e+00) (0, 0, 0.00000000000000000000e+00) (0, 0, 0.00000000000000000000e+00) (0, 0, 0.00000000000000000000e+00) (0, 0, 0.00000000000000000000e+00) (0, 0, 0.00000000000000000000e+00) (0, 0, 0.00000000000000000000e+00) (0, 0, 0.00000000000000000000e+00) (0, 0, 0.00000000000000000000e+00) (0, 0, 0.00000000000000000000e+00) (0, 0, 0.00000000000000000000e+00) (0, 0, 0.00000000000000000000e+00) (0, 0, 0.00000000000000000000e+00) (0, 0, 0.00000000000000000000e+00) (0, 0, 0.00000000000000000000e+00) (0, 0, 0.00000000000000000000e+00) (0, 0, 0.00000000000000000000e+00) (0, 0, 0.00000000000000000000e+00) (0, 0, 0.00000000000000000000e+00) (0, 0, 0.00000000000000000000e+00) (0, 0, 0.00000000000000000000e+00) (0, 0, 0.00000000000000000000e+00) (0, 0, 0.00000000000000000000e+00) (0, 0, 0.00000000000000000000e+00) (0, 0, 0.00000000000000000000e+00) (0, 0, 0.00000000000000000000e+00) (0, 0, 0.00000000000000000000e+00) (0, 0, 0.00000000000000000000e+00) (0, 0, 0.00000000000000000000e+00) (0, 0, 0.00000000000000000000e+00) (0, 0, 0.00000000000000000000e+00) (0, 0, 0.00000000000000000000e+00) (0, 0, 0.00000000000000000000e+00) (0, 0, 0.00000000000000000000e+00) (0, 0, 0.00000000000000000000e+00) (0, 0, 0.00000000000000000000e+00) (0, 0, 0.00000000000000000000e+00) (0, 0, 0.00000000000000000000e+00) (0, 0, 0.00000000000000000000e+00) (0, 0, 0.00000000000000000000e+00) (0, 0, 0.00000000000000000000e+00) (0, 0, 0.00000000000000000000e+00) (0, 0, 0.00000000000000000000e+00) (0, 0, 0.00000000000000000000e+00) (0, 0, 0.00000000000000000000e+00) (0, 0, 0.00000000000000000000e+00) (0, 0, 0.00000000000000000000e+00) (0, 0, 0.00000000000000000000e+00) (0, 0, 0.00000000000000000000e+00) (0, 0, 0.00000000000000000000e+00) (0, 0, 0.00000000000000000000e+00) (0, 0, 0.00000000000000000000e+00) (0, 0, 0.00000000000000000000e+00) (0, 0, 0.00000000000000000000e+00) (0, 0, 0.00000000000000000000e+00) (0, 0, 0.00000000000000000000e+00) (0, 0, 0.00000000000000000000e+00) (0, 0, 0.00000000000000000000e+00) (0, 0, 0.00000000000000000000e+00) (0, 0, 0.00000000000000000000e+00) (0, 0, 0.00000000000000000000e+00) (0, 0, 0.00000000000000000000e+00) (0, 0, 0.00000000000000000000e+00) (0, 0, 0.00000000000000000000e+00) (0, 0, 0.00000000000000000000e+00) (0, 0, 0.00000000000000000000e+00) (0, 0, 0.00000000000000000000e+00) (0, 0, 0.00000000000000000000e+00) (0, 0, 0.00000000000000000000e+00) (0, 0, 0.00000000000000000000e+00) (0, 0, 0.00000000000000000000e+00) (0, 0, 0.00000000000000000000e+00) (0, 0, 0.00000000000000000000e+00) (0, 0, 0.00000000000000000000e+00) (0, 0, 0.00000000000000000000e+00) (0, 0, 0.00000000000000000000e+00) (121, 15, 5.00000000000000000000e-01) (121, 15, 5.00000000000000000000e-01) (121, 15, 5.00000000000000000000e-01) (121, 15, 5.00000000000000000000e-01) (121, 15, 5.00000000000000000000e-01) (121, 15, 5.00000000000000000000e-01) (121, 15, 5.00000000000000000000e-01) (121, 15, 5.00000000000000000000e-01) (121, 15, 5.00000000000000000000e-01) (121, 15, 5.00000000000000000000e-01) (121, 15, 5.00000000000000000000e-01) (121, 15, 5.00000000000000000000e-01) (0, 15, 0.00000000000000000000e+00) (13, 15, 5.00000000000000000000e-01) (13, 15, 5.00000000000000000000e-01) (13, 15, 5.00000000000000000000e-01) (13, 15, 5.00000000000000000000e-01) (13, 15, 5.00000000000000000000e-01) (13, 15, 5.00000000000000000000e-01) (0, 15, 0.00000000000000000000e+00) (7, 0, 5.00000000000000000000e-01) (0, 0, 0.00000000000000000000e+00) 
connections (connected_to_neuron, weight)=(0, -4.10505244508385658264e-03) (1, 2.93379984796047210693e-02) (2, -2.60167010128498077393e-02) (3, -6.78126886487007141113e-02) (4, 5.40030449628829956055e-02) (5, -8.65821465849876403809e-02) (6, 9.86802577972412109375e-02) (7, 1.81288197636604309082e-02) (8, -3.73509153723716735840e-02) (9, 7.08676129579544067383e-02) (10, 4.45223301649093627930e-02) (11, -6.09676092863082885742e-02) (12, 8.42639878392219543457e-02) (13, 7.55937024950981140137e-02) (14, 9.25805792212486267090e-02) (15, -7.46261253952980041504e-02) (16, 8.83620381355285644531e-02) (17, -2.01098602265119552612e-02) (18, -4.64809220284223556519e-03) (19, 3.75000201165676116943e-02) (20, -5.66800683736801147461e-02) (21, 1.00976385176181793213e-01) (22, -1.08520209789276123047e-01) (23, 4.19323556125164031982e-02) (24, -8.90697166323661804199e-02) (25, -1.07397578656673431396e-01) (26, -6.99592530727386474609e-02) (27, 1.01510621607303619385e-01) (28, 7.68696218729019165039e-02) (29, 8.10497626662254333496e-03) (30, 3.83881181478500366211e-02) (31, -3.39552015066146850586e-02) (32, -6.13867305219173431396e-02) (33, -8.32395628094673156738e-02) (34, -6.10565021634101867676e-03) (35, -9.97989252209663391113e-02) (36, -6.49960488080978393555e-02) (37, -1.58619433641433715820e-02) (38, 2.37121265381574630737e-02) (39, 2.94445361942052841187e-03) (40, -5.71899153292179107666e-02) (41, -2.61182114481925964355e-02) (42, 4.77881580591201782227e-02) (43, -7.52009525895118713379e-02) (44, -4.87325787544250488281e-02) (45, 4.66046966612339019775e-02) (46, -5.28459958732128143311e-02) (47, -5.36353476345539093018e-02) (48, -6.67097866535186767578e-02) (49, 3.47889177501201629639e-02) (50, -1.08806155622005462646e-01) (51, -1.62095334380865097046e-02) (52, 3.18458750844001770020e-02) (53, -1.09252996742725372314e-01) (54, -6.65122270584106445312e-02) (55, 3.72972562909126281738e-02) (56, -1.06562644243240356445e-01) (57, -2.82922647893428802490e-02) (58, 2.64481659978628158569e-02) (59, 8.49230810999870300293e-02) (60, 8.84925052523612976074e-02) (61, -3.17234471440315246582e-02) (62, -3.33135053515434265137e-02) (63, -6.38209655880928039551e-02) (64, -2.10508275777101516724e-02) (65, 7.49926045536994934082e-02) (66, -5.40532693266868591309e-02) (67, 1.08645288273692131042e-02) (68, -2.35074833035469055176e-02) (69, 7.96058848500251770020e-02) (70, -9.39287841320037841797e-02) (71, 4.32662218809127807617e-02) (72, -3.60218957066535949707e-02) (73, 3.80422472953796386719e-02) (74, -1.11373603343963623047e-01) (75, 2.61183753609657287598e-02) (76, -1.36560145765542984009e-02) (77, -4.62428294122219085693e-02) (78, 8.39136093854904174805e-02) (79, 1.70468427240848541260e-02) (80, -9.13671553134918212891e-02) (81, 8.70295614004135131836e-02) (82, -1.07250072062015533447e-01) (83, 5.88556304574012756348e-02) (84, 9.02172401547431945801e-02) (85, -8.03393125534057617188e-02) (86, 1.43638970330357551575e-02) (87, 9.66054871678352355957e-02) (88, -1.00299026817083358765e-02) (89, -3.43336984515190124512e-02) (90, 9.48955193161964416504e-02) (91, -3.11990715563297271729e-02) (92, 4.97167855501174926758e-02) (93, -2.43618395179510116577e-02) (94, 1.67614361271262168884e-03) (95, -5.53249642252922058105e-02) (96, -3.48083637654781341553e-02) (97, 4.32859808206558227539e-02) (98, 6.89829662442207336426e-02) (99, 5.68752512335777282715e-02) (100, 1.34923094883561134338e-02) (101, -1.09554059803485870361e-01) (102, 1.57805010676383972168e-02) (103, 7.50829502940177917480e-02) (104, 5.38861230015754699707e-02) (105, 2.06619426608085632324e-02) (106, -3.58931929804384708405e-03) (107, -4.20181676745414733887e-02) (108, 9.12340357899665832520e-02) (109, -1.82342454791069030762e-02) (110, -1.10471457242965698242e-01) (111, -8.27252790331840515137e-02) (112, -4.50810901820659637451e-02) (113, -1.00954189896583557129e-01) (114, 9.41546857357025146484e-02) (115, -5.64663484692573547363e-02) (116, -6.38452097773551940918e-02) (117, 2.70882062613964080811e-02) (118, -5.76629266142845153809e-02) (119, 3.90459410846233367920e-02) (120, -2.13929831981658935547e-01) (0, -6.36490061879158020020e-02) (1, -6.28980174660682678223e-02) (2, 6.77333995699882507324e-02) (3, 5.72210596874356269836e-03) (4, 5.43362237513065338135e-02) (5, -6.76557570695877075195e-02) (6, 6.46474808454513549805e-02) (7, 1.42430597916245460510e-02) (8, -7.81619548797607421875e-02) (9, 1.52108157053589820862e-02) (10, -5.62095716595649719238e-02) (11, -6.66850879788398742676e-02) (12, -7.53242522478103637695e-02) (13, -6.40149489045143127441e-02) (14, -9.11910757422447204590e-02) (15, 3.89767251908779144287e-02) (16, 4.08988073468208312988e-02) (17, -1.10074719414114952087e-02) (18, 2.38743275403976440430e-02) (19, -7.08377882838249206543e-02) (20, 1.39572017360478639603e-03) (21, 3.47920209169387817383e-02) (22, -6.94057065993547439575e-03) (23, 2.39298064261674880981e-02) (24, 2.25893799215555191040e-02) (25, 4.60989177227020263672e-02) (26, 8.41147974133491516113e-02) (27, -5.67300096154212951660e-02) (28, 8.51600393652915954590e-02) (29, 4.77159023284912109375e-02) (30, -5.12558147311210632324e-02) (31, -8.53990614414215087891e-02) (32, -1.02637395262718200684e-01) (33, -7.64648318290710449219e-02) (34, 1.79744213819503784180e-02) (35, 6.31352588534355163574e-02) (36, -3.67220938205718994141e-02) (37, -2.89746280759572982788e-02) (38, -1.50838028639554977417e-02) (39, -7.27890385314822196960e-03) (40, 8.29303860664367675781e-02) (41, 3.63093391060829162598e-02) (42, 3.39740738272666931152e-02) (43, -1.00059002637863159180e-01) (44, 7.51618072390556335449e-02) (45, 5.09417578577995300293e-02) (46, 3.36688570678234100342e-02) (47, 2.15086843818426132202e-02) (48, -5.15811890363693237305e-02) (49, -5.11097796261310577393e-02) (50, 5.31695298850536346436e-02) (51, 5.84653653204441070557e-02) (52, 7.93786495923995971680e-02) (53, -4.89970147609710693359e-02) (54, -8.65148939192295074463e-03) (55, -5.34264696761965751648e-03) (56, -1.00930951535701751709e-01) (57, -1.54404649510979652405e-02) (58, 2.80715357512235641479e-02) (59, 8.77435505390167236328e-02) (60, -5.83258867263793945312e-02) (61, 6.82467371225357055664e-02) (62, -9.42699164152145385742e-02) (63, -5.14608547091484069824e-02) (64, 8.02938565611839294434e-02) (65, 2.23599188029766082764e-02) (66, -7.85358995199203491211e-02) (67, -5.82712367177009582520e-02) (68, -1.03372663259506225586e-01) (69, 1.63041576743125915527e-02) (70, 2.40630451589822769165e-02) (71, 7.90517106652259826660e-02) (72, -3.72001230716705322266e-02) (73, -5.51617927849292755127e-02) (74, 7.90434032678604125977e-02) (75, -5.17525263130664825439e-02) (76, 8.67133587598800659180e-02) (77, 1.09535707160830497742e-02) (78, 8.03097486495971679688e-02) (79, -6.62938281893730163574e-02) (80, 5.96762336790561676025e-02) (81, 4.41853813827037811279e-02) (82, 7.99813866615295410156e-02) (83, 3.61424200236797332764e-02) (84, 1.06097027659416198730e-01) (85, -3.73444482684135437012e-02) (86, -7.19024688005447387695e-02) (87, -8.37499201297760009766e-02) (88, 3.89433205127716064453e-02) (89, 5.62353208661079406738e-02) (90, -8.47841277718544006348e-02) (91, 7.32372254133224487305e-02) (92, 2.59408503770828247070e-02) (93, -6.75549283623695373535e-02) (94, -8.36943387985229492188e-02) (95, 1.20830442756414413452e-02) (96, 6.64379447698593139648e-02) (97, -6.82563483715057373047e-02) (98, 5.43806254863739013672e-02) (99, 7.49559998512268066406e-02) (100, 4.00284416973590850830e-02) (101, -1.77709739655256271362e-02) (102, 6.60387128591537475586e-02) (103, -9.63498055934906005859e-02) (104, 3.69383990764617919922e-02) (105, 5.73639720678329467773e-02) (106, -5.34852705895900726318e-02) (107, 3.54055874049663543701e-02) (108, -1.91513989120721817017e-02) (109, -7.45588168501853942871e-02) (110, 7.51055106520652770996e-02) (111, -4.67031188309192657471e-02) (112, 6.31684511899948120117e-02) (113, 6.61624372005462646484e-02) (114, 1.02483898401260375977e-01) (115, 6.31991773843765258789e-02) (116, -5.86322993040084838867e-02) (117, -5.61050437390804290771e-02) (118, 7.40211978554725646973e-02) (119, -1.05970881879329681396e-01) (120, -1.06934003531932830811e-01) (0, 7.30764195322990417480e-02) (1, 9.62335541844367980957e-02) (2, 4.08888198435306549072e-02) (3, 9.82392653822898864746e-02) (4, -8.35766047239303588867e-02) (5, -3.33243235945701599121e-02) (6, 5.74379004538059234619e-02) (7, -4.07646708190441131592e-02) (8, -6.49669170379638671875e-02) (9, 2.51305531710386276245e-02) (10, -8.37918221950531005859e-02) (11, 3.15580926835536956787e-02) (12, -1.60503778606653213501e-02) (13, -6.89076259732246398926e-02) (14, -1.69251896440982818604e-02) (15, -6.59656301140785217285e-02) (16, -2.44519431143999099731e-02) (17, -6.67091980576515197754e-02) (18, 7.67966965213418006897e-03) (19, -3.99746058974415063858e-04) (20, -7.64104276895523071289e-02) (21, 5.37185966968536376953e-02) (22, -4.05322574079036712646e-02) (23, -9.47539955377578735352e-02) (24, 4.90418300032615661621e-02) (25, -7.54580348730087280273e-02) (26, -3.76826673746109008789e-02) (27, 8.57029259204864501953e-02) (28, 9.55699309706687927246e-02) (29, -2.77970097959041595459e-02) (30, 9.21914130449295043945e-02) (31, 6.28420338034629821777e-02) (32, -3.05042155086994171143e-02) (33, 3.84478345513343811035e-02) (34, 7.27878734469413757324e-02) (35, -4.62662009522318840027e-03) (36, -8.90249386429786682129e-02) (37, 2.59528942406177520752e-02) (38, 6.40631020069122314453e-02) (39, -4.76805269718170166016e-02) (40, -4.90711480379104614258e-02) (41, 8.46218094229698181152e-02) (42, 9.07291397452354431152e-02) (43, 3.84109541773796081543e-02) (44, -8.74301716685295104980e-02) (45, -1.88582129776477813721e-02) (46, 7.54688084125518798828e-02) (47, -1.10554248094558715820e-02) (48, 2.23633479326963424683e-02) (49, -1.75311043858528137207e-02) (50, 8.67291912436485290527e-02) (51, 5.43276257812976837158e-02) (52, -6.36849924921989440918e-02) (53, -5.71169108152389526367e-02) (54, 6.85827136039733886719e-02) (55, 8.46472531557083129883e-02) (56, -4.37837801873683929443e-02) (57, -5.96369132399559020996e-02) (58, 5.91517053544521331787e-02) (59, -6.42515793442726135254e-02) (60, 2.26511210203170776367e-02) (61, 5.54775223135948181152e-02) (62, -1.10618874430656433105e-01) (63, -9.73801016807556152344e-02) (64, -1.10681671649217605591e-02) (65, 4.22800295054912567139e-02) (66, 8.99270735681056976318e-03) (67, 5.93330150877591222525e-05) (68, -4.62945103645324707031e-02) (69, -1.56256519258022308350e-02) (70, 5.06632998585700988770e-02) (71, -8.71627684682607650757e-03) (72, -1.91474054008722305298e-02) (73, 3.47807556390762329102e-02) (74, -8.62692445516586303711e-02) (75, 5.52054727450013160706e-03) (76, -7.21495226025581359863e-02) (77, 7.12624937295913696289e-02) (78, -9.29978042840957641602e-02) (79, 4.51759062707424163818e-02) (80, -6.26366585493087768555e-02) (81, -9.34017300605773925781e-02) (82, -9.62996506132185459137e-04) (83, -4.18074578046798706055e-02) (84, -3.72695215046405792236e-02) (85, -3.16219553351402282715e-02) (86, -7.09666609764099121094e-02) (87, 3.25490944087505340576e-02) (88, 1.48194096982479095459e-02) (89, -1.13510690629482269287e-01) (90, 8.21765884757041931152e-02) (91, -7.19062834978103637695e-02) (92, 3.70195843279361724854e-02) (93, 8.59896317124366760254e-02) (94, -6.08458891510963439941e-02) (95, -7.31929764151573181152e-02) (96, 4.30277958512306213379e-02) (97, 5.14193437993526458740e-02) (98, 2.84792557358741760254e-02) (99, -8.79518166184425354004e-02) (100, -6.44789710640907287598e-02) (101, -1.66617687791585922241e-02) (102, 1.90316978842020034790e-02) (103, 2.78183799237012863159e-02) (104, -7.02911242842674255371e-02) (105, 4.90358173847198486328e-02) (106, -6.47341758012771606445e-02) (107, -4.20910380780696868896e-02) (108, 3.70695888996124267578e-02) (109, -4.85206507146358489990e-02) (110, -9.07552987337112426758e-02) (111, 9.18678417801856994629e-02) (112, -4.35518175363540649414e-02) (113, 1.57675500959157943726e-02) (114, -3.18634994328022003174e-02) (115, 1.75958126783370971680e-02) (116, -1.08376957476139068604e-01) (117, 1.58731285482645034790e-02) (118, -4.18211184442043304443e-02) (119, 8.55343043804168701172e-03) (120, -2.36225754022598266602e-01) (0, -9.86040756106376647949e-02) (1, 4.93507422506809234619e-02) (2, -3.83006432093679904938e-03) (3, -1.12267874181270599365e-01) (4, -9.40119177103042602539e-02) (5, 4.46746572852134704590e-02) (6, 3.11909485608339309692e-02) (7, 5.66768571734428405762e-02) (8, -4.63640317320823669434e-03) (9, 4.35261540114879608154e-02) (10, -1.06903515756130218506e-01) (11, 1.01584590971469879150e-01) (12, -3.70912514626979827881e-02) (13, 2.16740346513688564301e-03) (14, -4.52187843620777130127e-02) (15, -8.76073837280273437500e-02) (16, 3.49725075066089630127e-02) (17, 3.70023660361766815186e-02) (18, 4.97785918414592742920e-02) (19, 8.10042768716812133789e-02) (20, 7.09863752126693725586e-02) (21, 4.20943684875965118408e-02) (22, -7.28891342878341674805e-02) (23, 1.20403980836272239685e-02) (24, -8.95400568842887878418e-02) (25, 3.71438488364219665527e-02) (26, 2.95082256197929382324e-02) (27, 2.66697611659765243530e-02) (28, 7.58324190974235534668e-02) (29, -3.55756841599941253662e-02) (30, -5.14023341238498687744e-02) (31, 9.15959179401397705078e-02) (32, -6.01251572370529174805e-02) (33, 2.75279432535171508789e-02) (34, 9.90193039178848266602e-02) (35, -4.07146848738193511963e-02) (36, -4.61953543126583099365e-02) (37, 6.11869283020496368408e-02) (38, -6.77598416805267333984e-02) (39, 2.98114288598299026489e-02) (40, 3.85436043143272399902e-02) (41, -5.63836880028247833252e-02) (42, 1.08285099267959594727e-02) (43, 1.01145714521408081055e-01) (44, 7.48683884739875793457e-02) (45, 4.39613014459609985352e-02) (46, -7.48222246766090393066e-02) (47, 3.18472199141979217529e-02) (48, -4.19151559472084045410e-02) (49, 9.14028659462928771973e-02) (50, 2.23648231476545333862e-02) (51, -9.46876928210258483887e-02) (52, 4.62782308459281921387e-02) (53, 5.33916093409061431885e-02) (54, -7.77385663241147994995e-03) (55, 7.94084444642066955566e-02) (56, -1.18196578696370124817e-02) (57, -1.04317650198936462402e-01) (58, 2.98735853284597396851e-02) (59, -4.03903536498546600342e-02) (60, -6.73211365938186645508e-02) (61, 8.84216055274009704590e-02) (62, -4.95361089706420898438e-02) (63, -5.58368302881717681885e-02) (64, 3.38248200714588165283e-02) (65, -5.25629930198192596436e-02) (66, -2.62138955295085906982e-02) (67, -8.78096073865890502930e-02) (68, 9.33775082230567932129e-02) (69, -2.46332846581935882568e-02) (70, 5.86887598037719726562e-02) (71, 1.06999150011688470840e-03) (72, -1.30760446190834045410e-02) (73, 2.84901726990938186646e-03) (74, -9.93557926267385482788e-03) (75, -7.12837874889373779297e-02) (76, -4.41874153912067413330e-02) (77, 9.61799267679452896118e-03) (78, 2.60661877691745758057e-02) (79, 2.97198724001646041870e-02) (80, -2.79878848232328891754e-03) (81, -8.72960016131401062012e-02) (82, 5.01174107193946838379e-02) (83, 1.45135909318923950195e-01) (84, 2.89726424962282180786e-02) (85, -2.77770068496465682983e-02) (86, 1.21852256357669830322e-01) (87, 7.87253156304359436035e-02) (88, -1.81437116116285324097e-02) (89, 4.37693037092685699463e-02) (90, -1.01125203073024749756e-01) (91, 3.86152751743793487549e-02) (92, 3.25958952307701110840e-02) (93, -9.17175412178039550781e-02) (94, 9.23260673880577087402e-02) (95, -3.23026850819587707520e-02) (96, -8.65716859698295593262e-02) (97, -3.10869943350553512573e-02) (98, -2.49665509909391403198e-02) (99, 6.30447715520858764648e-02) (100, 7.51111358404159545898e-02) (101, 1.30782857537269592285e-01) (102, -8.06727185845375061035e-02) (103, -2.59521957486867904663e-02) (104, 1.60210542380809783936e-02) (105, -3.68615277111530303955e-02) (106, 1.38484267517924308777e-02) (107, 6.41109198331832885742e-02) (108, 2.51679215580224990845e-02) (109, -6.85502588748931884766e-02) (110, -1.08808400109410285950e-02) (111, 7.33523592352867126465e-02) (112, -4.14915867149829864502e-02) (113, 1.38085186481475830078e-01) (114, 6.80212974548339843750e-02) (115, -8.90090912580490112305e-02) (116, -1.84835493564605712891e-03) (117, 3.80870737135410308838e-02) (118, -1.12987287342548370361e-01) (119, 7.27677345275878906250e-02) (120, 3.97573441267013549805e-01) (0, -2.49831285327672958374e-02) (1, -7.85999670624732971191e-02) (2, 3.44266481697559356689e-02) (3, 2.52867839299142360687e-03) (4, -5.04519008100032806396e-02) (5, 5.47234639525413513184e-02) (6, 3.52025963366031646729e-02) (7, -5.34629449248313903809e-02) (8, 8.12505185604095458984e-02) (9, 1.75961442291736602783e-02) (10, -2.49931570142507553101e-02) (11, 6.31384104490280151367e-02) (12, 5.59745654463768005371e-02) (13, -1.98260713368654251099e-02) (14, 1.29275903105735778809e-01) (15, -6.07049912214279174805e-02) (16, -1.14081753417849540710e-02) (17, 4.36832979321479797363e-02) (18, 8.32695364952087402344e-02) (19, 2.71607283502817153931e-02) (20, 8.07163715362548828125e-02) (21, 7.68308639526367187500e-02) (22, -2.58253477513790130615e-02) (23, 6.52575790882110595703e-02) (24, 6.31016939878463745117e-02) (25, -1.30788814276456832886e-02) (26, 1.09188757836818695068e-01) (27, 2.07342859357595443726e-02) (28, -1.98825709521770477295e-02) (29, 2.66644060611724853516e-02) (30, 6.82913362979888916016e-02) (31, -4.06350083649158477783e-02) (32, 6.79521337151527404785e-02) (33, -5.05895912647247314453e-03) (34, -4.04777862131595611572e-02) (35, 9.79702323675155639648e-02) (36, -6.67929425835609436035e-02) (37, -2.07558274269104003906e-02) (38, 2.09393367171287536621e-01) (39, 8.97586271166801452637e-02) (40, -3.38940881192684173584e-02) (41, 9.65926796197891235352e-02) (42, 1.76716968417167663574e-02) (43, 1.16953505203127861023e-02) (44, 6.59513622522354125977e-02) (45, 2.54191085696220397949e-03) (46, 6.85158604755997657776e-03) (47, 1.64636403322219848633e-01) (48, 8.97173807024955749512e-02) (49, 7.64332385733723640442e-03) (50, 1.39570757746696472168e-01) (51, 5.69993956014513969421e-03) (52, -1.94069426506757736206e-02) (53, 2.21544310450553894043e-01) (54, 9.33122336864471435547e-02) (55, -2.88694519549608230591e-02) (56, 1.59100964665412902832e-01) (57, 1.58761106431484222412e-02) (58, -9.52761620283126831055e-03) (59, 1.50380089879035949707e-01) (60, 4.37093339860439300537e-02) (61, 6.95900851860642433167e-03) (62, 2.14228466153144836426e-01) (63, -9.57165360450744628906e-02) (64, -2.04239618033170700073e-02) (65, 1.79574325680732727051e-01) (66, -1.64857599884271621704e-02) (67, -2.37716571427881717682e-03) (68, 2.75783568620681762695e-01) (69, -3.35691310465335845947e-02) (70, 9.01529099792242050171e-03) (71, 2.87514090538024902344e-01) (72, 2.57369428873062133789e-02) (73, 3.12695987522602081299e-02) (74, 2.54350066184997558594e-01) (75, 4.67166379094123840332e-02) (76, 1.11187705770134925842e-02) (77, 2.57717937231063842773e-01) (78, -4.38213050365447998047e-02) (79, 2.36732568591833114624e-02) (80, 2.42438599467277526855e-01) (81, 3.12918312847614288330e-02) (82, -5.24011533707380294800e-03) (83, 2.01089873909950256348e-01) (84, -2.11475305259227752686e-02) (85, 5.34796975553035736084e-02) (86, 3.20892810821533203125e-01) (87, 5.51156476140022277832e-02) (88, 3.39808575809001922607e-02) (89, 3.60424846410751342773e-01) (90, -8.50126072764396667480e-02) (91, 5.48412911593914031982e-02) (92, 3.67006033658981323242e-01) (93, 2.65114717185497283936e-02) (94, 2.96732205897569656372e-02) (95, 2.69017100334167480469e-01) (96, -1.05097815394401550293e-01) (97, 7.68614038825035095215e-02) (98, 4.02587532997131347656e-01) (99, 4.82503361999988555908e-02) (100, 6.03330731391906738281e-02) (101, 3.25630635023117065430e-01) (102, 5.46320760622620582581e-03) (103, 4.84033375978469848633e-02) (104, 3.66663545370101928711e-01) (105, -8.20850953459739685059e-02) (106, 6.43021762371063232422e-02) (107, 3.11922252178192138672e-01) (108, 2.37334407866001129150e-02) (109, 2.43445206433534622192e-02) (110, 4.48380410671234130859e-01) (111, -9.67603251338005065918e-02) (112, 1.74523275345563888550e-02) (113, 2.90259033441543579102e-01) (114, -6.95682987570762634277e-02) (115, -3.59436012804508209229e-02) (116, 3.26598495244979858398e-01) (117, 6.69471025466918945312e-02) (118, -6.43031075596809387207e-02) (119, 4.80506181716918945312e-01) (120, 1.66775679588317871094e+00) (0, 9.00791287422180175781e-02) (1, -4.69439066946506500244e-02) (2, 1.52437416836619377136e-02) (3, 2.41179410368204116821e-02) (4, 5.64571656286716461182e-02) (5, 6.86507374048233032227e-02) (6, 2.60172560811042785645e-02) (7, 3.01530361175537109375e-02) (8, 4.47679646313190460205e-02) (9, -1.73837002366781234741e-02) (10, 8.42002406716346740723e-02) (11, -6.74345269799232482910e-02) (12, -1.04015849530696868896e-01) (13, 5.60927800834178924561e-02) (14, 4.97652217745780944824e-02) (15, -7.76765123009681701660e-02) (16, -3.20396479219198226929e-03) (17, 9.93124842643737792969e-02) (18, 5.41178993880748748779e-02) (19, -8.37065372616052627563e-03) (20, 7.21030384302139282227e-02) (21, 6.56387209892272949219e-02) (22, -7.88270905613899230957e-02) (23, 7.41728842258453369141e-02) (24, -9.53688099980354309082e-02) (25, -6.42283484339714050293e-02) (26, 1.00604720413684844971e-01) (27, 8.09586718678474426270e-02) (28, -9.60427448153495788574e-02) (29, 6.86598643660545349121e-02) (30, 2.32576951384544372559e-02) (31, -8.98496657609939575195e-02) (32, -7.56874680519104003906e-02) (33, -7.20648095011711120605e-02) (34, 3.43283228576183319092e-02) (35, 7.46724158525466918945e-02) (36, 8.51545333862304687500e-02) (37, -2.44857389479875564575e-02) (38, 7.40693323314189910889e-03) (39, 1.77374742925167083740e-02) (40, 7.66845270991325378418e-02) (41, -7.20497826114296913147e-03) (42, 3.71686406433582305908e-02) (43, 6.87595605850219726562e-02) (44, -3.85951809585094451904e-02) (45, -2.70682200789451599121e-02) (46, -1.06674849987030029297e-01) (47, 6.38111159205436706543e-02) (48, -4.27400432527065277100e-02) (49, 5.57363927364349365234e-02) (50, -3.91799621284008026123e-02) (51, -8.63215699791908264160e-02) (52, 2.56892107427120208740e-02) (53, -1.14694265648722648621e-02) (54, 7.10578486323356628418e-02) (55, 3.94727364182472229004e-02) (56, 3.13535407185554504395e-02) (57, 5.41327632963657379150e-02) (58, 4.12745252251625061035e-02) (59, 5.04895113408565521240e-02) (60, 4.22202935442328453064e-03) (61, -3.39012145996093750000e-02) (62, 6.64146840572357177734e-02) (63, 9.29976440966129302979e-03) (64, 2.16125301085412502289e-03) (65, 1.33703202009201049805e-02) (66, -3.62351275980472564697e-02) (67, -5.06479199975728988647e-03) (68, 9.28437039256095886230e-02) (69, 5.03039248287677764893e-02) (70, -7.74871855974197387695e-02) (71, 6.18328489363193511963e-02) (72, -7.87304192781448364258e-02) (73, 7.34386369585990905762e-02) (74, 3.36955860257148742676e-02) (75, -3.97505797445774078369e-02) (76, -5.09091764688491821289e-02) (77, 3.46766337752342224121e-02) (78, -9.92697700858116149902e-02) (79, 1.11120427027344703674e-02) (80, -3.36262490600347518921e-03) (81, -6.25517144799232482910e-02) (82, 3.67652252316474914551e-02) (83, 1.31025716662406921387e-01) (84, 1.01629656273871660233e-03) (85, 2.15416457504034042358e-02) (86, 7.69275352358818054199e-02) (87, -9.33749005198478698730e-02) (88, -2.25144550204277038574e-02) (89, 1.07994582504034042358e-02) (90, 3.07220052927732467651e-02) (91, 9.62937623262405395508e-02) (92, 7.47992470860481262207e-02) (93, -3.02946660667657852173e-02) (94, 6.79353671148419380188e-03) (95, -2.61067785322666168213e-02) (96, 5.48728443682193756104e-02) (97, 7.19009116291999816895e-02) (98, 6.51038214564323425293e-02) (99, 1.85818839818239212036e-02) (100, 4.01767678558826446533e-02) (101, 8.11197757720947265625e-02) (102, -4.94374781847000122070e-02) (103, 5.37773333489894866943e-02) (104, 4.14416305720806121826e-02) (105, 5.34335896372795104980e-02) (106, -7.51315802335739135742e-02) (107, 8.19769129157066345215e-02) (108, -4.36625480651855468750e-02) (109, -8.82671847939491271973e-02) (110, -1.29690822213888168335e-02) (111, 2.01956070959568023682e-02) (112, -4.13265004754066467285e-02) (113, 1.12825848162174224854e-01) (114, 1.73842851072549819946e-02) (115, 6.37252777814865112305e-02) (116, 1.69603396207094192505e-02) (117, -4.04700823128223419189e-02) (118, 6.23744502663612365723e-02) (119, 8.24570432305335998535e-02) (120, 3.63033324480056762695e-01) (0, 2.70445719361305236816e-02) (1, 8.96662473678588867188e-03) (2, -8.17963946610689163208e-03) (3, -9.54794511198997497559e-02) (4, -9.24202725291252136230e-02) (5, 2.85815931856632232666e-02) (6, 6.70988261699676513672e-02) (7, 6.85880109667778015137e-02) (8, -4.44943793118000030518e-02) (9, -6.49316282942891120911e-03) (10, -1.17907263338565826416e-02) (11, 9.74166616797447204590e-02) (12, 5.18576204776763916016e-02) (13, -6.91122040152549743652e-02) (14, -1.35430379305034875870e-03) (15, 1.31693212315440177917e-02) (16, -4.06655929982662200928e-02) (17, -6.07060864567756652832e-02) (18, 7.72500783205032348633e-02) (19, -1.65105145424604415894e-02) (20, -1.62434764206409454346e-02) (21, 5.28055429458618164062e-03) (22, 5.41708990931510925293e-02) (23, -4.70815710723400115967e-02) (24, -6.95834979414939880371e-02) (25, 2.95671131461858749390e-02) (26, 2.52403840422630310059e-02) (27, -2.15799990110099315643e-03) (28, 2.35028024762868881226e-02) (29, -3.79591062664985656738e-02) (30, -5.97633272409439086914e-02) (31, -3.87329943478107452393e-02) (32, 7.48465210199356079102e-02) (33, 2.07780729979276657104e-02) (34, -3.42241041362285614014e-02) (35, 8.05256292223930358887e-02) (36, -6.26257285475730895996e-02) (37, -5.61736337840557098389e-02) (38, 5.03216125071048736572e-02) (39, -1.96740664541721343994e-02) (40, 4.85161468386650085449e-02) (41, -5.80500029027462005615e-02) (42, -3.55649739503860473633e-02) (43, -5.03137591294944286346e-04) (44, -1.55964437872171401978e-02) (45, 4.91234175860881805420e-02) (46, -8.38580131530761718750e-02) (47, 4.53310646116733551025e-02) (48, 7.37010091543197631836e-02) (49, -9.66315045952796936035e-02) (50, -6.68902024626731872559e-02) (51, -5.78037686645984649658e-02) (52, 1.41654228791594505310e-02) (53, 9.27085429430007934570e-02) (54, -2.10161991417407989502e-02) (55, 5.09423501789569854736e-02) (56, 3.28837931156158447266e-02) (57, 8.75132828950881958008e-02) (58, -3.06809451431035995483e-02) (59, -3.21444645524024963379e-02) (60, -6.79685100913047790527e-02) (61, 1.26159386709332466125e-02) (62, 3.60916107892990112305e-02) (63, 8.88518169522285461426e-02) (64, -5.79012520611286163330e-02) (65, 1.15155555307865142822e-01) (66, 5.05428016185760498047e-02) (67, -1.88318900763988494873e-02) (68, -3.25719080865383148193e-02) (69, -1.84506382793188095093e-02) (70, 7.24327117204666137695e-02) (71, 1.19495391845703125000e-01) (72, 3.43714491464197635651e-03) (73, -4.31430153548717498779e-02) (74, 2.98428349196910858154e-02) (75, 6.73266425728797912598e-02) (76, 9.85539555549621582031e-02) (77, 5.95815330743789672852e-02) (78, -8.60233698040246963501e-03) (79, 7.81553983688354492188e-02) (80, 7.29137808084487915039e-02) (81, 2.68343742936849594116e-03) (82, -6.50184154510498046875e-02) (83, -2.15810770168900489807e-03) (84, -2.70432643592357635498e-02) (85, 2.36316975206136703491e-02) (86, -4.04694341123104095459e-02) (87, 8.27945098280906677246e-02) (88, 1.13926036283373832703e-02) (89, 2.55374014377593994141e-02) (90, -7.27984085679054260254e-02) (91, 5.86715750396251678467e-02) (92, -6.18588775396347045898e-02) (93, 3.89869213104248046875e-02) (94, 4.68230359256267547607e-02) (95, -2.18508150428533554077e-02) (96, 2.93258037418127059937e-02) (97, -1.35751615744084119797e-03) (98, 6.19487464427947998047e-02) (99, 7.11644887924194335938e-02) (100, 9.34529751539230346680e-02) (101, 3.25784012675285339355e-02) (102, 6.45551458001136779785e-02) (103, -7.93190672993659973145e-03) (104, 7.41945281624794006348e-02) (105, -3.25196571648120880127e-02) (106, -3.18277776241302490234e-02) (107, 7.16996714472770690918e-02) (108, -1.00589141249656677246e-01) (109, 4.87702600657939910889e-02) (110, 4.95775490999221801758e-02) (111, 4.38758246600627899170e-02) (112, -3.72928492724895477295e-02) (113, 7.61509984731674194336e-02) (114, -8.76408591866493225098e-02) (115, 4.02850806713104248047e-02) (116, -1.15764001384377479553e-02) (117, -5.82282692193984985352e-02) (118, 1.96773465722799301147e-02) (119, 9.49341729283332824707e-02) (120, 3.25940966606140136719e-01) (0, 7.82665982842445373535e-02) (1, -8.80393385887145996094e-03) (2, 5.25912940502166748047e-02) (3, 2.44423057883977890015e-02) (4, -6.28055259585380554199e-02) (5, 9.83050540089607238770e-02) (6, -3.90970818698406219482e-02) (7, 3.18859182298183441162e-02) (8, 2.69780661910772323608e-02) (9, -6.06937557458877563477e-02) (10, 2.05502007156610488892e-02) (11, -7.45864510536193847656e-02) (12, -8.89182612299919128418e-02) (13, -8.34627524018287658691e-02) (14, 6.46804645657539367676e-02) (15, -1.41812218353152275085e-02) (16, -1.00258355960249900818e-02) (17, 5.27341326232999563217e-04) (18, -7.58416438475251197815e-03) (19, -3.96441519260406494141e-02) (20, -8.67463648319244384766e-02) (21, -5.64890913665294647217e-02) (22, 3.87253090739250183105e-02) (23, 5.17887808382511138916e-02) (24, -3.68719547986984252930e-02) (25, 3.63797065801918506622e-03) (26, 1.01816512644290924072e-01) (27, 1.22268786653876304626e-02) (28, -4.89208549261093139648e-02) (29, 5.75998425483703613281e-02) (30, -4.40900027751922607422e-02) (31, -6.46768510341644287109e-02) (32, -4.20070476830005645752e-02) (33, -9.39546450972557067871e-02) (34, 7.01013728976249694824e-02) (35, -1.29884935449808835983e-03) (36, -9.82830747961997985840e-02) (37, -6.45488128066062927246e-02) (38, -6.27569779753684997559e-02) (39, 2.58837305009365081787e-02) (40, -1.04628354310989379883e-02) (41, 6.21134042739868164062e-02) (42, 4.83131520450115203857e-02) (43, -2.06972952582873404026e-04) (44, 8.37669819593429565430e-02) (45, 9.79797076433897018433e-03) (46, 8.83614420890808105469e-02) (47, -2.35101450234651565552e-02) (48, -9.30813997983932495117e-02) (49, -1.31087740883231163025e-02) (50, 3.87147516012191772461e-02) (51, -8.33593159914016723633e-02) (52, 3.70453558862209320068e-02) (53, -1.98928918689489364624e-02) (54, 6.46419823169708251953e-02) (55, 1.04548364877700805664e-01) (56, 8.07122960686683654785e-02) (57, 6.24883845448493957520e-02) (58, 2.59717684239149093628e-02) (59, -6.95117488503456115723e-02) (60, 1.59012060612440109253e-02) (61, 8.45472514629364013672e-02) (62, -3.63599173724651336670e-02) (63, 6.94811120629310607910e-02) (64, 8.93301069736480712891e-02) (65, -7.35486894845962524414e-02) (66, -3.64469923079013824463e-02) (67, 9.32936370372772216797e-02) (68, -4.48013022541999816895e-02) (69, -4.05174959450960159302e-03) (70, 2.67339386045932769775e-02) (71, 2.84780785441398620605e-02) (72, -4.70677465200424194336e-02) (73, -1.87620203942060470581e-02) (74, -8.20200070738792419434e-02) (75, -6.86492174863815307617e-02) (76, 9.36874449253082275391e-02) (77, 9.84942466020584106445e-02) (78, 2.20417883247137069702e-03) (79, -8.93983617424964904785e-02) (80, -2.34054494649171829224e-02) (81, -6.49941787123680114746e-02) (82, -7.15171620249748229980e-02) (83, 1.03407748043537139893e-01) (84, 8.90267174690961837769e-03) (85, 1.01678274571895599365e-01) (86, 9.85132679343223571777e-02) (87, -1.68417450040578842163e-02) (88, 6.77217915654182434082e-02) (89, 1.11143840476870536804e-02) (90, 6.96300808340311050415e-03) (91, -1.00381039083003997803e-02) (92, -1.52524989098310470581e-02) (93, 6.36048689484596252441e-02) (94, -3.73166576027870178223e-02) (95, -3.02522834390401840210e-02) (96, 8.27711224555969238281e-02) (97, 2.96611413359642028809e-02) (98, -3.83205339312553405762e-02) (99, -6.95593208074569702148e-02) (100, -6.25967010855674743652e-02) (101, 8.47449302673339843750e-02) (102, 5.11563941836357116699e-02) (103, -4.76850476115942001343e-03) (104, -3.85980829596519470215e-02) (105, 6.11210763454437255859e-02) (106, 2.99556516110897064209e-02) (107, -4.68363016843795776367e-02) (108, 5.13382218778133392334e-02) (109, -6.79024383425712585449e-02) (110, -4.28273379802703857422e-02) (111, -8.05995911359786987305e-02) (112, -2.85549126565456390381e-02) (113, -1.69014893472194671631e-02) (114, -8.60156714916229248047e-02) (115, 8.46842601895332336426e-02) (116, -2.10409257560968399048e-02) (117, -9.65151339769363403320e-02) (118, -3.03140338510274887085e-02) (119, -5.73577582836151123047e-02) (120, 9.33820754289627075195e-02) (0, 9.99548435211181640625e-02) (1, 2.39887647330760955811e-02) (2, 7.14096277952194213867e-02) (3, 6.90758824348449707031e-02) (4, 6.93279132246971130371e-02) (5, -6.96778371930122375488e-02) (6, 5.73348179459571838379e-02) (7, 2.07491870969533920288e-03) (8, -1.90004725009202957153e-02) (9, 9.33596417307853698730e-02) (10, 3.14551182091236114502e-02) (11, -4.56016361713409423828e-02) (12, 5.00459894537925720215e-02) (13, -7.00701773166656494141e-02) (14, 4.16383659467101097107e-03) (15, 1.66001003235578536987e-02) (16, 4.24275621771812438965e-02) (17, 4.52569834887981414795e-02) (18, -2.64720059931278228760e-02) (19, 7.25348591804504394531e-02) (20, -1.09814032912254333496e-01) (21, -1.61376199685037136078e-03) (22, -5.88452219963073730469e-02) (23, -3.93139608204364776611e-02) (24, 1.80789567530155181885e-02) (25, -7.06940591335296630859e-02) (26, 2.66682244837284088135e-02) (27, 2.71180085837841033936e-02) (28, 8.49815737456083297729e-03) (29, 5.60067854821681976318e-02) (30, -6.19245916604995727539e-02) (31, -1.19695765897631645203e-02) (32, -2.98977419734001159668e-02) (33, -7.58008882403373718262e-02) (34, -4.79939468204975128174e-02) (35, -5.64121939241886138916e-02) (36, -2.96070557087659835815e-02) (37, -1.09652891755104064941e-01) (38, 4.54299561679363250732e-02) (39, 6.81998133659362792969e-02) (40, 6.00573681294918060303e-02) (41, -2.30390243232250213623e-02) (42, -5.93314841389656066895e-02) (43, 1.49793121963739395142e-02) (44, -3.51726193912327289581e-03) (45, 6.39900639653205871582e-02) (46, -7.24642127752304077148e-02) (47, -5.91238774359226226807e-02) (48, 2.97082830220460891724e-02) (49, -1.53334178030490875244e-02) (50, -8.25077667832374572754e-02) (51, 4.12729904055595397949e-02) (52, 7.63503313064575195312e-02) (53, -3.30956541001796722412e-02) (54, -7.51602798700332641602e-02) (55, -2.08420231938362121582e-02) (56, 3.40982456691563129425e-03) (57, 7.54366219043731689453e-02) (58, 7.76461362838745117188e-02) (59, -8.43529179692268371582e-02) (60, 5.67998103797435760498e-02) (61, -8.49559232592582702637e-02) (62, 1.59406028687953948975e-02) (63, -4.66703213751316070557e-02) (64, -7.31211081147193908691e-02) (65, -1.26848250627517700195e-01) (66, 2.47299559414386749268e-02) (67, -9.96413826942443847656e-03) (68, -1.23977221548557281494e-01) (69, -1.03278446476906538010e-03) (70, -5.97942396998405456543e-02) (71, -1.39848962426185607910e-01) (72, 1.06196314096450805664e-01) (73, -4.34021316468715667725e-02) (74, -1.78721565753221511841e-02) (75, 3.39247174561023712158e-02) (76, -7.82190412282943725586e-02) (77, 8.76017846167087554932e-03) (78, 1.07441000640392303467e-01) (79, 3.21280770003795623779e-02) (80, -1.03188648819923400879e-01) (81, -4.12075296044349670410e-02) (82, -3.87537293136119842529e-02) (83, -1.28823101520538330078e-01) (84, 6.08369000256061553955e-02) (85, -3.72034199535846710205e-02) (86, -4.85079213976860046387e-02) (87, 5.82027074415236711502e-04) (88, -6.45972639322280883789e-02) (89, -5.33455647528171539307e-02) (90, 5.35186454653739929199e-02) (91, 7.22698420286178588867e-02) (92, -3.22918817400932312012e-02) (93, 8.30194354057312011719e-03) (94, -7.80910775065422058105e-02) (95, 4.00534423533827066422e-04) (96, 2.13803723454475402832e-02) (97, 4.43857014179229736328e-02) (98, -1.08758352696895599365e-01) (99, 3.87327335774898529053e-02) (100, -8.32391381263732910156e-02) (101, -6.21062070131301879883e-02) (102, 4.12016399204730987549e-02) (103, -8.07111039757728576660e-02) (104, 1.27447769045829772949e-02) (105, -3.29207368195056915283e-02) (106, 4.23587933182716369629e-02) (107, 3.88008989393711090088e-02) (108, -7.91597068309783935547e-02) (109, 6.17344826459884643555e-02) (110, -1.81062538176774978638e-02) (111, -3.59893776476383209229e-02) (112, 1.08032442629337310791e-01) (113, -1.46195024251937866211e-01) (114, -1.70193184167146682739e-02) (115, 5.07894679903984069824e-02) (116, -6.21564462780952453613e-02) (117, 8.35340544581413269043e-02) (118, -3.92079725861549377441e-02) (119, -1.54126212000846862793e-02) (120, -4.20007586479187011719e-01) (0, 4.43772673606872558594e-02) (1, 3.30930314958095550537e-02) (2, 1.07476592063903808594e-01) (3, -6.08771964907646179199e-02) (4, 8.70040208101272583008e-02) (5, 6.28638416528701782227e-02) (6, 4.70715165138244628906e-02) (7, 1.68250724673271179199e-02) (8, 1.10308781266212463379e-01) (9, -2.78810188174247741699e-02) (10, 4.91043664515018463135e-02) (11, 5.95530075952410697937e-03) (12, -1.00299157202243804932e-01) (13, 4.94009554386138916016e-02) (14, -2.22100224345922470093e-02) (15, -4.66167666018009185791e-02) (16, 7.25576933473348617554e-03) (17, -2.24616378545761108398e-02) (18, -3.94505113363265991211e-02) (19, -4.74865920841693878174e-02) (20, 1.21618397533893585205e-01) (21, 1.11813396215438842773e-02) (22, -5.61531260609626770020e-02) (23, -6.09813444316387176514e-02) (24, 8.02315846085548400879e-02) (25, 6.73622936010360717773e-02) (26, 4.19883169233798980713e-02) (27, 5.00569418072700500488e-02) (28, 7.11578801274299621582e-02) (29, -6.86804391443729400635e-03) (30, -8.33358466625213623047e-02) (31, 4.67768013477325439453e-02) (32, 1.35889410972595214844e-01) (33, -9.73203703761100769043e-02) (34, 7.70560503005981445312e-02) (35, 1.11156530678272247314e-01) (36, 4.19094115495681762695e-02) (37, 5.83937615156173706055e-02) (38, 3.04959602653980255127e-02) (39, 2.67089698463678359985e-02) (40, -3.68771925568580627441e-02) (41, -2.02841069549322128296e-02) (42, -9.52782928943634033203e-02) (43, -5.30754923820495605469e-02) (44, 1.51873409748077392578e-01) (45, -4.75862361490726470947e-02) (46, 4.44582151249051094055e-03) (47, 6.75679892301559448242e-02) (48, -2.73052300326526165009e-03) (49, -1.15243859589099884033e-01) (50, 1.21487438678741455078e-01) (51, -1.56361404806375503540e-02) (52, 2.09220545366406440735e-03) (53, 1.59020245075225830078e-01) (54, -1.40084428712725639343e-02) (55, 3.64387594163417816162e-03) (56, 1.27709910273551940918e-01) (57, -1.11416995525360107422e-01) (58, -4.51174378395080566406e-03) (59, 1.14681817591190338135e-01) (60, -6.04695864021778106689e-02) (61, 5.18549280241131782532e-03) (62, 6.04185499250888824463e-02) (63, -6.86795637011528015137e-02) (64, 3.50956059992313385010e-02) (65, 6.00144527852535247803e-02) (66, -1.04185856878757476807e-01) (67, -1.09120842535048723221e-03) (68, 2.06421203911304473877e-02) (69, -2.21589617431163787842e-02) (70, -4.91424165666103363037e-02) (71, 6.79182335734367370605e-02) (72, 6.49857660755515098572e-03) (73, -1.72133394517004489899e-03) (74, 1.29774898290634155273e-01) (75, 5.58050209656357765198e-03) (76, 3.79506535828113555908e-02) (77, 5.93849755823612213135e-02) (78, -8.20863023400306701660e-02) (79, -3.55543605983257293701e-02) (80, 6.42602667212486267090e-02) (81, 8.20454508066177368164e-02) (82, 6.74966424703598022461e-02) (83, -5.24799246340990066528e-03) (84, 8.13963934779167175293e-02) (85, -1.05823585763573646545e-02) (86, 1.20167665183544158936e-01) (87, 4.73136752843856811523e-02) (88, -2.86723058670759201050e-02) (89, 1.05732260271906852722e-02) (90, -1.53156660962849855423e-03) (91, 3.92825305461883544922e-02) (92, 1.32532685995101928711e-01) (93, -1.07509635388851165771e-01) (94, 7.55117461085319519043e-02) (95, 7.25009813904762268066e-02) (96, -1.58454366028308868408e-02) (97, 6.25546351075172424316e-02) (98, 1.69176802039146423340e-01) (99, 3.38284745812416076660e-02) (100, -2.31851972639560699463e-02) (101, 7.69531587138772010803e-03) (102, -7.10280835628509521484e-02) (103, 6.66328221559524536133e-02) (104, 6.62586018443107604980e-02) (105, -1.16670496761798858643e-01) (106, -1.19502982124686241150e-02) (107, 1.92801073193550109863e-01) (108, -3.50127890706062316895e-02) (109, -1.82671751827001571655e-02) (110, 3.21068242192268371582e-02) (111, 4.88541424274444580078e-02) (112, -2.55682561546564102173e-02) (113, 1.70911148190498352051e-01) (114, 6.06153719127178192139e-02) (115, -1.63534954190254211426e-02) (116, 2.11150214076042175293e-01) (117, -4.71405824646353721619e-03) (118, -9.85603034496307373047e-02) (119, 5.55277317762374877930e-02) (120, 6.71049714088439941406e-01) (0, -7.93321132659912109375e-02) (1, 4.83903996646404266357e-02) (2, -4.11625616252422332764e-02) (3, -7.01171457767486572266e-02) (4, -2.65003256499767303467e-02) (5, 3.68797704577445983887e-02) (6, 3.05848345160484313965e-02) (7, -6.55955299735069274902e-02) (8, 9.09645389765501022339e-03) (9, -1.87026578933000564575e-02) (10, -1.30016114562749862671e-02) (11, 1.70291401445865631104e-02) (12, 2.70178187638521194458e-02) (13, -2.61046458035707473755e-02) (14, -1.19305543601512908936e-01) (15, 2.69726328551769256592e-02) (16, 5.73232844471931457520e-02) (17, 6.77274465560913085938e-02) (18, 1.08693175017833709717e-01) (19, -2.36596036702394485474e-02) (20, -1.08705662190914154053e-01) (21, 7.41012617945671081543e-02) (22, -1.02091789245605468750e-01) (23, 5.08850440382957458496e-02) (24, 5.16068525612354278564e-02) (25, 2.30981707572937011719e-02) (26, 4.80372011661529541016e-02) (27, -3.62290032207965850830e-02) (28, -8.07779282331466674805e-02) (29, -1.13011524081230163574e-01) (30, 9.86772552132606506348e-02) (31, -8.25898498296737670898e-02) (32, 2.34050657600164413452e-02) (33, -2.43934765458106994629e-02) (34, -5.79543784260749816895e-02) (35, -9.57705825567245483398e-02) (36, -6.80728107690811157227e-02) (37, 4.29871715605258941650e-02) (38, -5.85521087050437927246e-02) (39, 6.16008825600147247314e-02) (40, -1.05882719159126281738e-01) (41, 2.91029047220945358276e-02) (42, 6.29799265880137681961e-04) (43, 2.79253963381052017212e-02) (44, -1.10074736177921295166e-01) (45, 4.64909337460994720459e-03) (46, -5.52355945110321044922e-02) (47, 4.58142608404159545898e-02) (48, -2.79352441430091857910e-03) (49, -6.74848333001136779785e-02) (50, -6.94406777620315551758e-02) (51, 1.44454371184110641479e-02) (52, 9.57382172346115112305e-02) (53, -5.74167668819427490234e-02) (54, -7.00137624517083168030e-03) (55, 2.58645080029964447021e-02) (56, -1.20318584144115447998e-01) (57, -3.01041696220636367798e-02) (58, 5.79531416296958923340e-02) (59, -9.42845568060874938965e-02) (60, -1.25417616218328475952e-02) (61, 4.76687327027320861816e-02) (62, -6.46932274103164672852e-02) (63, -5.73520250618457794189e-02) (64, -9.67208892107009887695e-02) (65, -2.26270388811826705933e-02) (66, -1.97638515383005142212e-02) (67, -7.80383422970771789551e-02) (68, -6.68246820569038391113e-02) (69, 5.61930164694786071777e-02) (70, 5.38458712399005889893e-02) (71, -4.69846576452255249023e-02) (72, 2.14612651616334915161e-02) (73, -8.25182870030403137207e-02) (74, -1.17537885904312133789e-01) (75, 4.86895889043807983398e-02) (76, 1.76609009504318237305e-02) (77, -7.83251225948333740234e-02) (78, 3.33811566233634948730e-02) (79, -1.05508178472518920898e-01) (80, -4.77377921342849731445e-02) (81, 1.04178458452224731445e-01) (82, -1.33023159578442573547e-02) (83, -6.02774620056152343750e-02) (84, -1.14741902798414230347e-02) (85, 5.14891669154167175293e-02) (86, -1.38542637228965759277e-01) (87, 1.13324066624045372009e-02) (88, -8.34280401468276977539e-02) (89, 2.93794106692075729370e-02) (90, 6.12582042813301086426e-02) (91, -1.82793643325567245483e-02) (92, -2.14589834213256835938e-02) (93, -5.74583001434803009033e-02) (94, 1.16140414029359817505e-02) (95, -1.44518045708537101746e-02) (96, 6.71479851007461547852e-02) (97, 9.51312407851219177246e-02) (98, 7.00161140412092208862e-03) (99, -5.08282855153083801270e-02) (100, 2.14825142174959182739e-02) (101, -2.76001114398241043091e-02) (102, 5.21659031510353088379e-02) (103, -6.44298419356346130371e-02) (104, 2.07243692129850387573e-02) (105, 8.61553028225898742676e-02) (106, 7.35603868961334228516e-02) (107, -4.42917868494987487793e-02) (108, -3.91741544008255004883e-02) (109, 1.81743092834949493408e-02) (110, -2.99770999699831008911e-02) (111, 6.76643773913383483887e-02) (112, 1.13868359476327896118e-02) (113, -1.18894249200820922852e-01) (114, -3.64218465983867645264e-02) (115, 7.71875157952308654785e-02) (116, -1.32677078247070312500e-01) (117, -1.73123944550752639771e-02) (118, -2.88569019176065921783e-04) (119, -9.45043191313743591309e-02) (120, -4.62941318750381469727e-01) (0, 7.34740346670150756836e-02) (1, 7.86334946751594543457e-02) (2, 8.76310393214225769043e-02) (3, 9.74057614803314208984e-02) (4, 1.18310581892728805542e-02) (5, 3.53130586445331573486e-02) (6, 4.60669063031673431396e-02) (7, 6.65102945640683174133e-03) (8, 6.03968696668744087219e-03) (9, 7.65792727470397949219e-02) (10, -5.82890659570693969727e-02) (11, -5.62108792364597320557e-02) (12, 1.01490514352917671204e-02) (13, -1.81440543383359909058e-02) (14, -6.85231164097785949707e-02) (15, -2.23198104649782180786e-02) (16, -5.66322878003120422363e-02) (17, 5.58899007737636566162e-02) (18, 1.99582353234291076660e-02) (19, 3.18210907280445098877e-02) (20, -3.60672897659242153168e-03) (21, -3.09234205633401870728e-02) (22, -1.00345887243747711182e-01) (23, 4.96383123099803924561e-02) (24, 1.40608837828040122986e-02) (25, 4.39152382314205169678e-02) (26, 9.05878171324729919434e-02) (27, 7.80544057488441467285e-02) (28, 7.42248594760894775391e-02) (29, -2.88610029965639114380e-02) (30, -6.94166645407676696777e-02) (31, 4.46364060044288635254e-02) (32, -3.92770320177078247070e-02) (33, -7.77206048369407653809e-02) (34, 4.94033135473728179932e-02) (35, 8.37358459830284118652e-02) (36, 6.18167147040367126465e-02) (37, -6.10865931957960128784e-03) (38, 2.07608216442167758942e-03) (39, -2.77817118912935256958e-02) (40, -2.81945150345563888550e-02) (41, 5.37553764879703521729e-02) (42, 2.05702148377895355225e-02) (43, 8.22430104017257690430e-02) (44, -5.82623891532421112061e-02) (45, 5.67563772201538085938e-02) (46, -3.71026024222373962402e-02) (47, -3.54568613693118095398e-03) (48, 1.75853893160820007324e-02) (49, 7.92637914419174194336e-02) (50, -6.69886022806167602539e-02) (51, -8.09243470430374145508e-02) (52, -5.22921010851860046387e-02) (53, -6.27940446138381958008e-02) (54, 7.40563794970512390137e-02) (55, 6.18046224117279052734e-02) (56, 7.91247189044952392578e-02) (57, 7.01503753662109375000e-02) (58, 3.03114708513021469116e-02) (59, 5.15258871018886566162e-02) (60, -5.29553331434726715088e-02) (61, 5.88756129145622253418e-02) (62, -2.65917787328362464905e-03) (63, 1.36436717584729194641e-02) (64, 7.87193328142166137695e-02) (65, -5.95024786889553070068e-02) (66, 3.50161315873265266418e-03) (67, 4.72037121653556823730e-02) (68, 2.96209324151277542114e-02) (69, -8.81676226854324340820e-02) (70, -7.95682966709136962891e-02) (71, -1.04776255786418914795e-01) (72, 7.20214471220970153809e-02) (73, 3.33943814039230346680e-02) (74, 7.08129629492759704590e-02) (75, -7.97437354922294616699e-02) (76, -8.21771472692489624023e-03) (77, -7.60040953755378723145e-02) (78, 2.33962461352348327637e-02) (79, -8.18904489278793334961e-02) (80, -1.02992437779903411865e-01) (81, 6.31669536232948303223e-02) (82, -6.94910138845443725586e-02) (83, -6.10407330095767974854e-02) (84, -9.27934795618057250977e-02) (85, -9.44381058216094970703e-02) (86, -1.05101779103279113770e-01) (87, 9.32344868779182434082e-02) (88, 7.30218440294265747070e-02) (89, 2.87609156221151351929e-02) (90, 5.17165400087833404541e-02) (91, -8.11106339097023010254e-02) (92, -6.92087877541780471802e-03) (93, -4.38173562288284301758e-02) (94, 3.55229414999485015869e-02) (95, -2.04889401793479919434e-02) (96, 3.82196111604571342468e-03) (97, -6.15774728357791900635e-02) (98, -7.23185688257217407227e-02) (99, -5.92564307153224945068e-02) (100, -5.25060519576072692871e-02) (101, -5.20935505628585815430e-02) (102, -5.66561408340930938721e-02) (103, -7.46669322252273559570e-02) (104, 8.85847061872482299805e-02) (105, -7.82733261585235595703e-02) (106, -5.84318228065967559814e-02) (107, -1.42815215513110160828e-02) (108, -4.65381927788257598877e-02) (109, 6.58481493592262268066e-02) (110, 2.85362388240173459053e-04) (111, -4.15919460356235504150e-02) (112, 2.71868351846933364868e-02) (113, 3.37854735553264617920e-02) (114, 5.58103667572140693665e-03) (115, 3.28616052865982055664e-02) (116, 4.10916768014430999756e-02) (117, 8.89698043465614318848e-03) (118, 2.49043926596641540527e-02) (119, 1.83060746639966964722e-02) (120, -1.28244042396545410156e-01) (121, 1.67130574584007263184e-01) (122, 2.12534040212631225586e-01) (123, 2.40129932761192321777e-01) (124, 2.63446569442749023438e-01) (125, 8.03418934345245361328e-01) (126, 1.70204848051071166992e-01) (127, 1.51461362838745117188e-01) (128, 2.02970564365386962891e-01) (129, 2.13187649846076965332e-01) (130, 3.24027687311172485352e-01) (131, 3.41693311929702758789e-01) (132, 2.01189398765563964844e-01) (133, 1.89106658101081848145e-01) (121, -2.73807138204574584961e-01) (122, -1.21117711067199707031e-01) (123, -1.44251585006713867188e-01) (124, -2.76102870702743530273e-01) (125, -1.00894236564636230469e+00) (126, -1.40214785933494567871e-01) (127, -2.92044103145599365234e-01) (128, -1.29604011774063110352e-01) (129, -2.88552969694137573242e-01) (130, -3.19096565246582031250e-01) (131, -2.87540107965469360352e-01) (132, -1.01957373321056365967e-01) (133, -1.71570986509323120117e-01) (121, -2.41430655121803283691e-01) (122, -1.74407184123992919922e-01) (123, -2.62271702289581298828e-01) (124, -1.52067437767982482910e-01) (125, -7.89600908756256103516e-01) (126, -2.22639411687850952148e-01) (127, -1.83734536170959472656e-01) (128, -1.92924618721008300781e-01) (129, -2.92152166366577148438e-01) (130, -4.27112042903900146484e-01) (131, -2.43105620145797729492e-01) (132, -1.81841492652893066406e-01) (133, -1.16078376770019531250e-01) (121, 2.59716928005218505859e-01) (122, 2.16391444206237792969e-01) (123, 2.10644081234931945801e-01) (124, 2.26327583193778991699e-01) (125, 7.46341049671173095703e-01) (126, 2.56305158138275146484e-01) (127, 1.40901967883110046387e-01) (128, 9.62168946862220764160e-02) (129, 3.14165234565734863281e-01) (130, 2.88090735673904418945e-01) (131, 1.73485517501831054688e-01) (132, 2.69183516502380371094e-01) (133, 2.58291184902191162109e-01) (121, -1.92816272377967834473e-01) (122, -9.23443436622619628906e-02) (123, -2.08619579672813415527e-01) (124, -2.77656227350234985352e-01) (125, -9.98356759548187255859e-01) (126, -2.27968856692314147949e-01) (127, -1.90831407904624938965e-01) (128, -2.05522388219833374023e-01) (129, -2.75849342346191406250e-01) (130, -4.34033989906311035156e-01) (131, -2.11689114570617675781e-01) (132, -8.15412551164627075195e-02) (133, -1.57674878835678100586e-01) (121, 2.64560669660568237305e-01) (122, 2.33489707112312316895e-01) (123, 2.81729757785797119141e-01) (124, 1.77371323108673095703e-01) (125, 8.41959238052368164062e-01) (126, 2.95677721500396728516e-01) (127, 1.16170480847358703613e-01) (128, 9.68515574932098388672e-02) (129, 2.05565541982650756836e-01) (130, 3.30525040626525878906e-01) (131, 3.09793621301651000977e-01) (132, 1.67477086186408996582e-01) (133, 1.72436058521270751953e-01) (134, 1.76386445760726928711e-01) (135, 2.16858714818954467773e-01) (136, 1.74483150243759155273e-01) (137, 1.63780078291893005371e-01) (138, 2.15813770890235900879e-01) (139, 1.83389782905578613281e-01) (140, 1.73900146037340164185e-02) 
