<?xml version="1.0"?>
<opencv_storage>
<cascade>
  <stageType>BOOST</stageType>
  <featureType>LBP</featureType>
  <height>22</height>
  <width>10</width>
  <stageParams>
    <boostType>GAB</boostType>
    <minHitRate>9.9900001287460327e-01</minHitRate>
    <maxFalseAlarm>5.0000000000000000e-01</maxFalseAlarm>
    <weightTrimRate>9.4999998807907104e-01</weightTrimRate>
    <maxDepth>1</maxDepth>
    <maxWeakCount>100</maxWeakCount></stageParams>
  <featureParams>
    <maxCatCount>256</maxCatCount>
    <featSize>1</featSize></featureParams>
  <stageNum>22</stageNum>
  <stages>
    <!-- stage 0 -->
    <_>
      <maxWeakCount>3</maxWeakCount>
      <stageThreshold>-9.9600434303283691e-01</stageThreshold>
      <weakClassifiers>
        <_>
          <internalNodes>
            0 -1 14 -134250497 -582552681 -503978681 -70062760
            -648061609 -128654967 -234145791 -12101801</internalNodes>
          <leafValues>
            -8.6614936590194702e-01 7.8110235929489136e-01</leafValues></_>
        <_>
          <internalNodes>
            0 -1 91 -67108995 -70527422 -1073620589 -135932989
            -1031552891 -1585414072 -847128355 15196543</internalNodes>
          <leafValues>
            -8.5403579473495483e-01 7.1390312910079956e-01</leafValues></_>
        <_>
          <internalNodes>
            0 -1 32 -385875969 -219225385 -220085246 -188569293
            1883734612 -529800534 1661160706 -1310777</internalNodes>
          <leafValues>
            -7.6761513948440552e-01 7.2418081760406494e-01</leafValues></_></weakClassifiers></_>
    <!-- stage 1 -->
    <_>
      <maxWeakCount>4</maxWeakCount>
      <stageThreshold>-1.8756067752838135e+00</stageThreshold>
      <weakClassifiers>
        <_>
          <internalNodes>
            0 -1 5 -67108866 -681578085 -654189601 -10495889 -92219202
            -95780422 -670397729 2003264291</internalNodes>
          <leafValues>
            -8.6437249183654785e-01 7.2581875324249268e-01</leafValues></_>
        <_>
          <internalNodes>
            0 -1 26 -352649249 -624639853 -1072039909 -535447289
            1083271851 37765122 1963685983 1940284231</internalNodes>
          <leafValues>
            -8.6621415615081787e-01 5.9318166971206665e-01</leafValues></_>
        <_>
          <internalNodes>
            0 -1 22 -1185685505 -58748685 -178659983 -36223530 -7372943
            -1141116775 -277130396 -2624921</internalNodes>
          <leafValues>
            -8.0512416362762451e-01 6.4597785472869873e-01</leafValues></_>
        <_>
          <internalNodes>
            0 -1 37 -50921474 -6753533 -1792898630 -150162032 1083254498
            -619495159 -41340089 -10519941</internalNodes>
          <leafValues>
            -7.9929178953170776e-01 6.1036115884780884e-01</leafValues></_></weakClassifiers></_>
    <!-- stage 2 -->
    <_>
      <maxWeakCount>5</maxWeakCount>
      <stageThreshold>-1.2059594392776489e+00</stageThreshold>
      <weakClassifiers>
        <_>
          <internalNodes>
            0 -1 59 -6294098 357732765 -251545346 -3622 1490115247
            2073575611 -1416642822 -68170034</internalNodes>
          <leafValues>
            -8.0561119318008423e-01 6.9301611185073853e-01</leafValues></_>
        <_>
          <internalNodes>
            0 -1 111 -2409601 -203485097 -1072754197 -4231931 -140533589
            -108330838 -1346139457 -1162069040</internalNodes>
          <leafValues>
            -8.2054418325424194e-01 6.5467590093612671e-01</leafValues></_>
        <_>
          <internalNodes>
            0 -1 129 -2097281 -2003054505 -1071659937 -1563176489
            -773924665 -1442202943 -24122375 -2130706995</internalNodes>
          <leafValues>
            -7.1073871850967407e-01 6.3405030965805054e-01</leafValues></_>
        <_>
          <internalNodes>
            0 -1 89 -1613287049 1070834384 2093029786 -2581038 453020155
            2107197850 -1080028616 -7623492</internalNodes>
          <leafValues>
            -7.6240974664688110e-01 5.7642793655395508e-01</leafValues></_>
        <_>
          <internalNodes>
            0 -1 20 -942246169 -651390323 50051 -687030265 1884772643
            -536805341 -963164159 -203466201</internalNodes>
          <leafValues>
            -8.3755862712860107e-01 5.5450677871704102e-01</leafValues></_></weakClassifiers></_>
    <!-- stage 3 -->
    <_>
      <maxWeakCount>5</maxWeakCount>
      <stageThreshold>-1.0551518201828003e+00</stageThreshold>
      <weakClassifiers>
        <_>
          <internalNodes>
            0 -1 70 -705190914 -2780209 -104758906 -115432778 1921733051
            -1147518835 -78908418 -2114646</internalNodes>
          <leafValues>
            -7.3715412616729736e-01 6.5554696321487427e-01</leafValues></_>
        <_>
          <internalNodes>
            0 -1 6 -36438530 -578692593 -746470330 -207841300 -61125717
            -124534574 -360068918 2147433343</internalNodes>
          <leafValues>
            -8.1230092048645020e-01 5.7760763168334961e-01</leafValues></_>
        <_>
          <internalNodes>
            0 -1 81 -33573106 366412055 -803094318 -75042798 -741779249
            -1861550045 -536092242 -1477526578</internalNodes>
          <leafValues>
            -7.5603681802749634e-01 5.6025820970535278e-01</leafValues></_>
        <_>
          <internalNodes>
            0 -1 2 -775726641 -788316150 1358970880 -788275045
            -934690742 -503267320 -526155769 -213424345</internalNodes>
          <leafValues>
            -6.3069629669189453e-01 6.8685567378997803e-01</leafValues></_>
        <_>
          <internalNodes>
            0 -1 23 -406392886 -108007023 -1870376623 -746303118
            1107430311 -184481662 -2009032005 -144193806</internalNodes>
          <leafValues>
            -7.6556926965713501e-01 5.6474131345748901e-01</leafValues></_></weakClassifiers></_>
    <!-- stage 4 -->
    <_>
      <maxWeakCount>6</maxWeakCount>
      <stageThreshold>-1.5470011234283447e+00</stageThreshold>
      <weakClassifiers>
        <_>
          <internalNodes>
            0 -1 130 -170921609 22937591 -294767 821952375 -1 1955266559
            -1361 -395314177</internalNodes>
          <leafValues>
            -6.0032361745834351e-01 7.8967136144638062e-01</leafValues></_>
        <_>
          <internalNodes>
            0 -1 58 -123797505 -623463161 -49170211 -640396713 865691897
            2139361371 -753947909 -4728453</internalNodes>
          <leafValues>
            -5.9700667858123779e-01 6.8734186887741089e-01</leafValues></_>
        <_>
          <internalNodes>
            0 -1 73 -576458341 961646737 -587106053 -1612838567
            -276655397 -91616614 -95707987 -1197168640</internalNodes>
          <leafValues>
            -6.5300101041793823e-01 6.1149531602859497e-01</leafValues></_>
        <_>
          <internalNodes>
            0 -1 141 -3146251 1025626647 -704167781 320574347 1678495953
            953712858 1921647053 1593823997</internalNodes>
          <leafValues>
            -6.8468856811523438e-01 5.6006896495819092e-01</leafValues></_>
        <_>
          <internalNodes>
            0 -1 47 -1159790625 -640546097 -1039945599 -574463861
            -880656051 -813694836 1655269461 -135039641</internalNodes>
          <leafValues>
            -8.0174803733825684e-01 4.5610579848289490e-01</leafValues></_>
        <_>
          <internalNodes>
            0 -1 124 -6554763 -1782069229 -268328939 285573505
            -1014511673 -1073627135 -209061702 -1062274059</internalNodes>
          <leafValues>
            -6.8333083391189575e-01 5.3191292285919189e-01</leafValues></_></weakClassifiers></_>
    <!-- stage 5 -->
    <_>
      <maxWeakCount>5</maxWeakCount>
      <stageThreshold>-1.1449064016342163e+00</stageThreshold>
      <weakClassifiers>
        <_>
          <internalNodes>
            0 -1 84 -1941534245 -321077015 1896912379 -44576453
            1002627803 -74808190 -343875077 -4195605</internalNodes>
          <leafValues>
            -6.0414868593215942e-01 6.9755244255065918e-01</leafValues></_>
        <_>
          <internalNodes>
            0 -1 61 -1303318273 -40124151 -213137191 -2780986 -903180133
            -108494711 -893884197 -925367868</internalNodes>
          <leafValues>
            -6.8946129083633423e-01 6.0032278299331665e-01</leafValues></_>
        <_>
          <internalNodes>
            0 -1 52 -136859730 -141036329 -520006428 -1970692096
            -91500101 1512784257 -1060245282 1734600950</internalNodes>
          <leafValues>
            -8.2606810331344604e-01 4.4040143489837646e-01</leafValues></_>
        <_>
          <internalNodes>
            0 -1 13 -354650161 -45723617 -1879048041 -754823037
            1077955331 1930068096 444692751 1929880335</internalNodes>
          <leafValues>
            -7.7268171310424805e-01 4.4189026951789856e-01</leafValues></_>
        <_>
          <internalNodes>
            0 -1 125 -245632163 -203927097 -1828628991 -892895093
            -719847991 -909901805 -1067322929 -1599078431</internalNodes>
          <leafValues>
            -6.8335032463073730e-01 4.8098385334014893e-01</leafValues></_></weakClassifiers></_>
    <!-- stage 6 -->
    <_>
      <maxWeakCount>5</maxWeakCount>
      <stageThreshold>-1.0338972806930542e+00</stageThreshold>
      <weakClassifiers>
        <_>
          <internalNodes>
            0 -1 105 -136318092 1968672891 -179451490 -7355169
            -1071930639 1653147855 -653555236 2143275963</internalNodes>
          <leafValues>
            -7.8738319873809814e-01 5.3494811058044434e-01</leafValues></_>
        <_>
          <internalNodes>
            0 -1 92 -170535099 365546839 -888762019 -740093749
            -1617708357 -1187995495 -620242721 -255984657</internalNodes>
          <leafValues>
            -6.2524145841598511e-01 6.2044209241867065e-01</leafValues></_>
        <_>
          <internalNodes>
            0 -1 30 -318767121 -16842753 -268435474 -3 662009727
            -142606337 1735901047 -142614657</internalNodes>
          <leafValues>
            -5.7599651813507080e-01 6.7381072044372559e-01</leafValues></_>
        <_>
          <internalNodes>
            0 -1 99 -237783775 395530705 -1659775489 2046231869
            -1199349637 923435212 -918360135 -1170218759</internalNodes>
          <leafValues>
            -6.5815579891204834e-01 5.0330466032028198e-01</leafValues></_>
        <_>
          <internalNodes>
            0 -1 110 -682420129 865407131 1367378421 -1647112164
            -2000453125 -1517706624 -1725695015 -1534322680</internalNodes>
          <leafValues>
            -7.2454309463500977e-01 4.5141917467117310e-01</leafValues></_></weakClassifiers></_>
    <!-- stage 7 -->
    <_>
      <maxWeakCount>5</maxWeakCount>
      <stageThreshold>-1.0537596940994263e+00</stageThreshold>
      <weakClassifiers>
        <_>
          <internalNodes>
            0 -1 7 -1081377 -65795 -1 -1 -2097153 -145358849 -11012267
            -8915081</internalNodes>
          <leafValues>
            -5.5764305591583252e-01 6.6548675298690796e-01</leafValues></_>
        <_>
          <internalNodes>
            0 -1 140 -2632841 696689079 -568074029 610255303 -364121455
            1099997187 -351569275 1307569103</internalNodes>
          <leafValues>
            -6.8662583827972412e-01 5.1386660337448120e-01</leafValues></_>
        <_>
          <internalNodes>
            0 -1 88 -11291650 2063696159 -2063521318 -71085998
            -628563270 -335371773 -1056962568 -70290790</internalNodes>
          <leafValues>
            -6.7364007234573364e-01 5.2320170402526855e-01</leafValues></_>
        <_>
          <internalNodes>
            0 -1 94 -652239009 1063123159 1094832602 264968911
            -1031772227 478712054 -654112552 616430590</internalNodes>
          <leafValues>
            -8.1880062818527222e-01 3.9307466149330139e-01</leafValues></_>
        <_>
          <internalNodes>
            0 -1 11 -2068391457 -96025825 18379099 2106851803 1086382251
            -746422138 -134133721 -472163465</internalNodes>
          <leafValues>
            -6.7742371559143066e-01 4.8610818386077881e-01</leafValues></_></weakClassifiers></_>
    <!-- stage 8 -->
    <_>
      <maxWeakCount>7</maxWeakCount>
      <stageThreshold>-1.5811591148376465e+00</stageThreshold>
      <weakClassifiers>
        <_>
          <internalNodes>
            0 -1 18 -824717393 -783564797 -234433915 -184044925
            1616994371 1074298882 -758746779 -103024577</internalNodes>
          <leafValues>
            -6.5085774660110474e-01 5.6793892383575439e-01</leafValues></_>
        <_>
          <internalNodes>
            0 -1 87 -707296212 -1246146507 -1811576368 -74704550
            1015253497 -24608764 1888023002 -1087667601</internalNodes>
          <leafValues>
            -6.9355350732803345e-01 4.5200282335281372e-01</leafValues></_>
        <_>
          <internalNodes>
            0 -1 122 -241446689 -652803559 -243236199 -1287519085
            -133064262 -468023262 -217842966 -1326406701</internalNodes>
          <leafValues>
            -6.0802161693572998e-01 4.7638988494873047e-01</leafValues></_>
        <_>
          <internalNodes>
            0 -1 139 -564233161 39469213 23103709 1648853647 -938753917
            606208 -91647420 646695851</internalNodes>
          <leafValues>
            -7.1893841028213501e-01 4.2147180438041687e-01</leafValues></_>
        <_>
          <internalNodes>
            0 -1 67 -1959084034 -813514692 1076011722 -150306358
            -267504917 2039611400 -1311797077 -218331104</internalNodes>
          <leafValues>
            -6.9623482227325439e-01 3.9870736002922058e-01</leafValues></_>
        <_>
          <internalNodes>
            0 -1 35 -488702977 -119873403 -788430445 -699776823
            1905156920 1908572299 -192292557 997481483</internalNodes>
          <leafValues>
            -9.1235136985778809e-01 2.7274581789970398e-01</leafValues></_>
        <_>
          <internalNodes>
            0 -1 142 423867067 119472129 -805269375 -1350465455
            814440859 428539905 -1865688415 -7341887</internalNodes>
          <leafValues>
            -6.4545851945877075e-01 4.1875895857810974e-01</leafValues></_></weakClassifiers></_>
    <!-- stage 9 -->
    <_>
      <maxWeakCount>7</maxWeakCount>
      <stageThreshold>-1.3806185722351074e+00</stageThreshold>
      <weakClassifiers>
        <_>
          <internalNodes>
            0 -1 132 -706742409 74841975 -1 284950391 -1 1963196415
            -131073 -520093697</internalNodes>
          <leafValues>
            -5.9145772457122803e-01 6.0130721330642700e-01</leafValues></_>
        <_>
          <internalNodes>
            0 -1 43 -698941985 1717821763 98955 -41201527 -922516853
            -567696766 -1870271765 -197691789</internalNodes>
          <leafValues>
            -5.8735275268554688e-01 5.1515632867813110e-01</leafValues></_>
        <_>
          <internalNodes>
            0 -1 85 -1898538282 -1097968895 -1056733883 -145829686
            939778249 -1182138367 -1786656101 -43094517</internalNodes>
          <leafValues>
            -7.5388342142105103e-01 3.9088198542594910e-01</leafValues></_>
        <_>
          <internalNodes>
            0 -1 103 961754363 -251588095 -1810691753 -577105652
            -1599543157 -1031765952 1369010991 533203720</internalNodes>
          <leafValues>
            -6.6597568988800049e-01 4.3706002831459045e-01</leafValues></_>
        <_>
          <internalNodes>
            0 -1 19 -2037432449 -196444085 271614019 -779042582
            1503339375 -393543616 1250194017 -73936319</internalNodes>
          <leafValues>
            -7.8918445110321045e-01 3.2796007394790649e-01</leafValues></_>
        <_>
          <internalNodes>
            0 -1 116 1359295191 1497964673 16892083 1439662467 950419720
            -351764432 1393232537 -70579512</internalNodes>
          <leafValues>
            -6.1768579483032227e-01 4.0797185897827148e-01</leafValues></_>
        <_>
          <internalNodes>
            0 -1 51 -1482493985 1904896325 1091048729 -543502330
            1284003891 -376864760 -668235077 1672729234</internalNodes>
          <leafValues>
            -6.6358613967895508e-01 4.0526768565177917e-01</leafValues></_></weakClassifiers></_>
    <!-- stage 10 -->
    <_>
      <maxWeakCount>6</maxWeakCount>
      <stageThreshold>-1.7224630117416382e+00</stageThreshold>
      <weakClassifiers>
        <_>
          <internalNodes>
            0 -1 127 -551824393 -171457637 -1857961765 -993275633
            -486428735 813694977 -649751623 -386204673</internalNodes>
          <leafValues>
            -6.7938929796218872e-01 5.2167630195617676e-01</leafValues></_>
        <_>
          <internalNodes>
            0 -1 98 -34078876 903705275 -1828646317 2141028689 -53788435
            -376782786 -79510823 -1980769653</internalNodes>
          <leafValues>
            -5.7944238185882568e-01 4.9894329905509949e-01</leafValues></_>
        <_>
          <internalNodes>
            0 -1 46 -82589298 -677591679 1359155794 2000130262
            -2079766110 -620161024 -402603286 2120952750</internalNodes>
          <leafValues>
            -8.0155265331268311e-01 3.7774673104286194e-01</leafValues></_>
        <_>
          <internalNodes>
            0 -1 36 -845164225 -27336689 1073824081 -1638759167
            1619613771 1611563144 -1985902069 1877399707</internalNodes>
          <leafValues>
            -7.7089124917984009e-01 3.6888650059700012e-01</leafValues></_>
        <_>
          <internalNodes>
            0 -1 44 -17825793 2147483647 -81921 -3 -53249 -33 -285278337
            -808629056</internalNodes>
          <leafValues>
            -4.6872103214263916e-01 5.6193989515304565e-01</leafValues></_>
        <_>
          <internalNodes>
            0 -1 104 -1426448094 -678247984 -1985949449 -929901541
            -1862231831 -1878523896 -401958177 2063669962</internalNodes>
          <leafValues>
            -7.4154353141784668e-01 3.7354421615600586e-01</leafValues></_></weakClassifiers></_>
    <!-- stage 11 -->
    <_>
      <maxWeakCount>6</maxWeakCount>
      <stageThreshold>-9.2319440841674805e-01</stageThreshold>
      <weakClassifiers>
        <_>
          <internalNodes>
            0 -1 89 992155511 -45002347 1495603000 -115731724 -787739909
            -56094716 -1157099974 -71591206</internalNodes>
          <leafValues>
            -6.7982459068298340e-01 5.1763856410980225e-01</leafValues></_>
        <_>
          <internalNodes>
            0 -1 16 -1564737585 -1123909371 -1728036864 -586137598
            1619286955 2131479050 -886216054 2141419553</internalNodes>
          <leafValues>
            -7.4896097183227539e-01 3.9344069361686707e-01</leafValues></_>
        <_>
          <internalNodes>
            0 -1 3 -461119521 -574549689 -1073676287 -1055964854
            -267417427 -905314293 -1475739413 1869869303</internalNodes>
          <leafValues>
            -6.0479056835174561e-01 4.5650944113731384e-01</leafValues></_>
        <_>
          <internalNodes>
            0 -1 101 -104120994 1511096393 -2147171955 -553548783
            -532493595 564822160 -528367344 818278893</internalNodes>
          <leafValues>
            -6.7928272485733032e-01 4.3551126122474670e-01</leafValues></_>
        <_>
          <internalNodes>
            0 -1 118 2002746663 620998730 1073791003 502712647
            -376928245 -511065336 -355434311 1368038378</internalNodes>
          <leafValues>
            -7.0045506954193115e-01 3.3025541901588440e-01</leafValues></_>
        <_>
          <internalNodes>
            0 -1 69 -17903329 810450955 -803930112 587874323 41354251
            186359872 67610 -75033901</internalNodes>
          <leafValues>
            -6.6034919023513794e-01 3.9810901880264282e-01</leafValues></_></weakClassifiers></_>
    <!-- stage 12 -->
    <_>
      <maxWeakCount>8</maxWeakCount>
      <stageThreshold>-1.2296096086502075e+00</stageThreshold>
      <weakClassifiers>
        <_>
          <internalNodes>
            0 -1 71 1073692671 -716087297 -1073791301 -53254 -1
            -938475521 -8264806 -20802</internalNodes>
          <leafValues>
            -4.2964634299278259e-01 6.8930041790008545e-01</leafValues></_>
        <_>
          <internalNodes>
            0 -1 126 -3292211 -708460523 -1069465215 -1677356909
            -544882487 -641728376 -1073493543 549024253</internalNodes>
          <leafValues>
            -8.2763195037841797e-01 3.5374510288238525e-01</leafValues></_>
        <_>
          <internalNodes>
            0 -1 1 -384828997 -720338851 1224851535 -779505571 655567
            -931135351 -2012970513 1954542195</internalNodes>
          <leafValues>
            -5.1668500900268555e-01 4.9965307116508484e-01</leafValues></_>
        <_>
          <internalNodes>
            0 -1 121 -6555275 1489486362 -1879047965 1506394259
            578948257 1887453187 -1073487215 1171220683</internalNodes>
          <leafValues>
            -6.3137722015380859e-01 4.4161289930343628e-01</leafValues></_>
        <_>
          <internalNodes>
            0 -1 49 -185752598 -1210598183 -2146396814 -133328751
            -7644957 1905281115 -259471144 1614867275</internalNodes>
          <leafValues>
            -6.9466912746429443e-01 3.3575257658958435e-01</leafValues></_>
        <_>
          <internalNodes>
            0 -1 79 -1751351841 -677847022 -2126285355 286394833
            725699171 -1324875648 1218656795 712388350</internalNodes>
          <leafValues>
            -7.1213769912719727e-01 2.8328859806060791e-01</leafValues></_>
        <_>
          <internalNodes>
            0 -1 10 -820568641 1359856294 -805289830 -218005496
            1075954250 168165376 570581072 -178401167</internalNodes>
          <leafValues>
            -6.4555197954177856e-01 3.3017939329147339e-01</leafValues></_>
        <_>
          <internalNodes>
            0 -1 53 -279599186 -1655336943 1090638150 688984099
            -737643791 -527775590 -670958578 1926580352</internalNodes>
          <leafValues>
            -8.8277971744537354e-01 2.0559853315353394e-01</leafValues></_></weakClassifiers></_>
    <!-- stage 13 -->
    <_>
      <maxWeakCount>9</maxWeakCount>
      <stageThreshold>-1.2987387180328369e+00</stageThreshold>
      <weakClassifiers>
        <_>
          <internalNodes>
            0 -1 122 -245107713 -7634421 18059735 -78397171 -888692501
            -1321074560 -233070422 -1330583933</internalNodes>
          <leafValues>
            -5.9137576818466187e-01 5.0866615772247314e-01</leafValues></_>
        <_>
          <internalNodes>
            0 -1 106 -191487708 -174981101 -804154950 -103038970
            -746413672 -796848122 -662466344 -86284098</internalNodes>
          <leafValues>
            -6.1495399475097656e-01 4.2009806632995605e-01</leafValues></_>
        <_>
          <internalNodes>
            0 -1 100 -2060 -33554564 -1 -704675841 -33587203 -578979843
            -33554498 -637665284</internalNodes>
          <leafValues>
            -4.0812262892723083e-01 5.7568240165710449e-01</leafValues></_>
        <_>
          <internalNodes>
            0 -1 21 1847426043 -1694067959 -2147479551 -50167551
            1959164602 -24739826 -1685425234 -148835584</internalNodes>
          <leafValues>
            -5.3654825687408447e-01 4.1852670907974243e-01</leafValues></_>
        <_>
          <internalNodes>
            0 -1 78 -209202726 -796884957 1090623895 -1324838591
            822149595 -1559724032 -1878900661 -611300510</internalNodes>
          <leafValues>
            -4.8582404851913452e-01 4.5410996675491333e-01</leafValues></_>
        <_>
          <internalNodes>
            0 -1 40 -251586083 -619638575 1346376607 -562036348
            680548522 -108298110 176774799 -108320345</internalNodes>
          <leafValues>
            -4.9095585942268372e-01 4.4694072008132935e-01</leafValues></_>
        <_>
          <internalNodes>
            0 -1 31 676395981 -150142591 -1056960122 -1023340533
            1346576482 -2012348408 42180195 -68660727</internalNodes>
          <leafValues>
            -6.5835511684417725e-01 3.4797236323356628e-01</leafValues></_>
        <_>
          <internalNodes>
            0 -1 131 -540577583 188334089 -1870659452 706679453
            -267705895 142672000 -1996438903 -926025521</internalNodes>
          <leafValues>
            -5.8910906314849854e-01 3.2959976792335510e-01</leafValues></_>
        <_>
          <internalNodes>
            0 -1 141 2018244087 420151305 32775 994131973 1636549264
            168313472 1780680864 717906861</internalNodes>
          <leafValues>
            -7.8002685308456421e-01 2.6278820633888245e-01</leafValues></_></weakClassifiers></_>
    <!-- stage 14 -->
    <_>
      <maxWeakCount>8</maxWeakCount>
      <stageThreshold>-1.1337925195693970e+00</stageThreshold>
      <weakClassifiers>
        <_>
          <internalNodes>
            0 -1 0 -236989989 -79130622 1342177695 932642948 -1865906001
            -761789301 -2085056285 938979508</internalNodes>
          <leafValues>
            -5.8620691299438477e-01 4.2557650804519653e-01</leafValues></_>
        <_>
          <internalNodes>
            0 -1 93 -540307439 457785349 1107378391 1531171145
            -527712049 -624278333 1116064456 835582316</internalNodes>
          <leafValues>
            -6.9114923477172852e-01 3.0074334144592285e-01</leafValues></_>
        <_>
          <internalNodes>
            0 -1 109 -2099273652 -767393786 -1004437486 -430014446
            1107945640 -402489344 -351598344 -67452774</internalNodes>
          <leafValues>
            -6.7410075664520264e-01 2.9621452093124390e-01</leafValues></_>
        <_>
          <internalNodes>
            0 -1 114 -686096145 -112361453 -1878474085 -545226556
            -2138849128 -1836973910 142622908 -846393928</internalNodes>
          <leafValues>
            -4.7022989392280579e-01 4.4374728202819824e-01</leafValues></_>
        <_>
          <internalNodes>
            0 -1 48 -1865690913 -603946877 83918913 -653725646
            -376810961 -1073741664 -1423957486 -1022919913</internalNodes>
          <leafValues>
            -6.9134765863418579e-01 2.9880085587501526e-01</leafValues></_>
        <_>
          <internalNodes>
            0 -1 60 -1017982769 352518275 268435489 -698728439 9046538
            726269952 -1073175893 -703666037</internalNodes>
          <leafValues>
            -5.3420352935791016e-01 3.9416268467903137e-01</leafValues></_>
        <_>
          <internalNodes>
            0 -1 97 -264036237 743063681 553752721 756088913 -1879045926
            143171712 -125742920 143557354</internalNodes>
          <leafValues>
            -7.4274384975433350e-01 2.3951236903667450e-01</leafValues></_>
        <_>
          <internalNodes>
            0 -1 102 -424415000 -1065058175 1346384346 -23461552
            -1543368696 -914354047 -1543239460 -207638424</internalNodes>
          <leafValues>
            -4.6140289306640625e-01 4.2369735240936279e-01</leafValues></_></weakClassifiers></_>
    <!-- stage 15 -->
    <_>
      <maxWeakCount>9</maxWeakCount>
      <stageThreshold>-1.4965107440948486e+00</stageThreshold>
      <weakClassifiers>
        <_>
          <internalNodes>
            0 -1 133 -774901305 1373618563 1073790986 822071313 -1
            100532095 -423733 -117443585</internalNodes>
          <leafValues>
            -3.8426280021667480e-01 6.0685485601425171e-01</leafValues></_>
        <_>
          <internalNodes>
            0 -1 73 -150236209 -707294197 -1862201059 -1087205301
            -1560215297 -1156906622 -1953979445 713079304</internalNodes>
          <leafValues>
            -6.1207616329193115e-01 3.7822812795639038e-01</leafValues></_>
        <_>
          <internalNodes>
            0 -1 57 -296049706 -670939071 -779812583 -170385384
            817543305 -1726971904 -1315338101 864147983</internalNodes>
          <leafValues>
            -6.1447918415069580e-01 3.1321346759796143e-01</leafValues></_>
        <_>
          <internalNodes>
            0 -1 15 -146381825 -627801959 1073758613 -742203376
            1377013259 -2046810096 554134049 -210277851</internalNodes>
          <leafValues>
            -6.5807193517684937e-01 3.1933650374412537e-01</leafValues></_>
        <_>
          <internalNodes>
            0 -1 50 -1509014577 1900068869 1342275841 -1605709295
            696463002 -528236392 -938583521 -225247290</internalNodes>
          <leafValues>
            -6.4069330692291260e-01 2.6471737027168274e-01</leafValues></_>
        <_>
          <internalNodes>
            0 -1 65 -767503365 -687239023 69904 -1860661132 -520080743
            -133988222 545272378 1355767842</internalNodes>
          <leafValues>
            -5.5845445394515991e-01 3.4258285164833069e-01</leafValues></_>
        <_>
          <internalNodes>
            0 -1 107 -792463571 938164225 1342243067 1469677889
            -670510365 547520651 -2013257488 -167016277</internalNodes>
          <leafValues>
            -5.2114921808242798e-01 3.7679502367973328e-01</leafValues></_>
        <_>
          <internalNodes>
            0 -1 27 1745660927 -259977216 1342185857 -1827340026
            -383583577 -2136997752 1741275 2076186704</internalNodes>
          <leafValues>
            -5.6721419095993042e-01 3.1688833236694336e-01</leafValues></_>
        <_>
          <internalNodes>
            0 -1 8 -1089838449 -620703742 1342214401 1971491075
            1762208539 1745596552 1477015695 998406254</internalNodes>
          <leafValues>
            -7.4126827716827393e-01 2.3648290336132050e-01</leafValues></_></weakClassifiers></_>
    <!-- stage 16 -->
    <_>
      <maxWeakCount>10</maxWeakCount>
      <stageThreshold>-1.0188375711441040e+00</stageThreshold>
      <weakClassifiers>
        <_>
          <internalNodes>
            0 -1 75 -268452057 2139029367 -1 -134234113 -33 -147457
            -49156 -16777220</internalNodes>
          <leafValues>
            -3.8579067587852478e-01 6.0887098312377930e-01</leafValues></_>
        <_>
          <internalNodes>
            0 -1 123 -710944929 318963713 553840917 385958215
            -1467776070 -1686026205 -754953246 1891564443</internalNodes>
          <leafValues>
            -5.0346559286117554e-01 4.0366894006729126e-01</leafValues></_>
        <_>
          <internalNodes>
            0 -1 113 -706506153 -743112678 -1869774693 1397981511
            1267843137 -1742028798 -1602188291 -75933904</internalNodes>
          <leafValues>
            -4.3653270602226257e-01 4.5373204350471497e-01</leafValues></_>
        <_>
          <internalNodes>
            0 -1 32 -1364470837 -1236336635 553664712 -863371259
            1375860764 -1876950902 167831654 -74655029</internalNodes>
          <leafValues>
            -6.3580673933029175e-01 3.0009007453918457e-01</leafValues></_>
        <_>
          <internalNodes>
            0 -1 67 973258206 -1039231663 -800517234 -1685418742
            1204367515 -897038316 -2006633813 -238554996</internalNodes>
          <leafValues>
            -5.5928766727447510e-01 3.2194283604621887e-01</leafValues></_>
        <_>
          <internalNodes>
            0 -1 135 -204508091 30228675 16385 537102337 21529224
            1116078208 -2134665015 747563949</internalNodes>
          <leafValues>
            -7.1773964166641235e-01 2.1267858147621155e-01</leafValues></_>
        <_>
          <internalNodes>
            0 -1 9 -285245441 -98305 -4097 -98314 -32801 -44793987 -2220
            -42475521</internalNodes>
          <leafValues>
            -3.9168012142181396e-01 4.8119255900382996e-01</leafValues></_>
        <_>
          <internalNodes>
            0 -1 71 1971336671 1360330768 285316492 290724250 142612546
            -2139062134 1745383454 -73957200</internalNodes>
          <leafValues>
            -6.5229338407516479e-01 2.8589040040969849e-01</leafValues></_>
        <_>
          <internalNodes>
            0 -1 66 1209258479 -402325367 -2130620327 -1147891693
            805456547 1573004 579035584 -259473269</internalNodes>
          <leafValues>
            -5.0974839925765991e-01 3.5417222976684570e-01</leafValues></_>
        <_>
          <internalNodes>
            0 -1 134 -522300329 198361217 -1052606447 709873985
            -779517239 -536706944 -2146793240 1217067736</internalNodes>
          <leafValues>
            -6.8983483314514160e-01 2.3345005512237549e-01</leafValues></_></weakClassifiers></_>
    <!-- stage 17 -->
    <_>
      <maxWeakCount>9</maxWeakCount>
      <stageThreshold>-1.5797117948532104e+00</stageThreshold>
      <weakClassifiers>
        <_>
          <internalNodes>
            0 -1 138 -78646441 1191657995 -2126495741 67305475
            -511606141 84607122 1782622817 570422219</internalNodes>
          <leafValues>
            -6.0587513446807861e-01 4.0026953816413879e-01</leafValues></_>
        <_>
          <internalNodes>
            0 -1 63 1134543083 -1017835299 1158754385 -572800764
            -1071070554 176783403 -644173638 -809027454</internalNodes>
          <leafValues>
            -4.1264227032661438e-01 4.9535390734672546e-01</leafValues></_>
        <_>
          <internalNodes>
            0 -1 58 -627146277 -636469247 65818 -83734258 110069995
            1602519040 1074301129 -12074996</internalNodes>
          <leafValues>
            -5.6355822086334229e-01 3.4008857607841492e-01</leafValues></_>
        <_>
          <internalNodes>
            0 -1 90 -787353381 -7274111 -1862266501 1026949143
            -536809333 -116781056 -1693809825 134273939</internalNodes>
          <leafValues>
            -5.1750099658966064e-01 4.1319608688354492e-01</leafValues></_>
        <_>
          <internalNodes>
            0 -1 38 -192022021 -581713919 -2147450686 -556498816
            134217802 839385216 587362523 -71319317</internalNodes>
          <leafValues>
            -4.2029201984405518e-01 4.1627317667007446e-01</leafValues></_>
        <_>
          <internalNodes>
            0 -1 80 1409028158 1062846788 -2130624429 -675266424
            704674330 2030174336 -2004817863 1047570664</internalNodes>
          <leafValues>
            -7.8590315580368042e-01 1.9503086805343628e-01</leafValues></_>
        <_>
          <internalNodes>
            0 -1 24 -1564191861 -1023143926 1342185536 1392623809
            1258947425 -2113798016 1937838307 1405834001</internalNodes>
          <leafValues>
            -6.6121459007263184e-01 2.4541723728179932e-01</leafValues></_>
        <_>
          <internalNodes>
            0 -1 115 -386202780 -787906496 1064970 1128431626
            -2147336055 1744863361 -2146893687 -2016195832</internalNodes>
          <leafValues>
            -7.7993959188461304e-01 2.6078608632087708e-01</leafValues></_>
        <_>
          <internalNodes>
            0 -1 2 -784311821 591609984 1073762307 -754871552
            -1073104696 -519929854 -1039760832 1883990817</internalNodes>
          <leafValues>
            -6.6472411155700684e-01 2.6354509592056274e-01</leafValues></_></weakClassifiers></_>
    <!-- stage 18 -->
    <_>
      <maxWeakCount>12</maxWeakCount>
      <stageThreshold>-1.1346502304077148e+00</stageThreshold>
      <weakClassifiers>
        <_>
          <internalNodes>
            0 -1 119 -103550209 -1626143742 1074840778 -786759603
            -1568438092 8519811 973711828 1368097467</internalNodes>
          <leafValues>
            -4.7661691904067993e-01 4.4598764181137085e-01</leafValues></_>
        <_>
          <internalNodes>
            0 -1 45 -989601574 1494290581 1090621521 -788442815
            -939329381 -1056423925 -334970772 855633983</internalNodes>
          <leafValues>
            -5.9862893819808960e-01 2.8565350174903870e-01</leafValues></_>
        <_>
          <internalNodes>
            0 -1 95 -537022476 -2 -16642 -82258 -16417 -33554561 -132936
            -38700816</internalNodes>
          <leafValues>
            -3.8498321175575256e-01 4.4597429037094116e-01</leafValues></_>
        <_>
          <internalNodes>
            0 -1 33 -422063649 -771620864 1342242817 -552730623
            587958970 -805142392 277391496 -88028645</internalNodes>
          <leafValues>
            -4.2724263668060303e-01 4.2963272333145142e-01</leafValues></_>
        <_>
          <internalNodes>
            0 -1 17 -1048489477 -968163319 134221844 -787742695
            -1744811463 -2146926448 -536256201 -266895269</internalNodes>
          <leafValues>
            -6.8709671497344971e-01 2.0811283588409424e-01</leafValues></_>
        <_>
          <internalNodes>
            0 -1 52 -644177426 -250654695 1073778708 -2129489656
            -931106563 -561512312 -2144698157 1768964928</internalNodes>
          <leafValues>
            -6.8478941917419434e-01 2.0108869671821594e-01</leafValues></_>
        <_>
          <internalNodes>
            0 -1 122 1360720219 -539811545 285294803 407523331
            -1459560254 -1828716544 -2138863218 539017237</internalNodes>
          <leafValues>
            -8.0511260032653809e-01 1.7307056486606598e-01</leafValues></_>
        <_>
          <internalNodes>
            0 -1 39 -2046787533 1359941649 284929 -565149613 25296937
            419578024 -2004828000 1192411145</internalNodes>
          <leafValues>
            -7.4645268917083740e-01 1.7746981978416443e-01</leafValues></_>
        <_>
          <internalNodes>
            0 -1 112 -645332651 -1727463415 -2080337581 1422999617
            -1003960959 671613058 -1038057139 -82777488</internalNodes>
          <leafValues>
            -5.8320879936218262e-01 2.0048277080059052e-01</leafValues></_>
        <_>
          <internalNodes>
            0 -1 83 688314507 -1052700672 -1056403307 -74280559
            578813970 1476427784 1073770759 -1079277406</internalNodes>
          <leafValues>
            -5.6313973665237427e-01 2.6755571365356445e-01</leafValues></_>
        <_>
          <internalNodes>
            0 -1 4 -1073586175 1459618048 0 -1728036864 1082134915
            -1744306176 1342785690 922769674</internalNodes>
          <leafValues>
            -8.9081108570098877e-01 1.7904165387153625e-01</leafValues></_>
        <_>
          <internalNodes>
            0 -1 68 -919502727 1375850640 -1861185123 1359741120
            -1056931670 -1476296640 830505023 1133641826</internalNodes>
          <leafValues>
            -4.8639789223670959e-01 3.2392048835754395e-01</leafValues></_></weakClassifiers></_>
    <!-- stage 19 -->
    <_>
      <maxWeakCount>13</maxWeakCount>
      <stageThreshold>-1.2696427106857300e+00</stageThreshold>
      <weakClassifiers>
        <_>
          <internalNodes>
            0 -1 96 -159 1975779167 -1 2147483646 -12 -1 -259800836
            872349695</internalNodes>
          <leafValues>
            -4.5437616109848022e-01 4.7840261459350586e-01</leafValues></_>
        <_>
          <internalNodes>
            0 -1 86 -787365884 268435456 -1870557045 -788491131
            -805191189 -1996488704 -1878927109 -1885618017</internalNodes>
          <leafValues>
            -5.7088720798492432e-01 3.3928367495536804e-01</leafValues></_>
        <_>
          <internalNodes>
            0 -1 42 -854601041 1224802305 134369561 -653803511 403358123
            403341320 -1987471157 1168372871</internalNodes>
          <leafValues>
            -4.0984612703323364e-01 3.9256477355957031e-01</leafValues></_>
        <_>
          <internalNodes>
            0 -1 142 318882011 990003217 16810005 -1719316416 1082130571
            989986826 -528311623 -108035871</internalNodes>
          <leafValues>
            -3.8124519586563110e-01 4.0832668542861938e-01</leafValues></_>
        <_>
          <internalNodes>
            0 -1 64 -2008903294 -636407679 1091125714 -1757609972
            -1744305958 -125042552 -401525067 -47764505</internalNodes>
          <leafValues>
            -4.6018862724304199e-01 3.3261442184448242e-01</leafValues></_>
        <_>
          <internalNodes>
            0 -1 129 190792561 173097288 -1342177071 -1596931839
            1476952362 -1425891200 -771700519 -1459620899</internalNodes>
          <leafValues>
            -6.9816261529922485e-01 1.7095400393009186e-01</leafValues></_>
        <_>
          <internalNodes>
            0 -1 55 -1436642406 10023377 268455936 940494946 1602988673
            276860937 1082163529 2063951130</internalNodes>
          <leafValues>
            -7.3132258653640747e-01 2.0813867449760437e-01</leafValues></_>
        <_>
          <internalNodes>
            0 -1 25 -1000418854 -956135418 -1878982656 285606017
            520856079 1795883008 1636538963 -108502487</internalNodes>
          <leafValues>
            -4.8162397742271423e-01 2.8795796632766724e-01</leafValues></_>
        <_>
          <internalNodes>
            0 -1 75 -1072463830 1090617556 16 285376596 -1072938857
            -208666432 -2147416384 973021240</internalNodes>
          <leafValues>
            -7.2166007757186890e-01 1.6354675590991974e-01</leafValues></_>
        <_>
          <internalNodes>
            0 -1 41 -1190752097 2030698636 -2147482224 402685963
            -1971158134 -1987559296 -1584856573 2703616</internalNodes>
          <leafValues>
            -6.9793510437011719e-01 2.2074960172176361e-01</leafValues></_>
        <_>
          <internalNodes>
            0 -1 12 -1066774433 1350696969 32986 -788245312 -2146873266
            8388608 -2113715562 -83672963</internalNodes>
          <leafValues>
            -5.6070154905319214e-01 2.1606272459030151e-01</leafValues></_>
        <_>
          <internalNodes>
            0 -1 76 -1877360557 1363183617 16827025 419565585 1619665475
            -1878916992 -268120007 -1282781366</internalNodes>
          <leafValues>
            -4.3135696649551392e-01 3.4414097666740417e-01</leafValues></_>
        <_>
          <internalNodes>
            0 -1 29 -486048917 -804847614 1280 1477280001 -1199554038
            2013823106 -1207408374 838867466</internalNodes>
          <leafValues>
            -4.5401507616043091e-01 3.2601991295814514e-01</leafValues></_></weakClassifiers></_>
    <!-- stage 20 -->
    <_>
      <maxWeakCount>13</maxWeakCount>
      <stageThreshold>-1.3364808559417725e+00</stageThreshold>
      <weakClassifiers>
        <_>
          <internalNodes>
            0 -1 82 -86774144 1481932940 -2147430381 -788442669
            -527842392 -889028480 -1073573733 -1073528374</internalNodes>
          <leafValues>
            -4.9229186773300171e-01 4.3524095416069031e-01</leafValues></_>
        <_>
          <internalNodes>
            0 -1 120 -825527685 557907983 -1862221631 1971994826
            -1865515007 16777352 -1476339238 613057163</internalNodes>
          <leafValues>
            -6.1194157600402832e-01 2.8169396519660950e-01</leafValues></_>
        <_>
          <internalNodes>
            0 -1 74 -786201697 -1991049081 16826439 -682114977
            -1037483805 -1693908736 1644789971 -397038748</internalNodes>
          <leafValues>
            -5.7948410511016846e-01 3.1297832727432251e-01</leafValues></_>
        <_>
          <internalNodes>
            0 -1 37 -914254382 -733740992 1090617650 -1659612912 8519826
            -2004860920 -2146959357 -343201774</internalNodes>
          <leafValues>
            -7.6026475429534912e-01 2.1706537902355194e-01</leafValues></_>
        <_>
          <internalNodes>
            0 -1 117 -780025337 1224966147 16385 1078050817 1073793160
            -939425792 -1073635264 743427785</internalNodes>
          <leafValues>
            -5.8875280618667603e-01 2.8428229689598083e-01</leafValues></_>
        <_>
          <internalNodes>
            0 -1 13 -905022710 -553074687 1073788928 1560481802
            279111818 705200136 -1560186742 -140402546</internalNodes>
          <leafValues>
            -4.5471003651618958e-01 3.3430552482604980e-01</leafValues></_>
        <_>
          <internalNodes>
            0 -1 90 -788414123 -1715257341 4260311 286393361 -2113896309
            1796341762 1921174523 135268875</internalNodes>
          <leafValues>
            -5.3740364313125610e-01 2.7801954746246338e-01</leafValues></_>
        <_>
          <internalNodes>
            0 -1 34 1118028015 -670040063 75778 -452182015 -662207926
            50463232 655392 -77282804</internalNodes>
          <leafValues>
            -5.6412124633789062e-01 2.9485747218132019e-01</leafValues></_>
        <_>
          <internalNodes>
            0 -1 128 -1279048891 1430634563 81920 8863744 -2143125366
            336232450 -1073725239 214420429</internalNodes>
          <leafValues>
            -6.7326539754867554e-01 1.8787604570388794e-01</leafValues></_>
        <_>
          <internalNodes>
            0 -1 108 -729568332 1132535808 -1879027693 -1728032759
            -896859495 1753874432 -2147282836 1671660178</internalNodes>
          <leafValues>
            -6.6276425123214722e-01 2.0349766314029694e-01</leafValues></_>
        <_>
          <internalNodes>
            0 -1 56 -2147233551 -801046461 1359007872 -1794637440
            -2138554174 278069448 -1601697645 1929576587</internalNodes>
          <leafValues>
            -4.5604991912841797e-01 3.3328020572662354e-01</leafValues></_>
        <_>
          <internalNodes>
            0 -1 54 -895495805 1745518602 33554436 1091141632 830576779
            982056960 -2126413823 -351868413</internalNodes>
          <leafValues>
            -3.8036757707595825e-01 3.8223588466644287e-01</leafValues></_>
        <_>
          <internalNodes>
            0 -1 28 -125600832 -654180224 536871042 -1052557183
            420096040 -2146959352 1350601137 1997070369</internalNodes>
          <leafValues>
            -4.3113937973976135e-01 3.8351443409919739e-01</leafValues></_></weakClassifiers></_>
    <!-- stage 21 -->
    <_>
      <maxWeakCount>9</maxWeakCount>
      <stageThreshold>-1.1462459564208984e+00</stageThreshold>
      <weakClassifiers>
        <_>
          <internalNodes>
            0 -1 137 -1869889061 -1929281533 16826496 -1543417855
            -1736408953 -935294847 -1425897343 -1796214549</internalNodes>
          <leafValues>
            -4.5082765817642212e-01 4.4113031029701233e-01</leafValues></_>
        <_>
          <internalNodes>
            0 -1 62 -804003378 1090584729 302059731 -754908973
            1074364618 -402653183 -1735819205 -943482684</internalNodes>
          <leafValues>
            -5.4726493358612061e-01 3.4155449271202087e-01</leafValues></_>
        <_>
          <internalNodes>
            0 -1 38 -654069685 -780074875 2150738 1075724544 34082842
            411041800 268469935 -123565927</internalNodes>
          <leafValues>
            -5.0194656848907471e-01 3.3934220671653748e-01</leafValues></_>
        <_>
          <internalNodes>
            0 -1 77 -774270712 285229248 20499 -1073627135 -2147430205
            -1610563576 1073758418 -1945722658</internalNodes>
          <leafValues>
            -5.9562957286834717e-01 3.2116135954856873e-01</leafValues></_>
        <_>
          <internalNodes>
            0 -1 48 -1071656821 1376010249 -2147450869 -648265590
            -2137322486 -2147450878 -2146762651 -1686043037</internalNodes>
          <leafValues>
            -6.7985045909881592e-01 1.9560763239860535e-01</leafValues></_>
        <_>
          <internalNodes>
            0 -1 136 -707831219 1116667915 0 386088960 688620169 524298
            134250696 747301517</internalNodes>
          <leafValues>
            -5.8417934179306030e-01 2.7361729741096497e-01</leafValues></_>
        <_>
          <internalNodes>
            0 -1 89 805572629 428933120 1376845844 -787480512 167807131
            673189888 34079520 -351599952</internalNodes>
          <leafValues>
            -7.9267328977584839e-01 1.7736732959747314e-01</leafValues></_>
        <_>
          <internalNodes>
            0 -1 72 -2147180093 1095319559 268435475 -653836079 1577129
            -1073577975 -1878947181 182993764</internalNodes>
          <leafValues>
            -8.3047181367874146e-01 1.7352274060249329e-01</leafValues></_>
        <_>
          <internalNodes>
            0 -1 64 -2147121758 -733474816 269484470 1904476224
            -1073686519 -1593798648 -2113885456 -440205309</internalNodes>
          <leafValues>
            -5.9994435310363770e-01 2.0033259689807892e-01</leafValues></_></weakClassifiers></_></stages>
  <features>
    <_>
      <rect>
        0 0 1 1</rect></_>
    <_>
      <rect>
        0 0 1 2</rect></_>
    <_>
      <rect>
        0 0 1 7</rect></_>
    <_>
      <rect>
        0 0 2 2</rect></_>
    <_>
      <rect>
        0 0 2 6</rect></_>
    <_>
      <rect>
        0 0 3 4</rect></_>
    <_>
      <rect>
        0 0 3 5</rect></_>
    <_>
      <rect>
        0 1 1 3</rect></_>
    <_>
      <rect>
        0 1 2 5</rect></_>
    <_>
      <rect>
        0 2 1 3</rect></_>
    <_>
      <rect>
        0 2 1 6</rect></_>
    <_>
      <rect>
        0 2 2 2</rect></_>
    <_>
      <rect>
        0 3 1 2</rect></_>
    <_>
      <rect>
        0 3 2 5</rect></_>
    <_>
      <rect>
        0 4 1 2</rect></_>
    <_>
      <rect>
        0 4 1 4</rect></_>
    <_>
      <rect>
        0 4 2 6</rect></_>
    <_>
      <rect>
        0 5 1 1</rect></_>
    <_>
      <rect>
        0 5 1 5</rect></_>
    <_>
      <rect>
        0 6 1 2</rect></_>
    <_>
      <rect>
        0 6 1 3</rect></_>
    <_>
      <rect>
        0 6 2 4</rect></_>
    <_>
      <rect>
        0 7 1 1</rect></_>
    <_>
      <rect>
        0 7 3 3</rect></_>
    <_>
      <rect>
        0 8 1 4</rect></_>
    <_>
      <rect>
        0 10 1 4</rect></_>
    <_>
      <rect>
        0 10 2 4</rect></_>
    <_>
      <rect>
        0 10 3 3</rect></_>
    <_>
      <rect>
        0 11 1 3</rect></_>
    <_>
      <rect>
        0 11 2 2</rect></_>
    <_>
      <rect>
        0 12 1 3</rect></_>
    <_>
      <rect>
        0 13 1 2</rect></_>
    <_>
      <rect>
        0 14 1 2</rect></_>
    <_>
      <rect>
        0 14 2 2</rect></_>
    <_>
      <rect>
        0 15 1 2</rect></_>
    <_>
      <rect>
        0 15 2 2</rect></_>
    <_>
      <rect>
        0 16 2 2</rect></_>
    <_>
      <rect>
        0 16 3 2</rect></_>
    <_>
      <rect>
        0 19 1 1</rect></_>
    <_>
      <rect>
        0 19 2 1</rect></_>
    <_>
      <rect>
        0 19 3 1</rect></_>
    <_>
      <rect>
        1 0 1 1</rect></_>
    <_>
      <rect>
        1 0 1 2</rect></_>
    <_>
      <rect>
        1 0 1 3</rect></_>
    <_>
      <rect>
        1 0 2 1</rect></_>
    <_>
      <rect>
        1 0 3 4</rect></_>
    <_>
      <rect>
        1 0 3 6</rect></_>
    <_>
      <rect>
        1 1 1 3</rect></_>
    <_>
      <rect>
        1 3 1 2</rect></_>
    <_>
      <rect>
        1 3 3 6</rect></_>
    <_>
      <rect>
        1 4 2 4</rect></_>
    <_>
      <rect>
        1 7 2 2</rect></_>
    <_>
      <rect>
        1 7 3 5</rect></_>
    <_>
      <rect>
        1 9 3 4</rect></_>
    <_>
      <rect>
        1 10 1 4</rect></_>
    <_>
      <rect>
        1 10 2 4</rect></_>
    <_>
      <rect>
        1 12 2 1</rect></_>
    <_>
      <rect>
        1 14 2 2</rect></_>
    <_>
      <rect>
        1 15 2 2</rect></_>
    <_>
      <rect>
        1 15 3 2</rect></_>
    <_>
      <rect>
        1 19 1 1</rect></_>
    <_>
      <rect>
        2 0 1 1</rect></_>
    <_>
      <rect>
        2 1 2 2</rect></_>
    <_>
      <rect>
        2 2 2 1</rect></_>
    <_>
      <rect>
        2 4 2 1</rect></_>
    <_>
      <rect>
        2 4 2 2</rect></_>
    <_>
      <rect>
        2 10 1 1</rect></_>
    <_>
      <rect>
        2 10 2 2</rect></_>
    <_>
      <rect>
        2 13 2 1</rect></_>
    <_>
      <rect>
        2 16 1 2</rect></_>
    <_>
      <rect>
        2 16 2 2</rect></_>
    <_>
      <rect>
        2 19 2 1</rect></_>
    <_>
      <rect>
        3 0 1 2</rect></_>
    <_>
      <rect>
        3 0 2 1</rect></_>
    <_>
      <rect>
        3 0 2 2</rect></_>
    <_>
      <rect>
        3 2 2 5</rect></_>
    <_>
      <rect>
        3 4 1 2</rect></_>
    <_>
      <rect>
        3 4 2 6</rect></_>
    <_>
      <rect>
        3 5 1 1</rect></_>
    <_>
      <rect>
        3 5 1 2</rect></_>
    <_>
      <rect>
        3 6 2 2</rect></_>
    <_>
      <rect>
        3 6 2 5</rect></_>
    <_>
      <rect>
        3 8 2 2</rect></_>
    <_>
      <rect>
        3 9 1 1</rect></_>
    <_>
      <rect>
        3 15 1 1</rect></_>
    <_>
      <rect>
        3 15 1 2</rect></_>
    <_>
      <rect>
        3 15 2 1</rect></_>
    <_>
      <rect>
        3 16 2 1</rect></_>
    <_>
      <rect>
        3 16 2 2</rect></_>
    <_>
      <rect>
        3 19 2 1</rect></_>
    <_>
      <rect>
        4 0 2 1</rect></_>
    <_>
      <rect>
        4 0 2 4</rect></_>
    <_>
      <rect>
        4 1 2 2</rect></_>
    <_>
      <rect>
        4 1 2 6</rect></_>
    <_>
      <rect>
        4 4 2 2</rect></_>
    <_>
      <rect>
        4 5 1 1</rect></_>
    <_>
      <rect>
        4 5 2 5</rect></_>
    <_>
      <rect>
        4 7 2 1</rect></_>
    <_>
      <rect>
        4 7 2 3</rect></_>
    <_>
      <rect>
        4 9 2 1</rect></_>
    <_>
      <rect>
        4 9 2 2</rect></_>
    <_>
      <rect>
        4 10 2 3</rect></_>
    <_>
      <rect>
        4 11 1 1</rect></_>
    <_>
      <rect>
        4 13 1 1</rect></_>
    <_>
      <rect>
        4 15 1 1</rect></_>
    <_>
      <rect>
        4 15 2 2</rect></_>
    <_>
      <rect>
        4 16 1 1</rect></_>
    <_>
      <rect>
        4 16 2 1</rect></_>
    <_>
      <rect>
        4 16 2 2</rect></_>
    <_>
      <rect>
        4 17 1 1</rect></_>
    <_>
      <rect>
        5 0 1 1</rect></_>
    <_>
      <rect>
        5 0 1 2</rect></_>
    <_>
      <rect>
        5 2 1 1</rect></_>
    <_>
      <rect>
        5 3 1 1</rect></_>
    <_>
      <rect>
        5 12 1 1</rect></_>
    <_>
      <rect>
        5 15 1 2</rect></_>
    <_>
      <rect>
        5 19 1 1</rect></_>
    <_>
      <rect>
        6 3 1 3</rect></_>
    <_>
      <rect>
        6 7 1 2</rect></_>
    <_>
      <rect>
        6 11 1 1</rect></_>
    <_>
      <rect>
        6 15 1 1</rect></_>
    <_>
      <rect>
        6 15 1 2</rect></_>
    <_>
      <rect>
        7 0 1 1</rect></_>
    <_>
      <rect>
        7 0 1 2</rect></_>
    <_>
      <rect>
        7 0 1 3</rect></_>
    <_>
      <rect>
        7 0 1 4</rect></_>
    <_>
      <rect>
        7 0 1 5</rect></_>
    <_>
      <rect>
        7 2 1 2</rect></_>
    <_>
      <rect>
        7 2 1 6</rect></_>
    <_>
      <rect>
        7 4 1 2</rect></_>
    <_>
      <rect>
        7 4 1 5</rect></_>
    <_>
      <rect>
        7 5 1 2</rect></_>
    <_>
      <rect>
        7 5 1 4</rect></_>
    <_>
      <rect>
        7 5 1 5</rect></_>
    <_>
      <rect>
        7 6 1 2</rect></_>
    <_>
      <rect>
        7 6 1 5</rect></_>
    <_>
      <rect>
        7 7 1 5</rect></_>
    <_>
      <rect>
        7 12 1 1</rect></_>
    <_>
      <rect>
        7 12 1 3</rect></_>
    <_>
      <rect>
        7 13 1 2</rect></_>
    <_>
      <rect>
        7 15 1 2</rect></_>
    <_>
      <rect>
        7 16 1 2</rect></_>
    <_>
      <rect>
        7 19 1 1</rect></_></features></cascade>
</opencv_storage>
