FANN_FLO_2.1
num_layers=4
learning_rate=0.100000
connection_rate=1.000000
network_type=0
learning_momentum=0.600000
training_algorithm=2
train_error_function=1
train_stop_function=0
cascade_output_change_fraction=0.010000
quickprop_decay=-0.000100
quickprop_mu=1.750000
rprop_increase_factor=1.200000
rprop_decrease_factor=0.500000
rprop_delta_min=0.000000
rprop_delta_max=50.000000
rprop_delta_zero=0.100000
cascade_output_stagnation_epochs=12
cascade_candidate_change_fraction=0.010000
cascade_candidate_stagnation_epochs=12
cascade_max_out_epochs=150
cascade_max_cand_epochs=150
cascade_num_candidate_groups=2
bit_fail_limit=3.49999994039535522461e-01
cascade_candidate_limit=1.00000000000000000000e+03
cascade_weight_multiplier=4.00000005960464477539e-01
cascade_activation_functions_count=10
cascade_activation_functions=3 5 7 8 10 11 14 15 16 17 
cascade_activation_steepnesses_count=4
cascade_activation_steepnesses=2.50000000000000000000e-01 5.00000000000000000000e-01 7.50000000000000000000e-01 1.00000000000000000000e+00 
layer_sizes=5 13 7 2 
scale_included=0
neurons (num_inputs, activation_function, activation_steepness)=(0, 0, 0.00000000000000000000e+00) (0, 0, 0.00000000000000000000e+00) (0, 0, 0.00000000000000000000e+00) (0, 0, 0.00000000000000000000e+00) (0, 0, 0.00000000000000000000e+00) (5, 5, 5.00000000000000000000e-01) (5, 5, 5.00000000000000000000e-01) (5, 5, 5.00000000000000000000e-01) (5, 5, 5.00000000000000000000e-01) (5, 5, 5.00000000000000000000e-01) (5, 5, 5.00000000000000000000e-01) (5, 5, 5.00000000000000000000e-01) (5, 5, 5.00000000000000000000e-01) (5, 5, 5.00000000000000000000e-01) (5, 5, 5.00000000000000000000e-01) (5, 5, 5.00000000000000000000e-01) (5, 5, 5.00000000000000000000e-01) (0, 5, 0.00000000000000000000e+00) (13, 5, 5.00000000000000000000e-01) (13, 5, 5.00000000000000000000e-01) (13, 5, 5.00000000000000000000e-01) (13, 5, 5.00000000000000000000e-01) (13, 5, 5.00000000000000000000e-01) (13, 5, 5.00000000000000000000e-01) (0, 5, 0.00000000000000000000e+00) (7, 3, 5.00000000000000000000e-01) (0, 3, 0.00000000000000000000e+00) 
connections (connected_to_neuron, weight)=(0, 9.05158638954162597656e-01) (1, 8.51022720336914062500e-01) (2, 2.96336650848388671875e-01) (3, -7.49553501605987548828e-01) (4, 6.72627925872802734375e-01) (0, -6.95592403411865234375e-01) (1, 5.51980972290039062500e-01) (2, 9.12573814392089843750e-01) (3, -3.41390967369079589844e-02) (4, -6.77796244621276855469e-01) (0, 1.66804790496826171875e-02) (1, -4.83236014842987060547e-01) (2, 1.98772788047790527344e-01) (3, -3.34620237350463867188e-01) (4, -1.35482430458068847656e-01) (0, -5.00422716140747070312e-02) (1, -8.80456805229187011719e-01) (2, -9.58713412284851074219e-01) (3, 8.46554994583129882812e-01) (4, -9.18625771999359130859e-01) (0, 8.90048742294311523438e-01) (1, -6.72228455543518066406e-01) (2, -1.46911442279815673828e-01) (3, 8.33484172821044921875e-01) (4, -9.86160695552825927734e-01) (0, 1.78660154342651367188e-01) (1, 3.02692294120788574219e-01) (2, 9.42625880241394042969e-01) (3, -3.29299569129943847656e-02) (4, -2.18007087707519531250e-01) (0, -4.78099346160888671875e-01) (1, -1.27771258354187011719e-01) (2, -3.66984367370605468750e-01) (3, 8.18237304687500000000e-01) (4, 1.22675180435180664062e-01) (0, -6.94356560707092285156e-01) (1, -8.77355158329010009766e-01) (2, -3.25343787670135498047e-01) (3, -7.81782686710357666016e-01) (4, 8.85057449340820312500e-02) (0, -3.14009189605712890625e-03) (1, 2.34897732734680175781e-01) (2, 6.05269670486450195312e-01) (3, -8.04367303848266601562e-01) (4, 9.00277614593505859375e-01) (0, -5.30212759971618652344e-01) (1, 1.45590424537658691406e-01) (2, -9.80179250240325927734e-01) (3, -4.88926112651824951172e-01) (4, -7.85458087921142578125e-03) (0, -8.98805022239685058594e-01) (1, -5.98877429962158203125e-01) (2, 3.19916963577270507812e-01) (3, -4.57164645195007324219e-02) (4, -7.65393257141113281250e-01) (0, 3.33756327629089355469e-01) (1, -8.67056369781494140625e-01) (2, 5.37299036979675292969e-01) (3, 2.76382088661193847656e-01) (4, 1.00013732910156250000e-01) (5, -6.80708050727844238281e-01) (6, 7.98282742500305175781e-01) (7, 9.72242474555969238281e-01) (8, -4.76924180984497070312e-02) (9, 6.16520047187805175781e-01) (10, 9.49176549911499023438e-02) (11, 2.57951021194458007812e-01) (12, 7.39164948463439941406e-01) (13, 7.69573807716369628906e-01) (14, 4.76168394088745117188e-01) (15, -1.72329306602478027344e-01) (16, -2.33566224575042724609e-01) (17, -2.88933873176574707031e-01) (5, -5.67059636116027832031e-01) (6, -3.79335284233093261719e-02) (7, -3.88656318187713623047e-01) (8, -9.72723364830017089844e-02) (9, -8.92343044281005859375e-01) (10, -3.68835568428039550781e-01) (11, 4.13801550865173339844e-01) (12, 9.98023748397827148438e-02) (13, -2.67640590667724609375e-01) (14, 8.14924120903015136719e-01) (15, -5.80280601978302001953e-01) (16, 6.86642885208129882812e-01) (17, -9.50469136238098144531e-01) (5, 7.53475666046142578125e-01) (6, 8.19586515426635742188e-01) (7, 5.86829900741577148438e-01) (8, 2.98578739166259765625e-02) (9, -8.03997516632080078125e-02) (10, 9.06121850013732910156e-01) (11, -1.71859383583068847656e-01) (12, -1.08157336711883544922e-01) (13, -1.41570627689361572266e-01) (14, -5.55339336395263671875e-01) (15, 9.86760377883911132812e-01) (16, -8.83619546890258789062e-01) (17, -8.16174447536468505859e-01) (5, 7.56334185600280761719e-01) (6, 5.92548847198486328125e-01) (7, 1.14961862564086914062e-02) (8, -4.77232038974761962891e-01) (9, -6.96385085582733154297e-01) (10, 4.44436550140380859375e-01) (11, 4.84834432601928710938e-01) (12, -8.50414037704467773438e-02) (13, -6.52835726737976074219e-01) (14, 5.92491388320922851562e-01) (15, 5.46123027801513671875e-01) (16, 7.60965824127197265625e-01) (17, -3.07706236839294433594e-01) (5, -7.21517562866210937500e-01) (6, 5.75889825820922851562e-01) (7, 1.12013101577758789062e-01) (8, 9.65125322341918945312e-01) (9, 6.25420689582824707031e-01) (10, -1.34511172771453857422e-01) (11, 7.84711837768554687500e-01) (12, 2.12250590324401855469e-01) (13, 8.95346641540527343750e-01) (14, -2.95687854290008544922e-01) (15, 1.18372321128845214844e-01) (16, -2.76512742042541503906e-01) (17, 5.96154808998107910156e-01) (5, 9.76801753044128417969e-01) (6, 1.68147921562194824219e-01) (7, 5.82915186882019042969e-01) (8, -9.06817793846130371094e-01) (9, 3.51973414421081542969e-01) (10, 3.39249253273010253906e-01) (11, 6.85730934143066406250e-01) (12, -6.36530399322509765625e-01) (13, 8.62017273902893066406e-01) (14, 9.89345908164978027344e-01) (15, 8.07906270027160644531e-01) (16, 3.46851706504821777344e-01) (17, -9.56954956054687500000e-02) (18, -8.44929516315460205078e-01) (19, -6.06569647789001464844e-02) (20, -5.49572408199310302734e-01) (21, 9.16036248207092285156e-01) (22, 6.31636857986450195312e-01) (23, -2.71089971065521240234e-01) (24, 4.91926074028015136719e-01) 
