<?xml version="1.0"?>
<opencv_storage>
<cascade>
  <stageType>BOOST</stageType>
  <featureType>LBP</featureType>
  <height>24</height>
  <width>10</width>
  <stageParams>
    <boostType>GAB</boostType>
    <minHitRate>9.9900001287460327e-01</minHitRate>
    <maxFalseAlarm>4.0000000596046448e-01</maxFalseAlarm>
    <weightTrimRate>9.4999998807907104e-01</weightTrimRate>
    <maxDepth>1</maxDepth>
    <maxWeakCount>100</maxWeakCount></stageParams>
  <featureParams>
    <maxCatCount>256</maxCatCount>
    <featSize>1</featSize></featureParams>
  <stageNum>25</stageNum>
  <stages>
    <!-- stage 0 -->
    <_>
      <maxWeakCount>3</maxWeakCount>
      <stageThreshold>-1.0162619352340698e+00</stageThreshold>
      <weakClassifiers>
        <_>
          <internalNodes>
            0 -1 29 -131073 -70004435 -106706577 -5582533 -643938505
            -209483513 -72659691 -210239677</internalNodes>
          <leafValues>
            -8.3940243721008301e-01 8.0372250080108643e-01</leafValues></_>
        <_>
          <internalNodes>
            0 -1 58 -2097170 -149696058 -1056713842 -1189363442
            -252995382 -593772391 -876376421 129966895</internalNodes>
          <leafValues>
            -9.2545962333679199e-01 6.8654835224151611e-01</leafValues></_>
        <_>
          <internalNodes>
            0 -1 179 -4194433 -6040067 -237382213 -86599550 -644429361
            -1131807087 -40514592 -257891372</internalNodes>
          <leafValues>
            -7.9220747947692871e-01 7.4860012531280518e-01</leafValues></_></weakClassifiers></_>
    <!-- stage 1 -->
    <_>
      <maxWeakCount>5</maxWeakCount>
      <stageThreshold>-1.0863019227981567e+00</stageThreshold>
      <weakClassifiers>
        <_>
          <internalNodes>
            0 -1 28 -822616113 -775422165 -17510143 -1 1970756965
            1912749951 -134844399 -137</internalNodes>
          <leafValues>
            -7.2302466630935669e-01 8.3828997611999512e-01</leafValues></_>
        <_>
          <internalNodes>
            0 -1 9 -36311074 -7670702 -552155521 -551945777 -341647509
            -1199423351 -75146677 1937207367</internalNodes>
          <leafValues>
            -8.3752954006195068e-01 6.5278589725494385e-01</leafValues></_>
        <_>
          <internalNodes>
            0 -1 48 -293666817 -487525899 -922626209 -621166437
            1905949535 1881310345 1499064926 -3932333</internalNodes>
          <leafValues>
            -8.1332778930664062e-01 6.1695235967636108e-01</leafValues></_>
        <_>
          <internalNodes>
            0 -1 158 -557197 -1215049225 -576916517 2140877209 -90375941
            -107298677 -357918499 -1380146140</internalNodes>
          <leafValues>
            -7.3272144794464111e-01 7.0105063915252686e-01</leafValues></_>
        <_>
          <internalNodes>
            0 -1 141 -671361219 822203673 -805203749 51740999
            -1182630151 973111403 -347534948 546220508</internalNodes>
          <leafValues>
            -8.4132361412048340e-01 5.9002143144607544e-01</leafValues></_></weakClassifiers></_>
    <!-- stage 2 -->
    <_>
      <maxWeakCount>5</maxWeakCount>
      <stageThreshold>-1.0263677835464478e+00</stageThreshold>
      <weakClassifiers>
        <_>
          <internalNodes>
            0 -1 128 -36233218 -547781241 1907695000 -67783940
            -141962353 -101666609 -341165672 -17510</internalNodes>
          <leafValues>
            -7.6893937587738037e-01 7.2096908092498779e-01</leafValues></_>
        <_>
          <internalNodes>
            0 -1 21 -524289 -65537 -16777217 -81 -143184057 -8388809
            -168331931 -142614729</internalNodes>
          <leafValues>
            -6.5056300163269043e-01 7.8543829917907715e-01</leafValues></_>
        <_>
          <internalNodes>
            0 -1 184 -8388619 1439422641 -951584740 -1604333381
            -175375719 -775843702 -70257937 -1598357537</internalNodes>
          <leafValues>
            -7.4635714292526245e-01 6.4156973361968994e-01</leafValues></_>
        <_>
          <internalNodes>
            0 -1 46 -421593089 -690818889 -653927347 -91823225
            1914505597 862052887 -6689493 -269553905</internalNodes>
          <leafValues>
            -7.8377896547317505e-01 6.1274242401123047e-01</leafValues></_>
        <_>
          <internalNodes>
            0 -1 134 -44328579 -1878278141 -863485691 -1216105581
            -2001607479 -1337946104 -641650559 681536943</internalNodes>
          <leafValues>
            -7.9391652345657349e-01 5.3534388542175293e-01</leafValues></_></weakClassifiers></_>
    <!-- stage 3 -->
    <_>
      <maxWeakCount>5</maxWeakCount>
      <stageThreshold>-1.2524976730346680e+00</stageThreshold>
      <weakClassifiers>
        <_>
          <internalNodes>
            0 -1 151 -220 928635037 -237112226 2141188827 -241188127
            1895858560 -611728488 -67118101</internalNodes>
          <leafValues>
            -7.6861166954040527e-01 6.4733916521072388e-01</leafValues></_>
        <_>
          <internalNodes>
            0 -1 44 -293601297 -20201085 1157678051 -429928421 356696164
            -1324640125 -234362334 -1058425</internalNodes>
          <leafValues>
            -7.3450154066085815e-01 6.2586539983749390e-01</leafValues></_>
        <_>
          <internalNodes>
            0 -1 83 -681591810 -1613082341 -1861885450 -713189886
            -578069525 1939538050 -74479190 1006572414</internalNodes>
          <leafValues>
            -8.2781779766082764e-01 5.1980185508728027e-01</leafValues></_>
        <_>
          <internalNodes>
            0 -1 5 -224986145 -79391815 1611141279 -1622150713
            -897387525 -1140375377 1116072431 -203064475</internalNodes>
          <leafValues>
            -7.1344161033630371e-01 5.9472924470901489e-01</leafValues></_>
        <_>
          <internalNodes>
            0 -1 18 -87920641 -251634725 1073791235 -883273713
            1208175323 1216912038 -629113873 2002806015</internalNodes>
          <leafValues>
            -7.6929748058319092e-01 4.8370403051376343e-01</leafValues></_></weakClassifiers></_>
    <!-- stage 4 -->
    <_>
      <maxWeakCount>6</maxWeakCount>
      <stageThreshold>-7.5274831056594849e-01</stageThreshold>
      <weakClassifiers>
        <_>
          <internalNodes>
            0 -1 192 -167775369 15859573 -1 821821303 -1 1963163647 -1
            -385875969</internalNodes>
          <leafValues>
            -6.4206957817077637e-01 7.5232774019241333e-01</leafValues></_>
        <_>
          <internalNodes>
            0 -1 130 -1189006539 -40119851 1426655644 -6551216 461543935
            -92192357 998443564 -6323544</internalNodes>
          <leafValues>
            -7.2688603401184082e-01 5.5293983221054077e-01</leafValues></_>
        <_>
          <internalNodes>
            0 -1 62 -1231093809 -213073909 -1061076577 -649950509
            1452483295 -905920384 -1985789179 -134784153</internalNodes>
          <leafValues>
            -6.9765323400497437e-01 5.5839312076568604e-01</leafValues></_>
        <_>
          <internalNodes>
            0 -1 73 -2379858 -1156065193 -805302062 -649932590
            -255094605 1497958552 -921445670 1665658326</internalNodes>
          <leafValues>
            -7.7444452047348022e-01 4.5696493983268738e-01</leafValues></_>
        <_>
          <internalNodes>
            0 -1 51 -48637733 -66252735 -1324298091 -757333961
            1786774393 1932001416 -1056904673 1997576323</internalNodes>
          <leafValues>
            -8.7927532196044922e-01 3.8604125380516052e-01</leafValues></_>
        <_>
          <internalNodes>
            0 -1 183 -11013803 826654727 -1560235694 -1467901053
            1923692291 -215973759 -75251270 -453050529</internalNodes>
          <leafValues>
            -7.2408962249755859e-01 4.7085431218147278e-01</leafValues></_></weakClassifiers></_>
    <!-- stage 5 -->
    <_>
      <maxWeakCount>7</maxWeakCount>
      <stageThreshold>-1.4887063503265381e+00</stageThreshold>
      <weakClassifiers>
        <_>
          <internalNodes>
            0 -1 131 -7612929 -678362991 -922729473 -1080912745
            -1442796869 -478019456 -7697507 539801868</internalNodes>
          <leafValues>
            -7.8521937131881714e-01 5.2703678607940674e-01</leafValues></_>
        <_>
          <internalNodes>
            0 -1 126 -753295057 420483337 -1878920929 -585301755
            -267323142 -1114601344 -1207259205 -1444951893</internalNodes>
          <leafValues>
            -5.8811986446380615e-01 6.3241320848464966e-01</leafValues></_>
        <_>
          <internalNodes>
            0 -1 75 1687354366 -539831925 -788442293 -183057649
            1168339697 -473718647 2041751951 -135892209</internalNodes>
          <leafValues>
            -6.8277513980865479e-01 5.1836001873016357e-01</leafValues></_>
        <_>
          <internalNodes>
            0 -1 170 -589332999 -548960437 269598793 1032180115
            -851318567 -632094687 -225907964 635431849</internalNodes>
          <leafValues>
            -6.6175192594528198e-01 4.7855079174041748e-01</leafValues></_>
        <_>
          <internalNodes>
            0 -1 20 -108307457 -616390143 -1006632941 -616365810
            84369923 -2146910208 -1837079803 -67778013</internalNodes>
          <leafValues>
            -6.5124517679214478e-01 4.9052485823631287e-01</leafValues></_>
        <_>
          <internalNodes>
            0 -1 80 -606762066 1534718025 -1877945982 -1248079727
            -1299481637 1728749755 -921468786 1979694064</internalNodes>
          <leafValues>
            -8.3945345878601074e-01 3.9141121506690979e-01</leafValues></_>
        <_>
          <internalNodes>
            0 -1 67 420125674 -264126201 -267163298 -6876778 -1902049026
            -220101749 -1458918597 1941170932</internalNodes>
          <leafValues>
            -8.0440926551818848e-01 3.4869122505187988e-01</leafValues></_></weakClassifiers></_>
    <!-- stage 6 -->
    <_>
      <maxWeakCount>6</maxWeakCount>
      <stageThreshold>-9.2563998699188232e-01</stageThreshold>
      <weakClassifiers>
        <_>
          <internalNodes>
            0 -1 155 -170141699 1439289427 1225104606 -649871141
            -1364496199 2022248587 -74751628 2111830715</internalNodes>
          <leafValues>
            -6.8724280595779419e-01 5.6128025054931641e-01</leafValues></_>
        <_>
          <internalNodes>
            0 -1 31 -1571292209 1393284357 -1056686063 -1848925871
            1136937167 1133766603 -626798853 2074568091</internalNodes>
          <leafValues>
            -6.8828123807907104e-01 5.0731974840164185e-01</leafValues></_>
        <_>
          <internalNodes>
            0 -1 145 -33556620 1430123903 -1 -537001985 -32769 -33554433
            -5 -1711276033</internalNodes>
          <leafValues>
            -5.1377695798873901e-01 6.2147766351699829e-01</leafValues></_>
        <_>
          <internalNodes>
            0 -1 14 354145758 -62676003 -922430014 -786900786 -644917029
            -64477043 -634827333 2136440190</internalNodes>
          <leafValues>
            -7.8044831752777100e-01 4.2566910386085510e-01</leafValues></_>
        <_>
          <internalNodes>
            0 -1 2 -1545706641 -749692779 41976267 -784117559 1350568383
            -528449400 -528408016 -145468811</internalNodes>
          <leafValues>
            -8.8192373514175415e-01 3.1763771176338196e-01</leafValues></_>
        <_>
          <internalNodes>
            0 -1 75 -2131341362 -1776226222 200907 -1056123827 583405731
            -653996927 1024051947 -134950074</internalNodes>
          <leafValues>
            -8.1666135787963867e-01 2.9121699929237366e-01</leafValues></_></weakClassifiers></_>
    <!-- stage 7 -->
    <_>
      <maxWeakCount>7</maxWeakCount>
      <stageThreshold>-1.4141625165939331e+00</stageThreshold>
      <weakClassifiers>
        <_>
          <internalNodes>
            0 -1 167 -68191372 -540294133 -1073627099 -682114802
            -368096639 -351747902 -876904755 -14356</internalNodes>
          <leafValues>
            -7.5581395626068115e-01 5.0323045253753662e-01</leafValues></_>
        <_>
          <internalNodes>
            0 -1 4 1171259359 -268730285 -1056374501 -543735399
            -793851733 -1969715014 -1945421409 1807967223</internalNodes>
          <leafValues>
            -6.3029742240905762e-01 5.4439067840576172e-01</leafValues></_>
        <_>
          <internalNodes>
            0 -1 205 -10527913 29544571 1497542939 168030275 -475290751
            1074430080 -1828463801 -531631729</internalNodes>
          <leafValues>
            -6.6680294275283813e-01 4.5834058523178101e-01</leafValues></_>
        <_>
          <internalNodes>
            0 -1 191 1767854967 1124319441 1430392901 573148249
            1074315459 -1073184640 -905778983 -1596986629</internalNodes>
          <leafValues>
            -6.0133796930313110e-01 4.9353003501892090e-01</leafValues></_>
        <_>
          <internalNodes>
            0 -1 30 -488211473 -678508281 -2147384319 2101772293
            1078162639 1225580682 -804323109 2001072707</internalNodes>
          <leafValues>
            -7.6570463180541992e-01 3.8003697991371155e-01</leafValues></_>
        <_>
          <internalNodes>
            0 -1 57 -483986945 -843775939 -787999201 -1151725346
            -1434318710 -1182023510 -888944463 -1881813952</internalNodes>
          <leafValues>
            -6.3801473379135132e-01 4.3253377079963684e-01</leafValues></_>
        <_>
          <internalNodes>
            0 -1 102 -1597601804 -363163501 1359205148 -116879280
            1073743009 -1865940984 -1744817941 -70432744</internalNodes>
          <leafValues>
            -7.6523965597152710e-01 3.7292397022247314e-01</leafValues></_></weakClassifiers></_>
    <!-- stage 8 -->
    <_>
      <maxWeakCount>8</maxWeakCount>
      <stageThreshold>-1.2345141172409058e+00</stageThreshold>
      <weakClassifiers>
        <_>
          <internalNodes>
            0 -1 189 -170920617 18694931 -1073954815 553123831
            -938884982 25395328 -1802778437 -523250977</internalNodes>
          <leafValues>
            -5.8608061075210571e-01 5.9517657756805420e-01</leafValues></_>
        <_>
          <internalNodes>
            0 -1 47 -329255441 -665206061 -2004104953 -757396957
            587718739 -754868096 1662249842 -75761270</internalNodes>
          <leafValues>
            -6.1132669448852539e-01 5.0261414051055908e-01</leafValues></_>
        <_>
          <internalNodes>
            0 -1 124 -2103857157 -925777838 -787283561 -650084270 107435
            -1468002304 -896418853 -47646974</internalNodes>
          <leafValues>
            -5.9968429803848267e-01 4.5471796393394470e-01</leafValues></_>
        <_>
          <internalNodes>
            0 -1 115 -677397185 -74194805 1359053913 -78286757
            -1031605345 -171310199 -108293185 -327406704</internalNodes>
          <leafValues>
            -6.9244438409805298e-01 4.1975334286689758e-01</leafValues></_>
        <_>
          <internalNodes>
            0 -1 138 -786460299 1930285133 -1856683894 -851061821
            -368743511 1099517955 -636827300 618518773</internalNodes>
          <leafValues>
            -7.3440182209014893e-01 3.5734623670578003e-01</leafValues></_>
        <_>
          <internalNodes>
            0 -1 22 1238061663 -607944296 -786345480 -675134642
            -661962153 -1996472288 -1307493596 -11277989</internalNodes>
          <leafValues>
            -7.1949070692062378e-01 3.0717289447784424e-01</leafValues></_>
        <_>
          <internalNodes>
            0 -1 72 -1077435922 286622077 1078054992 -99069694
            -891860565 2059878608 -2136868613 1691637950</internalNodes>
          <leafValues>
            -7.6680690050125122e-01 3.0842640995979309e-01</leafValues></_>
        <_>
          <internalNodes>
            0 -1 54 1897140607 -70057966 -855632614 -565182190
            1502091307 -75317080 596314667 -3978569</internalNodes>
          <leafValues>
            -6.9893109798431396e-01 3.0290728807449341e-01</leafValues></_></weakClassifiers></_>
    <!-- stage 9 -->
    <_>
      <maxWeakCount>7</maxWeakCount>
      <stageThreshold>-1.6306185722351074e+00</stageThreshold>
      <weakClassifiers>
        <_>
          <internalNodes>
            0 -1 179 -745809409 -648966127 -653262639 -216592103
            -92032311 -285081472 -1560164150 -256864127</internalNodes>
          <leafValues>
            -6.4285713434219360e-01 5.0960797071456909e-01</leafValues></_>
        <_>
          <internalNodes>
            0 -1 198 -47221161 82534922 -2147467253 244031626 -805273195
            302907395 1367351717 803205807</internalNodes>
          <leafValues>
            -7.2097313404083252e-01 4.1069597005844116e-01</leafValues></_>
        <_>
          <internalNodes>
            0 -1 45 -152109681 -643431918 -2143169806 -439430774
            2030119023 1678295179 1178687493 -20395253</internalNodes>
          <leafValues>
            -7.0052510499954224e-01 3.6941561102867126e-01</leafValues></_>
        <_>
          <internalNodes>
            0 -1 144 -675858653 634573151 -931118691 1460392129
            -108293397 1854177411 -754941012 852150808</internalNodes>
          <leafValues>
            -7.4931305646896362e-01 3.6157491803169250e-01</leafValues></_>
        <_>
          <internalNodes>
            0 -1 208 -200540235 328093889 -2147417711 901988483
            1879753345 843614214 1644390553 1837843085</internalNodes>
          <leafValues>
            -6.8732976913452148e-01 3.7659066915512085e-01</leafValues></_>
        <_>
          <internalNodes>
            0 -1 8 -1033919514 -1794932592 -2147413803 -29147057
            -1735726931 403308554 -2121531333 1992813987</internalNodes>
          <leafValues>
            -7.4682694673538208e-01 3.2077211141586304e-01</leafValues></_>
        <_>
          <internalNodes>
            0 -1 125 -1561677834 -1277292535 -515804877 -405647357
            61491908 -1553432574 -528252757 -6991349</internalNodes>
          <leafValues>
            -7.1374571323394775e-01 3.0331742763519287e-01</leafValues></_></weakClassifiers></_>
    <!-- stage 10 -->
    <_>
      <maxWeakCount>8</maxWeakCount>
      <stageThreshold>-1.0845488309860229e+00</stageThreshold>
      <weakClassifiers>
        <_>
          <internalNodes>
            0 -1 1 -1346371585 -8540673 -1 -4243713 -1 -1 2147483647
            1962407799</internalNodes>
          <leafValues>
            -5.1867222785949707e-01 6.4503818750381470e-01</leafValues></_>
        <_>
          <internalNodes>
            0 -1 85 -186714625 -86195069 352419933 -1692794550
            1105836699 1661468685 -1719031125 -75266033</internalNodes>
          <leafValues>
            -5.9078097343444824e-01 5.1196002960205078e-01</leafValues></_>
        <_>
          <internalNodes>
            0 -1 136 -769690636 2036007185 -1727856357 -1651289997
            -108701463 -846411102 -620667795 618134031</internalNodes>
          <leafValues>
            -7.3452991247177124e-01 3.5941076278686523e-01</leafValues></_>
        <_>
          <internalNodes>
            0 -1 207 -103022781 680099851 -804188149 765313154 184705681
            9076866 -1039525879 1336666755</internalNodes>
          <leafValues>
            -6.4472013711929321e-01 3.9671313762664795e-01</leafValues></_>
        <_>
          <internalNodes>
            0 -1 37 -1067798546 -1861169135 -1065332672 -652378046
            -92070927 -1702786896 1611415569 2052225137</internalNodes>
          <leafValues>
            -8.4285879135131836e-01 2.4941101670265198e-01</leafValues></_>
        <_>
          <internalNodes>
            0 -1 77 1548935662 1918079090 1342279803 -645848831 287474
            1451303113 1275695353 -275797872</internalNodes>
          <leafValues>
            -6.2244349718093872e-01 4.3131315708160400e-01</leafValues></_>
        <_>
          <internalNodes>
            0 -1 169 290402579 -1719058432 1409927453 -251461624
            1485314219 -1140817920 696917501 -73422396</internalNodes>
          <leafValues>
            -6.2637662887573242e-01 3.5760101675987244e-01</leafValues></_>
        <_>
          <internalNodes>
            0 -1 74 -333547650 -520060909 1342259541 -720891570
            371424435 973750282 -679292897 -267992618</internalNodes>
          <leafValues>
            -7.1578818559646606e-01 3.2157361507415771e-01</leafValues></_></weakClassifiers></_>
    <!-- stage 11 -->
    <_>
      <maxWeakCount>8</maxWeakCount>
      <stageThreshold>-9.6692883968353271e-01</stageThreshold>
      <weakClassifiers>
        <_>
          <internalNodes>
            0 -1 181 -171183409 -750664638 81923 -624836159 -1035484179
            -914259967 -1811553847 550752255</internalNodes>
          <leafValues>
            -7.2855311632156372e-01 4.2119565606117249e-01</leafValues></_>
        <_>
          <internalNodes>
            0 -1 24 -205039157 -754841205 -2147303355 -754904953
            -167265726 1073856517 -528272575 -78777577</internalNodes>
          <leafValues>
            -6.4069873094558716e-01 3.6453261971473694e-01</leafValues></_>
        <_>
          <internalNodes>
            0 -1 49 -770656770 1561399553 -1726905958 -610361088
            680077739 -1412757367 -2134691301 -68982269</internalNodes>
          <leafValues>
            -7.5650238990783691e-01 3.3971580862998962e-01</leafValues></_>
        <_>
          <internalNodes>
            0 -1 59 2147483630 -89 -16386 -16390 -4338 -544889
            2147467262 -83943710</internalNodes>
          <leafValues>
            -4.4170019030570984e-01 5.1501375436782837e-01</leafValues></_>
        <_>
          <internalNodes>
            0 -1 97 -1177314821 -788430837 268554515 -1182330722
            296254031 2047510672 -264197638 746728058</internalNodes>
          <leafValues>
            -5.6853449344635010e-01 3.7853521108627319e-01</leafValues></_>
        <_>
          <internalNodes>
            0 -1 131 -1727344427 989921281 1075577079 -1853488891
            -2130140933 -1724383101 -1878939398 1349707</internalNodes>
          <leafValues>
            -5.7497006654739380e-01 3.7252441048622131e-01</leafValues></_>
        <_>
          <internalNodes>
            0 -1 148 -1514208821 1566064786 -1862233773 -535396278
            -1987540789 -1878523896 -1601685254 -73399160</internalNodes>
          <leafValues>
            -5.2521312236785889e-01 3.8506418466567993e-01</leafValues></_>
        <_>
          <internalNodes>
            0 -1 26 -804365345 -754970104 1073776661 -784247742
            -385261073 -995885020 -1065139901 -78251456</internalNodes>
          <leafValues>
            -5.5047386884689331e-01 4.1488909721374512e-01</leafValues></_></weakClassifiers></_>
    <!-- stage 12 -->
    <_>
      <maxWeakCount>10</maxWeakCount>
      <stageThreshold>-1.6645786762237549e+00</stageThreshold>
      <weakClassifiers>
        <_>
          <internalNodes>
            0 -1 154 -475395574 -77987807 -1070563266 -741158630
            -2113752927 -794722304 -536819496 -72650514</internalNodes>
          <leafValues>
            -6.5164434909820557e-01 4.0921786427497864e-01</leafValues></_>
        <_>
          <internalNodes>
            0 -1 171 -137379723 -37633536 -2146926527 365674691
            1216399500 1217118400 148963464 1632493800</internalNodes>
          <leafValues>
            -5.6094741821289062e-01 4.6018710732460022e-01</leafValues></_>
        <_>
          <internalNodes>
            0 -1 196 -269856289 130270022 -2147363699 46649411
            -939095864 -746553344 -1879006837 143039134</internalNodes>
          <leafValues>
            -6.8931859731674194e-01 3.3281177282333374e-01</leafValues></_>
        <_>
          <internalNodes>
            0 -1 32 -1443925873 -779993078 1094780824 1359024288
            1912820548 -2134769655 -805087099 -75300217</internalNodes>
          <leafValues>
            -6.6790175437927246e-01 2.9780325293540955e-01</leafValues></_>
        <_>
          <internalNodes>
            0 -1 96 608236027 1770066193 1360003585 -787988224
            1082792587 -930471936 -704608120 730732387</internalNodes>
          <leafValues>
            -8.3382987976074219e-01 2.4199846386909485e-01</leafValues></_>
        <_>
          <internalNodes>
            0 -1 91 -1567952437 -545128438 268501013 -1191128954
            -661815222 1208483969 -1071120249 1058227239</internalNodes>
          <leafValues>
            -7.4484866857528687e-01 2.1143156290054321e-01</leafValues></_>
        <_>
          <internalNodes>
            0 -1 209 17023227 385941760 20987905 -720142207 705308811
            133248 -2146959167 -670307935</internalNodes>
          <leafValues>
            -5.7186204195022583e-01 3.2600954174995422e-01</leafValues></_>
        <_>
          <internalNodes>
            0 -1 180 1497061259 1929445443 536936643 100864149
            -2147448694 -2130706304 -1827532774 1885272515</internalNodes>
          <leafValues>
            -5.9906506538391113e-01 2.9905205965042114e-01</leafValues></_>
        <_>
          <internalNodes>
            0 -1 81 -796196130 1526945873 1342243074 974180384
            1210663147 1250427018 285218819 1922502784</internalNodes>
          <leafValues>
            -7.3330813646316528e-01 2.0367631316184998e-01</leafValues></_>
        <_>
          <internalNodes>
            0 -1 137 -2143223740 -619491256 -2130345904 -654229486
            -1040154597 -803635000 -922066855 -921368416</internalNodes>
          <leafValues>
            -5.6604766845703125e-01 3.1850090622901917e-01</leafValues></_></weakClassifiers></_>
    <!-- stage 13 -->
    <_>
      <maxWeakCount>11</maxWeakCount>
      <stageThreshold>-1.0747541189193726e+00</stageThreshold>
      <weakClassifiers>
        <_>
          <internalNodes>
            0 -1 175 -2 -1207992321 -66 -67108865 -134742028 -705167489
            -142606348 1442838527</internalNodes>
          <leafValues>
            -5.0000000000000000e-01 5.1072961091995239e-01</leafValues></_>
        <_>
          <internalNodes>
            0 -1 10 -804076069 -804728751 1627426864 -787464020
            -267583159 -125287527 -2146776888 1521097722</internalNodes>
          <leafValues>
            -6.7986130714416504e-01 3.0824947357177734e-01</leafValues></_>
        <_>
          <internalNodes>
            0 -1 193 -169905977 1366147175 134250577 29851716 142772363
            1074497560 -2113564470 -925906294</internalNodes>
          <leafValues>
            -4.4017866253852844e-01 4.4531556963920593e-01</leafValues></_>
        <_>
          <internalNodes>
            0 -1 52 -788401797 -780054527 -1879015010 1813053585
            11018314 -628588543 553746530 -122775109</internalNodes>
          <leafValues>
            -5.3738927841186523e-01 3.9645057916641235e-01</leafValues></_>
        <_>
          <internalNodes>
            0 -1 55 -125775715 -242728936 -1862188901 -270839730
            -2012706420 -1736310614 -1451030109 -2071216000</internalNodes>
          <leafValues>
            -4.5983326435089111e-01 3.8688832521438599e-01</leafValues></_>
        <_>
          <internalNodes>
            0 -1 149 -799280348 374178129 -2147450866 1128464541
            -1474919961 -754319192 -1944549351 723245145</internalNodes>
          <leafValues>
            -7.0227360725402832e-01 2.3018515110015869e-01</leafValues></_>
        <_>
          <internalNodes>
            0 -1 92 -2139446366 -670953378 -2147401700 -234143535
            -259618648 -1819836278 -1073214704 -339380032</internalNodes>
          <leafValues>
            -6.5653389692306519e-01 2.6890635490417480e-01</leafValues></_>
        <_>
          <internalNodes>
            0 -1 99 -383868466 51429377 -805302003 16810050 -1073133429
            268959872 -536817445 2046992448</internalNodes>
          <leafValues>
            -6.2497478723526001e-01 2.7062422037124634e-01</leafValues></_>
        <_>
          <internalNodes>
            0 -1 187 1746366739 -351596543 -805306094 -1442430907
            -922107767 -2130116032 -251404088 617536431</internalNodes>
          <leafValues>
            -7.7175867557525635e-01 2.1940667927265167e-01</leafValues></_>
        <_>
          <internalNodes>
            0 -1 157 286492892 1209024523 268505310 1359614098 149547
            8388608 822608392 -12703218</internalNodes>
          <leafValues>
            -6.2331867218017578e-01 2.9090920090675354e-01</leafValues></_>
        <_>
          <internalNodes>
            0 -1 116 -799047394 1359663186 1077936135 -1874804736
            -1065139318 -129794047 -805236387 1992547282</internalNodes>
          <leafValues>
            -5.5071014165878296e-01 3.1980234384536743e-01</leafValues></_></weakClassifiers></_>
    <!-- stage 14 -->
    <_>
      <maxWeakCount>11</maxWeakCount>
      <stageThreshold>-1.2828167676925659e+00</stageThreshold>
      <weakClassifiers>
        <_>
          <internalNodes>
            0 -1 163 1888428043 1372848459 528435 1976045641 -2004713317
            -1937735680 -1979531014 -72691462</internalNodes>
          <leafValues>
            -5.2987265586853027e-01 4.8051947355270386e-01</leafValues></_>
        <_>
          <internalNodes>
            0 -1 3 -538228261 -687619447 49281 -620658686 -1039996022
            1082755074 1250107459 1834443045</internalNodes>
          <leafValues>
            -6.6477012634277344e-01 3.2711806893348694e-01</leafValues></_>
        <_>
          <internalNodes>
            0 -1 53 -2147302275 1439236241 285298745 -597262159
            1216374843 1476657160 -2013230961 1596951231</internalNodes>
          <leafValues>
            -6.4034652709960938e-01 3.1310701370239258e-01</leafValues></_>
        <_>
          <internalNodes>
            0 -1 180 1594052959 318865665 1342705745 591495431
            -1182756245 -1920466175 -1727811190 279769887</internalNodes>
          <leafValues>
            -7.1065896749496460e-01 2.6165214180946350e-01</leafValues></_>
        <_>
          <internalNodes>
            0 -1 174 1607419490 822951946 67158150 -1056358272 164528145
            143130626 -2138930928 298443497</internalNodes>
          <leafValues>
            -6.9258689880371094e-01 2.7922078967094421e-01</leafValues></_>
        <_>
          <internalNodes>
            0 -1 42 -534879745 -938418031 1343770251 -565510001
            -394039045 1485332608 411087006 2047215941</internalNodes>
          <leafValues>
            -5.5846130847930908e-01 2.8697878122329712e-01</leafValues></_>
        <_>
          <internalNodes>
            0 -1 44 -2108688433 -669974391 1612185602 -770621440
            1073795664 -243040248 -2130477050 -4142975</internalNodes>
          <leafValues>
            -6.7319035530090332e-01 2.3882327973842621e-01</leafValues></_>
        <_>
          <internalNodes>
            0 -1 130 -766181259 -654229504 1360011408 -665845482
            -1803466735 -1440743288 1091176484 1067170100</internalNodes>
          <leafValues>
            -7.1799945831298828e-01 2.4052289128303528e-01</leafValues></_>
        <_>
          <internalNodes>
            0 -1 115 -787250673 521928967 -2147463077 -1759805421
            -788494101 -1928453798 -368863077 -331507014</internalNodes>
          <leafValues>
            -4.4031596183776855e-01 3.8453081250190735e-01</leafValues></_>
        <_>
          <internalNodes>
            0 -1 69 -289180789 1493483522 1077985280 -989102079
            1090538250 268959874 1640976394 2065343057</internalNodes>
          <leafValues>
            -5.7036739587783813e-01 2.8085419535636902e-01</leafValues></_>
        <_>
          <internalNodes>
            0 -1 140 -875588832 1095340036 16595 1124073474 1744847086
            176783512 -2012692288 317292740</internalNodes>
          <leafValues>
            -5.8696353435516357e-01 2.9672315716743469e-01</leafValues></_></weakClassifiers></_>
    <!-- stage 15 -->
    <_>
      <maxWeakCount>12</maxWeakCount>
      <stageThreshold>-1.2446582317352295e+00</stageThreshold>
      <weakClassifiers>
        <_>
          <internalNodes>
            0 -1 0 -65 -5275649 -33025 939356030 -1 -1 -33554433
            -134744094</internalNodes>
          <leafValues>
            -3.4785765409469604e-01 6.0502284765243530e-01</leafValues></_>
        <_>
          <internalNodes>
            0 -1 84 -530911234 -266596215 -788401853 -384512000 1624201
            -125796352 -1853259617 -117091829</internalNodes>
          <leafValues>
            -5.8888036012649536e-01 3.2376921176910400e-01</leafValues></_>
        <_>
          <internalNodes>
            0 -1 202 -142870529 -172490753 -1 653787135 -33556483
            1308618751 -33556491 771751423</internalNodes>
          <leafValues>
            -3.8140916824340820e-01 4.8222976922988892e-01</leafValues></_>
        <_>
          <internalNodes>
            0 -1 142 26161663 1493827585 -805121825 -1823387318
            -796165941 1484792192 806959359 177745524</internalNodes>
          <leafValues>
            -8.2617312669754028e-01 2.1321049332618713e-01</leafValues></_>
        <_>
          <internalNodes>
            0 -1 27 -1085574230 -746455018 133121 -1291272064 302449159
            557056 1921065013 -215526655</internalNodes>
          <leafValues>
            -8.1804400682449341e-01 1.7379479110240936e-01</leafValues></_>
        <_>
          <internalNodes>
            0 -1 135 -1001028044 1379926089 4243546 -1241284542
            -2130673469 -83156991 -1073717028 971964476</internalNodes>
          <leafValues>
            -7.7134722471237183e-01 1.7772215604782104e-01</leafValues></_>
        <_>
          <internalNodes>
            0 -1 104 71874030 -1051639739 1342275922 -1993605032
            809631802 277348360 -1056440050 -746124736</internalNodes>
          <leafValues>
            -7.1699917316436768e-01 1.3409577310085297e-01</leafValues></_>
        <_>
          <internalNodes>
            0 -1 13 1224736988 -1858010971 65629 -166457333 679477418
            -1475739511 134220447 2126856518</internalNodes>
          <leafValues>
            -4.6883776783943176e-01 3.2832559943199158e-01</leafValues></_>
        <_>
          <internalNodes>
            0 -1 141 1187414302 1838416272 65857 -1760538619 149697
            193603842 -1065350440 547212264</internalNodes>
          <leafValues>
            -7.1719610691070557e-01 2.2895185649394989e-01</leafValues></_>
        <_>
          <internalNodes>
            0 -1 40 167940138 163840 536887360 -788360448 319384138
            134250626 51102247 2065584171</internalNodes>
          <leafValues>
            -6.7166924476623535e-01 2.1721412241458893e-01</leafValues></_>
        <_>
          <internalNodes>
            0 -1 78 -787373682 -1869262510 -1878978556 289444160
            -1735767918 572162048 -2147364773 1180849028</internalNodes>
          <leafValues>
            -8.2654035091400146e-01 1.2983492016792297e-01</leafValues></_>
        <_>
          <internalNodes>
            0 -1 66 -468819574 -788430848 -1006567423 402686232 67322762
            -1073627128 -737655989 -260024190</internalNodes>
          <leafValues>
            -6.2164425849914551e-01 2.4533158540725708e-01</leafValues></_></weakClassifiers></_>
    <!-- stage 16 -->
    <_>
      <maxWeakCount>12</maxWeakCount>
      <stageThreshold>-1.2272980213165283e+00</stageThreshold>
      <weakClassifiers>
        <_>
          <internalNodes>
            0 -1 89 -117255777 -1287450352 -2147462885 419659803
            1350598795 -2129977336 1787462539 -930493692</internalNodes>
          <leafValues>
            -5.4171067476272583e-01 4.3185299634933472e-01</leafValues></_>
        <_>
          <internalNodes>
            0 -1 127 811241951 -1756131328 1073828081 -1291415549 180296
            -1702887424 -2113818480 -1151430006</internalNodes>
          <leafValues>
            -6.0949903726577759e-01 3.4640365839004517e-01</leafValues></_>
        <_>
          <internalNodes>
            0 -1 133 -137 2113929215 -1 872415101 -16451 -163971 -98305
            -117964801</internalNodes>
          <leafValues>
            -4.0961846709251404e-01 5.0366401672363281e-01</leafValues></_>
        <_>
          <internalNodes>
            0 -1 153 -769553500 1629556898 -2147401578 -637530104
            -1073577312 1124073603 -2146909960 1921540762</internalNodes>
          <leafValues>
            -7.5046634674072266e-01 3.0576670169830322e-01</leafValues></_>
        <_>
          <internalNodes>
            0 -1 200 -1647317565 -1133686559 1073795091 -1354250223
            -1442668415 -2139029374 -1984912871 268692440</internalNodes>
          <leafValues>
            -4.9701273441314697e-01 3.3844748139381409e-01</leafValues></_>
        <_>
          <internalNodes>
            0 -1 71 -889089619 -805044212 285282318 -721370856
            -394098257 -1601666943 -1870657488 -1481635821</internalNodes>
          <leafValues>
            -5.5757534503936768e-01 2.9486107826232910e-01</leafValues></_>
        <_>
          <internalNodes>
            0 -1 146 534479087 1225982209 8447001 -787390463 -2138542070
            -938717184 -939458482 -92092236</internalNodes>
          <leafValues>
            -4.5436379313468933e-01 3.6867922544479370e-01</leafValues></_>
        <_>
          <internalNodes>
            0 -1 208 1682960515 361205768 0 874741771 1744970240
            235012226 205484 1772784265</internalNodes>
          <leafValues>
            -6.4227634668350220e-01 2.9386800527572632e-01</leafValues></_>
        <_>
          <internalNodes>
            0 -1 12 -2130650999 -1052442622 268965969 222433285
            135012570 -1467480064 285739611 -672718686</internalNodes>
          <leafValues>
            -4.8450189828872681e-01 3.2464525103569031e-01</leafValues></_>
        <_>
          <internalNodes>
            0 -1 177 -932490661 1560346641 -2146398114 1355890953
            -2146926558 1074266112 -2105425528 -1096114047</internalNodes>
          <leafValues>
            -5.1090270280838013e-01 3.1746840476989746e-01</leafValues></_>
        <_>
          <internalNodes>
            0 -1 35 -1065283958 -888995712 17 -1073725423 -536721403
            276824064 -1995822323 -205438440</internalNodes>
          <leafValues>
            -6.0493093729019165e-01 2.8506487607955933e-01</leafValues></_>
        <_>
          <internalNodes>
            0 -1 120 26243347 1091633538 145 -225312750 -2139012927
            -1442807680 1912621240 -1710489566</internalNodes>
          <leafValues>
            -4.6485069394111633e-01 3.7839183211326599e-01</leafValues></_></weakClassifiers></_>
    <!-- stage 17 -->
    <_>
      <maxWeakCount>11</maxWeakCount>
      <stageThreshold>-1.2326277494430542e+00</stageThreshold>
      <weakClassifiers>
        <_>
          <internalNodes>
            0 -1 158 -746335405 -753811309 134774961 -712769397
            -1996439397 -1879048062 -805129761 -1389852160</internalNodes>
          <leafValues>
            -6.9252079725265503e-01 3.5989549756050110e-01</leafValues></_>
        <_>
          <internalNodes>
            0 -1 105 2130689791 -16842753 -33554498 -1241600262
            -1075838995 2147286783 -18482 -1327514898</internalNodes>
          <leafValues>
            -4.2798307538032532e-01 5.3173029422760010e-01</leafValues></_>
        <_>
          <internalNodes>
            0 -1 113 -754867751 1157809265 -1877376950 1360003328
            537395336 -1979154424 -2139092965 -543425026</internalNodes>
          <leafValues>
            -5.2241021394729614e-01 3.7114372849464417e-01</leafValues></_>
        <_>
          <internalNodes>
            0 -1 64 51093519 -796639229 65561 -788393971 1245708458
            -2062876672 -2138505216 -546657501</internalNodes>
          <leafValues>
            -5.1681280136108398e-01 3.7541118264198303e-01</leafValues></_>
        <_>
          <internalNodes>
            0 -1 88 13824207 721768513 4145 -1709830079 276891722
            420151304 -2000635222 -394094437</internalNodes>
          <leafValues>
            -6.0047304630279541e-01 3.3327567577362061e-01</leafValues></_>
        <_>
          <internalNodes>
            0 -1 188 -1815381177 324815041 1090552321 269320194
            1082359945 1092323467 -1056947573 80134275</internalNodes>
          <leafValues>
            -6.8762493133544922e-01 2.5357225537300110e-01</leafValues></_>
        <_>
          <internalNodes>
            0 -1 98 -887380550 -482258792 -1073737583 1610645761
            1487420427 -402128760 -2139094910 1075011712</internalNodes>
          <leafValues>
            -5.2317929267883301e-01 3.2375898957252502e-01</leafValues></_>
        <_>
          <internalNodes>
            0 -1 109 -486346425 4260096 1359036433 -1274544125 139274
            134226049 1074268168 1092894891</internalNodes>
          <leafValues>
            -8.0278557538986206e-01 1.9825232028961182e-01</leafValues></_>
        <_>
          <internalNodes>
            0 -1 117 -735932362 -1325268991 268451843 1359118357
            -1052728822 134397960 17383425 -1412273600</internalNodes>
          <leafValues>
            -6.5831643342971802e-01 2.8232643008232117e-01</leafValues></_>
        <_>
          <internalNodes>
            0 -1 15 17416285 1137836048 33620185 1360199761 16779929
            8388800 10584166 -796186541</internalNodes>
          <leafValues>
            -5.7322341203689575e-01 3.4775221347808838e-01</leafValues></_>
        <_>
          <internalNodes>
            0 -1 179 1640350391 -738131886 -2129592037 470286363
            -1686097526 -1321205760 134914682 29217</internalNodes>
          <leafValues>
            -8.8044655323028564e-01 1.7777732014656067e-01</leafValues></_></weakClassifiers></_>
    <!-- stage 18 -->
    <_>
      <maxWeakCount>12</maxWeakCount>
      <stageThreshold>-8.3622187376022339e-01</stageThreshold>
      <weakClassifiers>
        <_>
          <internalNodes>
            0 -1 201 -775425797 -935329728 1090666517 -326791037
            268550146 -2122317824 -2013093757 -979658069</internalNodes>
          <leafValues>
            -5.1472079753875732e-01 4.4006308913230896e-01</leafValues></_>
        <_>
          <internalNodes>
            0 -1 166 -804120194 433061889 65749 1929396288 32793
            -1811243004 -1467993957 -1081382903</internalNodes>
          <leafValues>
            -5.1621913909912109e-01 3.7681934237480164e-01</leafValues></_>
        <_>
          <internalNodes>
            0 -1 65 536994715 -1862270976 532480 1342324736 814221891
            142608392 1518424610 2130790915</internalNodes>
          <leafValues>
            -7.7360272407531738e-01 2.2567784786224365e-01</leafValues></_>
        <_>
          <internalNodes>
            0 -1 199 -1047572139 -699875191 -1073741822 1178894401
            1099530401 50331904 306348225 72139393</internalNodes>
          <leafValues>
            -6.4581429958343506e-01 2.7263456583023071e-01</leafValues></_>
        <_>
          <internalNodes>
            0 -1 0 1091502283 1087373445 155 424087552 -2138537848
            -2138570621 -1451227951 -784498492</internalNodes>
          <leafValues>
            -5.2677375078201294e-01 3.6366251111030579e-01</leafValues></_>
        <_>
          <internalNodes>
            0 -1 122 1342257183 809631936 1342193744 1092665360
            268959749 1258291208 -1073692533 990030826</internalNodes>
          <leafValues>
            -6.7919188737869263e-01 2.5945484638214111e-01</leafValues></_>
        <_>
          <internalNodes>
            0 -1 159 -1824188577 1359020096 16842819 1493172497
            -2144829310 -1610612736 -2139077671 -1325884552</internalNodes>
          <leafValues>
            -5.6637996435165405e-01 2.9579517245292664e-01</leafValues></_>
        <_>
          <internalNodes>
            0 -1 87 -1056951981 -669974523 16842768 339738644 268468418
            59246593 -2013085558 1125865483</internalNodes>
          <leafValues>
            -5.9702199697494507e-01 3.1416988372802734e-01</leafValues></_>
        <_>
          <internalNodes>
            0 -1 176 1090797791 -1493172224 33570816 -582221694
            277381249 131200 33696212 562660001</internalNodes>
          <leafValues>
            -6.1694967746734619e-01 2.8917816281318665e-01</leafValues></_>
        <_>
          <internalNodes>
            0 -1 60 -2147393352 -1879031808 -2147401727 1091764370 136
            -2139090928 537198611 1657774770</internalNodes>
          <leafValues>
            -5.1743340492248535e-01 3.4267902374267578e-01</leafValues></_>
        <_>
          <internalNodes>
            0 -1 6 -637007360 -1862008832 4096 285229312 1073784840
            -1979676032 262280 1065503883</internalNodes>
          <leafValues>
            -6.7665964365005493e-01 2.7761170268058777e-01</leafValues></_>
        <_>
          <internalNodes>
            0 -1 178 1493368837 318832640 -1073692647 -1853816831
            939532483 -2013265920 -1073592135 -880098632</internalNodes>
          <leafValues>
            -5.0280725955963135e-01 3.6697915196418762e-01</leafValues></_></weakClassifiers></_>
    <!-- stage 19 -->
    <_>
      <maxWeakCount>13</maxWeakCount>
      <stageThreshold>-1.1502054929733276e+00</stageThreshold>
      <weakClassifiers>
        <_>
          <internalNodes>
            0 -1 54 -788316178 -787447799 -49619 -648683602 143136955
            -1968699392 -461176343 -32781</internalNodes>
          <leafValues>
            -4.3187889456748962e-01 4.7433629631996155e-01</leafValues></_>
        <_>
          <internalNodes>
            0 -1 47 1716224906 -629080064 -2147483648 -1040121727
            -2147450789 -780075008 436463622 -1090479415</internalNodes>
          <leafValues>
            -6.0304248332977295e-01 3.0648618936538696e-01</leafValues></_>
        <_>
          <internalNodes>
            0 -1 186 -1241516553 1408630647 -1 -1326055435 -134219779
            -167772161 -32769 -322961409</internalNodes>
          <leafValues>
            -3.6702963709831238e-01 4.6515029668807983e-01</leafValues></_>
        <_>
          <internalNodes>
            0 -1 150 -1336762329 -2012217327 -1862233917 1628471297
            -2147446743 -2147483648 -1879031605 -1386508136</internalNodes>
          <leafValues>
            -4.3626073002815247e-01 4.1123056411743164e-01</leafValues></_>
        <_>
          <internalNodes>
            0 -1 94 -1508480830 -1860632568 1073823744 318998528
            671695370 165888 -889105912 -704588542</internalNodes>
          <leafValues>
            -6.0973381996154785e-01 2.4417300522327423e-01</leafValues></_>
        <_>
          <internalNodes>
            0 -1 114 -805101409 -1827078127 16777283 -1861615591
            -2147385310 -1937768318 -2130640237 -1566572542</internalNodes>
          <leafValues>
            -5.2531343698501587e-01 3.0765965580940247e-01</leafValues></_>
        <_>
          <internalNodes>
            0 -1 143 -2113929069 2139361280 -2130706176 -721354735
            -2146959165 692191368 -2145285992 77306026</internalNodes>
          <leafValues>
            -5.6510192155838013e-01 2.9186007380485535e-01</leafValues></_>
        <_>
          <internalNodes>
            0 -1 137 1158881284 -989790207 1073741824 1905332360
            -1073717237 -2136965112 176717963 -1057472351</internalNodes>
          <leafValues>
            -4.8928654193878174e-01 3.3539626002311707e-01</leafValues></_>
        <_>
          <internalNodes>
            0 -1 41 1342783881 -1592459263 16777216 1157646601
            -2013265573 -1987575680 -796325871 -1290591983</internalNodes>
          <leafValues>
            -6.4837563037872314e-01 2.2611096501350403e-01</leafValues></_>
        <_>
          <internalNodes>
            0 -1 36 -1472800098 1124073472 536952832 1410039945
            1670262793 134283304 193601929 998793225</internalNodes>
          <leafValues>
            -6.1147081851959229e-01 2.5005221366882324e-01</leafValues></_>
        <_>
          <internalNodes>
            0 -1 70 357793958 38830089 1074790448 -805236735 -800571325
            1864439808 -2147430248 562253836</internalNodes>
          <leafValues>
            -7.5817358493804932e-01 2.1012450754642487e-01</leafValues></_>
        <_>
          <internalNodes>
            0 -1 119 327258620 -536866685 36883 -803602428 8519714
            -2138963832 1073741872 -374076816</internalNodes>
          <leafValues>
            -6.5711230039596558e-01 2.2618189454078674e-01</leafValues></_>
        <_>
          <internalNodes>
            0 -1 173 1539557941 319750274 -2147450816 1368260610
            -2147450744 -2147483648 -2139062261 1635944456</internalNodes>
          <leafValues>
            -4.8979127407073975e-01 3.4186983108520508e-01</leafValues></_></weakClassifiers></_>
    <!-- stage 20 -->
    <_>
      <maxWeakCount>14</maxWeakCount>
      <stageThreshold>-1.4267574548721313e+00</stageThreshold>
      <weakClassifiers>
        <_>
          <internalNodes>
            0 -1 93 -815271962 -268447743 -49169 1073627134 -1073528833
            -1073708928 -151416 -327682</internalNodes>
          <leafValues>
            -4.1846418380737305e-01 4.8994514346122742e-01</leafValues></_>
        <_>
          <internalNodes>
            0 -1 107 1074889131 -995033088 37009 -2062483311 968896745
            -2012610560 -2147483493 -208959327</internalNodes>
          <leafValues>
            -5.6102168560028076e-01 3.2456162571907043e-01</leafValues></_>
        <_>
          <internalNodes>
            0 -1 56 -637083505 17661952 67174400 -268353508 -1056391029
            25362432 -666271607 1409523827</internalNodes>
          <leafValues>
            -5.4857116937637329e-01 3.1835612654685974e-01</leafValues></_>
        <_>
          <internalNodes>
            0 -1 34 -1551701361 -788529152 16809985 -1862270587
            1375955522 34209792 -1442838373 -545144823</internalNodes>
          <leafValues>
            -4.4509714841842651e-01 3.5450109839439392e-01</leafValues></_>
        <_>
          <internalNodes>
            0 -1 185 1363264005 4292736 98370 -532053981 1282720
            -2147352573 -2122088311 -465635061</internalNodes>
          <leafValues>
            -6.2768423557281494e-01 2.0774438977241516e-01</leafValues></_>
        <_>
          <internalNodes>
            0 -1 147 -519661094 -2062680064 16389 -2130673406
            -1031692135 -1073708928 -1878851022 864752024</internalNodes>
          <leafValues>
            -4.1435316205024719e-01 3.6315238475799561e-01</leafValues></_>
        <_>
          <internalNodes>
            0 -1 110 -733441965 281478407 16842757 -1962536959 532618
            1367343104 1497530496 -1410154365</internalNodes>
          <leafValues>
            -5.8062720298767090e-01 2.5665757060050964e-01</leafValues></_>
        <_>
          <internalNodes>
            0 -1 206 -729300898 1090584704 -1073741823 35324032
            -2138568702 286130304 687966336 1988657280</internalNodes>
          <leafValues>
            -6.6542571783065796e-01 2.4052536487579346e-01</leafValues></_>
        <_>
          <internalNodes>
            0 -1 19 -351379320 -1862238208 -2147479552 318867456
            1686682504 143163400 74248 1468148226</internalNodes>
          <leafValues>
            -6.0179179906845093e-01 2.1806959807872772e-01</leafValues></_>
        <_>
          <internalNodes>
            0 -1 33 268619798 -1744764800 268439577 -1862270975 10538
            -1744830456 -1467950454 -7141374</internalNodes>
          <leafValues>
            -4.0661892294883728e-01 3.8036167621612549e-01</leafValues></_>
        <_>
          <internalNodes>
            0 -1 203 -620473901 1037025409 -2147475456 2026045440
            1073913994 -2029748224 -2147334016 245203467</internalNodes>
          <leafValues>
            -4.0669316053390503e-01 3.5901343822479248e-01</leafValues></_>
        <_>
          <internalNodes>
            0 -1 168 -981395312 268533824 -1072611311 -637517824
            671089280 -2147450880 403183656 -81569736</internalNodes>
          <leafValues>
            -6.0607451200485229e-01 2.6727470755577087e-01</leafValues></_>
        <_>
          <internalNodes>
            0 -1 161 33620305 -1073709053 16809986 -951910373 33440
            -1878884344 -804552568 -1061109508</internalNodes>
          <leafValues>
            -4.4111526012420654e-01 3.1147503852844238e-01</leafValues></_>
        <_>
          <internalNodes>
            0 -1 90 -670990125 -653197232 4370 -510523375 33685578
            -1199570816 33587329 151326856</internalNodes>
          <leafValues>
            -5.2988219261169434e-01 2.8279522061347961e-01</leafValues></_></weakClassifiers></_>
    <!-- stage 21 -->
    <_>
      <maxWeakCount>14</maxWeakCount>
      <stageThreshold>-1.3050587177276611e+00</stageThreshold>
      <weakClassifiers>
        <_>
          <internalNodes>
            0 -1 106 -804158727 1359020033 -1068428843 340787594
            -2147481399 -125829120 1082142875 813891586</internalNodes>
          <leafValues>
            -5.1731842756271362e-01 3.7849777936935425e-01</leafValues></_>
        <_>
          <internalNodes>
            0 -1 158 -787267243 309133314 -2147024759 -251658239
            -1602154358 -1602027392 -1071914325 -1467430388</internalNodes>
          <leafValues>
            -6.9463121891021729e-01 2.5995323061943054e-01</leafValues></_>
        <_>
          <internalNodes>
            0 -1 111 1157693582 1414103105 1494847760 -1743634414
            8921264 -2147385344 33019 -2121547542</internalNodes>
          <leafValues>
            -6.8640750646591187e-01 2.5676089525222778e-01</leafValues></_>
        <_>
          <internalNodes>
            0 -1 64 -1006399361 1612316808 19 -1785716608 -2130477046
            -1040154486 -2104688589 -586225021</internalNodes>
          <leafValues>
            -5.1169985532760620e-01 3.0033624172210693e-01</leafValues></_>
        <_>
          <internalNodes>
            0 -1 25 -2126511653 -1879044096 285212696 -1056669696
            1073783298 -2147450880 -1828592948 -729034742</internalNodes>
          <leafValues>
            -4.0003469586372375e-01 3.9323845505714417e-01</leafValues></_>
        <_>
          <internalNodes>
            0 -1 129 286857694 353435651 -1879015421 580648976
            -1610612728 268959744 27 -82954581</internalNodes>
          <leafValues>
            -5.7122629880905151e-01 2.5325629115104675e-01</leafValues></_>
        <_>
          <internalNodes>
            0 -1 155 1342275761 1334345740 32962 1090519042 33645289
            134217729 1212219632 1629030886</internalNodes>
          <leafValues>
            -7.0879650115966797e-01 1.9551825523376465e-01</leafValues></_>
        <_>
          <internalNodes>
            0 -1 182 -918306103 -683212792 32768 -1736371456 -2139060090
            -671088640 1090535432 545931841</internalNodes>
          <leafValues>
            -6.9145369529724121e-01 2.0938101410865784e-01</leafValues></_>
        <_>
          <internalNodes>
            0 -1 194 -1253085179 356550657 -2147483646 428425218
            -1577055607 130 128 -2146940504</internalNodes>
          <leafValues>
            -7.2799444198608398e-01 1.5326118469238281e-01</leafValues></_>
        <_>
          <internalNodes>
            0 -1 23 -1728029998 1233272832 4354 1342509315 134791691
            8683520 -1609795071 2072038564</internalNodes>
          <leafValues>
            -5.6812423467636108e-01 2.7192628383636475e-01</leafValues></_>
        <_>
          <internalNodes>
            0 -1 108 -1068838747 814137354 -2147417980 521142274 608384
            59408520 -1073741664 -1685225472</internalNodes>
          <leafValues>
            -5.7723146677017212e-01 2.7722957730293274e-01</leafValues></_>
        <_>
          <internalNodes>
            0 -1 165 -2138930979 1359020048 1069057 -520093432 41976011
            -2147467255 536920104 -887289768</internalNodes>
          <leafValues>
            -3.8296371698379517e-01 4.4741326570510864e-01</leafValues></_>
        <_>
          <internalNodes>
            0 -1 121 843071514 1409351712 285212753 318881872 134224361
            12681345 8433672 10684798</internalNodes>
          <leafValues>
            -6.4234757423400879e-01 2.2980584204196930e-01</leafValues></_>
        <_>
          <internalNodes>
            0 -1 209 1138398459 419577857 16777232 -1073610752 579469450
            990412936 1610799648 -225727743</internalNodes>
          <leafValues>
            -5.8009111881256104e-01 2.5057154893875122e-01</leafValues></_></weakClassifiers></_>
    <!-- stage 22 -->
    <_>
      <maxWeakCount>15</maxWeakCount>
      <stageThreshold>-1.1857159137725830e+00</stageThreshold>
      <weakClassifiers>
        <_>
          <internalNodes>
            0 -1 197 -738199561 -998776182 -1 -1065652353 -1073706872
            16810496 -4086 -293601289</internalNodes>
          <leafValues>
            -3.9302694797515869e-01 5.5196768045425415e-01</leafValues></_>
        <_>
          <internalNodes>
            0 -1 16 -670150405 270008329 603 1350963337 -1534554101
            49160 -1610448876 -79272965</internalNodes>
          <leafValues>
            -4.5522880554199219e-01 3.4275779128074646e-01</leafValues></_>
        <_>
          <internalNodes>
            0 -1 79 -2091351789 -1073446895 1477443840 -905052156
            -1836537207 32768 1073758216 1636315289</internalNodes>
          <leafValues>
            -6.0904246568679810e-01 2.4380195140838623e-01</leafValues></_>
        <_>
          <internalNodes>
            0 -1 61 1090835458 -1878999039 65561 -788510701 -2147483520
            -2146926335 -2146926590 10439459</internalNodes>
          <leafValues>
            -7.5803947448730469e-01 1.8723626434803009e-01</leafValues></_>
        <_>
          <internalNodes>
            0 -1 172 -1043603401 1233223688 32768 16945152 1082130568
            143130624 213128 1133150280</internalNodes>
          <leafValues>
            -3.6337029933929443e-01 3.9018279314041138e-01</leafValues></_>
        <_>
          <internalNodes>
            0 -1 205 -33304061 16859274 16777216 168427520 -930578048
            268435458 -536705015 2013954761</internalNodes>
          <leafValues>
            -5.6188029050827026e-01 2.3811095952987671e-01</leafValues></_>
        <_>
          <internalNodes>
            0 -1 156 -1610481570 -268042239 -1073737390 -1879043776
            8454554 0 -511639160 -1179885394</internalNodes>
          <leafValues>
            -5.9532767534255981e-01 2.2378459572792053e-01</leafValues></_>
        <_>
          <internalNodes>
            0 -1 23 -787784814 1073774606 -2130702320 -2147188732
            -1978996085 1073774592 318784008 -239019894</internalNodes>
          <leafValues>
            -3.8073876500129700e-01 3.7825787067413330e-01</leafValues></_>
        <_>
          <internalNodes>
            0 -1 50 -788414263 537002113 16826372 -1337786367
            -2120187893 134350984 -2139060222 672137218</internalNodes>
          <leafValues>
            -7.2813230752944946e-01 2.1795980632305145e-01</leafValues></_>
        <_>
          <internalNodes>
            0 -1 147 -1064533290 16777216 -2147450816 285212673
            -1065336822 -2147418112 1212219907 860045896</internalNodes>
          <leafValues>
            -4.4859457015991211e-01 3.3477535843849182e-01</leafValues></_>
        <_>
          <internalNodes>
            0 -1 52 -805203636 -1065287424 192 1209401360 536586
            310902784 18923658 504397833</internalNodes>
          <leafValues>
            -5.8205133676528931e-01 2.3525936901569366e-01</leafValues></_>
        <_>
          <internalNodes>
            0 -1 68 -234335601 -1744502784 -2147483647 1090666496
            1879054856 268484736 -805295992 1652801667</internalNodes>
          <leafValues>
            -4.6070230007171631e-01 3.0186104774475098e-01</leafValues></_>
        <_>
          <internalNodes>
            0 -1 63 1343307968 -2003826688 561169 1011417107 134748344
            403734528 134252675 520210563</internalNodes>
          <leafValues>
            -3.7467870116233826e-01 3.7048760056495667e-01</leafValues></_>
        <_>
          <internalNodes>
            0 -1 179 1360236888 -1727987712 16777219 -670957557
            -1820295030 -1979645952 -2113888125 981635203</internalNodes>
          <leafValues>
            -4.5102107524871826e-01 3.5824146866798401e-01</leafValues></_>
        <_>
          <internalNodes>
            0 -1 204 1217294595 84181124 1073741832 1610940672
            -2146926456 33587208 2050 9080960</internalNodes>
          <leafValues>
            -5.9880214929580688e-01 2.2807291150093079e-01</leafValues></_></weakClassifiers></_>
    <!-- stage 23 -->
    <_>
      <maxWeakCount>15</maxWeakCount>
      <stageThreshold>-1.3633852005004883e+00</stageThreshold>
      <weakClassifiers>
        <_>
          <internalNodes>
            0 -1 164 -4195076 -1006674690 -2147475453 -570994688
            -1610555907 -2146926463 -1610579959 -1031552885</internalNodes>
          <leafValues>
            -3.8223937153816223e-01 5.6993734836578369e-01</leafValues></_>
        <_>
          <internalNodes>
            0 -1 22 -1459600929 277184513 88 1359478787 100363 8519808
            134250627 -802953141</internalNodes>
          <leafValues>
            -3.8354706764221191e-01 3.8537728786468506e-01</leafValues></_>
        <_>
          <internalNodes>
            0 -1 112 -788430512 -1795145728 128 1360318746 16522
            -2147483648 147586 -1660125166</internalNodes>
          <leafValues>
            -7.1970057487487793e-01 2.1061153709888458e-01</leafValues></_>
        <_>
          <internalNodes>
            0 -1 86 -1056735103 -661946367 65536 -1735966720 655496
            34211872 139 2022508602</internalNodes>
          <leafValues>
            -3.8331654667854309e-01 3.8792088627815247e-01</leafValues></_>
        <_>
          <internalNodes>
            0 -1 132 -2146762748 -2126446464 32786 285311232 -2138996725
            251658242 1073973906 614777665</internalNodes>
          <leafValues>
            -9.2025768756866455e-01 1.2905424833297729e-01</leafValues></_>
        <_>
          <internalNodes>
            0 -1 160 -1342177529 -134217730 -137 -101580929 1602223975
            -8913051 -32907 -25297313</internalNodes>
          <leafValues>
            -3.2300534844398499e-01 4.1925731301307678e-01</leafValues></_>
        <_>
          <internalNodes>
            0 -1 101 1662765185 1207992448 285245442 -251658176
            276824072 33554560 402661378 -1717925886</internalNodes>
          <leafValues>
            -5.9908992052078247e-01 2.2265432775020599e-01</leafValues></_>
        <_>
          <internalNodes>
            0 -1 43 -1056726528 -872411136 0 -805273599 8437896
            402653192 134217736 1518866435</internalNodes>
          <leafValues>
            -4.9108234047889709e-01 2.7837881445884705e-01</leafValues></_>
        <_>
          <internalNodes>
            0 -1 139 -1048325721 -1001897792 32768 -738164736 1082195968
            524417 2186 1208140296</internalNodes>
          <leafValues>
            -3.5948309302330017e-01 3.9944934844970703e-01</leafValues></_>
        <_>
          <internalNodes>
            0 -1 95 -268550337 939507495 -1 1068302271 2147450871
            -1082663049 -34817 -8974993</internalNodes>
          <leafValues>
            -3.4213185310363770e-01 4.3480506539344788e-01</leafValues></_>
        <_>
          <internalNodes>
            0 -1 103 -787443244 16842760 537100289 822083588 -2147319680
            -2012737536 -2113908723 -133447422</internalNodes>
          <leafValues>
            -3.1547963619232178e-01 4.5057061314582825e-01</leafValues></_>
        <_>
          <internalNodes>
            0 -1 162 277479488 268501120 272646162 -2122252151
            -1065353088 -662667264 10649737 311320</internalNodes>
          <leafValues>
            -7.6342236995697021e-01 1.9506944715976715e-01</leafValues></_>
        <_>
          <internalNodes>
            0 -1 44 1182908550 -704446464 0 -671088639 536973320
            34242688 -2113928960 -897548152</internalNodes>
          <leafValues>
            -5.9897971153259277e-01 2.1780198812484741e-01</leafValues></_>
        <_>
          <internalNodes>
            0 -1 122 -786951778 -2146942968 36944 16809984 18584
            33554560 -2147426287 377602138</internalNodes>
          <leafValues>
            -5.7549357414245605e-01 2.4019585549831390e-01</leafValues></_>
        <_>
          <internalNodes>
            0 -1 7 -403542017 -98305 -1 -884737 33521535 -268435457
            -704807553 -1619927809</internalNodes>
          <leafValues>
            -3.1275570392608643e-01 4.9811440706253052e-01</leafValues></_></weakClassifiers></_>
    <!-- stage 24 -->
    <_>
      <maxWeakCount>14</maxWeakCount>
      <stageThreshold>-1.0519963502883911e+00</stageThreshold>
      <weakClassifiers>
        <_>
          <internalNodes>
            0 -1 195 -705169409 1241350143 -1 629145597 1073706999
            1996455933 -43 788463606</internalNodes>
          <leafValues>
            -4.1999998688697815e-01 6.2644279003143311e-01</leafValues></_>
        <_>
          <internalNodes>
            0 -1 152 -1072455540 -1056899072 -2147483566 1074855953
            -2147450334 33554432 -2147434366 -2002534399</internalNodes>
          <leafValues>
            -4.5520743727684021e-01 4.4769299030303955e-01</leafValues></_>
        <_>
          <internalNodes>
            0 -1 123 -1072602920 167837696 1073758208 0 -2147450752
            134217728 1073905736 436289553</internalNodes>
          <leafValues>
            -3.6799186468124390e-01 5.0334221124649048e-01</leafValues></_>
        <_>
          <internalNodes>
            0 -1 82 -939506414 -738197504 65536 16843008 557192
            -2013265920 136 -1601646589</internalNodes>
          <leafValues>
            -4.8856887221336365e-01 3.4834399819374084e-01</leafValues></_>
        <_>
          <internalNodes>
            0 -1 0 -1879048055 -1056899040 16793667 1342767106 131208
            -2013265912 -1073741695 1569882241</internalNodes>
          <leafValues>
            -5.5358034372329712e-01 3.1270155310630798e-01</leafValues></_>
        <_>
          <internalNodes>
            0 -1 38 86658 -788529152 16384 1090584576 17433128
            -2147483647 -1324842584 1896030220</internalNodes>
          <leafValues>
            -5.0813955068588257e-01 4.7395908832550049e-01</leafValues></_>
        <_>
          <internalNodes>
            0 -1 39 -1308524544 1091043337 0 -788529152 -1610579840
            537067528 134234120 285214728</internalNodes>
          <leafValues>
            -4.6984839439392090e-01 4.5085892081260681e-01</leafValues></_>
        <_>
          <internalNodes>
            0 -1 100 -2147444736 -788529152 32768 1358954496 268441610
            -2147483648 -2139094912 -1727922048</internalNodes>
          <leafValues>
            -5.4847788810729980e-01 3.3594229817390442e-01</leafValues></_>
        <_>
          <internalNodes>
            0 -1 11 -1075122187 1073741823 -49153 -360454 -1510170656
            1879031807 1879015271 -681400408</internalNodes>
          <leafValues>
            -2.1954455971717834e-01 8.0139487981796265e-01</leafValues></_>
        <_>
          <internalNodes>
            0 -1 190 553746496 452984832 -2147483647 1074855937
            -2013224960 -2013265920 134217736 -1878941566</internalNodes>
          <leafValues>
            -5.1902967691421509e-01 3.8952776789665222e-01</leafValues></_>
        <_>
          <internalNodes>
            0 -1 151 -1874837488 58720256 146 1342177281 -2013233015
            8388608 32778 -838778877</internalNodes>
          <leafValues>
            -6.0962158441543579e-01 2.8395691514015198e-01</leafValues></_>
        <_>
          <internalNodes>
            0 -1 118 545292418 1086390272 1 1095237632 136 -2147450872
            -2147450744 -402522093</internalNodes>
          <leafValues>
            -4.1689497232437134e-01 4.6785932779312134e-01</leafValues></_>
        <_>
          <internalNodes>
            0 -1 76 -1945517494 268435456 524288 65536 9013760 553648136
            -2013265792 -1987444222</internalNodes>
          <leafValues>
            -4.6912324428558350e-01 4.0987464785575867e-01</leafValues></_>
        <_>
          <internalNodes>
            0 -1 17 -847884291 -65538 -16777217 -1073758289 1735786479
            -32961 -1225265691 -729810947</internalNodes>
          <leafValues>
            -2.9554536938667297e-01 5.7681822776794434e-01</leafValues></_></weakClassifiers></_></stages>
  <features>
    <_>
      <rect>
        0 0 1 1</rect></_>
    <_>
      <rect>
        0 0 1 2</rect></_>
    <_>
      <rect>
        0 0 1 4</rect></_>
    <_>
      <rect>
        0 0 1 8</rect></_>
    <_>
      <rect>
        0 0 2 2</rect></_>
    <_>
      <rect>
        0 0 2 3</rect></_>
    <_>
      <rect>
        0 0 2 6</rect></_>
    <_>
      <rect>
        0 0 2 7</rect></_>
    <_>
      <rect>
        0 0 3 3</rect></_>
    <_>
      <rect>
        0 0 3 4</rect></_>
    <_>
      <rect>
        0 0 3 6</rect></_>
    <_>
      <rect>
        0 0 3 8</rect></_>
    <_>
      <rect>
        0 1 2 1</rect></_>
    <_>
      <rect>
        0 1 3 1</rect></_>
    <_>
      <rect>
        0 1 3 5</rect></_>
    <_>
      <rect>
        0 2 1 2</rect></_>
    <_>
      <rect>
        0 2 1 3</rect></_>
    <_>
      <rect>
        0 2 1 7</rect></_>
    <_>
      <rect>
        0 2 2 5</rect></_>
    <_>
      <rect>
        0 2 2 7</rect></_>
    <_>
      <rect>
        0 3 1 5</rect></_>
    <_>
      <rect>
        0 3 1 6</rect></_>
    <_>
      <rect>
        0 4 1 2</rect></_>
    <_>
      <rect>
        0 4 1 4</rect></_>
    <_>
      <rect>
        0 4 1 5</rect></_>
    <_>
      <rect>
        0 4 1 6</rect></_>
    <_>
      <rect>
        0 5 1 3</rect></_>
    <_>
      <rect>
        0 5 1 4</rect></_>
    <_>
      <rect>
        0 5 1 6</rect></_>
    <_>
      <rect>
        0 6 1 1</rect></_>
    <_>
      <rect>
        0 6 2 4</rect></_>
    <_>
      <rect>
        0 6 2 6</rect></_>
    <_>
      <rect>
        0 8 1 3</rect></_>
    <_>
      <rect>
        0 8 2 1</rect></_>
    <_>
      <rect>
        0 9 1 2</rect></_>
    <_>
      <rect>
        0 9 1 3</rect></_>
    <_>
      <rect>
        0 9 1 5</rect></_>
    <_>
      <rect>
        0 9 3 5</rect></_>
    <_>
      <rect>
        0 10 1 3</rect></_>
    <_>
      <rect>
        0 11 2 2</rect></_>
    <_>
      <rect>
        0 12 1 4</rect></_>
    <_>
      <rect>
        0 13 1 1</rect></_>
    <_>
      <rect>
        0 13 3 2</rect></_>
    <_>
      <rect>
        0 14 2 2</rect></_>
    <_>
      <rect>
        0 15 1 2</rect></_>
    <_>
      <rect>
        0 15 1 3</rect></_>
    <_>
      <rect>
        0 15 2 3</rect></_>
    <_>
      <rect>
        0 16 1 2</rect></_>
    <_>
      <rect>
        0 16 2 2</rect></_>
    <_>
      <rect>
        0 18 3 2</rect></_>
    <_>
      <rect>
        0 19 1 1</rect></_>
    <_>
      <rect>
        0 19 2 1</rect></_>
    <_>
      <rect>
        0 21 1 1</rect></_>
    <_>
      <rect>
        0 21 2 1</rect></_>
    <_>
      <rect>
        0 21 3 1</rect></_>
    <_>
      <rect>
        1 0 1 1</rect></_>
    <_>
      <rect>
        1 0 1 3</rect></_>
    <_>
      <rect>
        1 0 2 1</rect></_>
    <_>
      <rect>
        1 0 3 5</rect></_>
    <_>
      <rect>
        1 0 3 7</rect></_>
    <_>
      <rect>
        1 1 1 1</rect></_>
    <_>
      <rect>
        1 1 2 4</rect></_>
    <_>
      <rect>
        1 2 1 3</rect></_>
    <_>
      <rect>
        1 2 3 1</rect></_>
    <_>
      <rect>
        1 3 1 2</rect></_>
    <_>
      <rect>
        1 3 1 7</rect></_>
    <_>
      <rect>
        1 3 2 5</rect></_>
    <_>
      <rect>
        1 3 3 2</rect></_>
    <_>
      <rect>
        1 4 1 4</rect></_>
    <_>
      <rect>
        1 4 1 5</rect></_>
    <_>
      <rect>
        1 4 3 6</rect></_>
    <_>
      <rect>
        1 5 2 1</rect></_>
    <_>
      <rect>
        1 6 3 5</rect></_>
    <_>
      <rect>
        1 6 3 6</rect></_>
    <_>
      <rect>
        1 7 2 3</rect></_>
    <_>
      <rect>
        1 8 2 3</rect></_>
    <_>
      <rect>
        1 10 1 2</rect></_>
    <_>
      <rect>
        1 10 3 2</rect></_>
    <_>
      <rect>
        1 10 3 4</rect></_>
    <_>
      <rect>
        1 11 2 4</rect></_>
    <_>
      <rect>
        1 11 3 4</rect></_>
    <_>
      <rect>
        1 12 3 2</rect></_>
    <_>
      <rect>
        1 15 2 2</rect></_>
    <_>
      <rect>
        1 15 3 3</rect></_>
    <_>
      <rect>
        1 16 2 2</rect></_>
    <_>
      <rect>
        1 17 2 2</rect></_>
    <_>
      <rect>
        1 18 1 2</rect></_>
    <_>
      <rect>
        1 20 2 1</rect></_>
    <_>
      <rect>
        1 21 1 1</rect></_>
    <_>
      <rect>
        2 0 1 1</rect></_>
    <_>
      <rect>
        2 0 2 1</rect></_>
    <_>
      <rect>
        2 2 1 3</rect></_>
    <_>
      <rect>
        2 2 2 2</rect></_>
    <_>
      <rect>
        2 2 2 6</rect></_>
    <_>
      <rect>
        2 4 1 5</rect></_>
    <_>
      <rect>
        2 5 1 2</rect></_>
    <_>
      <rect>
        2 6 1 6</rect></_>
    <_>
      <rect>
        2 6 2 2</rect></_>
    <_>
      <rect>
        2 8 2 2</rect></_>
    <_>
      <rect>
        2 8 2 5</rect></_>
    <_>
      <rect>
        2 9 1 1</rect></_>
    <_>
      <rect>
        2 10 1 1</rect></_>
    <_>
      <rect>
        2 10 2 2</rect></_>
    <_>
      <rect>
        2 10 2 3</rect></_>
    <_>
      <rect>
        2 11 2 2</rect></_>
    <_>
      <rect>
        2 13 2 1</rect></_>
    <_>
      <rect>
        2 14 2 1</rect></_>
    <_>
      <rect>
        2 16 2 1</rect></_>
    <_>
      <rect>
        2 17 1 2</rect></_>
    <_>
      <rect>
        2 18 1 1</rect></_>
    <_>
      <rect>
        2 18 1 2</rect></_>
    <_>
      <rect>
        2 18 2 1</rect></_>
    <_>
      <rect>
        2 18 2 2</rect></_>
    <_>
      <rect>
        2 20 2 1</rect></_>
    <_>
      <rect>
        3 0 2 1</rect></_>
    <_>
      <rect>
        3 0 2 2</rect></_>
    <_>
      <rect>
        3 2 2 6</rect></_>
    <_>
      <rect>
        3 3 1 2</rect></_>
    <_>
      <rect>
        3 4 1 1</rect></_>
    <_>
      <rect>
        3 5 1 1</rect></_>
    <_>
      <rect>
        3 6 1 1</rect></_>
    <_>
      <rect>
        3 7 2 1</rect></_>
    <_>
      <rect>
        3 7 2 2</rect></_>
    <_>
      <rect>
        3 9 2 4</rect></_>
    <_>
      <rect>
        3 16 1 1</rect></_>
    <_>
      <rect>
        3 16 1 2</rect></_>
    <_>
      <rect>
        3 16 2 1</rect></_>
    <_>
      <rect>
        3 18 1 2</rect></_>
    <_>
      <rect>
        3 18 2 2</rect></_>
    <_>
      <rect>
        3 21 1 1</rect></_>
    <_>
      <rect>
        3 21 2 1</rect></_>
    <_>
      <rect>
        4 0 2 1</rect></_>
    <_>
      <rect>
        4 0 2 3</rect></_>
    <_>
      <rect>
        4 1 2 2</rect></_>
    <_>
      <rect>
        4 1 2 4</rect></_>
    <_>
      <rect>
        4 1 2 6</rect></_>
    <_>
      <rect>
        4 2 2 3</rect></_>
    <_>
      <rect>
        4 4 1 1</rect></_>
    <_>
      <rect>
        4 4 2 2</rect></_>
    <_>
      <rect>
        4 4 2 5</rect></_>
    <_>
      <rect>
        4 4 2 6</rect></_>
    <_>
      <rect>
        4 5 2 2</rect></_>
    <_>
      <rect>
        4 6 1 2</rect></_>
    <_>
      <rect>
        4 6 2 1</rect></_>
    <_>
      <rect>
        4 8 2 2</rect></_>
    <_>
      <rect>
        4 8 2 3</rect></_>
    <_>
      <rect>
        4 9 1 1</rect></_>
    <_>
      <rect>
        4 10 1 3</rect></_>
    <_>
      <rect>
        4 15 1 1</rect></_>
    <_>
      <rect>
        4 15 2 2</rect></_>
    <_>
      <rect>
        4 16 1 1</rect></_>
    <_>
      <rect>
        4 16 2 2</rect></_>
    <_>
      <rect>
        4 17 1 1</rect></_>
    <_>
      <rect>
        4 17 2 2</rect></_>
    <_>
      <rect>
        4 18 1 1</rect></_>
    <_>
      <rect>
        4 18 2 2</rect></_>
    <_>
      <rect>
        4 19 1 1</rect></_>
    <_>
      <rect>
        4 20 1 1</rect></_>
    <_>
      <rect>
        5 0 1 1</rect></_>
    <_>
      <rect>
        5 3 1 1</rect></_>
    <_>
      <rect>
        5 4 1 1</rect></_>
    <_>
      <rect>
        5 6 1 1</rect></_>
    <_>
      <rect>
        5 7 1 1</rect></_>
    <_>
      <rect>
        5 9 1 1</rect></_>
    <_>
      <rect>
        5 10 1 2</rect></_>
    <_>
      <rect>
        5 13 1 1</rect></_>
    <_>
      <rect>
        5 16 1 1</rect></_>
    <_>
      <rect>
        5 17 1 2</rect></_>
    <_>
      <rect>
        5 20 1 1</rect></_>
    <_>
      <rect>
        5 21 1 1</rect></_>
    <_>
      <rect>
        6 3 1 3</rect></_>
    <_>
      <rect>
        6 3 1 6</rect></_>
    <_>
      <rect>
        6 4 1 6</rect></_>
    <_>
      <rect>
        6 9 1 2</rect></_>
    <_>
      <rect>
        6 9 1 4</rect></_>
    <_>
      <rect>
        6 12 1 1</rect></_>
    <_>
      <rect>
        6 13 1 1</rect></_>
    <_>
      <rect>
        6 17 1 1</rect></_>
    <_>
      <rect>
        6 21 1 1</rect></_>
    <_>
      <rect>
        7 0 1 1</rect></_>
    <_>
      <rect>
        7 0 1 2</rect></_>
    <_>
      <rect>
        7 0 1 5</rect></_>
    <_>
      <rect>
        7 0 1 7</rect></_>
    <_>
      <rect>
        7 1 1 2</rect></_>
    <_>
      <rect>
        7 1 1 3</rect></_>
    <_>
      <rect>
        7 3 1 2</rect></_>
    <_>
      <rect>
        7 3 1 6</rect></_>
    <_>
      <rect>
        7 4 1 2</rect></_>
    <_>
      <rect>
        7 4 1 5</rect></_>
    <_>
      <rect>
        7 4 1 6</rect></_>
    <_>
      <rect>
        7 5 1 1</rect></_>
    <_>
      <rect>
        7 5 1 2</rect></_>
    <_>
      <rect>
        7 5 1 5</rect></_>
    <_>
      <rect>
        7 5 1 6</rect></_>
    <_>
      <rect>
        7 6 1 4</rect></_>
    <_>
      <rect>
        7 6 1 6</rect></_>
    <_>
      <rect>
        7 7 1 2</rect></_>
    <_>
      <rect>
        7 8 1 3</rect></_>
    <_>
      <rect>
        7 9 1 5</rect></_>
    <_>
      <rect>
        7 10 1 4</rect></_>
    <_>
      <rect>
        7 11 1 2</rect></_>
    <_>
      <rect>
        7 12 1 1</rect></_>
    <_>
      <rect>
        7 12 1 4</rect></_>
    <_>
      <rect>
        7 14 1 2</rect></_>
    <_>
      <rect>
        7 15 1 2</rect></_>
    <_>
      <rect>
        7 16 1 2</rect></_>
    <_>
      <rect>
        7 17 1 1</rect></_>
    <_>
      <rect>
        7 17 1 2</rect></_>
    <_>
      <rect>
        7 18 1 2</rect></_>
    <_>
      <rect>
        7 21 1 1</rect></_></features></cascade>
</opencv_storage>
