<?xml version="1.0"?>
<opencv_storage>
<cascade>
  <stageType>BOOST</stageType>
  <featureType>LBP</featureType>
  <height>24</height>
  <width>10</width>
  <stageParams>
    <boostType>GAB</boostType>
    <minHitRate>9.9900001287460327e-01</minHitRate>
    <maxFalseAlarm>5.0000000000000000e-01</maxFalseAlarm>
    <weightTrimRate>9.4999998807907104e-01</weightTrimRate>
    <maxDepth>1</maxDepth>
    <maxWeakCount>100</maxWeakCount></stageParams>
  <featureParams>
    <maxCatCount>256</maxCatCount>
    <featSize>1</featSize></featureParams>
  <stageNum>20</stageNum>
  <stages>
    <!-- stage 0 -->
    <_>
      <maxWeakCount>3</maxWeakCount>
      <stageThreshold>-1.0010942220687866e+00</stageThreshold>
      <weakClassifiers>
        <_>
          <internalNodes>
            0 -1 16 -131073 -70004435 -106706577 -5582533 -643938505
            -209483513 -72659691 -210239677</internalNodes>
          <leafValues>
            -8.2915508747100830e-01 8.1350481510162354e-01</leafValues></_>
        <_>
          <internalNodes>
            0 -1 38 -2097170 -149696058 -1056713842 -1189363442
            -252995382 -593772391 -876376421 129966895</internalNodes>
          <leafValues>
            -9.2543923854827881e-01 6.9724833965301514e-01</leafValues></_>
        <_>
          <internalNodes>
            0 -1 106 -4194433 -6040067 -237382213 -86599550 -644429361
            -1131807087 -40514592 -257891372</internalNodes>
          <leafValues>
            -7.9022490978240967e-01 7.5350004434585571e-01</leafValues></_></weakClassifiers></_>
    <!-- stage 1 -->
    <_>
      <maxWeakCount>3</maxWeakCount>
      <stageThreshold>-9.6015816926956177e-01</stageThreshold>
      <weakClassifiers>
        <_>
          <internalNodes>
            0 -1 14 -822616113 -775422165 -17510143 -1 1970756965
            2046959735 -134844399 -137</internalNodes>
          <leafValues>
            -7.0850884914398193e-01 8.4656083583831787e-01</leafValues></_>
        <_>
          <internalNodes>
            0 -1 9 -36311074 -7670702 -552155521 -551945777 -341647517
            -1199423351 -75146677 1937207364</internalNodes>
          <leafValues>
            -8.6351144313812256e-01 6.3182169198989868e-01</leafValues></_>
        <_>
          <internalNodes>
            0 -1 29 -427884545 -487525899 -922626209 -621166437
            1905949535 1881310345 1499064926 -3932325</internalNodes>
          <leafValues>
            -7.9029220342636108e-01 6.1186212301254272e-01</leafValues></_></weakClassifiers></_>
    <!-- stage 2 -->
    <_>
      <maxWeakCount>5</maxWeakCount>
      <stageThreshold>-1.0109908580780029e+00</stageThreshold>
      <weakClassifiers>
        <_>
          <internalNodes>
            0 -1 110 -8388619 -706621215 -985138979 -530719317
            -192677223 -780038005 -70257921 -2137325601</internalNodes>
          <leafValues>
            -8.1105530261993408e-01 6.9834089279174805e-01</leafValues></_>
        <_>
          <internalNodes>
            0 -1 76 -11321346 -539392555 -508224104 -74059274 -158755953
            2040176843 -353683048 -50278</internalNodes>
          <leafValues>
            -7.9635775089263916e-01 6.5895015001296997e-01</leafValues></_>
        <_>
          <internalNodes>
            0 -1 12 -524801 -65537 -16777217 -131153 -143184057
            -142606537 -167807643 -134217929</internalNodes>
          <leafValues>
            -6.2325161695480347e-01 8.4661108255386353e-01</leafValues></_>
        <_>
          <internalNodes>
            0 -1 27 -455147521 -703442809 -217719219 -24714749
            1645834365 853664261 -8262357 -1352697045</internalNodes>
          <leafValues>
            -7.6709872484207153e-01 6.3349837064743042e-01</leafValues></_>
        <_>
          <internalNodes>
            0 -1 68 -237784289 -1815400317 -820751331 -820643573
            -1071930949 -360609783 -2002543701 1954286388</internalNodes>
          <leafValues>
            -7.6013803482055664e-01 5.8617544174194336e-01</leafValues></_></weakClassifiers></_>
    <!-- stage 3 -->
    <_>
      <maxWeakCount>4</maxWeakCount>
      <stageThreshold>-5.3024297952651978e-01</stageThreshold>
      <weakClassifiers>
        <_>
          <internalNodes>
            0 -1 93 -69992652 1965938827 -211944330 2065539291
            -535043915 1923269003 -74789896 -68173077</internalNodes>
          <leafValues>
            -7.2771793603897095e-01 6.6307693719863892e-01</leafValues></_>
        <_>
          <internalNodes>
            0 -1 20 -385878097 -179138365 -1056395057 -44513139
            1895963191 -1555505017 -385791929 -68421853</internalNodes>
          <leafValues>
            -7.2719675302505493e-01 6.2297099828720093e-01</leafValues></_>
        <_>
          <internalNodes>
            0 -1 49 -2118738 -71319409 -788299582 856397986 -910567265
            2014019618 -617622374 1071080150</internalNodes>
          <leafValues>
            -8.9708673954010010e-01 4.7866284847259521e-01</leafValues></_>
        <_>
          <internalNodes>
            0 -1 103 -139732099 -1042038773 -1073741802 -784084985
            -1040023040 -1039499189 -536756115 14516183</internalNodes>
          <leafValues>
            -8.5057765245437622e-01 4.7159063816070557e-01</leafValues></_></weakClassifiers></_>
    <!-- stage 4 -->
    <_>
      <maxWeakCount>5</maxWeakCount>
      <stageThreshold>-9.5405060052871704e-01</stageThreshold>
      <weakClassifiers>
        <_>
          <internalNodes>
            0 -1 115 -167774857 391159 -50109277 553123701 -1 1962852605
            -353 -520096785</internalNodes>
          <leafValues>
            -6.1354249715805054e-01 7.7657657861709595e-01</leafValues></_>
        <_>
          <internalNodes>
            0 -1 10 -69210114 -615783585 -738021362 -15158902
            -1651943249 1779116255 -930403397 2146384767</internalNodes>
          <leafValues>
            -7.6424813270568848e-01 5.5864691734313965e-01</leafValues></_>
        <_>
          <internalNodes>
            0 -1 78 -1105521793 -115648036 1897466260 -37316408
            1526905276 -108418933 964692536 -4482628</internalNodes>
          <leafValues>
            -7.1856641769409180e-01 5.6087034940719604e-01</leafValues></_>
        <_>
          <internalNodes>
            0 -1 26 -1000865809 -162332273 1275646086 -128461685
            335663187 -1324707448 -485233870 -2098637</internalNodes>
          <leafValues>
            -6.7345666885375977e-01 5.4688376188278198e-01</leafValues></_>
        <_>
          <internalNodes>
            0 -1 81 -134367947 -1793211957 -738131753 1236519805
            -805057363 -1157529472 -813454613 -1206077331</internalNodes>
          <leafValues>
            -6.5298867225646973e-01 5.9542268514633179e-01</leafValues></_></weakClassifiers></_>
    <!-- stage 5 -->
    <_>
      <maxWeakCount>5</maxWeakCount>
      <stageThreshold>-1.0186243057250977e+00</stageThreshold>
      <weakClassifiers>
        <_>
          <internalNodes>
            0 -1 6 -86573057 -182500985 -2079816727 -12596285
            -1442391329 -1408349973 -1038775413 1676146551</internalNodes>
          <leafValues>
            -6.8054211139678955e-01 6.3819873332977295e-01</leafValues></_>
        <_>
          <internalNodes>
            0 -1 55 -31523841 -119630501 -15101477 -1147791206
            1404218299 1874872376 -229922385 -693569</internalNodes>
          <leafValues>
            -6.2672847509384155e-01 6.5418446063995361e-01</leafValues></_>
        <_>
          <internalNodes>
            0 -1 95 -573048333 -3034663 1880281751 -6414181 -360583446
            2064711817 -1090082599 -1400894964</internalNodes>
          <leafValues>
            -7.3764306306838989e-01 4.7096860408782959e-01</leafValues></_>
        <_>
          <internalNodes>
            0 -1 32 -648810113 -11104039 -1877950033 -51980303
            1149243691 1891663875 562127070 -88283937</internalNodes>
          <leafValues>
            -5.9488350152969360e-01 5.6654584407806396e-01</leafValues></_>
        <_>
          <internalNodes>
            0 -1 48 -708136978 12818001 1073894999 -63209067 1635930283
            831096832 -627320405 1889481466</internalNodes>
          <leafValues>
            -7.4277663230895996e-01 4.5974355936050415e-01</leafValues></_></weakClassifiers></_>
    <!-- stage 6 -->
    <_>
      <maxWeakCount>6</maxWeakCount>
      <stageThreshold>-8.3428645133972168e-01</stageThreshold>
      <weakClassifiers>
        <_>
          <internalNodes>
            0 -1 89 -33556700 1371403775 -1 -545259521 -33554433
            -33554433 -4101 -989855745</internalNodes>
          <leafValues>
            -5.9893047809600830e-01 6.5971642732620239e-01</leafValues></_>
        <_>
          <internalNodes>
            0 -1 64 -69292306 -543274671 -1677556898 -38353430 820842683
            -127205311 -1891108705 -6324662</internalNodes>
          <leafValues>
            -7.8347790241241455e-01 4.8745152354240417e-01</leafValues></_>
        <_>
          <internalNodes>
            0 -1 11 -631550465 -251076541 -2147364733 -653688312
            1073944642 2013306891 1086547012 -552643721</internalNodes>
          <leafValues>
            -7.9576331377029419e-01 4.4640621542930603e-01</leafValues></_>
        <_>
          <internalNodes>
            0 -1 126 -250088481 323141634 1073861913 500138011
            -2137841279 134840450 -1472630075 1808515785</internalNodes>
          <leafValues>
            -6.8197476863861084e-01 4.9955114722251892e-01</leafValues></_>
        <_>
          <internalNodes>
            0 -1 111 -2133423 -1720909814 -794181631 -2112401273
            -100539519 -662601591 -250637943 -1600259075</internalNodes>
          <leafValues>
            -7.2172796726226807e-01 4.3041253089904785e-01</leafValues></_>
        <_>
          <internalNodes>
            0 -1 41 -1500654641 -636174184 285233331 -740638257
            -1190706641 -1853849565 -1928724429 -144215193</internalNodes>
          <leafValues>
            -7.5921303033828735e-01 4.1392159461975098e-01</leafValues></_></weakClassifiers></_>
    <!-- stage 7 -->
    <_>
      <maxWeakCount>7</maxWeakCount>
      <stageThreshold>-1.4357591867446899e+00</stageThreshold>
      <weakClassifiers>
        <_>
          <internalNodes>
            0 -1 119 -203456649 22401347 -1071923133 761861 -1014904631
            1610776579 -787885889 -522191957</internalNodes>
          <leafValues>
            -6.6292136907577515e-01 5.7228016853332520e-01</leafValues></_>
        <_>
          <internalNodes>
            0 -1 22 -492836869 -230047409 1497481987 -233717489
            1168244475 1451253896 -1198916661 1941075979</internalNodes>
          <leafValues>
            -6.7208814620971680e-01 5.3240698575973511e-01</leafValues></_>
        <_>
          <internalNodes>
            0 -1 92 -2050544337 -78507823 -511618923 -685976599
            -116669697 -1710997472 -2013082881 -95317877</internalNodes>
          <leafValues>
            -5.7788580656051636e-01 5.5507087707519531e-01</leafValues></_>
        <_>
          <internalNodes>
            0 -1 13 -645431585 -794132440 268533841 1498517517 1005898
            -2138042301 -1065004783 -614080254</internalNodes>
          <leafValues>
            -6.7929345369338989e-01 4.8244634270668030e-01</leafValues></_>
        <_>
          <internalNodes>
            0 -1 88 2004319072 1896730977 -1073638126 -586819517
            -666769175 -1736392566 1610795224 1573508333</internalNodes>
          <leafValues>
            -7.1566683053970337e-01 3.6560618877410889e-01</leafValues></_>
        <_>
          <internalNodes>
            0 -1 45 -1360220161 -1257121471 -1593718767 -586170296
            1619274475 -628391542 -662604661 2142431618</internalNodes>
          <leafValues>
            -7.0545548200607300e-01 3.7963041663169861e-01</leafValues></_>
        <_>
          <internalNodes>
            0 -1 124 -3146889 64276747 1298513 109547587 -1014267263
            1115848834 -1970282495 551528335</internalNodes>
          <leafValues>
            -7.2176361083984375e-01 3.5750997066497803e-01</leafValues></_></weakClassifiers></_>
    <!-- stage 8 -->
    <_>
      <maxWeakCount>6</maxWeakCount>
      <stageThreshold>-9.3166565895080566e-01</stageThreshold>
      <weakClassifiers>
        <_>
          <internalNodes>
            0 -1 101 -77908395 -783744677 -1853291049 -644660717
            -1876792719 -1064599415 545397280 -67392520</internalNodes>
          <leafValues>
            -7.5029444694519043e-01 5.1358693838119507e-01</leafValues></_>
        <_>
          <internalNodes>
            0 -1 5 1636561887 -880078825 -1585438503 -309898933
            -2146781013 -904978293 -2004108337 1869832423</internalNodes>
          <leafValues>
            -6.1085116863250732e-01 5.1595515012741089e-01</leafValues></_>
        <_>
          <internalNodes>
            0 -1 87 -36228321 1004261457 -1844588327 1070712921
            1745436857 465209537 -687288178 1051642570</internalNodes>
          <leafValues>
            -7.2703182697296143e-01 3.9186498522758484e-01</leafValues></_>
        <_>
          <internalNodes>
            0 -1 33 -787410465 -648331263 420549016 -656408190 277366827
            1216348168 142607787 -276610409</internalNodes>
          <leafValues>
            -6.5635353326797485e-01 4.1791474819183350e-01</leafValues></_>
        <_>
          <internalNodes>
            0 -1 120 -36743337 67551235 1073873410 69058583 -1073503995
            856323 1107454593 747490255</internalNodes>
          <leafValues>
            -7.7395951747894287e-01 3.2069247961044312e-01</leafValues></_>
        <_>
          <internalNodes>
            0 -1 47 1682078687 -352280423 1073861136 -532522985 63047559
            -879099765 -897054581 -490295134</internalNodes>
          <leafValues>
            -6.9005399942398071e-01 4.1790458559989929e-01</leafValues></_></weakClassifiers></_>
    <!-- stage 9 -->
    <_>
      <maxWeakCount>7</maxWeakCount>
      <stageThreshold>-1.6791577339172363e+00</stageThreshold>
      <weakClassifiers>
        <_>
          <internalNodes>
            0 -1 106 -6696449 -782921502 -620688801 -618786669
            -1157388069 -83263352 -1601454406 -256842832</internalNodes>
          <leafValues>
            -6.8653422594070435e-01 5.2367490530014038e-01</leafValues></_>
        <_>
          <internalNodes>
            0 -1 108 -3151129 -715701755 -720814077 84759041 -1073446518
            1224802306 -1039487861 14677719</internalNodes>
          <leafValues>
            -6.0374492406845093e-01 4.9384146928787231e-01</leafValues></_>
        <_>
          <internalNodes>
            0 -1 50 718471166 -98922464 -653963247 -246115776 1973629682
            1937940545 1482057963 -140193201</internalNodes>
          <leafValues>
            -7.1918463706970215e-01 3.7045508623123169e-01</leafValues></_>
        <_>
          <internalNodes>
            0 -1 91 -83102732 2030112843 -1853757896 1426260505
            -1476124535 1208731658 -1845378840 973828699</internalNodes>
          <leafValues>
            -7.4339210987091064e-01 3.4602555632591248e-01</leafValues></_>
        <_>
          <internalNodes>
            0 -1 17 -1596457985 -746545087 -897351680 -956247999
            1732395531 838926850 -280241781 2135186947</internalNodes>
          <leafValues>
            -7.9725623130798340e-01 2.8346064686775208e-01</leafValues></_>
        <_>
          <internalNodes>
            0 -1 37 -1860593666 -467561961 -2147411962 1996607755
            -100498961 -1576501246 -1588917669 821245719</internalNodes>
          <leafValues>
            -8.8352227210998535e-01 2.6187452673912048e-01</leafValues></_>
        <_>
          <internalNodes>
            0 -1 63 -472669204 -32452527 1900335340 -40599297 696267691
            -1182269368 -1601118725 -485818310</internalNodes>
          <leafValues>
            -6.8184602260589600e-01 3.2773870229721069e-01</leafValues></_></weakClassifiers></_>
    <!-- stage 10 -->
    <_>
      <maxWeakCount>6</maxWeakCount>
      <stageThreshold>-9.1967773437500000e-01</stageThreshold>
      <weakClassifiers>
        <_>
          <internalNodes>
            0 -1 116 -170920089 14799751 -788299766 282055683 -787897873
            687964360 1091146443 -392177205</internalNodes>
          <leafValues>
            -5.7225435972213745e-01 5.5572873353958130e-01</leafValues></_>
        <_>
          <internalNodes>
            0 -1 28 -419442449 -296943349 144796151 -758623999
            1963190875 1728235528 286192134 -144645493</internalNodes>
          <leafValues>
            -6.6023921966552734e-01 4.9938005208969116e-01</leafValues></_>
        <_>
          <internalNodes>
            0 -1 75 979278815 -1155919853 -1073491561 965120530
            -1819688806 -385277949 -1593644407 -1076168038</internalNodes>
          <leafValues>
            -6.8699920177459717e-01 4.4616860151290894e-01</leafValues></_>
        <_>
          <internalNodes>
            0 -1 69 -670985924 -216286949 16793818 -686567280
            -1055772621 -524156926 -1069305808 1063993134</internalNodes>
          <leafValues>
            -8.9882856607437134e-01 3.1511014699935913e-01</leafValues></_>
        <_>
          <internalNodes>
            0 -1 0 -238554881 -859631467 196627 -1312489464 -2138406741
            -1971289968 -1987378544 -1223432528</internalNodes>
          <leafValues>
            -5.9971851110458374e-01 3.9427316188812256e-01</leafValues></_>
        <_>
          <internalNodes>
            0 -1 52 -177143505 -145002479 -1065250545 -1795047030
            -1056409093 -207060863 1355094185 581012100</internalNodes>
          <leafValues>
            -6.6630584001541138e-01 3.7638729810714722e-01</leafValues></_></weakClassifiers></_>
    <!-- stage 11 -->
    <_>
      <maxWeakCount>8</maxWeakCount>
      <stageThreshold>-1.0917866230010986e+00</stageThreshold>
      <weakClassifiers>
        <_>
          <internalNodes>
            0 -1 83 -2099115 -168312833 -1719611137 -711621177 -311
            -33554433 -1 -251790401</internalNodes>
          <leafValues>
            -5.3291255235671997e-01 5.8580857515335083e-01</leafValues></_>
        <_>
          <internalNodes>
            0 -1 96 2031822367 1601507457 -788461033 1562132657
            -381549589 -1207926396 -1693861173 -72703846</internalNodes>
          <leafValues>
            -5.2583527565002441e-01 5.1941537857055664e-01</leafValues></_>
        <_>
          <internalNodes>
            0 -1 25 -1065843713 1620869434 -801038046 -178225080
            1520572603 -360169336 537019 1600597763</internalNodes>
          <leafValues>
            -6.8064069747924805e-01 3.8362467288970947e-01</leafValues></_>
        <_>
          <internalNodes>
            0 -1 125 -13896121 684917129 1225789457 151552134 1755050144
            164033 -1073569607 1842325723</internalNodes>
          <leafValues>
            -5.8924484252929688e-01 4.1534405946731567e-01</leafValues></_>
        <_>
          <internalNodes>
            0 -1 7 -368938085 -787394037 -922738424 -548926973 8797067
            -393707383 1074333867 50355839</internalNodes>
          <leafValues>
            -8.7632888555526733e-01 2.5607222318649292e-01</leafValues></_>
        <_>
          <internalNodes>
            0 -1 54 -320936966 -158068295 352391509 -887859968 415181496
            1082163201 -1744109181 -10458846</internalNodes>
          <leafValues>
            -7.5920557975769043e-01 2.5572738051414490e-01</leafValues></_>
        <_>
          <internalNodes>
            0 -1 104 -69209231 2097528913 70794 -716718078 1242685612
            1250591360 1610678408 1709304268</internalNodes>
          <leafValues>
            -5.5352532863616943e-01 4.2741915583610535e-01</leafValues></_>
        <_>
          <internalNodes>
            0 -1 36 -686243497 -141344743 -1861154721 -1117958002
            176914603 -1685454711 -922117741 -1918566400</internalNodes>
          <leafValues>
            -5.9201133251190186e-01 3.9512258768081665e-01</leafValues></_></weakClassifiers></_>
    <!-- stage 12 -->
    <_>
      <maxWeakCount>8</maxWeakCount>
      <stageThreshold>-1.2265751361846924e+00</stageThreshold>
      <weakClassifiers>
        <_>
          <internalNodes>
            0 -1 97 -524 -100672259 -8705 -570991139 -516 -536903689
            -33563139 -2105345</internalNodes>
          <leafValues>
            -3.8618183135986328e-01 6.8710356950759888e-01</leafValues></_>
        <_>
          <internalNodes>
            0 -1 18 -444779637 -679280572 -1845444479 -552550135
            1363558695 436420608 -1282730383 -217114313</internalNodes>
          <leafValues>
            -7.2181820869445801e-01 3.4747144579887390e-01</leafValues></_>
        <_>
          <internalNodes>
            0 -1 73 -1462661653 -824868799 -1828609581 -263159744
            545837199 -1450672128 -114759506 -21247941</internalNodes>
          <leafValues>
            -6.0232216119766235e-01 3.8403546810150146e-01</leafValues></_>
        <_>
          <internalNodes>
            0 -1 80 -452754153 2132004867 -2147466735 530268225
            -2096136149 -1106100096 63541663 951327262</internalNodes>
          <leafValues>
            -6.3344293832778931e-01 3.2383105158805847e-01</leafValues></_>
        <_>
          <internalNodes>
            0 -1 3 -242453601 -83885821 1073774608 -687814640
            -2143116661 -2147450750 -1068965305 1933963557</internalNodes>
          <leafValues>
            -5.4450297355651855e-01 3.3614483475685120e-01</leafValues></_>
        <_>
          <internalNodes>
            0 -1 23 -891886130 -1391423463 1167360 -246325056 -402507615
            -662157107 -930266733 2064216608</internalNodes>
          <leafValues>
            -7.7847433090209961e-01 2.5208818912506104e-01</leafValues></_>
        <_>
          <internalNodes>
            0 -1 42 -35996950 286136403 -2147463144 -654184431
            -1064806317 1795868818 -2143104302 1861283038</internalNodes>
          <leafValues>
            -6.4219325780868530e-01 2.8680023550987244e-01</leafValues></_>
        <_>
          <internalNodes>
            0 -1 102 839463699 868286528 269484957 -778366974 1075982570
            -796852094 -1866792087 -7691100</internalNodes>
          <leafValues>
            -7.0781892538070679e-01 2.4215677380561829e-01</leafValues></_></weakClassifiers></_>
    <!-- stage 13 -->
    <_>
      <maxWeakCount>7</maxWeakCount>
      <stageThreshold>-8.0871391296386719e-01</stageThreshold>
      <weakClassifiers>
        <_>
          <internalNodes>
            0 -1 113 -208145953 -247250789 1090666585 1212530707
            -880621439 1082212480 -636956199 -455347205</internalNodes>
          <leafValues>
            -5.2079206705093384e-01 4.9199083447456360e-01</leafValues></_>
        <_>
          <internalNodes>
            0 -1 30 -785597954 -267595775 419661210 -149681406 25698542
            -894810112 -1073216565 -71077005</internalNodes>
          <leafValues>
            -7.0444458723068237e-01 3.1517347693443298e-01</leafValues></_>
        <_>
          <internalNodes>
            0 -1 2 -1849285793 1493586056 1073742217 -775876465
            -267837045 -1031763832 1610825927 -146521243</internalNodes>
          <leafValues>
            -7.2618448734283447e-01 2.6740023493766785e-01</leafValues></_>
        <_>
          <internalNodes>
            0 -1 96 1942955299 1553928194 1358995539 962085010
            -796225377 -1198964608 806011112 -352284567</internalNodes>
          <leafValues>
            -5.6394129991531372e-01 3.4803998470306396e-01</leafValues></_>
        <_>
          <internalNodes>
            0 -1 15 -493920613 -1727528960 -805267328 1497694473
            1146053419 1149929512 -1844944373 1929769027</internalNodes>
          <leafValues>
            -6.8158560991287231e-01 3.0389970541000366e-01</leafValues></_>
        <_>
          <internalNodes>
            0 -1 106 1528025467 -67436527 -2147462983 -1302292477
            -1065344855 -1300094847 1636036858 537964755</internalNodes>
          <leafValues>
            -6.9549357891082764e-01 2.4986477196216583e-01</leafValues></_>
        <_>
          <internalNodes>
            0 -1 39 -748691422 -602845183 134222130 285310992
            -1986375477 -489520887 1082749112 2128285110</internalNodes>
          <leafValues>
            -7.2621583938598633e-01 2.4090273678302765e-01</leafValues></_></weakClassifiers></_>
    <!-- stage 14 -->
    <_>
      <maxWeakCount>9</maxWeakCount>
      <stageThreshold>-9.8272734880447388e-01</stageThreshold>
      <weakClassifiers>
        <_>
          <internalNodes>
            0 -1 35 1913061375 -1358954546 -1 -41943043 -524289 -9
            -16842769 -453511177</internalNodes>
          <leafValues>
            -4.4797936081886292e-01 5.5267703533172607e-01</leafValues></_>
        <_>
          <internalNodes>
            0 -1 100 -607452832 -645160830 -1073585680 -620133118
            -1031583311 -1073709047 -1976996903 -242232884</internalNodes>
          <leafValues>
            -7.4578809738159180e-01 3.0707889795303345e-01</leafValues></_>
        <_>
          <internalNodes>
            0 -1 85 -979660452 442826823 -2143272768 700563869
            -931053384 1263673874 -1006376759 350217983</internalNodes>
          <leafValues>
            -7.6999926567077637e-01 2.4445416033267975e-01</leafValues></_>
        <_>
          <internalNodes>
            0 -1 62 -1055816225 1393623101 269488597 1033240736
            -1300176750 -1736441816 134287550 853738208</internalNodes>
          <leafValues>
            -5.2676916122436523e-01 3.8951390981674194e-01</leafValues></_>
        <_>
          <internalNodes>
            0 -1 17 573832015 1359036416 -2130624512 1895895040
            1468316555 1570867200 -74730870 2130896897</internalNodes>
          <leafValues>
            -5.7363289594650269e-01 3.2489058375358582e-01</leafValues></_>
        <_>
          <internalNodes>
            0 -1 8 -787300137 -1050869069 262622 -984088563 -2146926422
            -1165260753 -1476362101 1199899136</internalNodes>
          <leafValues>
            -6.0608959197998047e-01 3.4267058968544006e-01</leafValues></_>
        <_>
          <internalNodes>
            0 -1 31 -787352867 1604141073 1 -704474109 8390938 436862979
            -2013231095 1938237482</internalNodes>
          <leafValues>
            -7.8249627351760864e-01 2.1824282407760620e-01</leafValues></_>
        <_>
          <internalNodes>
            0 -1 61 -308489018 1075451032 -786874095 -788035752
            554725380 -1610604540 -922681145 -16031679</internalNodes>
          <leafValues>
            -5.8775371313095093e-01 3.3287531137466431e-01</leafValues></_>
        <_>
          <internalNodes>
            0 -1 107 -142138557 889397250 1090520066 840147587
            1493205003 -2130509824 -268337142 1348401559</internalNodes>
          <leafValues>
            -6.1777049303054810e-01 2.7136963605880737e-01</leafValues></_></weakClassifiers></_>
    <!-- stage 15 -->
    <_>
      <maxWeakCount>10</maxWeakCount>
      <stageThreshold>-1.4345951080322266e+00</stageThreshold>
      <weakClassifiers>
        <_>
          <internalNodes>
            0 -1 43 1972231571 -787332981 1358991379 1506939290
            -896915989 -125304792 -1466994517 1804749643</internalNodes>
          <leafValues>
            -5.1148223876953125e-01 4.4680851697921753e-01</leafValues></_>
        <_>
          <internalNodes>
            0 -1 94 -238831203 401424519 66130 -653982717 -401792263
            2072051848 -1979031308 2137781194</internalNodes>
          <leafValues>
            -6.7312139272689819e-01 3.2171493768692017e-01</leafValues></_>
        <_>
          <internalNodes>
            0 -1 34 -117440769 -819205 -1 -278429701 -301991937
            -268435457 1879048191 -421009433</internalNodes>
          <leafValues>
            -3.7392368912696838e-01 5.1688963174819946e-01</leafValues></_>
        <_>
          <internalNodes>
            0 -1 72 -86040316 423968786 -2147368878 -804204480
            -1073037139 -1065353216 -935100280 436634802</internalNodes>
          <leafValues>
            -8.3820784091949463e-01 2.5667247176170349e-01</leafValues></_>
        <_>
          <internalNodes>
            0 -1 86 -1031162534 260800705 21069937 2064499010 -637386567
            194545792 -1551316776 14539496</internalNodes>
          <leafValues>
            -7.8398984670639038e-01 1.7140398919582367e-01</leafValues></_>
        <_>
          <internalNodes>
            0 -1 121 30102247 -1429782007 -2147220988 307348743
            -930371584 340426888 -1065139309 269279945</internalNodes>
          <leafValues>
            -6.7670488357543945e-01 2.3855040967464447e-01</leafValues></_>
        <_>
          <internalNodes>
            0 -1 32 -778858466 1672560850 33048 -433061725 445120578
            -1601699712 -1836920190 -1107261289</internalNodes>
          <leafValues>
            -6.1566394567489624e-01 2.5684958696365356e-01</leafValues></_>
        <_>
          <internalNodes>
            0 -1 70 -1825398786 -174980991 1360101377 1501790848
            -1073032677 17432713 403171939 -274499263</internalNodes>
          <leafValues>
            -4.5330944657325745e-01 3.6657607555389404e-01</leafValues></_>
        <_>
          <internalNodes>
            0 -1 53 -364390177 -767180479 327809 -250412991 268673537
            25165832 1224769554 -24375288</internalNodes>
          <leafValues>
            -5.4350286722183228e-01 3.2348775863647461e-01</leafValues></_>
        <_>
          <internalNodes>
            0 -1 60 1712390504 -1051197424 -654290606 -791428992
            948585242 402657280 -1736310626 -75300214</internalNodes>
          <leafValues>
            -7.4427264928817749e-01 2.4553275108337402e-01</leafValues></_></weakClassifiers></_>
    <!-- stage 16 -->
    <_>
      <maxWeakCount>10</maxWeakCount>
      <stageThreshold>-1.1578303575515747e+00</stageThreshold>
      <weakClassifiers>
        <_>
          <internalNodes>
            0 -1 1 -2130249249 -1860632435 -1073741731 -242667297
            -645627766 -2146860920 -2013164801 1884779383</internalNodes>
          <leafValues>
            -5.0440746545791626e-01 4.8769229650497437e-01</leafValues></_>
        <_>
          <internalNodes>
            0 -1 127 1662210555 705232898 1343291409 -649920459
            939589802 161480864 -392975631 -121722655</internalNodes>
          <leafValues>
            -5.9516459703445435e-01 3.2972761988639832e-01</leafValues></_>
        <_>
          <internalNodes>
            0 -1 58 -518805526 -787562470 86035 -682688491 -977108248
            612401634 -1853274103 -951747776</internalNodes>
          <leafValues>
            -6.6248214244842529e-01 2.5389569997787476e-01</leafValues></_>
        <_>
          <internalNodes>
            0 -1 40 -929566226 1540608853 4434 580534291 -401975253
            -1028947705 -1476276066 -1295588866</internalNodes>
          <leafValues>
            -4.1926047205924988e-01 4.5317131280899048e-01</leafValues></_>
        <_>
          <internalNodes>
            0 -1 118 -677487907 159617091 1073840321 583258179
            -2147224941 -1474788856 -1073704277 672120987</internalNodes>
          <leafValues>
            -6.2864005565643311e-01 2.7984440326690674e-01</leafValues></_>
        <_>
          <internalNodes>
            0 -1 24 1859580042 318898178 163914 -683245567 806077995
            1526857729 595765317 -73895411</internalNodes>
          <leafValues>
            -5.7251864671707153e-01 3.2946521043777466e-01</leafValues></_>
        <_>
          <internalNodes>
            0 -1 98 -573172430 1909526595 -1879027201 1413480475
            -2011529109 -1970765824 -1994221416 -1880504071</internalNodes>
          <leafValues>
            -5.3657895326614380e-01 2.8704077005386353e-01</leafValues></_>
        <_>
          <internalNodes>
            0 -1 105 -75345633 554881096 -2130657215 499236866
            -931020727 1653082240 -2012642775 -670399987</internalNodes>
          <leafValues>
            -5.2307248115539551e-01 2.8865012526512146e-01</leafValues></_>
        <_>
          <internalNodes>
            0 -1 79 -921316897 1371635857 -2147480163 -1081605757
            -2147483253 -1156972542 -2012706600 571245066</internalNodes>
          <leafValues>
            -5.0167506933212280e-01 3.2412824034690857e-01</leafValues></_>
        <_>
          <internalNodes>
            0 -1 71 160076031 -804257789 -2088627824 -1273737216
            146972767 -2146729981 629195367 -508530381</internalNodes>
          <leafValues>
            -5.1202285289764404e-01 3.2375106215476990e-01</leafValues></_></weakClassifiers></_>
    <!-- stage 17 -->
    <_>
      <maxWeakCount>11</maxWeakCount>
      <stageThreshold>-1.2715401649475098e+00</stageThreshold>
      <weakClassifiers>
        <_>
          <internalNodes>
            0 -1 66 1073692600 -3 1073688359 1006579634 2147475455
            -32769 2013249499 -1073762625</internalNodes>
          <leafValues>
            -4.0033784508705139e-01 5.2154791355133057e-01</leafValues></_>
        <_>
          <internalNodes>
            0 -1 51 -1107361793 1996423166 -4355 2141368062 -134760449
            -973733889 2012641279 2011391995</internalNodes>
          <leafValues>
            -3.8954937458038330e-01 4.3093752861022949e-01</leafValues></_>
        <_>
          <internalNodes>
            0 -1 4 -217951745 50413578 1208008722 1401102361 -1962716534
            -2130657148 -1878843391 927158273</internalNodes>
          <leafValues>
            -7.6976162195205688e-01 2.1827749907970428e-01</leafValues></_>
        <_>
          <internalNodes>
            0 -1 99 -750059180 -783269888 -1073723206 -788332405
            -2147319775 142770178 -1874804600 -24192835</internalNodes>
          <leafValues>
            -5.6790149211883545e-01 2.9298898577690125e-01</leafValues></_>
        <_>
          <internalNodes>
            0 -1 57 -1258105957 1372196864 98321 1359479434 1484800043
            134758539 2064191642 1996708675</internalNodes>
          <leafValues>
            -6.4952802658081055e-01 2.3149591684341431e-01</leafValues></_>
        <_>
          <internalNodes>
            0 -1 123 1405809217 1402110210 -2147483646 637796362
            -2113888119 8585346 -2147350336 210406091</internalNodes>
          <leafValues>
            -6.3126826286315918e-01 2.4378277361392975e-01</leafValues></_>
        <_>
          <internalNodes>
            0 -1 84 -935188212 1359020032 1073832341 154374175
            -2013031797 -1710489470 -1442666360 -1155519948</internalNodes>
          <leafValues>
            -6.2988173961639404e-01 2.2518427670001984e-01</leafValues></_>
        <_>
          <internalNodes>
            0 -1 59 -1529679157 721420288 65536 -117358591 17524875
            -2013069286 -754868086 252332033</internalNodes>
          <leafValues>
            -6.9346612691879272e-01 2.1421135962009430e-01</leafValues></_>
        <_>
          <internalNodes>
            0 -1 19 64961454 -788070398 -2146860775 -788525053
            -771667136 -2113798008 -258807121 -6198783</internalNodes>
          <leafValues>
            -5.7655292749404907e-01 2.7109858393669128e-01</leafValues></_>
        <_>
          <internalNodes>
            0 -1 67 -805055297 285409299 -2147483429 -1685848055 540843
            -1157431168 452987033 614486280</internalNodes>
          <leafValues>
            -6.6472172737121582e-01 2.3545590043067932e-01</leafValues></_>
        <_>
          <internalNodes>
            0 -1 40 -925637722 1535623233 37076 1258344704 -1065285617
            1208127520 -2147467022 447936752</internalNodes>
          <leafValues>
            -6.0897541046142578e-01 2.4877281486988068e-01</leafValues></_></weakClassifiers></_>
    <!-- stage 18 -->
    <_>
      <maxWeakCount>10</maxWeakCount>
      <stageThreshold>-1.1729449033737183e+00</stageThreshold>
      <weakClassifiers>
        <_>
          <internalNodes>
            0 -1 65 -20481 -1 -268456274 -315486 2147481591 -1 -1
            -106987730</internalNodes>
          <leafValues>
            -4.6224677562713623e-01 5.0283402204513550e-01</leafValues></_>
        <_>
          <internalNodes>
            0 -1 122 -1857654573 -1455865847 16842901 -1476280319
            -2138332798 -2013245430 1115724209 -988825457</internalNodes>
          <leafValues>
            -5.0259619951248169e-01 4.0007668733596802e-01</leafValues></_>
        <_>
          <internalNodes>
            0 -1 0 -32833 2146402302 -33025 939487089 -1 -1 -33554443
            -440961305</internalNodes>
          <leafValues>
            -3.9219841361045837e-01 4.5637562870979309e-01</leafValues></_>
        <_>
          <internalNodes>
            0 -1 117 -101760939 1367556170 43032 218350088 285507723
            1074397192 -1073641272 72208840</internalNodes>
          <leafValues>
            -6.4162570238113403e-01 3.0569612979888916e-01</leafValues></_>
        <_>
          <internalNodes>
            0 -1 90 -1872883385 324009986 1073764544 516980739 8552649
            -1743781884 -2138390504 143509693</internalNodes>
          <leafValues>
            -6.0062277317047119e-01 3.0196249485015869e-01</leafValues></_>
        <_>
          <internalNodes>
            0 -1 82 -129836485 1497432196 21 873140433 -2138903166
            -1954545464 -1742634361 -189216748</internalNodes>
          <leafValues>
            -6.2517803907394409e-01 2.5022479891777039e-01</leafValues></_>
        <_>
          <internalNodes>
            0 -1 78 470424861 427884672 268435476 -1722810302 1610621440
            134774785 -1845427536 -543453094</internalNodes>
          <leafValues>
            -7.0295214653015137e-01 2.4838654696941376e-01</leafValues></_>
        <_>
          <internalNodes>
            0 -1 56 84984127 -1861812224 4161 -1258241966 -1610055510
            -1711243264 -2013257719 -2138226432</internalNodes>
          <leafValues>
            -6.0599941015243530e-01 2.8777405619621277e-01</leafValues></_>
        <_>
          <internalNodes>
            0 -1 21 -997267234 1595031553 1073840365 -805224448
            1065929485 948568072 1090658565 2072541777</internalNodes>
          <leafValues>
            -6.3054758310317993e-01 2.6650819182395935e-01</leafValues></_>
        <_>
          <internalNodes>
            0 -1 77 -1610571365 -267288574 -1726939069 -2110783465
            -1073700830 -402554752 16781352 -609562466</internalNodes>
          <leafValues>
            -5.6100279092788696e-01 3.4673193097114563e-01</leafValues></_></weakClassifiers></_>
    <!-- stage 19 -->
    <_>
      <maxWeakCount>9</maxWeakCount>
      <stageThreshold>-9.9937337636947632e-01</stageThreshold>
      <weakClassifiers>
        <_>
          <internalNodes>
            0 -1 46 -1860848425 -1853796095 16846868 285278208
            1343751358 555847809 -2130654978 725141704</internalNodes>
          <leafValues>
            -6.3586956262588501e-01 3.7034699320793152e-01</leafValues></_>
        <_>
          <internalNodes>
            0 -1 68 -867987393 -1828110327 4260051 -486342447
            -2147385189 -1476247421 17007135 -836951916</internalNodes>
          <leafValues>
            -5.3494095802307129e-01 3.7012216448783875e-01</leafValues></_>
        <_>
          <internalNodes>
            0 -1 73 -1879048193 -554237953 -1 -9195522 536870911
            -1342210177 2147483647 -570949769</internalNodes>
          <leafValues>
            -4.0267387032508850e-01 5.0185292959213257e-01</leafValues></_>
        <_>
          <internalNodes>
            0 -1 114 -1848644095 1161887875 1073774608 281460743
            -804616056 1476575360 -2143043064 -926040053</internalNodes>
          <leafValues>
            -4.8627030849456787e-01 4.5474940538406372e-01</leafValues></_>
        <_>
          <internalNodes>
            0 -1 28 168024527 -1610416115 268452161 -134217727
            -1844994034 -1835007872 -1069315264 -670515200</internalNodes>
          <leafValues>
            -6.6611951589584351e-01 2.7188220620155334e-01</leafValues></_>
        <_>
          <internalNodes>
            0 -1 74 586580098 -991412221 17940629 1476972820 1082294826
            276824200 -662699838 -117309374</internalNodes>
          <leafValues>
            -7.7026253938674927e-01 1.7534875869750977e-01</leafValues></_>
        <_>
          <internalNodes>
            0 -1 112 -1291624191 285803282 1090535680 209227 -905860991
            1275756544 -2122088049 1614344533</internalNodes>
          <leafValues>
            -7.9835748672485352e-01 2.2752000391483307e-01</leafValues></_>
        <_>
          <internalNodes>
            0 -1 109 1231458627 285278208 16859275 1174475085
            -2147448696 -266174463 -1585414141 810608971</internalNodes>
          <leafValues>
            -6.8419224023818970e-01 2.8093975782394409e-01</leafValues></_>
        <_>
          <internalNodes>
            0 -1 44 -2041693926 806454272 1342181633 470056962
            1283604875 -2008743928 -1601552248 1937817604</internalNodes>
          <leafValues>
            -7.2771245241165161e-01 2.5015363097190857e-01</leafValues></_></weakClassifiers></_></stages>
  <features>
    <_>
      <rect>
        0 0 1 1</rect></_>
    <_>
      <rect>
        0 0 1 2</rect></_>
    <_>
      <rect>
        0 0 1 4</rect></_>
    <_>
      <rect>
        0 0 1 6</rect></_>
    <_>
      <rect>
        0 0 1 7</rect></_>
    <_>
      <rect>
        0 0 2 2</rect></_>
    <_>
      <rect>
        0 0 2 3</rect></_>
    <_>
      <rect>
        0 0 2 7</rect></_>
    <_>
      <rect>
        0 0 3 1</rect></_>
    <_>
      <rect>
        0 0 3 4</rect></_>
    <_>
      <rect>
        0 1 3 5</rect></_>
    <_>
      <rect>
        0 2 1 7</rect></_>
    <_>
      <rect>
        0 3 1 6</rect></_>
    <_>
      <rect>
        0 4 1 4</rect></_>
    <_>
      <rect>
        0 5 1 6</rect></_>
    <_>
      <rect>
        0 5 2 4</rect></_>
    <_>
      <rect>
        0 6 1 1</rect></_>
    <_>
      <rect>
        0 6 2 6</rect></_>
    <_>
      <rect>
        0 7 1 4</rect></_>
    <_>
      <rect>
        0 8 1 3</rect></_>
    <_>
      <rect>
        0 9 1 2</rect></_>
    <_>
      <rect>
        0 9 1 5</rect></_>
    <_>
      <rect>
        0 9 2 5</rect></_>
    <_>
      <rect>
        0 9 3 5</rect></_>
    <_>
      <rect>
        0 12 1 4</rect></_>
    <_>
      <rect>
        0 13 3 2</rect></_>
    <_>
      <rect>
        0 15 1 2</rect></_>
    <_>
      <rect>
        0 15 2 3</rect></_>
    <_>
      <rect>
        0 16 1 2</rect></_>
    <_>
      <rect>
        0 16 2 2</rect></_>
    <_>
      <rect>
        0 18 3 2</rect></_>
    <_>
      <rect>
        0 20 2 1</rect></_>
    <_>
      <rect>
        0 21 1 1</rect></_>
    <_>
      <rect>
        0 21 3 1</rect></_>
    <_>
      <rect>
        1 0 1 2</rect></_>
    <_>
      <rect>
        1 0 1 3</rect></_>
    <_>
      <rect>
        1 0 2 1</rect></_>
    <_>
      <rect>
        1 0 3 4</rect></_>
    <_>
      <rect>
        1 0 3 5</rect></_>
    <_>
      <rect>
        1 1 3 6</rect></_>
    <_>
      <rect>
        1 2 3 6</rect></_>
    <_>
      <rect>
        1 3 1 2</rect></_>
    <_>
      <rect>
        1 4 3 6</rect></_>
    <_>
      <rect>
        1 5 2 2</rect></_>
    <_>
      <rect>
        1 6 2 4</rect></_>
    <_>
      <rect>
        1 6 2 6</rect></_>
    <_>
      <rect>
        1 6 3 2</rect></_>
    <_>
      <rect>
        1 7 2 3</rect></_>
    <_>
      <rect>
        1 8 3 3</rect></_>
    <_>
      <rect>
        1 9 3 5</rect></_>
    <_>
      <rect>
        1 10 2 2</rect></_>
    <_>
      <rect>
        1 11 2 2</rect></_>
    <_>
      <rect>
        1 13 3 2</rect></_>
    <_>
      <rect>
        1 15 1 2</rect></_>
    <_>
      <rect>
        1 16 2 2</rect></_>
    <_>
      <rect>
        1 17 2 2</rect></_>
    <_>
      <rect>
        2 0 1 1</rect></_>
    <_>
      <rect>
        2 2 1 3</rect></_>
    <_>
      <rect>
        2 2 2 2</rect></_>
    <_>
      <rect>
        2 6 1 6</rect></_>
    <_>
      <rect>
        2 10 2 1</rect></_>
    <_>
      <rect>
        2 10 2 2</rect></_>
    <_>
      <rect>
        2 14 2 1</rect></_>
    <_>
      <rect>
        2 17 2 1</rect></_>
    <_>
      <rect>
        2 17 2 2</rect></_>
    <_>
      <rect>
        2 20 2 1</rect></_>
    <_>
      <rect>
        2 21 2 1</rect></_>
    <_>
      <rect>
        3 0 2 1</rect></_>
    <_>
      <rect>
        3 0 2 2</rect></_>
    <_>
      <rect>
        3 0 2 6</rect></_>
    <_>
      <rect>
        3 3 1 2</rect></_>
    <_>
      <rect>
        3 5 1 1</rect></_>
    <_>
      <rect>
        3 6 2 6</rect></_>
    <_>
      <rect>
        3 16 1 1</rect></_>
    <_>
      <rect>
        3 17 1 1</rect></_>
    <_>
      <rect>
        3 18 1 2</rect></_>
    <_>
      <rect>
        3 18 2 2</rect></_>
    <_>
      <rect>
        3 19 1 1</rect></_>
    <_>
      <rect>
        3 21 2 1</rect></_>
    <_>
      <rect>
        4 0 2 1</rect></_>
    <_>
      <rect>
        4 0 2 2</rect></_>
    <_>
      <rect>
        4 1 2 2</rect></_>
    <_>
      <rect>
        4 2 2 1</rect></_>
    <_>
      <rect>
        4 2 2 2</rect></_>
    <_>
      <rect>
        4 3 1 1</rect></_>
    <_>
      <rect>
        4 3 2 3</rect></_>
    <_>
      <rect>
        4 5 2 2</rect></_>
    <_>
      <rect>
        4 7 2 2</rect></_>
    <_>
      <rect>
        4 7 2 4</rect></_>
    <_>
      <rect>
        4 8 2 3</rect></_>
    <_>
      <rect>
        4 14 2 2</rect></_>
    <_>
      <rect>
        4 15 2 3</rect></_>
    <_>
      <rect>
        4 16 1 1</rect></_>
    <_>
      <rect>
        4 16 2 2</rect></_>
    <_>
      <rect>
        4 18 2 2</rect></_>
    <_>
      <rect>
        5 0 1 1</rect></_>
    <_>
      <rect>
        5 9 1 1</rect></_>
    <_>
      <rect>
        5 10 1 2</rect></_>
    <_>
      <rect>
        5 16 1 1</rect></_>
    <_>
      <rect>
        5 17 1 1</rect></_>
    <_>
      <rect>
        5 17 1 2</rect></_>
    <_>
      <rect>
        5 19 1 1</rect></_>
    <_>
      <rect>
        5 21 1 1</rect></_>
    <_>
      <rect>
        6 1 1 4</rect></_>
    <_>
      <rect>
        6 3 1 6</rect></_>
    <_>
      <rect>
        6 8 1 2</rect></_>
    <_>
      <rect>
        7 0 1 1</rect></_>
    <_>
      <rect>
        7 0 1 2</rect></_>
    <_>
      <rect>
        7 0 1 8</rect></_>
    <_>
      <rect>
        7 1 1 1</rect></_>
    <_>
      <rect>
        7 1 1 3</rect></_>
    <_>
      <rect>
        7 1 1 4</rect></_>
    <_>
      <rect>
        7 2 1 2</rect></_>
    <_>
      <rect>
        7 3 1 2</rect></_>
    <_>
      <rect>
        7 3 1 6</rect></_>
    <_>
      <rect>
        7 4 1 6</rect></_>
    <_>
      <rect>
        7 5 1 5</rect></_>
    <_>
      <rect>
        7 6 1 6</rect></_>
    <_>
      <rect>
        7 7 1 2</rect></_>
    <_>
      <rect>
        7 7 1 3</rect></_>
    <_>
      <rect>
        7 9 1 5</rect></_>
    <_>
      <rect>
        7 10 1 3</rect></_>
    <_>
      <rect>
        7 13 1 1</rect></_>
    <_>
      <rect>
        7 14 1 3</rect></_>
    <_>
      <rect>
        7 16 1 2</rect></_>
    <_>
      <rect>
        7 17 1 2</rect></_>
    <_>
      <rect>
        7 18 1 2</rect></_>
    <_>
      <rect>
        7 21 1 1</rect></_></features></cascade>
</opencv_storage>
