<?xml version="1.0"?>
<opencv_storage>
<cascade>
  <stageType>BOOST</stageType>
  <featureType>LBP</featureType>
  <height>21</height>
  <width>9</width>
  <stageParams>
    <boostType>GAB</boostType>
    <minHitRate>9.9900001287460327e-01</minHitRate>
    <maxFalseAlarm>5.0000000000000000e-01</maxFalseAlarm>
    <weightTrimRate>9.4999998807907104e-01</weightTrimRate>
    <maxDepth>1</maxDepth>
    <maxWeakCount>100</maxWeakCount></stageParams>
  <featureParams>
    <maxCatCount>256</maxCatCount>
    <featSize>1</featSize></featureParams>
  <stageNum>20</stageNum>
  <stages>
    <!-- stage 0 -->
    <_>
      <maxWeakCount>3</maxWeakCount>
      <stageThreshold>-9.4726324081420898e-01</stageThreshold>
      <weakClassifiers>
        <_>
          <internalNodes>
            0 -1 10 -2097154 -654061367 -1056866206 -519593468
            -1471552804 -121044350 -939433841 1632858375</internalNodes>
          <leafValues>
            -8.8645416498184204e-01 8.3269959688186646e-01</leafValues></_>
        <_>
          <internalNodes>
            0 -1 31 -318767105 -17301505 -269484113 -268435457
            1433927543 -168296577 -277383308 -137</internalNodes>
          <leafValues>
            -7.7079921960830688e-01 8.6890840530395508e-01</leafValues></_>
        <_>
          <internalNodes>
            0 -1 33 -520159233 -230623377 -704391753 -51186693
            1111705999 1916872866 -895104449 -207095945</internalNodes>
          <leafValues>
            -8.1929314136505127e-01 7.0999020338058472e-01</leafValues></_></weakClassifiers></_>
    <!-- stage 1 -->
    <_>
      <maxWeakCount>3</maxWeakCount>
      <stageThreshold>-7.7603381872177124e-01</stageThreshold>
      <weakClassifiers>
        <_>
          <internalNodes>
            0 -1 13 -9 -218693633 -524441 -1114113 -524427 -143130793
            -8913033 -143138953</internalNodes>
          <leafValues>
            -7.1006941795349121e-01 8.6296516656875610e-01</leafValues></_>
        <_>
          <internalNodes>
            0 -1 11 -536872978 -77605889 -804004266 -653747862
            -757529589 -569522163 -343602981 2055418570</internalNodes>
          <leafValues>
            -7.9383111000061035e-01 7.0244216918945312e-01</leafValues></_>
        <_>
          <internalNodes>
            0 -1 71 -239882258 -69471783 -208036450 -48328289 -371299369
            -80101165 -91628050 -280241</internalNodes>
          <leafValues>
            -7.6840656995773315e-01 7.3217296600341797e-01</leafValues></_></weakClassifiers></_>
    <!-- stage 2 -->
    <_>
      <maxWeakCount>5</maxWeakCount>
      <stageThreshold>-1.0705115795135498e+00</stageThreshold>
      <weakClassifiers>
        <_>
          <internalNodes>
            0 -1 29 -318834689 -17039361 -716701697 -37 1953979767
            1098874751 2147449433 -129</internalNodes>
          <leafValues>
            -7.4387949705123901e-01 8.0370163917541504e-01</leafValues></_>
        <_>
          <internalNodes>
            0 -1 91 217493486 -84115238 -785902946 -44125734 -624690693
            -645193600 -116855573 -1314501</internalNodes>
          <leafValues>
            -7.4807113409042358e-01 7.0840549468994141e-01</leafValues></_>
        <_>
          <internalNodes>
            0 -1 116 -137398403 1917960287 -786870257 -530852497
            -71042647 -1065314125 -276040807 -2135032833</internalNodes>
          <leafValues>
            -7.6743000745773315e-01 6.7094516754150391e-01</leafValues></_>
        <_>
          <internalNodes>
            0 -1 105 2146926452 322126291 -800988605 -1755324273
            -116792887 -796163894 -633087304 -793772067</internalNodes>
          <leafValues>
            -7.5995451211929321e-01 6.0713118314743042e-01</leafValues></_>
        <_>
          <internalNodes>
            0 -1 7 -463536129 -799522669 1165201 -74386987 -1714695537
            -761085798 -1558157173 1467963159</internalNodes>
          <leafValues>
            -8.1069517135620117e-01 5.8173787593841553e-01</leafValues></_></weakClassifiers></_>
    <!-- stage 3 -->
    <_>
      <maxWeakCount>5</maxWeakCount>
      <stageThreshold>-1.1660438776016235e+00</stageThreshold>
      <weakClassifiers>
        <_>
          <internalNodes>
            0 -1 73 -1073892385 -33 -1073803478 -86534 2147483647 -1
            -50296 -7397122</internalNodes>
          <leafValues>
            -6.8744188547134399e-01 7.8079098463058472e-01</leafValues></_>
        <_>
          <internalNodes>
            0 -1 17 -134283265 -196609 -1 -151633 2004297591 2122184565
            -134253193 -42467529</internalNodes>
          <leafValues>
            -6.8094897270202637e-01 7.4677467346191406e-01</leafValues></_>
        <_>
          <internalNodes>
            0 -1 27 -270537814 -53235702 -786312894 -236730993
            -489990085 -368717669 -658793305 1979675495</internalNodes>
          <leafValues>
            -7.9632556438446045e-01 5.9762424230575562e-01</leafValues></_>
        <_>
          <internalNodes>
            0 -1 78 -1257007329 1972484285 1493275102 -236979809
            -1711179525 -106919797 -73279012 79273148</internalNodes>
          <leafValues>
            -7.8792577981948853e-01 5.5166774988174438e-01</leafValues></_>
        <_>
          <internalNodes>
            0 -1 30 -353176801 1376948239 -922664795 -1689550701
            1378078891 1611859969 -913745429 2005367318</internalNodes>
          <leafValues>
            -8.7118315696716309e-01 4.4700476527214050e-01</leafValues></_></weakClassifiers></_>
    <!-- stage 4 -->
    <_>
      <maxWeakCount>5</maxWeakCount>
      <stageThreshold>-8.3908295631408691e-01</stageThreshold>
      <weakClassifiers>
        <_>
          <internalNodes>
            0 -1 25 -252641281 -218955777 -1 -589825 1978957815
            -177012737 1735884799 -67108865</internalNodes>
          <leafValues>
            -5.9521776437759399e-01 8.0047792196273804e-01</leafValues></_>
        <_>
          <internalNodes>
            0 -1 6 -455081985 -4991423 -83732003 -276071861 655092155
            -1147469816 -1685484901 1876386501</internalNodes>
          <leafValues>
            -6.2935167551040649e-01 7.0778745412826538e-01</leafValues></_>
        <_>
          <internalNodes>
            0 -1 90 -136331484 336925215 -1719545345 -8675105 -490236699
            818491915 -1180979236 -6828369</internalNodes>
          <leafValues>
            -7.8716552257537842e-01 5.7041043043136597e-01</leafValues></_>
        <_>
          <internalNodes>
            0 -1 3 -19988625 -783890162 -1073307193 -687292093
            1110035083 -1072988150 -1037455286 1970495863</internalNodes>
          <leafValues>
            -7.2734963893890381e-01 5.3843301534652710e-01</leafValues></_>
        <_>
          <internalNodes>
            0 -1 87 -1545889601 -8286064 -788426531 -45774691 805863818
            -352321512 -1669080069 -1108333844</internalNodes>
          <leafValues>
            -6.0592842102050781e-01 6.3421899080276489e-01</leafValues></_></weakClassifiers></_>
    <!-- stage 5 -->
    <_>
      <maxWeakCount>5</maxWeakCount>
      <stageThreshold>-1.1447917222976685e+00</stageThreshold>
      <weakClassifiers>
        <_>
          <internalNodes>
            0 -1 121 -134744715 5621239 -62881717 16776703 -1 1089992832
            -16777269 -989856273</internalNodes>
          <leafValues>
            -6.7582941055297852e-01 7.5754189491271973e-01</leafValues></_>
        <_>
          <internalNodes>
            0 -1 9 -1311529474 -771502056 -258207267 -201746113
            -1599631923 1048791746 -133956631 2004334103</internalNodes>
          <leafValues>
            -7.7663183212280273e-01 5.3722155094146729e-01</leafValues></_>
        <_>
          <internalNodes>
            0 -1 36 -102826502 -141015725 -780074614 -543190710
            -909036289 730824712 -2004155905 -269497409</internalNodes>
          <leafValues>
            -7.5376206636428833e-01 5.3712868690490723e-01</leafValues></_>
        <_>
          <internalNodes>
            0 -1 74 -552379083 421068931 -819624457 -1617522659
            -100075333 -74905413 -366506599 540059660</internalNodes>
          <leafValues>
            -7.6046037673950195e-01 4.9334457516670227e-01</leafValues></_>
        <_>
          <internalNodes>
            0 -1 42 -52775942 -220938037 -519994989 -704851758
            -1597896026 -91652078 1754964111 -357572</internalNodes>
          <leafValues>
            -6.7257827520370483e-01 5.3100115060806274e-01</leafValues></_></weakClassifiers></_>
    <!-- stage 6 -->
    <_>
      <maxWeakCount>5</maxWeakCount>
      <stageThreshold>-1.0500675439834595e+00</stageThreshold>
      <weakClassifiers>
        <_>
          <internalNodes>
            0 -1 115 -524427 -167903243 -1 -989855753 -536870913
            -185075843 -1 -520093697</internalNodes>
          <leafValues>
            -5.6027162075042725e-01 7.8164368867874146e-01</leafValues></_>
        <_>
          <internalNodes>
            0 -1 31 -285483041 -669072319 -503187902 -687492487
            1929502791 -760119221 1375990647 -1056065</internalNodes>
          <leafValues>
            -6.3264882564544678e-01 6.4794933795928955e-01</leafValues></_>
        <_>
          <internalNodes>
            0 -1 21 -992018705 1494003715 -1622703425 -1211960509
            357517791 1917831320 -112240501 -214838305</internalNodes>
          <leafValues>
            -6.2641620635986328e-01 5.5308645963668823e-01</leafValues></_>
        <_>
          <internalNodes>
            0 -1 123 1902083447 824656195 -796016636 294641667
            1103347809 1082794049 1921307339 618326749</internalNodes>
          <leafValues>
            -8.3267492055892944e-01 4.2549264430999756e-01</leafValues></_>
        <_>
          <internalNodes>
            0 -1 77 -615399627 2111554563 -805207918 -1614167781
            -519707973 1000440474 1535769688 822083000</internalNodes>
          <leafValues>
            -8.0402261018753052e-01 4.2244139313697815e-01</leafValues></_></weakClassifiers></_>
    <!-- stage 7 -->
    <_>
      <maxWeakCount>8</maxWeakCount>
      <stageThreshold>-1.7981449365615845e+00</stageThreshold>
      <weakClassifiers>
        <_>
          <internalNodes>
            0 -1 111 -1 -570425345 -129 -67141637 -513 -8912897
            -16777217 1882259455</internalNodes>
          <leafValues>
            -6.2151777744293213e-01 7.1507757902145386e-01</leafValues></_>
        <_>
          <internalNodes>
            0 -1 48 -925127194 -242151083 -783689325 -42089249 403272123
            1217045672 -1144493409 -4491105</internalNodes>
          <leafValues>
            -6.4632302522659302e-01 6.2033343315124512e-01</leafValues></_>
        <_>
          <internalNodes>
            0 -1 15 -469763105 -716636598 119367 -215422715 641819189
            1229078598 -1341433337 -162704073</internalNodes>
          <leafValues>
            -6.8368959426879883e-01 5.3976660966873169e-01</leafValues></_>
        <_>
          <internalNodes>
            0 -1 127 -77597835 1178849477 -1056931712 411746503
            -1960750688 1619132547 -1035752825 680391535</internalNodes>
          <leafValues>
            -7.2180670499801636e-01 4.9311879277229309e-01</leafValues></_>
        <_>
          <internalNodes>
            0 -1 57 -1907428897 -1533884258 -1626121783 -237371137
            34312879 -1051852784 -377453829 -270157194</internalNodes>
          <leafValues>
            -6.5936505794525146e-01 5.5370908975601196e-01</leafValues></_>
        <_>
          <internalNodes>
            0 -1 43 1657727692 -648085289 -268348961 -242057058
            143228181 -1146486591 262896011 -556836106</internalNodes>
          <leafValues>
            -6.8504256010055542e-01 4.5469868183135986e-01</leafValues></_>
        <_>
          <internalNodes>
            0 -1 62 -270812242 -719990653 1623822496 -787885998
            1213789403 -1207386104 -1071213613 -1552963076</internalNodes>
          <leafValues>
            -6.2317520380020142e-01 4.5744553208351135e-01</leafValues></_>
        <_>
          <internalNodes>
            0 -1 79 -104652395 588116065 1090639965 561369287 -112705285
            -1343504253 -780083970 820936892</internalNodes>
          <leafValues>
            -7.5005298852920532e-01 4.1477534174919128e-01</leafValues></_></weakClassifiers></_>
    <!-- stage 8 -->
    <_>
      <maxWeakCount>7</maxWeakCount>
      <stageThreshold>-1.3869040012359619e+00</stageThreshold>
      <weakClassifiers>
        <_>
          <internalNodes>
            0 -1 72 -619338866 -616771555 2031846622 -573097774
            -1732210022 -393183224 -1341875286 -68185670</internalNodes>
          <leafValues>
            -7.1777778863906860e-01 6.6272491216659546e-01</leafValues></_>
        <_>
          <internalNodes>
            0 -1 114 -70256675 -2096138099 -989507307 -1319906229
            -858816883 -535836650 -914243187 550501839</internalNodes>
          <leafValues>
            -7.6155459880828857e-01 5.0095742940902710e-01</leafValues></_>
        <_>
          <internalNodes>
            0 -1 52 -642144885 -67663467 -753804873 -1084755497
            -1845435397 -68288369 1342810859 -1115100276</internalNodes>
          <leafValues>
            -5.5858337879180908e-01 5.8703202009201050e-01</leafValues></_>
        <_>
          <internalNodes>
            0 -1 124 1901981681 1153813129 -2146942975 -2147430389
            -242499456 -1065148415 -515538551 -1058282871</internalNodes>
          <leafValues>
            -6.2669605016708374e-01 5.2468848228454590e-01</leafValues></_>
        <_>
          <internalNodes>
            0 -1 46 -520161313 302137401 -451870710 -787005287 25907338
            102942728 566985484 2069586511</internalNodes>
          <leafValues>
            -7.8973084688186646e-01 3.3936068415641785e-01</leafValues></_>
        <_>
          <internalNodes>
            0 -1 56 -1764822371 -610352985 -2147380328 -582577885
            -392121814 -2111532917 -880217595 -943522825</internalNodes>
          <leafValues>
            -6.0631281137466431e-01 4.8946726322174072e-01</leafValues></_>
        <_>
          <internalNodes>
            0 -1 60 -644408054 1497563587 -1744758734 -1659793118
            1905162699 1292566611 -2146713094 -25757478</internalNodes>
          <leafValues>
            -7.0250475406646729e-01 4.1999456286430359e-01</leafValues></_></weakClassifiers></_>
    <!-- stage 9 -->
    <_>
      <maxWeakCount>7</maxWeakCount>
      <stageThreshold>-1.1932854652404785e+00</stageThreshold>
      <weakClassifiers>
        <_>
          <internalNodes>
            0 -1 2 -85000257 -65537 -65665 -655629 -8585217 -589825
            -65673 -134744201</internalNodes>
          <leafValues>
            -5.3859806060791016e-01 7.2759020328521729e-01</leafValues></_>
        <_>
          <internalNodes>
            0 -1 88 -1427200017 -250485167 -805121377 -35929007
            -511339845 -125796216 -57476613 -83627304</internalNodes>
          <leafValues>
            -6.0099738836288452e-01 5.8845627307891846e-01</leafValues></_>
        <_>
          <internalNodes>
            0 -1 113 -2100763 894271491 -1995891885 -375540607
            -553401651 -708640568 -485895541 -1059061797</internalNodes>
          <leafValues>
            -5.6230175495147705e-01 5.6988203525543213e-01</leafValues></_>
        <_>
          <internalNodes>
            0 -1 83 -16828633 905936895 -1 -1 -32769 -1 -68 -1140869218</internalNodes>
          <leafValues>
            -5.1799690723419189e-01 6.0981529951095581e-01</leafValues></_>
        <_>
          <internalNodes>
            0 -1 101 -34644201 623203665 1490633050 1902596935
            -1299191669 -939294181 -750007553 412644209</internalNodes>
          <leafValues>
            -7.3940873146057129e-01 3.7430763244628906e-01</leafValues></_>
        <_>
          <internalNodes>
            0 -1 62 -302010454 -251008829 -1039535872 -721235754
            1242190062 -913145662 -2146926415 185220042</internalNodes>
          <leafValues>
            -7.8956806659698486e-01 3.3171856403350830e-01</leafValues></_>
        <_>
          <internalNodes>
            0 -1 34 -186712505 -187014637 -1727840178 -405405287
            990339609 1770521603 1267925803 2144040971</internalNodes>
          <leafValues>
            -7.2561532258987427e-01 3.2058247923851013e-01</leafValues></_></weakClassifiers></_>
    <!-- stage 10 -->
    <_>
      <maxWeakCount>7</maxWeakCount>
      <stageThreshold>-1.2264125347137451e+00</stageThreshold>
      <weakClassifiers>
        <_>
          <internalNodes>
            0 -1 16 -1 -9240577 -145 -2032129 -559241 -9076867 -8947851
            -8980609</internalNodes>
          <leafValues>
            -6.3406938314437866e-01 6.5786695480346680e-01</leafValues></_>
        <_>
          <internalNodes>
            0 -1 89 -711204553 936596083 -658452257 -40824435
            -1191145217 1957343370 -1853699365 -1080825713</internalNodes>
          <leafValues>
            -5.3765630722045898e-01 6.5855324268341064e-01</leafValues></_>
        <_>
          <internalNodes>
            0 -1 1 1671429051 -243088957 -2147231589 -1047883075
            -921998357 -106200948 1259168175 1734828885</internalNodes>
          <leafValues>
            -6.6103190183639526e-01 4.6765598654747009e-01</leafValues></_>
        <_>
          <internalNodes>
            0 -1 80 -480771114 -217874365 -998162221 -251105261
            -796450389 -1878867966 -324869557 -85282386</internalNodes>
          <leafValues>
            -6.6971969604492188e-01 4.6308898925781250e-01</leafValues></_>
        <_>
          <internalNodes>
            0 -1 100 968964089 -142409513 1496322559 -246406707
            463671459 -1434220541 -1315765380 -1677851984</internalNodes>
          <leafValues>
            -7.0415705442428589e-01 3.7736684083938599e-01</leafValues></_>
        <_>
          <internalNodes>
            0 -1 97 -35974049 1360593109 1342205977 -1659003673
            -1593772917 -780042224 42504955 -1212340184</internalNodes>
          <leafValues>
            -5.8243119716644287e-01 4.8983693122863770e-01</leafValues></_>
        <_>
          <internalNodes>
            0 -1 102 2110215029 478224520 -2147020663 -1987861685
            -113594235 -1467899903 -502535478 1959654381</internalNodes>
          <leafValues>
            -7.4164152145385742e-01 3.6169686913490295e-01</leafValues></_></weakClassifiers></_>
    <!-- stage 11 -->
    <_>
      <maxWeakCount>7</maxWeakCount>
      <stageThreshold>-1.2525918483734131e+00</stageThreshold>
      <weakClassifiers>
        <_>
          <internalNodes>
            0 -1 120 -2185 301334391 -1 821559295 -3 2088632317
            -285212673 -855638529</internalNodes>
          <leafValues>
            -5.1322752237319946e-01 7.1595555543899536e-01</leafValues></_>
        <_>
          <internalNodes>
            0 -1 73 1071619071 -548302623 298911418 -16250406
            -1971278614 -393705344 1529719454 -6575430</internalNodes>
          <leafValues>
            -6.0238575935363770e-01 5.3224349021911621e-01</leafValues></_>
        <_>
          <internalNodes>
            0 -1 5 -572594721 -1048010683 -2147474359 -800227314
            1393610571 -509460478 707403870 2102873983</internalNodes>
          <leafValues>
            -6.2967467308044434e-01 4.3725338578224182e-01</leafValues></_>
        <_>
          <internalNodes>
            0 -1 107 1908893045 294092809 -1073692142 -1861004269
            -131366687 -772800480 35831977 -1853002987</internalNodes>
          <leafValues>
            -6.6673266887664795e-01 3.9270868897438049e-01</leafValues></_>
        <_>
          <internalNodes>
            0 -1 129 -336593933 1137291979 1090523151 617484947
            -1047797023 1120108544 -1065162099 -391395441</internalNodes>
          <leafValues>
            -4.9323111772537231e-01 4.9295055866241455e-01</leafValues></_>
        <_>
          <internalNodes>
            0 -1 103 -137397411 -242777967 -1610416077 -346832609
            -1035093927 -58015741 -926219687 485357789</internalNodes>
          <leafValues>
            -6.8774837255477905e-01 3.7311783432960510e-01</leafValues></_>
        <_>
          <internalNodes>
            0 -1 49 -929050213 -526548991 -784186479 -322760551
            328884781 1879048329 -1551202799 -416838717</internalNodes>
          <leafValues>
            -7.2887963056564331e-01 2.8729853034019470e-01</leafValues></_></weakClassifiers></_>
    <!-- stage 12 -->
    <_>
      <maxWeakCount>8</maxWeakCount>
      <stageThreshold>-1.2047855854034424e+00</stageThreshold>
      <weakClassifiers>
        <_>
          <internalNodes>
            0 -1 0 -65 -17 -1073791105 1073686462 -536952833 -268435457
            -513 1912059828</internalNodes>
          <leafValues>
            -5.1042610406875610e-01 6.9230771064758301e-01</leafValues></_>
        <_>
          <internalNodes>
            0 -1 22 -766384649 -754953965 1476489680 -644525694
            -394594165 2106132648 -1987462913 2012997834</internalNodes>
          <leafValues>
            -6.1915844678878784e-01 4.9101907014846802e-01</leafValues></_>
        <_>
          <internalNodes>
            0 -1 35 -598280705 -665418605 1358991377 -1894641017
            1133496602 1367572488 -251410245 1459837227</internalNodes>
          <leafValues>
            -7.7962434291839600e-01 3.2691076397895813e-01</leafValues></_>
        <_>
          <internalNodes>
            0 -1 65 -638389540 -1341001603 8470769 -566161038 595603712
            772507912 -1207840625 -15994066</internalNodes>
          <leafValues>
            -6.1726367473602295e-01 3.9800417423248291e-01</leafValues></_>
        <_>
          <internalNodes>
            0 -1 47 630917085 -175063023 -779021827 1569849410 713183388
            -1189588856 -939296597 1394608151</internalNodes>
          <leafValues>
            -7.3340010643005371e-01 2.9948043823242188e-01</leafValues></_>
        <_>
          <internalNodes>
            0 -1 126 -924877953 824136303 302108805 581835 -938514325
            2025883713 -926826465 679342681</internalNodes>
          <leafValues>
            -7.3771494626998901e-01 2.9598242044448853e-01</leafValues></_>
        <_>
          <internalNodes>
            0 -1 59 307462846 -750206832 1073860862 -581188322
            -1868480146 -1165459072 -1450826246 -1251493133</internalNodes>
          <leafValues>
            -5.8999967575073242e-01 4.1281771659851074e-01</leafValues></_>
        <_>
          <internalNodes>
            0 -1 61 784527067 -788348920 -2130624367 -1056833016
            973171086 -595230208 -264113909 1086595934</internalNodes>
          <leafValues>
            -7.7915847301483154e-01 2.6730933785438538e-01</leafValues></_></weakClassifiers></_>
    <!-- stage 13 -->
    <_>
      <maxWeakCount>8</maxWeakCount>
      <stageThreshold>-1.1641972064971924e+00</stageThreshold>
      <weakClassifiers>
        <_>
          <internalNodes>
            0 -1 99 -49153 -32769 -49416 -1 -16385 -1 -57380 -51236</internalNodes>
          <leafValues>
            -4.7102802991867065e-01 6.4619719982147217e-01</leafValues></_>
        <_>
          <internalNodes>
            0 -1 24 -137397329 -779911152 1627672576 -604389271
            1426260003 327385098 2021877250 -547157741</internalNodes>
          <leafValues>
            -6.9794410467147827e-01 4.2641606926918030e-01</leafValues></_>
        <_>
          <internalNodes>
            0 -1 96 -116174594 -242936559 -1862168234 -173567792
            -528117572 -2111823856 -1425583912 -537307044</internalNodes>
          <leafValues>
            -5.3822672367095947e-01 4.6780821681022644e-01</leafValues></_>
        <_>
          <internalNodes>
            0 -1 76 -749485552 -75412983 2195793 -788496317 -1068449541
            -910081919 -1073691652 1027590204</internalNodes>
          <leafValues>
            -7.1400630474090576e-01 3.4490659832954407e-01</leafValues></_>
        <_>
          <internalNodes>
            0 -1 40 -1584148005 -552730557 98519 2009630858 -2113419236
            1614086273 -1467282621 -116236425</internalNodes>
          <leafValues>
            -7.0446282625198364e-01 2.7091917395591736e-01</leafValues></_>
        <_>
          <internalNodes>
            0 -1 111 -242232995 -48791287 1375838489 -938143741
            -1039558247 -249430016 -360103429 815837963</internalNodes>
          <leafValues>
            -7.0338428020477295e-01 2.8938636183738708e-01</leafValues></_>
        <_>
          <internalNodes>
            0 -1 67 -1050692935 -1719070701 1342251191 -736982873
            -1073217367 -2013233152 1357388443 1609607328</internalNodes>
          <leafValues>
            -5.8693641424179077e-01 3.5066646337509155e-01</leafValues></_>
        <_>
          <internalNodes>
            0 -1 95 1974474748 -649871228 -1006452639 -645443381
            -2002443647 -1542864704 679543259 1061626852</internalNodes>
          <leafValues>
            -7.0977544784545898e-01 2.4924080073833466e-01</leafValues></_></weakClassifiers></_>
    <!-- stage 14 -->
    <_>
      <maxWeakCount>10</maxWeakCount>
      <stageThreshold>-1.4056084156036377e+00</stageThreshold>
      <weakClassifiers>
        <_>
          <internalNodes>
            0 -1 66 -823136601 -286261249 -286261257 -262145 1476361591
            -822083585 -704774281 -1</internalNodes>
          <leafValues>
            -4.5554536581039429e-01 6.4994299411773682e-01</leafValues></_>
        <_>
          <internalNodes>
            0 -1 92 -896884226 -39944050 1104294098 -643919722
            -376928117 -938868608 -796790389 -12860838</internalNodes>
          <leafValues>
            -5.6293970346450806e-01 4.7171410918235779e-01</leafValues></_>
        <_>
          <internalNodes>
            0 -1 29 -1395659825 -854474751 1073824002 -612298685
            1913079822 687865859 570642488 -5277639</internalNodes>
          <leafValues>
            -6.6634529829025269e-01 3.7728822231292725e-01</leafValues></_>
        <_>
          <internalNodes>
            0 -1 39 1629454670 -788197296 1091638545 -203599856
            696918217 1216872585 1216453210 -608964222</internalNodes>
          <leafValues>
            -5.5763024091720581e-01 4.2449903488159180e-01</leafValues></_>
        <_>
          <internalNodes>
            0 -1 117 -72391097 286650383 -2147446592 922959874
            1208139977 1350566016 33800651 9365965</internalNodes>
          <leafValues>
            -7.6754873991012573e-01 2.7238452434539795e-01</leafValues></_>
        <_>
          <internalNodes>
            0 -1 68 -933301797 -754966267 1359069186 -822001647
            142854825 -7733248 -255852374 1670398795</internalNodes>
          <leafValues>
            -6.1999821662902832e-01 2.9746925830841064e-01</leafValues></_>
        <_>
          <internalNodes>
            0 -1 12 -535694598 1073742291 -2146381746 1930448914
            -2013144615 -360001536 -930383621 1267407055</internalNodes>
          <leafValues>
            -6.8286335468292236e-01 2.8655445575714111e-01</leafValues></_>
        <_>
          <internalNodes>
            0 -1 108 -49065761 497258584 128 -15626093 -1836351359
            -897531902 572598508 -2051020099</internalNodes>
          <leafValues>
            -4.8773744702339172e-01 4.1551327705383301e-01</leafValues></_>
        <_>
          <internalNodes>
            0 -1 128 -69243833 1162807558 1073774592 278380865
            -1433892859 1379991680 -1073557365 449376906</internalNodes>
          <leafValues>
            -6.4331674575805664e-01 3.5027641057968140e-01</leafValues></_>
        <_>
          <internalNodes>
            0 -1 19 570583627 -1191001852 -2147418112 -653094656
            822246059 210274440 537753802 1938178314</internalNodes>
          <leafValues>
            -9.4236743450164795e-01 1.7570900917053223e-01</leafValues></_></weakClassifiers></_>
    <!-- stage 15 -->
    <_>
      <maxWeakCount>10</maxWeakCount>
      <stageThreshold>-1.1398110389709473e+00</stageThreshold>
      <weakClassifiers>
        <_>
          <internalNodes>
            0 -1 115 -536870923 -172621833 -1 -855769099 -537004041
            -192937987 -131073 -251658753</internalNodes>
          <leafValues>
            -4.5140781998634338e-01 6.5366971492767334e-01</leafValues></_>
        <_>
          <internalNodes>
            0 -1 104 -2253 -655361 -1 -1073741825 -32772 2143256575
            -32772 1912070143</internalNodes>
          <leafValues>
            -4.2139580845832825e-01 5.9699475765228271e-01</leafValues></_>
        <_>
          <internalNodes>
            0 -1 110 -1118366593 -1288601455 134775225 -241499967
            587276763 1753284737 859835257 -73286996</internalNodes>
          <leafValues>
            -5.7109463214874268e-01 3.8112670183181763e-01</leafValues></_>
        <_>
          <internalNodes>
            0 -1 52 1096516003 -1612873333 -1878960297 -1747369769
            -1333255505 -74906965 -889074257 -1526357112</internalNodes>
          <leafValues>
            -5.1976126432418823e-01 4.0072381496429443e-01</leafValues></_>
        <_>
          <internalNodes>
            0 -1 125 -202159289 1712277963 -1069498197 67863556
            -1030876984 1225326594 -263986993 820822909</internalNodes>
          <leafValues>
            -7.4091261625289917e-01 2.7996215224266052e-01</leafValues></_>
        <_>
          <internalNodes>
            0 -1 86 -1862067201 1486440451 419483863 1036337172
            172019963 -1735882551 -356382408 283887929</internalNodes>
          <leafValues>
            -5.5702614784240723e-01 3.4847289323806763e-01</leafValues></_>
        <_>
          <internalNodes>
            0 -1 14 -518371873 1393197128 268533905 1330069642
            1895986491 25739392 -779411129 1108564495</internalNodes>
          <leafValues>
            -7.4077171087265015e-01 2.3040205240249634e-01</leafValues></_>
        <_>
          <internalNodes>
            0 -1 58 -1962232937 -1744764269 1073746177 2038862153
            1568801355 704643456 -1333026789 1699089187</internalNodes>
          <leafValues>
            -6.8962955474853516e-01 2.8875336050987244e-01</leafValues></_>
        <_>
          <internalNodes>
            0 -1 69 -493111307 -830341120 -1878413159 -796786679
            1342841257 159418392 2064160970 -654177749</internalNodes>
          <leafValues>
            -6.4277076721191406e-01 2.8816160559654236e-01</leafValues></_>
        <_>
          <internalNodes>
            0 -1 44 -872042529 -787427319 1351254033 -1459453928
            1854421130 -1988063220 -2146891749 -44697053</internalNodes>
          <leafValues>
            -5.1534891128540039e-01 3.8768222928047180e-01</leafValues></_></weakClassifiers></_>
    <!-- stage 16 -->
    <_>
      <maxWeakCount>10</maxWeakCount>
      <stageThreshold>-1.1366432905197144e+00</stageThreshold>
      <weakClassifiers>
        <_>
          <internalNodes>
            0 -1 112 -545785865 2004350837 -1 520617983 -620647693
            1535852673 -8279093 1357900635</internalNodes>
          <leafValues>
            -4.2730495333671570e-01 6.5521258115768433e-01</leafValues></_>
        <_>
          <internalNodes>
            0 -1 38 -289484593 -770178934 553713665 -709427066
            -259882853 1099006083 -134135729 -470291513</internalNodes>
          <leafValues>
            -4.8237159848213196e-01 4.7530043125152588e-01</leafValues></_>
        <_>
          <internalNodes>
            0 -1 73 -788293385 -653049337 354424850 -113966950
            -2146942838 -937394040 -1593271894 -620035333</internalNodes>
          <leafValues>
            -4.6678552031517029e-01 4.6260792016983032e-01</leafValues></_>
        <_>
          <internalNodes>
            0 -1 26 -355953773 -134168574 134383624 1648632067
            1649011081 42467328 -1712740216 1929859587</internalNodes>
          <leafValues>
            -7.4171066284179688e-01 2.6072278618812561e-01</leafValues></_>
        <_>
          <internalNodes>
            0 -1 74 -741158883 332595339 16855197 -1081945709
            -1979391813 -628588360 -880243750 705992747</internalNodes>
          <leafValues>
            -4.8278856277465820e-01 3.7719464302062988e-01</leafValues></_>
        <_>
          <internalNodes>
            0 -1 31 640415951 -1140834303 -2147430399 -452853631
            1073979731 -1341587448 289649249 2145381314</internalNodes>
          <leafValues>
            -7.2748756408691406e-01 2.3759861290454865e-01</leafValues></_>
        <_>
          <internalNodes>
            0 -1 23 -3454257 -620715839 1073746241 -775122943 1090941647
            100730882 -947650107 -45309407</internalNodes>
          <leafValues>
            -4.6015489101409912e-01 4.0096220374107361e-01</leafValues></_>
        <_>
          <internalNodes>
            0 -1 54 1678434319 -1760984574 1342177280 352468997
            -58103671 -804749312 -1073739638 -117281893</internalNodes>
          <leafValues>
            -5.0321757793426514e-01 3.3998572826385498e-01</leafValues></_>
        <_>
          <internalNodes>
            0 -1 78 -262991586 -1726971824 272674896 -250544127
            -805267238 429950976 -100623944 9504858</internalNodes>
          <leafValues>
            -7.1910685300827026e-01 2.8461527824401855e-01</leafValues></_>
        <_>
          <internalNodes>
            0 -1 106 2110472451 630637569 1073741970 -410795999
            -1022361460 -1559721984 757900 -781991399</internalNodes>
          <leafValues>
            -6.2184560298919678e-01 2.7478414773941040e-01</leafValues></_></weakClassifiers></_>
    <!-- stage 17 -->
    <_>
      <maxWeakCount>11</maxWeakCount>
      <stageThreshold>-1.0937417745590210e+00</stageThreshold>
      <weakClassifiers>
        <_>
          <internalNodes>
            0 -1 118 -2185 1476263799 -1 318767103 -1 1895266301 -1
            -520617985</internalNodes>
          <leafValues>
            -3.7704917788505554e-01 6.7876923084259033e-01</leafValues></_>
        <_>
          <internalNodes>
            0 -1 37 -246820646 -775225264 -947891920 -1135984620
            1661161530 445124617 1804100082 -722277</internalNodes>
          <leafValues>
            -5.9282034635543823e-01 4.3505442142486572e-01</leafValues></_>
        <_>
          <internalNodes>
            0 -1 53 -134217809 -33574930 -9 -1048641 -81 -33701907 -5
            -806359158</internalNodes>
          <leafValues>
            -3.2147628068923950e-01 6.4220178127288818e-01</leafValues></_>
        <_>
          <internalNodes>
            0 -1 130 -275783691 961138835 -1035976696 360923266 42156257
            746717826 -1976950647 1296593357</internalNodes>
          <leafValues>
            -6.6050261259078979e-01 3.0050513148307800e-01</leafValues></_>
        <_>
          <internalNodes>
            0 -1 51 -1433734682 -250933227 -1072689145 -1785909216
            379224234 -92141438 1674299419 -1433402943</internalNodes>
          <leafValues>
            -5.9012985229492188e-01 3.2456448674201965e-01</leafValues></_>
        <_>
          <internalNodes>
            0 -1 94 299577953 -783056893 -922640365 -750563199
            -536764152 185180161 -536313704 -311313808</internalNodes>
          <leafValues>
            -5.5826765298843384e-01 3.0140978097915649e-01</leafValues></_>
        <_>
          <internalNodes>
            0 -1 109 -653575850 558301248 32840 84115456 8947839
            1141541000 -918534065 902687577</internalNodes>
          <leafValues>
            -7.5599342584609985e-01 2.2638213634490967e-01</leafValues></_>
        <_>
          <internalNodes>
            0 -1 18 -1022389027 -805170935 -805236415 -654032889
            143370283 -939491320 42491940 1530989063</internalNodes>
          <leafValues>
            -8.0235755443572998e-01 1.8903337419033051e-01</leafValues></_>
        <_>
          <internalNodes>
            0 -1 63 -866647826 395378837 -1072577040 -251563584 544889
            680001545 -670924293 197167114</internalNodes>
          <leafValues>
            -6.3877546787261963e-01 2.2062429785728455e-01</leafValues></_>
        <_>
          <internalNodes>
            0 -1 20 -245728305 -654254015 1073791105 1175224325
            1931620393 192972802 1677791777 1097672993</internalNodes>
          <leafValues>
            -7.0479607582092285e-01 2.1622438728809357e-01</leafValues></_>
        <_>
          <internalNodes>
            0 -1 45 -1722115729 -1861446791 -1853779702 591472938
            -125157352 1486913546 -1610077217 1493482912</internalNodes>
          <leafValues>
            -5.5676960945129395e-01 2.6091343164443970e-01</leafValues></_></weakClassifiers></_>
    <!-- stage 18 -->
    <_>
      <maxWeakCount>13</maxWeakCount>
      <stageThreshold>-1.3850713968276978e+00</stageThreshold>
      <weakClassifiers>
        <_>
          <internalNodes>
            0 -1 64 -795148300 -83951617 -1073893379 -524289 -1241579529
            -34078721 787806207 -285220865</internalNodes>
          <leafValues>
            -3.5037097334861755e-01 6.5441179275512695e-01</leafValues></_>
        <_>
          <internalNodes>
            0 -1 50 -6565093 -1308229631 1074036801 189431876
            -1064598613 420184200 202031246 2072766603</internalNodes>
          <leafValues>
            -4.2902797460556030e-01 4.6993187069892883e-01</leafValues></_>
        <_>
          <internalNodes>
            0 -1 2 -775240945 1493598223 -2147483634 1896038409
            160049291 -897417077 11145247 -229387657</internalNodes>
          <leafValues>
            -5.2549314498901367e-01 3.6480540037155151e-01</leafValues></_>
        <_>
          <internalNodes>
            0 -1 81 -213697792 1594183874 1073844944 -788430847 114915
            -368525184 -1056386864 715489917</internalNodes>
          <leafValues>
            -7.5142937898635864e-01 2.4197113513946533e-01</leafValues></_>
        <_>
          <internalNodes>
            0 -1 122 -1678785825 398844106 20988992 169820160
            -2012642421 1073741952 142854283 -867895104</internalNodes>
          <leafValues>
            -4.6456885337829590e-01 3.8740277290344238e-01</leafValues></_>
        <_>
          <internalNodes>
            0 -1 57 570671583 -2038247419 16908433 2062684305 570622763
            1074331905 -2104851487 -946498861</internalNodes>
          <leafValues>
            -5.4701644182205200e-01 2.7186083793640137e-01</leafValues></_>
        <_>
          <internalNodes>
            0 -1 32 -291516197 -266993664 1090523372 -1694461821
            1108527135 1645445256 1078085711 -565581775</internalNodes>
          <leafValues>
            -5.5593752861022949e-01 2.4606446921825409e-01</leafValues></_>
        <_>
          <internalNodes>
            0 -1 82 1409373200 990445585 -1056960495 320307554
            -2003825727 1007190152 -2139037510 537953000</internalNodes>
          <leafValues>
            -6.7073273658752441e-01 2.1119429171085358e-01</leafValues></_>
        <_>
          <internalNodes>
            0 -1 0 -783428161 -939458549 268435487 -540934142
            -1719607141 -1467482102 151701505 -1009684479</internalNodes>
          <leafValues>
            -5.1455724239349365e-01 2.6142975687980652e-01</leafValues></_>
        <_>
          <internalNodes>
            0 -1 98 -1845287648 968966272 -989806343 1359053011
            -1610579807 -1073708926 -394229095 860686353</internalNodes>
          <leafValues>
            -7.2067868709564209e-01 2.0202523469924927e-01</leafValues></_>
        <_>
          <internalNodes>
            0 -1 55 -1073445630 151060561 16859285 -2062348005
            -930611173 1787494410 -1954428734 905552386</internalNodes>
          <leafValues>
            -5.4839628934860229e-01 2.5554677844047546e-01</leafValues></_>
        <_>
          <internalNodes>
            0 -1 85 -717016870 1020346561 196674 -1878982656 1208123576
            -1249869654 -511508400 270169033</internalNodes>
          <leafValues>
            -6.0207927227020264e-01 2.1959915757179260e-01</leafValues></_>
        <_>
          <internalNodes>
            0 -1 28 -1148620378 1191907468 -1862266869 1372786689
            -1333111938 -939524096 -1291759098 730317537</internalNodes>
          <leafValues>
            -5.9580624103546143e-01 2.2242325544357300e-01</leafValues></_></weakClassifiers></_>
    <!-- stage 19 -->
    <_>
      <maxWeakCount>11</maxWeakCount>
      <stageThreshold>-1.6249247789382935e+00</stageThreshold>
      <weakClassifiers>
        <_>
          <internalNodes>
            0 -1 84 -50463516 -721944578 -11 -33554433 -33554945
            889190399 -33685783 -34865409</internalNodes>
          <leafValues>
            -4.3352600932121277e-01 6.0486996173858643e-01</leafValues></_>
        <_>
          <internalNodes>
            0 -1 91 -1026653714 -266338157 -721252144 -779038352
            -2147442518 -1878916992 -1328825461 -70545349</internalNodes>
          <leafValues>
            -5.9916251897811890e-01 4.1272306442260742e-01</leafValues></_>
        <_>
          <internalNodes>
            0 -1 8 1435009483 -106888867 268456409 -922157037 671262970
            1753878666 -1979571253 1620126212</internalNodes>
          <leafValues>
            -6.7097568511962891e-01 2.8241971135139465e-01</leafValues></_>
        <_>
          <internalNodes>
            0 -1 93 1105797637 -748978175 2146385 -1055309749
            -1038008149 -2113732598 1342216907 -30693324</internalNodes>
          <leafValues>
            -4.8835441470146179e-01 3.6751979589462280e-01</leafValues></_>
        <_>
          <internalNodes>
            0 -1 119 1359563099 -511504255 4433 -1600974837 -1979512693
            738820104 671131899 -993008689</internalNodes>
          <leafValues>
            -5.2039515972137451e-01 3.3848845958709717e-01</leafValues></_>
        <_>
          <internalNodes>
            0 -1 129 -70256009 2135097608 65552 76153353 -1173724512
            1174577154 -1433738596 1812023307</internalNodes>
          <leafValues>
            -5.7332199811935425e-01 2.9978883266448975e-01</leafValues></_>
        <_>
          <internalNodes>
            0 -1 94 894644260 -1050673150 86090 -787902463 -1182236495
            16777216 -2002019847 -114427350</internalNodes>
          <leafValues>
            -5.1181638240814209e-01 3.1778040528297424e-01</leafValues></_>
        <_>
          <internalNodes>
            0 -1 70 -2042162789 -1707081725 -2130702013 2056388881
            1124078090 293732352 -1879046006 -206602229</internalNodes>
          <leafValues>
            -6.2611371278762817e-01 2.2723215818405151e-01</leafValues></_>
        <_>
          <internalNodes>
            0 -1 41 2017772431 318816768 32768 -1761607423 134432907
            -1928806399 -930599926 1367407105</internalNodes>
          <leafValues>
            -5.0860136747360229e-01 3.4376862645149231e-01</leafValues></_>
        <_>
          <internalNodes>
            0 -1 75 -1322537715 935493652 268484747 16859779 -2128539429
            -1459093175 -1023229717 274062086</internalNodes>
          <leafValues>
            -5.9025889635086060e-01 2.6378619670867920e-01</leafValues></_>
        <_>
          <internalNodes>
            0 -1 4 -695965053 1501585542 16 1480638734 1091226280
            1174929410 817958947 1615286867</internalNodes>
          <leafValues>
            -7.1512764692306519e-01 2.2009091079235077e-01</leafValues></_></weakClassifiers></_></stages>
  <features>
    <_>
      <rect>
        0 0 1 1</rect></_>
    <_>
      <rect>
        0 0 1 2</rect></_>
    <_>
      <rect>
        0 0 1 3</rect></_>
    <_>
      <rect>
        0 0 1 5</rect></_>
    <_>
      <rect>
        0 0 1 6</rect></_>
    <_>
      <rect>
        0 0 1 7</rect></_>
    <_>
      <rect>
        0 0 2 2</rect></_>
    <_>
      <rect>
        0 0 2 4</rect></_>
    <_>
      <rect>
        0 0 3 1</rect></_>
    <_>
      <rect>
        0 0 3 3</rect></_>
    <_>
      <rect>
        0 0 3 4</rect></_>
    <_>
      <rect>
        0 0 3 6</rect></_>
    <_>
      <rect>
        0 1 3 4</rect></_>
    <_>
      <rect>
        0 2 1 2</rect></_>
    <_>
      <rect>
        0 2 1 5</rect></_>
    <_>
      <rect>
        0 2 1 6</rect></_>
    <_>
      <rect>
        0 3 1 2</rect></_>
    <_>
      <rect>
        0 3 1 5</rect></_>
    <_>
      <rect>
        0 3 2 2</rect></_>
    <_>
      <rect>
        0 3 2 6</rect></_>
    <_>
      <rect>
        0 4 1 5</rect></_>
    <_>
      <rect>
        0 4 2 4</rect></_>
    <_>
      <rect>
        0 4 3 2</rect></_>
    <_>
      <rect>
        0 5 1 4</rect></_>
    <_>
      <rect>
        0 8 1 2</rect></_>
    <_>
      <rect>
        0 8 2 2</rect></_>
    <_>
      <rect>
        0 9 2 4</rect></_>
    <_>
      <rect>
        0 9 3 4</rect></_>
    <_>
      <rect>
        0 10 1 2</rect></_>
    <_>
      <rect>
        0 12 1 3</rect></_>
    <_>
      <rect>
        0 12 2 3</rect></_>
    <_>
      <rect>
        0 13 1 2</rect></_>
    <_>
      <rect>
        0 14 1 2</rect></_>
    <_>
      <rect>
        0 14 2 2</rect></_>
    <_>
      <rect>
        0 15 1 2</rect></_>
    <_>
      <rect>
        0 15 2 2</rect></_>
    <_>
      <rect>
        0 15 3 2</rect></_>
    <_>
      <rect>
        0 18 1 1</rect></_>
    <_>
      <rect>
        1 1 1 2</rect></_>
    <_>
      <rect>
        1 2 2 1</rect></_>
    <_>
      <rect>
        1 3 1 2</rect></_>
    <_>
      <rect>
        1 4 1 5</rect></_>
    <_>
      <rect>
        1 8 2 2</rect></_>
    <_>
      <rect>
        1 9 2 1</rect></_>
    <_>
      <rect>
        1 9 2 3</rect></_>
    <_>
      <rect>
        1 10 2 2</rect></_>
    <_>
      <rect>
        1 12 1 3</rect></_>
    <_>
      <rect>
        1 12 2 1</rect></_>
    <_>
      <rect>
        1 14 2 1</rect></_>
    <_>
      <rect>
        1 15 1 1</rect></_>
    <_>
      <rect>
        1 15 1 2</rect></_>
    <_>
      <rect>
        2 0 1 1</rect></_>
    <_>
      <rect>
        2 0 2 1</rect></_>
    <_>
      <rect>
        2 0 2 2</rect></_>
    <_>
      <rect>
        2 1 1 6</rect></_>
    <_>
      <rect>
        2 1 2 1</rect></_>
    <_>
      <rect>
        2 2 1 2</rect></_>
    <_>
      <rect>
        2 3 1 1</rect></_>
    <_>
      <rect>
        2 4 1 2</rect></_>
    <_>
      <rect>
        2 4 2 1</rect></_>
    <_>
      <rect>
        2 4 2 4</rect></_>
    <_>
      <rect>
        2 5 1 5</rect></_>
    <_>
      <rect>
        2 6 2 5</rect></_>
    <_>
      <rect>
        2 7 2 1</rect></_>
    <_>
      <rect>
        2 8 1 2</rect></_>
    <_>
      <rect>
        2 8 2 2</rect></_>
    <_>
      <rect>
        2 9 1 1</rect></_>
    <_>
      <rect>
        2 11 2 2</rect></_>
    <_>
      <rect>
        2 13 1 2</rect></_>
    <_>
      <rect>
        2 15 1 1</rect></_>
    <_>
      <rect>
        2 16 1 1</rect></_>
    <_>
      <rect>
        2 16 2 1</rect></_>
    <_>
      <rect>
        2 17 2 1</rect></_>
    <_>
      <rect>
        2 18 2 1</rect></_>
    <_>
      <rect>
        3 0 2 1</rect></_>
    <_>
      <rect>
        3 0 2 2</rect></_>
    <_>
      <rect>
        3 0 2 6</rect></_>
    <_>
      <rect>
        3 4 2 2</rect></_>
    <_>
      <rect>
        3 5 2 1</rect></_>
    <_>
      <rect>
        3 5 2 2</rect></_>
    <_>
      <rect>
        3 6 1 3</rect></_>
    <_>
      <rect>
        3 6 2 5</rect></_>
    <_>
      <rect>
        3 7 2 1</rect></_>
    <_>
      <rect>
        3 8 2 1</rect></_>
    <_>
      <rect>
        3 8 2 2</rect></_>
    <_>
      <rect>
        3 10 2 2</rect></_>
    <_>
      <rect>
        3 12 2 1</rect></_>
    <_>
      <rect>
        3 13 1 1</rect></_>
    <_>
      <rect>
        3 14 1 1</rect></_>
    <_>
      <rect>
        3 14 2 1</rect></_>
    <_>
      <rect>
        3 14 2 2</rect></_>
    <_>
      <rect>
        3 15 1 1</rect></_>
    <_>
      <rect>
        3 16 1 1</rect></_>
    <_>
      <rect>
        4 0 1 2</rect></_>
    <_>
      <rect>
        4 3 1 1</rect></_>
    <_>
      <rect>
        4 5 1 2</rect></_>
    <_>
      <rect>
        4 11 1 1</rect></_>
    <_>
      <rect>
        4 13 1 1</rect></_>
    <_>
      <rect>
        4 14 1 1</rect></_>
    <_>
      <rect>
        4 17 1 1</rect></_>
    <_>
      <rect>
        4 18 1 1</rect></_>
    <_>
      <rect>
        5 0 1 2</rect></_>
    <_>
      <rect>
        5 1 1 2</rect></_>
    <_>
      <rect>
        5 3 1 2</rect></_>
    <_>
      <rect>
        5 3 1 5</rect></_>
    <_>
      <rect>
        5 6 1 3</rect></_>
    <_>
      <rect>
        5 7 1 2</rect></_>
    <_>
      <rect>
        5 8 1 2</rect></_>
    <_>
      <rect>
        5 11 1 1</rect></_>
    <_>
      <rect>
        5 12 1 2</rect></_>
    <_>
      <rect>
        5 18 1 1</rect></_>
    <_>
      <rect>
        6 0 1 1</rect></_>
    <_>
      <rect>
        6 0 1 2</rect></_>
    <_>
      <rect>
        6 0 1 3</rect></_>
    <_>
      <rect>
        6 0 1 5</rect></_>
    <_>
      <rect>
        6 1 1 2</rect></_>
    <_>
      <rect>
        6 1 1 3</rect></_>
    <_>
      <rect>
        6 3 1 6</rect></_>
    <_>
      <rect>
        6 4 1 4</rect></_>
    <_>
      <rect>
        6 5 1 1</rect></_>
    <_>
      <rect>
        6 5 1 4</rect></_>
    <_>
      <rect>
        6 6 1 3</rect></_>
    <_>
      <rect>
        6 6 1 4</rect></_>
    <_>
      <rect>
        6 6 1 5</rect></_>
    <_>
      <rect>
        6 8 1 2</rect></_>
    <_>
      <rect>
        6 10 1 3</rect></_>
    <_>
      <rect>
        6 12 1 2</rect></_>
    <_>
      <rect>
        6 12 1 3</rect></_>
    <_>
      <rect>
        6 13 1 2</rect></_>
    <_>
      <rect>
        6 14 1 2</rect></_>
    <_>
      <rect>
        6 15 1 2</rect></_></features></cascade>
</opencv_storage>
