<?xml version="1.0"?>
<opencv_storage>
<cascade>
  <stageType>BOOST</stageType>
  <featureType>LBP</featureType>
  <height>35</height>
  <width>14</width>
  <stageParams>
    <boostType>GAB</boostType>
    <minHitRate>9.9000000953674316e-01</minHitRate>
    <maxFalseAlarm>5.0000000000000000e-01</maxFalseAlarm>
    <weightTrimRate>9.4900000095367432e-01</weightTrimRate>
    <maxDepth>1</maxDepth>
    <maxWeakCount>100</maxWeakCount></stageParams>
  <featureParams>
    <maxCatCount>256</maxCatCount>
    <featSize>1</featSize></featureParams>
  <stageNum>20</stageNum>
  <stages>
    <!-- stage 0 -->
    <_>
      <maxWeakCount>2</maxWeakCount>
      <stageThreshold>-5.6882463395595551e-02</stageThreshold>
      <weakClassifiers>
        <_>
          <internalNodes>
            0 -1 3 -134217729 -852001 -1 -21922007 1459058687 2003337219
            1475819383 1467182967</internalNodes>
          <leafValues>
            -8.1352835893630981e-01 8.7115842103958130e-01</leafValues></_>
        <_>
          <internalNodes>
            0 -1 13 -354942977 -529018743 -645802749 -746326029
            1711341831 1073944643 1880044119 -135826569</internalNodes>
          <leafValues>
            -8.5986793041229248e-01 7.5664585828781128e-01</leafValues></_></weakClassifiers></_>
    <!-- stage 1 -->
    <_>
      <maxWeakCount>3</maxWeakCount>
      <stageThreshold>-7.6127302646636963e-01</stageThreshold>
      <weakClassifiers>
        <_>
          <internalNodes>
            0 -1 4 -16842785 -624633669 1392628235 -465276659
            -1047541009 -1072005109 -1067005221 1207920231</internalNodes>
          <leafValues>
            -8.7203299999237061e-01 7.8646117448806763e-01</leafValues></_>
        <_>
          <internalNodes>
            0 -1 73 -268435457 -352387073 -1 -1359020033 -1 -318767105
            -4099 -386138113</internalNodes>
          <leafValues>
            -6.8082666397094727e-01 8.8075059652328491e-01</leafValues></_>
        <_>
          <internalNodes>
            0 -1 9 -254345217 -2951983 -1056842363 -14749201 826362083
            -135868415 1207003851 -145229137</internalNodes>
          <leafValues>
            -7.1002221107482910e-01 7.9158663749694824e-01</leafValues></_></weakClassifiers></_>
    <!-- stage 2 -->
    <_>
      <maxWeakCount>2</maxWeakCount>
      <stageThreshold>-4.6898469328880310e-02</stageThreshold>
      <weakClassifiers>
        <_>
          <internalNodes>
            0 -1 37 -134762770 -67108865 -16408 -1 -1 -1 -1 -9217</internalNodes>
          <leafValues>
            -7.5609755516052246e-01 8.4633708000183105e-01</leafValues></_>
        <_>
          <internalNodes>
            0 -1 6 1870657023 -225521571 -247385639 -169940017 243335895
            -1291681598 -16001001 -76027801</internalNodes>
          <leafValues>
            -7.3399788141250610e-01 7.0919907093048096e-01</leafValues></_></weakClassifiers></_>
    <!-- stage 3 -->
    <_>
      <maxWeakCount>2</maxWeakCount>
      <stageThreshold>-2.5272602215409279e-02</stageThreshold>
      <weakClassifiers>
        <_>
          <internalNodes>
            0 -1 39 -33570849 -48917153 -1719333958 -618855414
            -662003009 -98369142 -106493014 -67401046</internalNodes>
          <leafValues>
            -6.7932486534118652e-01 8.6758273839950562e-01</leafValues></_>
        <_>
          <internalNodes>
            0 -1 62 -134217731 -1151614653 -536756095 -1278218213
            -557592371 -628965120 -268183159 4585845</internalNodes>
          <leafValues>
            -8.5288918018341064e-01 6.5405231714248657e-01</leafValues></_></weakClassifiers></_>
    <!-- stage 4 -->
    <_>
      <maxWeakCount>3</maxWeakCount>
      <stageThreshold>-6.2420862913131714e-01</stageThreshold>
      <weakClassifiers>
        <_>
          <internalNodes>
            0 -1 12 -285212673 -83886081 -69682 -1 1719007095 -1
            -537428105 -16777345</internalNodes>
          <leafValues>
            -6.4930558204650879e-01 8.1517750024795532e-01</leafValues></_>
        <_>
          <internalNodes>
            0 -1 43 -1963524129 -392376117 -721305391 -652748475
            2038948591 -74923392 -133563765 -4216293</internalNodes>
          <leafValues>
            -6.7487365007400513e-01 7.2453916072845459e-01</leafValues></_>
        <_>
          <internalNodes>
            0 -1 63 2044722037 869781783 285331919 1100190471 -949247181
            1947435523 -339547441 -458228833</internalNodes>
          <leafValues>
            -6.4799231290817261e-01 6.9997060298919678e-01</leafValues></_></weakClassifiers></_>
    <!-- stage 5 -->
    <_>
      <maxWeakCount>4</maxWeakCount>
      <stageThreshold>-2.9650533199310303e-01</stageThreshold>
      <weakClassifiers>
        <_>
          <internalNodes>
            0 -1 75 -6326409 6815555 -1068903937 16580607 -1 1438875903
            -85 -286263297</internalNodes>
          <leafValues>
            -7.5098037719726562e-01 7.6443940401077271e-01</leafValues></_>
        <_>
          <internalNodes>
            0 -1 40 -1476659713 -107802437 -1320593953 -6295535
            -133981797 -1417494396 -477377543 -1665368040</internalNodes>
          <leafValues>
            -6.8101006746292114e-01 7.2957348823547363e-01</leafValues></_>
        <_>
          <internalNodes>
            0 -1 34 -137150514 1507315827 -1341339182 -246034086
            164167919 1526858114 -645008642 -570426854</internalNodes>
          <leafValues>
            -7.8585827350616455e-01 6.2458938360214233e-01</leafValues></_>
        <_>
          <internalNodes>
            0 -1 11 -1386903553 -102903725 -1861680673 -70975090
            1107849207 -6717160 -1064821255 1998007095</internalNodes>
          <leafValues>
            -7.9175525903701782e-01 5.1089578866958618e-01</leafValues></_></weakClassifiers></_>
    <!-- stage 6 -->
    <_>
      <maxWeakCount>3</maxWeakCount>
      <stageThreshold>-6.5313529968261719e-01</stageThreshold>
      <weakClassifiers>
        <_>
          <internalNodes>
            0 -1 48 -638586524 351796471 -513 -131073 -7340033
            1560281087 -524289 -120586241</internalNodes>
          <leafValues>
            -6.7863893508911133e-01 7.5347220897674561e-01</leafValues></_>
        <_>
          <internalNodes>
            0 -1 1 -740310017 -486039421 -1056714721 -268451124
            -558642453 -292648350 -125570985 -2885024</internalNodes>
          <leafValues>
            -6.2753415107727051e-01 6.7957884073257446e-01</leafValues></_>
        <_>
          <internalNodes>
            0 -1 61 -139 1073643519 -1 -32769 -8388748 -1216348169 -1
            -1207959553</internalNodes>
          <leafValues>
            -6.0183662176132202e-01 6.5303778648376465e-01</leafValues></_></weakClassifiers></_>
    <!-- stage 7 -->
    <_>
      <maxWeakCount>4</maxWeakCount>
      <stageThreshold>-1.3391956090927124e+00</stageThreshold>
      <weakClassifiers>
        <_>
          <internalNodes>
            0 -1 56 -639682593 -4071433 -24577 -1 -1073758209 -32769
            -1075112168 -3425284</internalNodes>
          <leafValues>
            -6.5619224309921265e-01 7.5938969850540161e-01</leafValues></_>
        <_>
          <internalNodes>
            0 -1 17 -286064646 -524289 -65537 -67108865 2146566142
            -268632066 -134217729 -533529</internalNodes>
          <leafValues>
            -6.2819862365722656e-01 7.0063871145248413e-01</leafValues></_>
        <_>
          <internalNodes>
            0 -1 72 -212861963 -2146963189 1770049809 8568839
            -1606039927 -1069383550 -524103525 -389286211</internalNodes>
          <leafValues>
            -6.3207030296325684e-01 6.7779070138931274e-01</leafValues></_>
        <_>
          <internalNodes>
            0 -1 20 -486604834 -220949735 1392595409 -578285305
            882714863 -628981628 -935024598 -611629045</internalNodes>
          <leafValues>
            -7.5157177448272705e-01 5.0467687845230103e-01</leafValues></_></weakClassifiers></_>
    <!-- stage 8 -->
    <_>
      <maxWeakCount>4</maxWeakCount>
      <stageThreshold>-3.4191957116127014e-01</stageThreshold>
      <weakClassifiers>
        <_>
          <internalNodes>
            0 -1 50 -1126237441 -1659730941 -259989217 -1747545582
            -754742453 -1299986296 -859330165 -73732434</internalNodes>
          <leafValues>
            -7.2310966253280640e-01 6.8381160497665405e-01</leafValues></_>
        <_>
          <internalNodes>
            0 -1 27 -69228546 -14995297 -1860468615 1918060962
            -229517069 -1230392645 -770981637 855096315</internalNodes>
          <leafValues>
            -7.8215074539184570e-01 5.6985974311828613e-01</leafValues></_>
        <_>
          <internalNodes>
            0 -1 59 2146957063 894404803 -620734177 -1220325021
            -1064570125 -729186112 -636755270 -91235633</internalNodes>
          <leafValues>
            -6.3534057140350342e-01 6.4717555046081543e-01</leafValues></_>
        <_>
          <internalNodes>
            0 -1 66 -78907787 1879621763 -2147467133 352686089
            -905428351 1611284610 -2013257717 180347919</internalNodes>
          <leafValues>
            -8.0304664373397827e-01 5.1616531610488892e-01</leafValues></_></weakClassifiers></_>
    <!-- stage 9 -->
    <_>
      <maxWeakCount>4</maxWeakCount>
      <stageThreshold>-1.2416738271713257e+00</stageThreshold>
      <weakClassifiers>
        <_>
          <internalNodes>
            0 -1 68 -69206017 -1791 -1 1527497763 -369 -1 -100663297
            1879113531</internalNodes>
          <leafValues>
            -6.5391969680786133e-01 7.2873562574386597e-01</leafValues></_>
        <_>
          <internalNodes>
            0 -1 7 -302002705 -268439681 -65 -268439633 2147442551 -129
            2097108343 -8393</internalNodes>
          <leafValues>
            -6.0773408412933350e-01 6.2211257219314575e-01</leafValues></_>
        <_>
          <internalNodes>
            0 -1 36 -681071201 -237121135 -1861189153 2109734958
            -792567557 -1207336824 -1131922753 1507789094</internalNodes>
          <leafValues>
            -6.2814390659332275e-01 5.9239357709884644e-01</leafValues></_>
        <_>
          <internalNodes>
            0 -1 64 -674275001 1473335495 -1073706942 1606910089
            -1543143291 2021722312 -591167285 177062342</internalNodes>
          <leafValues>
            -7.3453146219253540e-01 4.4669750332832336e-01</leafValues></_></weakClassifiers></_>
    <!-- stage 10 -->
    <_>
      <maxWeakCount>4</maxWeakCount>
      <stageThreshold>-3.7396171689033508e-01</stageThreshold>
      <weakClassifiers>
        <_>
          <internalNodes>
            0 -1 46 -28481 -49153 -16385 -1090535489 -65 -1073741825
            445644735 -1400111096</internalNodes>
          <leafValues>
            -6.5510201454162598e-01 6.7884826660156250e-01</leafValues></_>
        <_>
          <internalNodes>
            0 -1 22 -1688217185 -87603501 1074806857 280645789 950755579
            562669710 -2137278069 1471150779</internalNodes>
          <leafValues>
            -7.6816475391387939e-01 4.9711677432060242e-01</leafValues></_>
        <_>
          <internalNodes>
            0 -1 33 -1048577 -65537 -16777473 -143606850 -16842753
            -33620097 -168001537 -15532425</internalNodes>
          <leafValues>
            -5.3793722391128540e-01 6.1800926923751831e-01</leafValues></_>
        <_>
          <internalNodes>
            0 -1 44 -500137298 -1072672687 -805219953 -766439275
            286261675 -1702363007 1377872123 -73160697</internalNodes>
          <leafValues>
            -8.1171131134033203e-01 4.3129575252532959e-01</leafValues></_></weakClassifiers></_>
    <!-- stage 11 -->
    <_>
      <maxWeakCount>5</maxWeakCount>
      <stageThreshold>-1.0984356403350830e+00</stageThreshold>
      <weakClassifiers>
        <_>
          <internalNodes>
            0 -1 71 -9 -453246977 -1 -453050369 -134283273 -167905289
            -33554945 -184549377</internalNodes>
          <leafValues>
            -6.5056526660919189e-01 6.7126309871673584e-01</leafValues></_>
        <_>
          <internalNodes>
            0 -1 16 -37565825 -779370360 131207 -548958205 -930570853
            -939491197 -1710356343 -146283933</internalNodes>
          <leafValues>
            -5.6199049949645996e-01 6.0623246431350708e-01</leafValues></_>
        <_>
          <internalNodes>
            0 -1 19 -487391266 -698740603 -1786654667 -141553325
            1938899843 -1031495656 998400143 -7408913</internalNodes>
          <leafValues>
            -7.1874731779098511e-01 4.4502618908882141e-01</leafValues></_>
        <_>
          <internalNodes>
            0 -1 23 -766905921 -1853669375 285233280 -1005956985
            1888034836 944251147 -1602140495 -128152887</internalNodes>
          <leafValues>
            -7.0358341932296753e-01 4.4525358080863953e-01</leafValues></_>
        <_>
          <internalNodes>
            0 -1 49 -708377217 -1718513464 168079389 -682556973
            -805259798 -1459584960 -805139489 841554052</internalNodes>
          <leafValues>
            -7.4520713090896606e-01 3.6822786927223206e-01</leafValues></_></weakClassifiers></_>
    <!-- stage 12 -->
    <_>
      <maxWeakCount>4</maxWeakCount>
      <stageThreshold>-4.1627177596092224e-01</stageThreshold>
      <weakClassifiers>
        <_>
          <internalNodes>
            0 -1 10 -1897928709 -783048685 1343291848 1971409033
            1078448695 -1040187382 1124319351 -74450033</internalNodes>
          <leafValues>
            -6.6704159975051880e-01 6.2045335769653320e-01</leafValues></_>
        <_>
          <internalNodes>
            0 -1 65 -674237083 927416389 -1073684471 520736897
            -913577780 1586143232 -452231029 -856714277</internalNodes>
          <leafValues>
            -6.9827783107757568e-01 5.2029806375503540e-01</leafValues></_>
        <_>
          <internalNodes>
            0 -1 25 -1023151653 -788459453 -788442913 -283705145
            -1476355925 -116260735 -1977253695 -1990393703</internalNodes>
          <leafValues>
            -5.6319767236709595e-01 5.4525345563888550e-01</leafValues></_>
        <_>
          <internalNodes>
            0 -1 30 -203454066 -1618751279 1359008192 1102164
            -1582284678 -85456703 -1065303864 468807814</internalNodes>
          <leafValues>
            -8.0140674114227295e-01 4.0379419922828674e-01</leafValues></_></weakClassifiers></_>
    <!-- stage 13 -->
    <_>
      <maxWeakCount>5</maxWeakCount>
      <stageThreshold>-1.1850535869598389e+00</stageThreshold>
      <weakClassifiers>
        <_>
          <internalNodes>
            0 -1 47 -649870337 -14972067 -503308105 -1659436981
            -922496375 -1995562869 -629110535 283766509</internalNodes>
          <leafValues>
            -6.7346936464309692e-01 5.8627754449844360e-01</leafValues></_>
        <_>
          <internalNodes>
            0 -1 67 -574357989 1942716447 -1862270951 -175423485
            -2088567933 1368031392 -1288797823 2005633755</internalNodes>
          <leafValues>
            -7.4896633625030518e-01 4.6434414386749268e-01</leafValues></_>
        <_>
          <internalNodes>
            0 -1 5 -384581433 -44085237 268521495 -812576745 -1475821414
            -1719107574 134236363 2106805106</internalNodes>
          <leafValues>
            -6.5476602315902710e-01 4.9879267811775208e-01</leafValues></_>
        <_>
          <internalNodes>
            0 -1 38 -2132896801 354045955 1350653971 193597495
            1100087562 1084981376 -1073442613 -4531750</internalNodes>
          <leafValues>
            -7.9300820827484131e-01 3.3752012252807617e-01</leafValues></_>
        <_>
          <internalNodes>
            0 -1 29 -776359745 226562064 85049557 1561428060 -929953158
            731938952 -671034977 245091306</internalNodes>
          <leafValues>
            -7.0511883497238159e-01 3.6044129729270935e-01</leafValues></_></weakClassifiers></_>
    <!-- stage 14 -->
    <_>
      <maxWeakCount>4</maxWeakCount>
      <stageThreshold>-2.2508712112903595e-01</stageThreshold>
      <weakClassifiers>
        <_>
          <internalNodes>
            0 -1 14 2147430395 -2029 -53261 -16654 1879015295
            -1342177281 -1570677 -8423562</internalNodes>
          <leafValues>
            -4.3807148933410645e-01 7.0183193683624268e-01</leafValues></_>
        <_>
          <internalNodes>
            0 -1 54 -245916385 291053781 -1879027297 -1316366948
            -2012696449 -398262134 -1744774933 -338984801</internalNodes>
          <leafValues>
            -6.0962498188018799e-01 5.2358824014663696e-01</leafValues></_>
        <_>
          <internalNodes>
            0 -1 52 -538979017 2138275931 16990683 327237715 -1043814743
            -242302838 -652037219 -125961416</internalNodes>
          <leafValues>
            -6.0796034336090088e-01 5.0534784793853760e-01</leafValues></_>
        <_>
          <internalNodes>
            0 -1 28 -228592242 -642056138 16810000 319393819 1502236859
            2050723888 -1072130826 1623096050</internalNodes>
          <leafValues>
            -8.1595170497894287e-01 3.3647415041923523e-01</leafValues></_></weakClassifiers></_>
    <!-- stage 15 -->
    <_>
      <maxWeakCount>5</maxWeakCount>
      <stageThreshold>-8.4521651268005371e-01</stageThreshold>
      <weakClassifiers>
        <_>
          <internalNodes>
            0 -1 2 -272120113 1609400317 131103 -276824135 -142606337 -1
            -1031929993 -259527817</internalNodes>
          <leafValues>
            -5.4953271150588989e-01 6.8298369646072388e-01</leafValues></_>
        <_>
          <internalNodes>
            0 -1 45 1136724125 -217022463 -2062515912 -708374184
            -2143047493 -1853357952 -871888780 -70821758</internalNodes>
          <leafValues>
            -6.1859774589538574e-01 5.5583524703979492e-01</leafValues></_>
        <_>
          <internalNodes>
            0 -1 53 -783815673 -1051606907 -1073688555 1909555587
            -2142616325 -1073708928 -788528936 2139847160</internalNodes>
          <leafValues>
            -6.4229941368103027e-01 4.8661297559738159e-01</leafValues></_>
        <_>
          <internalNodes>
            0 -1 58 660544883 1132789793 -889155577 1771258116
            2026406019 -1073592190 -1056289141 -7372765</internalNodes>
          <leafValues>
            -6.7215538024902344e-01 4.7578817605972290e-01</leafValues></_>
        <_>
          <internalNodes>
            0 -1 26 -788426365 -582680255 5531 -1761243117 -2146957153
            -1962933688 -905868911 -2079741046</internalNodes>
          <leafValues>
            -6.0437959432601929e-01 4.8942521214485168e-01</leafValues></_></weakClassifiers></_>
    <!-- stage 16 -->
    <_>
      <maxWeakCount>4</maxWeakCount>
      <stageThreshold>-3.9158162474632263e-01</stageThreshold>
      <weakClassifiers>
        <_>
          <internalNodes>
            0 -1 15 -1375731841 -65 -129 -3 -1 -1 2130706431 1112012134</internalNodes>
          <leafValues>
            -5.5620723962783813e-01 6.5399885177612305e-01</leafValues></_>
        <_>
          <internalNodes>
            0 -1 55 -242806371 -788332534 1077968979 -184401917
            -1610166053 -931069814 -771553224 -5248848</internalNodes>
          <leafValues>
            -7.3297566175460815e-01 4.7376385331153870e-01</leafValues></_>
        <_>
          <internalNodes>
            0 -1 69 -181669787 1963040802 65537 -364838895 -2130411392
            -662503296 -1610579832 -460592213</internalNodes>
          <leafValues>
            -6.5520262718200684e-01 4.7196573019027710e-01</leafValues></_>
        <_>
          <internalNodes>
            0 -1 57 -1859923091 -746388927 147457 -888995741 67174537
            -2013134821 277582984 -396305740</internalNodes>
          <leafValues>
            -7.2455883026123047e-01 4.2563551664352417e-01</leafValues></_></weakClassifiers></_>
    <!-- stage 17 -->
    <_>
      <maxWeakCount>6</maxWeakCount>
      <stageThreshold>-6.5781563520431519e-01</stageThreshold>
      <weakClassifiers>
        <_>
          <internalNodes>
            0 -1 74 -134776961 1132461943 -1 -520093953 -134217729
            -1208483841 -1090519041 -1061158913</internalNodes>
          <leafValues>
            -4.4903117418289185e-01 6.9856160879135132e-01</leafValues></_>
        <_>
          <internalNodes>
            0 -1 35 1451432183 -1713864685 285282525 403783698 813724842
            1786776196 -938925061 186589934</internalNodes>
          <leafValues>
            -6.8687665462493896e-01 4.6504637598991394e-01</leafValues></_>
        <_>
          <internalNodes>
            0 -1 24 -801062829 -585957308 1073938457 -33218279
            -2138529781 1518864392 -2004836214 2005631130</internalNodes>
          <leafValues>
            -6.3319575786590576e-01 4.3281865119934082e-01</leafValues></_>
        <_>
          <internalNodes>
            0 -1 42 -1789980421 -786235389 1342312529 -1321205424
            1342587081 50921472 -1879015413 991037646</internalNodes>
          <leafValues>
            -7.2781085968017578e-01 3.8813859224319458e-01</leafValues></_>
        <_>
          <internalNodes>
            0 -1 70 -1877880361 -753692655 286281817 2013266055
            -1841266261 -1610481664 -1467899477 -1332170081</internalNodes>
          <leafValues>
            -6.6527694463729858e-01 3.9106568694114685e-01</leafValues></_>
        <_>
          <internalNodes>
            0 -1 77 30374399 957415552 268435714 419610627 -2013050747
            143196288 262821 1938467169</internalNodes>
          <leafValues>
            -7.6324290037155151e-01 3.3208364248275757e-01</leafValues></_></weakClassifiers></_>
    <!-- stage 18 -->
    <_>
      <maxWeakCount>5</maxWeakCount>
      <stageThreshold>-9.3366527557373047e-01</stageThreshold>
      <weakClassifiers>
        <_>
          <internalNodes>
            0 -1 18 1347145611 151232515 33025 -1944743935 1107914891
            679559176 -922736246 1934095755</internalNodes>
          <leafValues>
            -5.9615385532379150e-01 6.1729729175567627e-01</leafValues></_>
        <_>
          <internalNodes>
            0 -1 51 -775708641 -251162557 1074020683 -721059821
            -2147450229 -2105114622 -1068791605 -74480840</internalNodes>
          <leafValues>
            -4.9520191550254822e-01 6.4701414108276367e-01</leafValues></_>
        <_>
          <internalNodes>
            0 -1 76 -716451465 1145536521 1342177281 -935100021
            1074364546 -2139095032 -2010611584 -787758453</internalNodes>
          <leafValues>
            -6.3317757844924927e-01 4.7115904092788696e-01</leafValues></_>
        <_>
          <internalNodes>
            0 -1 60 1637306847 960806976 32800 -687407040 -1073214487
            -2130017271 134891696 1099745423</internalNodes>
          <leafValues>
            -6.8720644712448120e-01 3.9502826333045959e-01</leafValues></_>
        <_>
          <internalNodes>
            0 -1 21 -520042029 -1073739776 -1862254528 -1727856640
            537407528 402653312 8454218 -1702117239</internalNodes>
          <leafValues>
            -7.3396795988082886e-01 3.7373796105384827e-01</leafValues></_></weakClassifiers></_>
    <!-- stage 19 -->
    <_>
      <maxWeakCount>5</maxWeakCount>
      <stageThreshold>-9.6093147993087769e-01</stageThreshold>
      <weakClassifiers>
        <_>
          <internalNodes>
            0 -1 8 -762358837 -654178047 268468225 -721354752 1942059019
            1124075520 1586131115 -886574333</internalNodes>
          <leafValues>
            -6.6588783264160156e-01 5.9792745113372803e-01</leafValues></_>
        <_>
          <internalNodes>
            0 -1 31 -335031405 -267255807 1073747025 -176078847 688266
            655368 1241516173 -888528246</internalNodes>
          <leafValues>
            -6.7912095785140991e-01 4.8023119568824768e-01</leafValues></_>
        <_>
          <internalNodes>
            0 -1 0 -804142625 -787939324 -2147397613 -2130706304
            -2138339175 -1602154493 -2013230875 -292577055</internalNodes>
          <leafValues>
            -6.3865512609481812e-01 4.7967222332954407e-01</leafValues></_>
        <_>
          <internalNodes>
            0 -1 41 -330571305 -2147418096 -788479679 1174474933
            134897666 1208025088 318820378 -854943333</internalNodes>
          <leafValues>
            -6.2286061048507690e-01 4.7384393215179443e-01</leafValues></_>
        <_>
          <internalNodes>
            0 -1 32 -518929641 -788461567 285298689 352358400
            -2147303424 16809984 -1329340415 -1161134405</internalNodes>
          <leafValues>
            -5.6943881511688232e-01 4.6413767337799072e-01</leafValues></_></weakClassifiers></_></stages>
  <features>
    <_>
      <rect>
        0 0 1 1</rect></_>
    <_>
      <rect>
        0 0 1 2</rect></_>
    <_>
      <rect>
        0 0 1 4</rect></_>
    <_>
      <rect>
        0 0 2 11</rect></_>
    <_>
      <rect>
        0 0 3 7</rect></_>
    <_>
      <rect>
        0 0 4 3</rect></_>
    <_>
      <rect>
        0 4 2 3</rect></_>
    <_>
      <rect>
        0 5 1 10</rect></_>
    <_>
      <rect>
        0 10 2 6</rect></_>
    <_>
      <rect>
        0 12 3 4</rect></_>
    <_>
      <rect>
        0 20 1 4</rect></_>
    <_>
      <rect>
        0 20 4 2</rect></_>
    <_>
      <rect>
        0 21 1 4</rect></_>
    <_>
      <rect>
        0 23 2 3</rect></_>
    <_>
      <rect>
        0 32 4 1</rect></_>
    <_>
      <rect>
        1 0 1 3</rect></_>
    <_>
      <rect>
        1 0 1 5</rect></_>
    <_>
      <rect>
        1 1 3 4</rect></_>
    <_>
      <rect>
        1 6 2 7</rect></_>
    <_>
      <rect>
        1 14 3 3</rect></_>
    <_>
      <rect>
        1 23 3 3</rect></_>
    <_>
      <rect>
        1 24 2 1</rect></_>
    <_>
      <rect>
        1 28 2 2</rect></_>
    <_>
      <rect>
        1 29 1 2</rect></_>
    <_>
      <rect>
        1 29 2 1</rect></_>
    <_>
      <rect>
        2 0 2 1</rect></_>
    <_>
      <rect>
        2 0 4 2</rect></_>
    <_>
      <rect>
        2 0 4 6</rect></_>
    <_>
      <rect>
        2 3 4 9</rect></_>
    <_>
      <rect>
        2 11 4 2</rect></_>
    <_>
      <rect>
        2 13 4 7</rect></_>
    <_>
      <rect>
        2 24 2 2</rect></_>
    <_>
      <rect>
        3 2 2 9</rect></_>
    <_>
      <rect>
        3 7 2 2</rect></_>
    <_>
      <rect>
        3 9 3 6</rect></_>
    <_>
      <rect>
        3 10 3 2</rect></_>
    <_>
      <rect>
        3 20 3 2</rect></_>
    <_>
      <rect>
        3 23 3 4</rect></_>
    <_>
      <rect>
        3 26 2 3</rect></_>
    <_>
      <rect>
        3 29 3 2</rect></_>
    <_>
      <rect>
        4 0 1 1</rect></_>
    <_>
      <rect>
        4 16 1 1</rect></_>
    <_>
      <rect>
        4 19 2 2</rect></_>
    <_>
      <rect>
        4 24 1 2</rect></_>
    <_>
      <rect>
        4 25 2 1</rect></_>
    <_>
      <rect>
        4 32 3 1</rect></_>
    <_>
      <rect>
        5 0 2 1</rect></_>
    <_>
      <rect>
        5 6 3 3</rect></_>
    <_>
      <rect>
        5 12 3 4</rect></_>
    <_>
      <rect>
        5 21 2 2</rect></_>
    <_>
      <rect>
        5 25 1 3</rect></_>
    <_>
      <rect>
        6 0 2 3</rect></_>
    <_>
      <rect>
        6 3 2 2</rect></_>
    <_>
      <rect>
        6 3 2 9</rect></_>
    <_>
      <rect>
        6 24 2 1</rect></_>
    <_>
      <rect>
        6 28 2 2</rect></_>
    <_>
      <rect>
        6 29 2 2</rect></_>
    <_>
      <rect>
        7 6 1 2</rect></_>
    <_>
      <rect>
        7 13 1 2</rect></_>
    <_>
      <rect>
        7 14 2 2</rect></_>
    <_>
      <rect>
        7 18 2 2</rect></_>
    <_>
      <rect>
        7 24 2 2</rect></_>
    <_>
      <rect>
        8 0 2 8</rect></_>
    <_>
      <rect>
        8 2 2 3</rect></_>
    <_>
      <rect>
        8 8 2 9</rect></_>
    <_>
      <rect>
        8 9 2 6</rect></_>
    <_>
      <rect>
        8 20 2 5</rect></_>
    <_>
      <rect>
        8 26 2 2</rect></_>
    <_>
      <rect>
        10 0 1 2</rect></_>
    <_>
      <rect>
        10 3 1 3</rect></_>
    <_>
      <rect>
        11 0 1 1</rect></_>
    <_>
      <rect>
        11 5 1 2</rect></_>
    <_>
      <rect>
        11 6 1 8</rect></_>
    <_>
      <rect>
        11 7 1 3</rect></_>
    <_>
      <rect>
        11 7 1 6</rect></_>
    <_>
      <rect>
        11 22 1 3</rect></_>
    <_>
      <rect>
        11 25 1 2</rect></_>
    <_>
      <rect>
        11 29 1 2</rect></_></features></cascade>
</opencv_storage>
