<?xml version="1.0"?>
<opencv_storage>
<cascade>
  <stageType>BOOST</stageType>
  <featureType>LBP</featureType>
  <height>21</height>
  <width>9</width>
  <stageParams>
    <boostType>GAB</boostType>
    <minHitRate>9.9000000953674316e-01</minHitRate>
    <maxFalseAlarm>5.0000000000000000e-01</maxFalseAlarm>
    <weightTrimRate>9.4900000095367432e-01</weightTrimRate>
    <maxDepth>1</maxDepth>
    <maxWeakCount>100</maxWeakCount></stageParams>
  <featureParams>
    <maxCatCount>256</maxCatCount>
    <featSize>1</featSize></featureParams>
  <stageNum>25</stageNum>
  <stages>
    <!-- stage 0 -->
    <_>
      <maxWeakCount>2</maxWeakCount>
      <stageThreshold>-4.5629736036062241e-02</stageThreshold>
      <weakClassifiers>
        <_>
          <internalNodes>
            0 -1 12 -16777217 -1 -268435473 -1 1199011671 -134217857
            2004844291 -137</internalNodes>
          <leafValues>
            -8.2226055860519409e-01 9.4863015413284302e-01</leafValues></_>
        <_>
          <internalNodes>
            0 -1 7 -538968066 -754195582 -1727802558 1728790986
            -783170934 8544384 1957251326 2012953375</internalNodes>
          <leafValues>
            -9.1540944576263428e-01 7.7663081884384155e-01</leafValues></_></weakClassifiers></_>
    <!-- stage 1 -->
    <_>
      <maxWeakCount>3</maxWeakCount>
      <stageThreshold>-6.4797425270080566e-01</stageThreshold>
      <weakClassifiers>
        <_>
          <internalNodes>
            0 -1 8 -268435457 -17 -17 -209 2004317975 2147450645
            -134776969 -143130761</internalNodes>
          <leafValues>
            -8.1946903467178345e-01 9.1802358627319336e-01</leafValues></_>
        <_>
          <internalNodes>
            0 -1 79 -167774745 7733111 -1042 553648127 -17 2097151999
            -16781572 -520093697</internalNodes>
          <leafValues>
            -6.5871798992156982e-01 8.9846312999725342e-01</leafValues></_>
        <_>
          <internalNodes>
            0 -1 21 -67108866 -33558529 -23566 -1157 2147424255
            1073707007 2147434423 -32769</internalNodes>
          <leafValues>
            -7.5204271078109741e-01 8.3021277189254761e-01</leafValues></_></weakClassifiers></_>
    <!-- stage 2 -->
    <_>
      <maxWeakCount>2</maxWeakCount>
      <stageThreshold>-1.0035774856805801e-01</stageThreshold>
      <weakClassifiers>
        <_>
          <internalNodes>
            0 -1 73 -2097161 -2092703679 -1073229631 250371 -1031421813
            -528359392 -997466034 15725043</internalNodes>
          <leafValues>
            -8.5230767726898193e-01 7.9545456171035767e-01</leafValues></_>
        <_>
          <internalNodes>
            0 -1 15 -757923854 -238710689 -750932993 -2111141
            -1866409225 1974501529 -276191041 -134222417</internalNodes>
          <leafValues>
            -7.6609432697296143e-01 7.5194996595382690e-01</leafValues></_></weakClassifiers></_>
    <!-- stage 3 -->
    <_>
      <maxWeakCount>2</maxWeakCount>
      <stageThreshold>-1.8326573073863983e-01</stageThreshold>
      <weakClassifiers>
        <_>
          <internalNodes>
            0 -1 20 -48824321 -77688817 1373240831 -1114065741
            1921604315 873677193 -87298325 2001972959</internalNodes>
          <leafValues>
            -8.8340806961059570e-01 7.4145615100860596e-01</leafValues></_>
        <_>
          <internalNodes>
            0 -1 71 -168559115 -40637489 1631831312 -643737201
            -373036599 -267386669 -95420479 -2133342729</internalNodes>
          <leafValues>
            -7.9689604043960571e-01 7.0014232397079468e-01</leafValues></_></weakClassifiers></_>
    <!-- stage 4 -->
    <_>
      <maxWeakCount>3</maxWeakCount>
      <stageThreshold>-6.5925937891006470e-01</stageThreshold>
      <weakClassifiers>
        <_>
          <internalNodes>
            0 -1 50 -1360089202 -16797697 -4210689 -4097 -1 -1 -8388609
            -53249</internalNodes>
          <leafValues>
            -6.7590987682342529e-01 8.4746730327606201e-01</leafValues></_>
        <_>
          <internalNodes>
            0 -1 2 -5574673 -186988337 -1073118769 -74594005 -641618689
            -2138197361 -620697369 -143131785</internalNodes>
          <leafValues>
            -7.0442348718643188e-01 7.7297002077102661e-01</leafValues></_>
        <_>
          <internalNodes>
            0 -1 77 -262145115 15065099 -1065303674 542892167 -783695729
            1510706371 -267926838 -526385350</internalNodes>
          <leafValues>
            -7.5631952285766602e-01 7.2503560781478882e-01</leafValues></_></weakClassifiers></_>
    <!-- stage 5 -->
    <_>
      <maxWeakCount>4</maxWeakCount>
      <stageThreshold>-2.3853403329849243e-01</stageThreshold>
      <weakClassifiers>
        <_>
          <internalNodes>
            0 -1 32 -20689 -17 -1 -16465 -20561 -20497 -16449 -322130008</internalNodes>
          <leafValues>
            -7.4218750000000000e-01 7.7848434448242188e-01</leafValues></_>
        <_>
          <internalNodes>
            0 -1 44 1028861341 -572974951 -1794046950 -12644100
            -1299596805 -91455360 -1718801988 -61910</internalNodes>
          <leafValues>
            -7.1382033824920654e-01 6.9489586353302002e-01</leafValues></_>
        <_>
          <internalNodes>
            0 -1 16 -1903165793 -677953297 -1874800177 -704658351
            1986671203 1661536265 -1008864921 -6293765</internalNodes>
          <leafValues>
            -7.4447220563888550e-01 6.3514554500579834e-01</leafValues></_>
        <_>
          <internalNodes>
            0 -1 47 210250250 -1001256557 -846150832 -573591075
            -1862090733 42762310 -363865157 -5248273</internalNodes>
          <leafValues>
            -7.8606617450714111e-01 5.8232825994491577e-01</leafValues></_></weakClassifiers></_>
    <!-- stage 6 -->
    <_>
      <maxWeakCount>3</maxWeakCount>
      <stageThreshold>-6.8289649486541748e-01</stageThreshold>
      <weakClassifiers>
        <_>
          <internalNodes>
            0 -1 76 -168300057 1083171219 1342178239 551023151 -23345
            2013265911 -225714038 -452986117</internalNodes>
          <leafValues>
            -6.7472118139266968e-01 7.8201633691787720e-01</leafValues></_>
        <_>
          <internalNodes>
            0 -1 40 -100820562 -1244827245 -788475394 -141327939
            -258311941 -1316449838 -627002629 -68168773</internalNodes>
          <leafValues>
            -7.1957242488861084e-01 6.7775130271911621e-01</leafValues></_>
        <_>
          <internalNodes>
            0 -1 0 -4194307 -1048649 -1 -1073774700 -1 -9 -5 -1780013131</internalNodes>
          <leafValues>
            -6.4816623926162720e-01 7.1139717102050781e-01</leafValues></_></weakClassifiers></_>
    <!-- stage 7 -->
    <_>
      <maxWeakCount>4</maxWeakCount>
      <stageThreshold>-4.0450632572174072e-01</stageThreshold>
      <weakClassifiers>
        <_>
          <internalNodes>
            0 -1 82 -67118081 534233115 -1711192062 668590799 -660905307
            42197248 -213228548 2142231771</internalNodes>
          <leafValues>
            -7.3876696825027466e-01 7.2466737031936646e-01</leafValues></_>
        <_>
          <internalNodes>
            0 -1 13 -106954833 -78937639 -1049505149 -642328316
            1879499271 1107722240 -1025249693 -7348209</internalNodes>
          <leafValues>
            -8.1045091152191162e-01 5.7281923294067383e-01</leafValues></_>
        <_>
          <internalNodes>
            0 -1 61 -178703872 -111869679 4773055 1977340033 -326586249
            -1576927004 -511536197 -292645</internalNodes>
          <leafValues>
            -7.2013467550277710e-01 5.5490463972091675e-01</leafValues></_>
        <_>
          <internalNodes>
            0 -1 24 -1657682503 -644677263 1073942943 -547372775
            -1206865761 -1385590632 -1358198549 260915524</internalNodes>
          <leafValues>
            -6.7709475755691528e-01 5.8980691432952881e-01</leafValues></_></weakClassifiers></_>
    <!-- stage 8 -->
    <_>
      <maxWeakCount>4</maxWeakCount>
      <stageThreshold>-1.2092208862304688e+00</stageThreshold>
      <weakClassifiers>
        <_>
          <internalNodes>
            0 -1 41 -20737 -4097 -49222 -49153 -1 -1 -17478 -1</internalNodes>
          <leafValues>
            -4.8803827166557312e-01 7.9722392559051514e-01</leafValues></_>
        <_>
          <internalNodes>
            0 -1 74 -201852971 -783744686 -763260672 1144216633
            -683375983 -1878513629 -548751223 -1059079681</internalNodes>
          <leafValues>
            -7.5811040401458740e-01 5.7446455955505371e-01</leafValues></_>
        <_>
          <internalNodes>
            0 -1 60 -165490684 -615448403 303100380 -203485089
            -393762156 -536755967 -610546968 -74457941</internalNodes>
          <leafValues>
            -6.0270458459854126e-01 6.2262493371963501e-01</leafValues></_>
        <_>
          <internalNodes>
            0 -1 55 -69259499 -549365689 121751955 -586969087 -771681525
            -628457333 -90471425 -80101576</internalNodes>
          <leafValues>
            -6.9294261932373047e-01 5.5163741111755371e-01</leafValues></_></weakClassifiers></_>
    <!-- stage 9 -->
    <_>
      <maxWeakCount>4</maxWeakCount>
      <stageThreshold>-2.9196304082870483e-01</stageThreshold>
      <weakClassifiers>
        <_>
          <internalNodes>
            0 -1 22 -4129 -2 -134249793 -16450 1409242487 2147442685
            -134252545 -45073</internalNodes>
          <leafValues>
            -5.8749997615814209e-01 7.6326072216033936e-01</leafValues></_>
        <_>
          <internalNodes>
            0 -1 59 -705381116 -678845793 -803045035 -574940996
            -1400209221 -627011422 -92085313 -3424100</internalNodes>
          <leafValues>
            -6.9262057542800903e-01 6.0902875661849976e-01</leafValues></_>
        <_>
          <internalNodes>
            0 -1 23 -19219457 -544325170 36929 -1081110450 -490568817
            -903266287 -624242289 1886843623</internalNodes>
          <leafValues>
            -7.9480463266372681e-01 5.0781536102294922e-01</leafValues></_>
        <_>
          <internalNodes>
            0 -1 51 -1081956440 -246284017 1224939922 -1857748920
            -1308524309 -671023104 -226393893 -70544753</internalNodes>
          <leafValues>
            -7.9759323596954346e-01 4.8131284117698669e-01</leafValues></_></weakClassifiers></_>
    <!-- stage 10 -->
    <_>
      <maxWeakCount>2</maxWeakCount>
      <stageThreshold>-8.9508816599845886e-02</stageThreshold>
      <weakClassifiers>
        <_>
          <internalNodes>
            0 -1 69 -1 -65539 -1 -1 -1 -131073 -67241590 -1338705934</internalNodes>
          <leafValues>
            -6.6159695386886597e-01 7.5578266382217407e-01</leafValues></_>
        <_>
          <internalNodes>
            0 -1 64 1030173053 -116948983 889262495 -571370977 965352179
            -96239480 1032526265 -1086387204</internalNodes>
          <leafValues>
            -8.3113342523574829e-01 5.7208812236785889e-01</leafValues></_></weakClassifiers></_>
    <!-- stage 11 -->
    <_>
      <maxWeakCount>4</maxWeakCount>
      <stageThreshold>-4.3172019720077515e-01</stageThreshold>
      <weakClassifiers>
        <_>
          <internalNodes>
            0 -1 1 -522190881 -103300897 357269535 -540155705 -259024757
            -1718910909 -775708001 1668772199</internalNodes>
          <leafValues>
            -7.6791810989379883e-01 6.8110233545303345e-01</leafValues></_>
        <_>
          <internalNodes>
            0 -1 80 -3154049 890759643 180296 664258955 -484551797
            109109249 -443823221 771736287</internalNodes>
          <leafValues>
            -7.4058419466018677e-01 5.4401081800460815e-01</leafValues></_>
        <_>
          <internalNodes>
            0 -1 10 -487665665 -549722349 -687479985 -1156724649
            314041291 -75267959 -341081206 -148373885</internalNodes>
          <leafValues>
            -6.3032770156860352e-01 5.8911371231079102e-01</leafValues></_>
        <_>
          <internalNodes>
            0 -1 62 -740617948 -645594999 -788414212 -242758564
            -1065320347 -1459552120 -1986410180 -72644177</internalNodes>
          <leafValues>
            -7.7850866317749023e-01 4.8766833543777466e-01</leafValues></_></weakClassifiers></_>
    <!-- stage 12 -->
    <_>
      <maxWeakCount>4</maxWeakCount>
      <stageThreshold>-5.7089245319366455e-01</stageThreshold>
      <weakClassifiers>
        <_>
          <internalNodes>
            0 -1 25 -1042315281 -715536118 -1857474369 -644771377
            558467519 -544112499 -372250117 1331004388</internalNodes>
          <leafValues>
            -7.5289577245712280e-01 6.0637301206588745e-01</leafValues></_>
        <_>
          <internalNodes>
            0 -1 81 -67110941 399743104 -2147368956 239452171 -636854141
            9142304 -2011774326 1066137770</internalNodes>
          <leafValues>
            -8.1361961364746094e-01 4.3464550375938416e-01</leafValues></_>
        <_>
          <internalNodes>
            0 -1 50 -1072323166 -129945599 -803147279 -251539439
            -1868781173 -536870912 -393684017 -73147249</internalNodes>
          <leafValues>
            -6.5558099746704102e-01 5.4608196020126343e-01</leafValues></_>
        <_>
          <internalNodes>
            0 -1 46 -35693456 815354109 277291159 -41056565 -926351105
            481231003 -427307813 -1058013985</internalNodes>
          <leafValues>
            -7.8537648916244507e-01 4.0293881297111511e-01</leafValues></_></weakClassifiers></_>
    <!-- stage 13 -->
    <_>
      <maxWeakCount>4</maxWeakCount>
      <stageThreshold>-3.9766159653663635e-01</stageThreshold>
      <weakClassifiers>
        <_>
          <internalNodes>
            0 -1 17 -443556899 -242887852 -1052702077 -641511091
            1879286119 -2130476412 -1878789562 -70259765</internalNodes>
          <leafValues>
            -7.2188633680343628e-01 6.2667948007583618e-01</leafValues></_>
        <_>
          <internalNodes>
            0 -1 67 -677404399 -179470325 -2147450545 -72776981
            -863278964 1151992330 -2071256404 836758520</internalNodes>
          <leafValues>
            -7.4677729606628418e-01 4.5774266123771667e-01</leafValues></_>
        <_>
          <internalNodes>
            0 -1 66 -69217417 -189038319 -518958657 -262209257
            -1047910395 -125648766 -561009960 -123735123</internalNodes>
          <leafValues>
            -5.7769155502319336e-01 5.7852065563201904e-01</leafValues></_>
        <_>
          <internalNodes>
            0 -1 38 -1973497425 864207107 -1023344639 -1148554750
            554410122 662863872 -1325145215 -70266609</internalNodes>
          <leafValues>
            -6.8463164567947388e-01 4.9248138070106506e-01</leafValues></_></weakClassifiers></_>
    <!-- stage 14 -->
    <_>
      <maxWeakCount>4</maxWeakCount>
      <stageThreshold>-4.6836042404174805e-01</stageThreshold>
      <weakClassifiers>
        <_>
          <internalNodes>
            0 -1 4 -570311202 -247122677 -2143202862 -787279604
            -2004338433 -1911684915 -258546466 2146318846</internalNodes>
          <leafValues>
            -8.1147539615631104e-01 5.9798073768615723e-01</leafValues></_>
        <_>
          <internalNodes>
            0 -1 29 -213470758 -741152560 1527514458 -142344160
            -761107790 -1042067327 1890267575 -134752097</internalNodes>
          <leafValues>
            -7.2122597694396973e-01 4.4886186718940735e-01</leafValues></_>
        <_>
          <internalNodes>
            0 -1 54 358125917 -795835879 268571195 -1220407158
            -2013208373 -1073741824 -251553589 -5602566</internalNodes>
          <leafValues>
            -6.1126494407653809e-01 5.1654320955276489e-01</leafValues></_>
        <_>
          <internalNodes>
            0 -1 83 2076400607 487129153 -1879013183 -1727970927
            -754837333 780697601 -74725238 -607419749</internalNodes>
          <leafValues>
            -6.0481846332550049e-01 5.0551807880401611e-01</leafValues></_></weakClassifiers></_>
    <!-- stage 15 -->
    <_>
      <maxWeakCount>4</maxWeakCount>
      <stageThreshold>-3.3971178531646729e-01</stageThreshold>
      <weakClassifiers>
        <_>
          <internalNodes>
            0 -1 3 -94381665 -248807294 -2147483640 -251543549
            -401884758 -1031730552 1082364715 1599042359</internalNodes>
          <leafValues>
            -6.7146283388137817e-01 6.1097735166549683e-01</leafValues></_>
        <_>
          <internalNodes>
            0 -1 79 -235932249 1371001795 134430851 325031555 -636550517
            -1937014752 -930350902 -389022753</internalNodes>
          <leafValues>
            -5.2414643764495850e-01 5.7726430892944336e-01</leafValues></_>
        <_>
          <internalNodes>
            0 -1 6 -242746961 -108903936 34904 -686780012 -1054102773
            -1677621248 -1040168413 -47715617</internalNodes>
          <leafValues>
            -5.6798100471496582e-01 5.0381642580032349e-01</leafValues></_>
        <_>
          <internalNodes>
            0 -1 49 -355819448 -94764842 -1073458224 -627814182
            -1555430750 -1945436160 -1769463312 -18181478</internalNodes>
          <leafValues>
            -7.4932968616485596e-01 4.2654955387115479e-01</leafValues></_></weakClassifiers></_>
    <!-- stage 16 -->
    <_>
      <maxWeakCount>4</maxWeakCount>
      <stageThreshold>-4.7437590360641479e-01</stageThreshold>
      <weakClassifiers>
        <_>
          <internalNodes>
            0 -1 31 -786460237 -141061685 -787230213 -1794418593
            -1472163669 -69041503 -350704705 926948612</internalNodes>
          <leafValues>
            -7.1428573131561279e-01 5.7123100757598877e-01</leafValues></_>
        <_>
          <internalNodes>
            0 -1 19 -799813394 -619577039 -2013179715 -74362816
            -1189040110 977830064 -2013218561 -896866136</internalNodes>
          <leafValues>
            -7.6467502117156982e-01 4.1214308142662048e-01</leafValues></_>
        <_>
          <internalNodes>
            0 -1 35 -131201 2130624447 -33554433 933297966 -134217729
            1610088447 2012741631 -147392586</internalNodes>
          <leafValues>
            -4.9588015675544739e-01 5.7112461328506470e-01</leafValues></_>
        <_>
          <internalNodes>
            0 -1 82 -682108453 1072669314 -1073708981 1059111048
            -498411334 566280226 1241653387 1955111387</internalNodes>
          <leafValues>
            -7.4335789680480957e-01 3.7586459517478943e-01</leafValues></_></weakClassifiers></_>
    <!-- stage 17 -->
    <_>
      <maxWeakCount>4</maxWeakCount>
      <stageThreshold>-3.2560282945632935e-01</stageThreshold>
      <weakClassifiers>
        <_>
          <internalNodes>
            0 -1 0 -4722689 -1073741825 -1 -33755241 -1 -130 -131073
            -1242056783</internalNodes>
          <leafValues>
            -5.8316218852996826e-01 6.5926688909530640e-01</leafValues></_>
        <_>
          <internalNodes>
            0 -1 26 -1023294489 -586825389 1363173456 1887469588 65965
            -1978040192 537372891 733687806</internalNodes>
          <leafValues>
            -8.1492489576339722e-01 4.3396535515785217e-01</leafValues></_>
        <_>
          <internalNodes>
            0 -1 68 -134219981 -168198275 -1 -9 -1 2013233151 -4
            -570435588</internalNodes>
          <leafValues>
            -4.8654407262802124e-01 6.2334436178207397e-01</leafValues></_>
        <_>
          <internalNodes>
            0 -1 36 -1845382689 -720297823 1073844564 625016850
            -2146825575 2063630720 495628536 16499400</internalNodes>
          <leafValues>
            -6.9441235065460205e-01 4.4913992285728455e-01</leafValues></_></weakClassifiers></_>
    <!-- stage 18 -->
    <_>
      <maxWeakCount>4</maxWeakCount>
      <stageThreshold>-3.5190850496292114e-01</stageThreshold>
      <weakClassifiers>
        <_>
          <internalNodes>
            0 -1 53 -24577 402112511 1073725182 -32769 -134220545
            2147483647 1979658456 2013265919</internalNodes>
          <leafValues>
            -6.0000002384185791e-01 6.3645517826080322e-01</leafValues></_>
        <_>
          <internalNodes>
            0 -1 57 -250482395 -778354687 106705 454017323 -2012708447
            -96337920 -2113197320 -15087340</internalNodes>
          <leafValues>
            -6.1349785327911377e-01 5.6043034791946411e-01</leafValues></_>
        <_>
          <internalNodes>
            0 -1 78 1944052427 625461391 -780083191 1083042187
            -1996322421 -1073610614 1073987779 1888211659</internalNodes>
          <leafValues>
            -6.7966300249099731e-01 4.7188735008239746e-01</leafValues></_>
        <_>
          <internalNodes>
            0 -1 42 1360016278 -268337136 1363222528 -721317740
            -2139062056 -2013249536 -268387446 -276594649</internalNodes>
          <leafValues>
            -7.8422617912292480e-01 4.1053545475006104e-01</leafValues></_></weakClassifiers></_>
    <!-- stage 19 -->
    <_>
      <maxWeakCount>4</maxWeakCount>
      <stageThreshold>-5.2251327037811279e-01</stageThreshold>
      <weakClassifiers>
        <_>
          <internalNodes>
            0 -1 30 33708503 327913609 294976 970752001 269025449
            948453546 -2113365877 2073024655</internalNodes>
          <leafValues>
            -8.3666664361953735e-01 5.2401560544967651e-01</leafValues></_>
        <_>
          <internalNodes>
            0 -1 24 -1844870957 294765011 1090634545 -784887781 42172906
            -1288568405 -1459027777 -2088222263</internalNodes>
          <leafValues>
            -6.2352490425109863e-01 4.7274962067604065e-01</leafValues></_>
        <_>
          <internalNodes>
            0 -1 56 -180426 -16809985 -32897 2071723903 -3 -16777219
            -81924 -1078247620</internalNodes>
          <leafValues>
            -5.2720791101455688e-01 5.5967170000076294e-01</leafValues></_>
        <_>
          <internalNodes>
            0 -1 52 -267921372 360760017 1073741973 1505755211
            -2004314034 612368512 -2147450661 -7667584</internalNodes>
          <leafValues>
            -7.7226704359054565e-01 3.7800660729408264e-01</leafValues></_></weakClassifiers></_>
    <!-- stage 20 -->
    <_>
      <maxWeakCount>4</maxWeakCount>
      <stageThreshold>-1.2511314451694489e-01</stageThreshold>
      <weakClassifiers>
        <_>
          <internalNodes>
            0 -1 45 1346558161 1019314648 268866257 420549760
            -1878687493 335609872 -934098530 144343210</internalNodes>
          <leafValues>
            -6.4376592636108398e-01 5.7176470756530762e-01</leafValues></_>
        <_>
          <internalNodes>
            0 -1 65 -201 -176720001 -1 -100679681 -4 -34211843
            2147483644 -201328707</internalNodes>
          <leafValues>
            -4.0325650572776794e-01 7.3849946260452271e-01</leafValues></_>
        <_>
          <internalNodes>
            0 -1 5 -1005584101 1359282177 1476464649 1092419593
            1770029231 134873090 -528250229 2006417539</internalNodes>
          <leafValues>
            -8.0108720064163208e-01 3.8153925538063049e-01</leafValues></_>
        <_>
          <internalNodes>
            0 -1 37 -783445835 -788528104 1074872369 -260009728
            -2013214528 -670531584 -2146393645 954188329</internalNodes>
          <leafValues>
            -5.2285724878311157e-01 5.4036998748779297e-01</leafValues></_></weakClassifiers></_>
    <!-- stage 21 -->
    <_>
      <maxWeakCount>4</maxWeakCount>
      <stageThreshold>-4.1183653473854065e-01</stageThreshold>
      <weakClassifiers>
        <_>
          <internalNodes>
            0 -1 75 -754743953 -784121599 -1827663872 -1610543103
            -653160063 -800522221 142837977 -1595939961</internalNodes>
          <leafValues>
            -7.1030640602111816e-01 5.5585956573486328e-01</leafValues></_>
        <_>
          <internalNodes>
            0 -1 50 -498957618 -262598399 -1052590063 -250544125
            -1581217646 -603947008 -2122284925 -132444031</internalNodes>
          <leafValues>
            -6.5935087203979492e-01 4.5944100618362427e-01</leafValues></_>
        <_>
          <internalNodes>
            0 -1 28 -891757582 1343225877 16777233 335609859 -778856318
            -746487808 -939456480 -719142912</internalNodes>
          <leafValues>
            -7.5724261999130249e-01 4.2868226766586304e-01</leafValues></_>
        <_>
          <internalNodes>
            0 -1 14 -660487953 -788480000 4243456 -1056899072 1098965839
            1091043338 -1073692150 -812940598</internalNodes>
          <leafValues>
            -5.6365340948104858e-01 5.2913844585418701e-01</leafValues></_></weakClassifiers></_>
    <!-- stage 22 -->
    <_>
      <maxWeakCount>5</maxWeakCount>
      <stageThreshold>-1.0128047466278076e+00</stageThreshold>
      <weakClassifiers>
        <_>
          <internalNodes>
            0 -1 39 -1870430133 827053120 128 -1324855039 1074299008 2
            -1056866294 -14688255</internalNodes>
          <leafValues>
            -4.6640315651893616e-01 6.2190628051757812e-01</leafValues></_>
        <_>
          <internalNodes>
            0 -1 22 -781135108 -1862203374 1073742481 -1325268992
            8392714 1619001480 688522222 -243169109</internalNodes>
          <leafValues>
            -6.8474739789962769e-01 4.1033065319061279e-01</leafValues></_>
        <_>
          <internalNodes>
            0 -1 63 -163900044 -1073692670 -1073590056 -796835688
            -1073209120 -2147483648 -2113783792 -510664306</internalNodes>
          <leafValues>
            -8.2563811540603638e-01 3.4991499781608582e-01</leafValues></_>
        <_>
          <internalNodes>
            0 -1 33 -502633393 -217989119 -2126475264 -1761587199
            -805076598 1745027080 1224835272 -795729750</internalNodes>
          <leafValues>
            -5.8913320302963257e-01 4.6384215354919434e-01</leafValues></_>
        <_>
          <internalNodes>
            0 -1 11 -795741741 -1060562944 16798035 -1727971327
            939528344 680005634 1342238968 915099865</internalNodes>
          <leafValues>
            -7.1751403808593750e-01 3.8307577371597290e-01</leafValues></_></weakClassifiers></_>
    <!-- stage 23 -->
    <_>
      <maxWeakCount>6</maxWeakCount>
      <stageThreshold>-5.5253499746322632e-01</stageThreshold>
      <weakClassifiers>
        <_>
          <internalNodes>
            0 -1 72 -81 -134217729 -1140851777 -167772169 -18
            -1073741833 -16778498 1107294205</internalNodes>
          <leafValues>
            -3.8139143586158752e-01 6.7753201723098755e-01</leafValues></_>
        <_>
          <internalNodes>
            0 -1 74 -133963645 855834625 16777232 -1811873528 134217888
            -2097152000 64 -200547957</internalNodes>
          <leafValues>
            -6.6615802049636841e-01 4.3800801038742065e-01</leafValues></_>
        <_>
          <internalNodes>
            0 -1 48 -1823829026 -1862090750 8388624 538186010
            -2145383774 25313280 134754312 -1152560565</internalNodes>
          <leafValues>
            -6.9329202175140381e-01 3.9601275324821472e-01</leafValues></_>
        <_>
          <internalNodes>
            0 -1 18 -733753149 -805240832 16386 285212672 -2144615894 0
            1090670594 -905445239</internalNodes>
          <leafValues>
            -6.5353375673294067e-01 4.1113317012786865e-01</leafValues></_>
        <_>
          <internalNodes>
            0 -1 43 -1275002806 -1873805312 1 -2063597495 -1879015288
            -2147450880 163968 -74809341</internalNodes>
          <leafValues>
            -5.6337243318557739e-01 4.4559475779533386e-01</leafValues></_>
        <_>
          <internalNodes>
            0 -1 24 -1056800685 -686751550 16641 286363651 -2146893670
            -880279552 -2147415752 14794760</internalNodes>
          <leafValues>
            -7.3634564876556396e-01 3.3732205629348755e-01</leafValues></_></weakClassifiers></_>
    <!-- stage 24 -->
    <_>
      <maxWeakCount>6</maxWeakCount>
      <stageThreshold>-4.3936899304389954e-01</stageThreshold>
      <weakClassifiers>
        <_>
          <internalNodes>
            0 -1 27 -2106407798 285212672 256 1073741835 -1962862456
            -2012741632 -2147483510 -1870167806</internalNodes>
          <leafValues>
            -5.8236658573150635e-01 5.9101998805999756e-01</leafValues></_>
        <_>
          <internalNodes>
            0 -1 70 -251543293 285245568 65552 -2147287038 167936136
            -2147483648 16908288 806019331</internalNodes>
          <leafValues>
            -7.3402857780456543e-01 4.2359551787376404e-01</leafValues></_>
        <_>
          <internalNodes>
            0 -1 34 -554762241 -1997602818 -50331650 -175440897 -2057
            -2021654537 1073608573 -470450697</internalNodes>
          <leafValues>
            -5.2312278747558594e-01 6.6508442163467407e-01</leafValues></_>
        <_>
          <internalNodes>
            0 -1 9 -1073692530 0 4 16777216 591886 8388608 8388610
            -1040082929</internalNodes>
          <leafValues>
            -8.2480573654174805e-01 3.7713176012039185e-01</leafValues></_>
        <_>
          <internalNodes>
            0 -1 68 -1062483968 286474244 16385 1895956608 -2013003766
            1744830464 4227213 -1878228862</internalNodes>
          <leafValues>
            -6.4534443616867065e-01 4.9866965413093567e-01</leafValues></_>
        <_>
          <internalNodes>
            0 -1 58 -2147467215 1073741824 269811778 1360068608 128
            -2113929152 -1610579827 -211697627</internalNodes>
          <leafValues>
            -5.8328914642333984e-01 5.3928840160369873e-01</leafValues></_></weakClassifiers></_></stages>
  <features>
    <_>
      <rect>
        0 0 1 1</rect></_>
    <_>
      <rect>
        0 0 1 2</rect></_>
    <_>
      <rect>
        0 0 1 3</rect></_>
    <_>
      <rect>
        0 0 1 7</rect></_>
    <_>
      <rect>
        0 0 3 5</rect></_>
    <_>
      <rect>
        0 1 2 2</rect></_>
    <_>
      <rect>
        0 2 1 3</rect></_>
    <_>
      <rect>
        0 2 3 3</rect></_>
    <_>
      <rect>
        0 3 1 4</rect></_>
    <_>
      <rect>
        0 3 1 6</rect></_>
    <_>
      <rect>
        0 6 2 3</rect></_>
    <_>
      <rect>
        0 6 3 2</rect></_>
    <_>
      <rect>
        0 7 1 2</rect></_>
    <_>
      <rect>
        0 8 1 2</rect></_>
    <_>
      <rect>
        0 8 1 4</rect></_>
    <_>
      <rect>
        0 8 3 2</rect></_>
    <_>
      <rect>
        0 12 1 2</rect></_>
    <_>
      <rect>
        0 13 1 2</rect></_>
    <_>
      <rect>
        0 14 1 2</rect></_>
    <_>
      <rect>
        0 14 3 1</rect></_>
    <_>
      <rect>
        0 15 2 2</rect></_>
    <_>
      <rect>
        0 15 3 2</rect></_>
    <_>
      <rect>
        0 18 1 1</rect></_>
    <_>
      <rect>
        1 0 1 3</rect></_>
    <_>
      <rect>
        1 0 2 1</rect></_>
    <_>
      <rect>
        1 0 2 2</rect></_>
    <_>
      <rect>
        1 1 2 5</rect></_>
    <_>
      <rect>
        1 6 2 3</rect></_>
    <_>
      <rect>
        1 8 2 2</rect></_>
    <_>
      <rect>
        1 9 2 2</rect></_>
    <_>
      <rect>
        1 18 1 1</rect></_>
    <_>
      <rect>
        2 0 2 1</rect></_>
    <_>
      <rect>
        2 0 2 2</rect></_>
    <_>
      <rect>
        2 3 1 5</rect></_>
    <_>
      <rect>
        2 4 1 1</rect></_>
    <_>
      <rect>
        2 5 1 1</rect></_>
    <_>
      <rect>
        2 6 2 1</rect></_>
    <_>
      <rect>
        2 11 2 2</rect></_>
    <_>
      <rect>
        2 14 1 2</rect></_>
    <_>
      <rect>
        2 15 1 2</rect></_>
    <_>
      <rect>
        2 15 2 1</rect></_>
    <_>
      <rect>
        2 15 2 2</rect></_>
    <_>
      <rect>
        2 17 2 1</rect></_>
    <_>
      <rect>
        2 18 1 1</rect></_>
    <_>
      <rect>
        2 18 2 1</rect></_>
    <_>
      <rect>
        3 7 2 1</rect></_>
    <_>
      <rect>
        3 7 2 3</rect></_>
    <_>
      <rect>
        3 9 1 1</rect></_>
    <_>
      <rect>
        3 9 1 2</rect></_>
    <_>
      <rect>
        3 10 1 1</rect></_>
    <_>
      <rect>
        3 14 1 1</rect></_>
    <_>
      <rect>
        3 14 1 2</rect></_>
    <_>
      <rect>
        3 14 2 1</rect></_>
    <_>
      <rect>
        3 15 2 2</rect></_>
    <_>
      <rect>
        3 17 1 1</rect></_>
    <_>
      <rect>
        4 1 1 2</rect></_>
    <_>
      <rect>
        4 2 1 1</rect></_>
    <_>
      <rect>
        4 3 1 1</rect></_>
    <_>
      <rect>
        4 4 1 1</rect></_>
    <_>
      <rect>
        4 8 1 2</rect></_>
    <_>
      <rect>
        4 10 1 1</rect></_>
    <_>
      <rect>
        4 14 1 1</rect></_>
    <_>
      <rect>
        4 15 1 1</rect></_>
    <_>
      <rect>
        4 16 1 1</rect></_>
    <_>
      <rect>
        4 18 1 1</rect></_>
    <_>
      <rect>
        5 2 1 5</rect></_>
    <_>
      <rect>
        5 3 1 1</rect></_>
    <_>
      <rect>
        5 3 1 5</rect></_>
    <_>
      <rect>
        5 4 1 4</rect></_>
    <_>
      <rect>
        6 0 1 1</rect></_>
    <_>
      <rect>
        6 0 1 2</rect></_>
    <_>
      <rect>
        6 0 1 3</rect></_>
    <_>
      <rect>
        6 0 1 6</rect></_>
    <_>
      <rect>
        6 0 1 7</rect></_>
    <_>
      <rect>
        6 2 1 2</rect></_>
    <_>
      <rect>
        6 2 1 3</rect></_>
    <_>
      <rect>
        6 4 1 4</rect></_>
    <_>
      <rect>
        6 4 1 5</rect></_>
    <_>
      <rect>
        6 5 1 3</rect></_>
    <_>
      <rect>
        6 5 1 4</rect></_>
    <_>
      <rect>
        6 6 1 5</rect></_>
    <_>
      <rect>
        6 12 1 3</rect></_>
    <_>
      <rect>
        6 15 1 2</rect></_>
    <_>
      <rect>
        6 18 1 1</rect></_></features></cascade>
</opencv_storage>
